4991 20
learning -0.545923 -0.348527 -0.168466 -0.024929 0.171204 -0.002073 0.033283 -0.136640 -0.086609 -0.247911 -0.319551 0.315450 0.524043 0.061557 -0.066915 0.145110 -0.201820 0.090157 0.200093 -0.126334 
model -0.217866 -0.136497 0.203502 -0.321651 0.366357 -0.348453 -0.106239 0.059308 -0.047431 -0.193336 0.036693 0.111927 -0.028246 0.431669 -0.021781 -0.074459 0.158013 0.181431 0.010660 -0.028664 
data -0.032975 -0.166007 0.387067 -0.286387 0.336182 0.011632 0.217260 0.000594 0.158981 0.073387 -0.219473 -0.185300 -0.172392 0.103662 -0.134073 0.095923 -0.339612 -0.045166 -0.326651 0.348460 
network -0.121111 0.099646 0.322608 0.001199 0.195669 -0.195900 -0.166516 -0.186374 -0.244606 -0.125184 0.028753 0.371009 0.142329 -0.210300 -0.217950 -0.087790 0.367746 0.155940 -0.542333 -0.013330 
algorithm -0.445650 -0.347525 -0.087932 -0.218752 0.154147 0.012495 0.200745 -0.052480 -0.018945 -0.073696 -0.579560 0.198818 0.420882 0.345282 -0.326947 -0.121501 -0.340957 0.043532 -0.124161 -0.298327 
neural -0.729728 0.304870 0.226302 0.222862 0.219233 -0.252787 -0.602850 -0.113037 -0.435455 -0.014702 -0.031810 0.093444 0.104745 -0.422432 -0.470845 -0.031063 0.668229 0.403142 -0.344659 -0.296536 
using -0.313134 -0.165825 0.098304 0.040227 0.178970 -0.120007 0.101932 -0.103822 0.114248 -0.136014 -0.103305 0.213449 0.204283 0.108600 -0.060896 -0.170185 -0.092452 0.252510 0.118538 -0.081642 
based -0.104692 -0.352471 -0.267091 0.241809 0.039320 0.048404 0.254903 0.119135 0.128840 -0.113123 -0.158014 0.317781 0.245420 0.266789 -0.184056 0.018199 -0.117068 0.178941 0.026718 0.166058 
networks -0.556534 0.301639 0.326477 -0.030034 0.043038 -0.038967 -0.099934 -0.027361 -0.279448 -0.322718 -0.137586 0.486042 0.214378 -0.065725 -0.510366 -0.341562 0.326227 0.129590 -0.575101 -0.099345 
our -0.455419 -0.395129 -0.266417 -0.118142 -0.303944 -0.073083 -0.026931 0.020935 0.123823 0.025644 -0.332343 0.074086 -0.033388 0.028773 -0.206803 -0.049539 -0.373555 0.234849 0.242905 0.342106 
these -0.145927 -0.168155 0.118406 -0.144545 0.076834 0.092021 -0.242960 -0.004705 0.356812 0.144569 -0.196264 0.241195 -0.008293 0.104380 -0.081785 -0.011193 -0.029116 0.042413 0.194694 0.029266 
problem -0.389797 -0.012228 -0.062523 0.084730 0.260940 -0.136944 0.096468 -0.093964 0.319983 -0.110922 -0.443366 -0.119404 0.417269 0.220584 -0.088386 -0.040521 -0.147728 0.259868 0.124658 -0.030296 
time -0.026170 -0.173013 0.318273 -0.184081 0.312190 0.089006 -0.180641 -0.293681 0.357431 0.062550 0.007544 0.135074 0.222783 -0.298192 0.097860 -0.219254 0.232028 -0.130263 -0.118839 0.114864 
models -0.446401 -0.226503 0.289669 -0.264551 0.425060 -0.189698 -0.030857 -0.027562 0.138238 -0.463587 -0.052307 0.248324 0.123416 0.314486 -0.156270 0.114337 0.291579 0.213895 -0.013727 0.053609 
function -0.220132 -0.101033 -0.126760 0.126597 0.468576 -0.321645 0.459707 -0.112630 -0.030495 0.142047 -0.081869 0.084725 0.240910 -0.029517 -0.060491 -0.708373 -0.401530 -0.665744 0.036331 -0.080465 
two -0.066745 -0.123524 -0.104438 -0.062569 0.212446 0.089860 -0.199580 0.066692 0.033687 -0.146579 0.005134 0.269484 0.042412 -0.029684 -0.178821 0.118966 -0.068926 0.217700 -0.207005 0.056441 
have -0.606632 -0.145289 -0.115956 0.536839 0.160364 0.135538 -0.094708 0.051496 0.400848 0.204853 0.079276 -0.035011 -0.349111 0.244876 -0.004148 -0.035071 0.597495 0.436869 -0.039690 -0.362961 
method -0.558804 -0.212112 -0.225389 0.122455 0.141398 -0.078326 0.299854 0.133873 -0.048650 -0.162464 -0.577963 0.024052 0.109224 0.395894 -0.184018 0.015652 -0.440924 0.180948 0.071552 -0.180350 
results -0.498318 -0.246962 0.390314 -0.244725 -0.207966 0.243128 -0.161408 0.208433 0.207745 -0.035044 -0.586061 0.166080 0.178701 0.036258 0.049293 0.446942 -0.240497 0.284911 0.252358 0.118104 
show -0.479214 -0.000889 0.066575 -0.118840 -0.053662 0.339529 0.091450 0.242143 0.015298 0.055252 -0.277846 0.035468 0.121466 0.016660 0.052775 0.217931 -0.363775 0.123427 0.112456 0.241127 
paper -0.473008 -0.303189 -0.157999 0.045098 -0.162189 -0.287632 -0.246720 0.128628 -0.198730 -0.068989 -0.608153 0.133530 0.452773 -0.066400 -0.278792 -0.110454 -0.323656 0.511822 -0.050380 -0.210082 
used -0.285387 -0.073966 0.022638 0.175692 0.214232 0.040493 0.219644 0.098725 0.123357 0.001290 -0.118791 0.129246 -0.220784 0.059131 -0.144762 -0.119639 0.038914 0.035124 -0.066501 0.005101 
information 0.191787 0.084716 -0.032931 0.483834 0.089865 0.313802 0.197807 0.171566 -0.143113 0.019469 0.203873 0.035190 -0.301179 0.080050 0.010061 0.214352 -0.097409 0.446059 0.187884 0.385894 
such -0.400119 -0.057147 0.089309 -0.134933 0.243634 -0.101194 -0.219055 -0.007330 0.082339 -0.005677 -0.071711 -0.057082 0.200214 0.098522 -0.233620 0.058527 -0.065629 0.194195 0.031201 0.025892 
system -0.168284 -0.036542 0.193585 0.331630 0.140611 0.169960 -0.541320 -0.112078 0.122673 -0.458924 -0.117015 0.070683 0.085861 -0.308009 0.178694 0.097755 0.338589 0.388745 -0.122017 0.026882 
training -0.366779 -0.195632 0.445653 -0.117558 0.190807 -0.138839 0.665954 -0.212902 -0.215768 0.283567 -0.200219 -0.005207 -0.310667 -0.060323 -0.197673 0.293811 -0.344206 -0.181566 -0.450132 0.153898 
has -0.519448 0.086733 -0.356996 0.783396 0.158593 0.300560 -0.085660 0.145620 0.178662 0.352398 -0.019106 -0.080619 -0.260388 0.116859 0.127627 -0.509009 0.481276 0.406964 -0.071203 -0.382211 
input 0.217282 0.349249 0.465945 0.065854 0.544592 -0.138041 -0.140377 -0.034162 0.206477 0.042706 0.519468 0.061390 -0.378236 -0.401665 -0.323307 0.016076 0.289068 0.130434 -0.038091 0.286003 
each 0.269278 -0.068941 0.362113 0.038683 0.472207 -0.215044 0.016879 -0.187114 0.290334 0.109193 0.289134 0.145701 -0.023797 0.081142 0.226226 -0.084745 -0.055469 -0.086220 -0.132597 -0.031028 
set -0.060945 0.009236 0.461989 -0.042900 0.304020 -0.053731 0.433703 -0.201192 0.153358 0.183705 0.020531 -0.203248 -0.173456 -0.006092 0.034842 0.136983 -0.424591 -0.166814 -0.296471 0.307888 
between 0.173639 -0.007297 0.161028 0.122996 0.122201 -0.144541 -0.050970 -0.025784 -0.041579 0.131596 0.199563 0.168096 0.001050 0.033254 -0.131953 0.132966 -0.251263 0.014398 0.222530 0.286044 
new -0.241661 -0.419783 -0.216625 -0.004667 -0.035682 -0.170277 0.109186 0.009200 -0.029980 -0.114697 -0.348853 0.156450 0.359137 0.109492 -0.250862 -0.039216 -0.390484 0.246597 -0.138175 0.024205 
approach -0.548591 -0.397215 -0.325836 -0.174571 0.236163 0.128848 -0.083648 0.127768 -0.028177 -0.263491 -0.448650 0.117450 0.225950 0.131104 -0.092767 0.117459 -0.192068 0.308931 -0.019949 0.088649 
state 0.371372 -0.340583 0.298024 -0.356341 0.506861 0.049108 -0.070152 -0.543790 0.534292 0.171988 0.054043 0.156264 0.300097 -0.162355 0.028357 -0.389815 0.453161 -0.428582 0.333773 0.327753 
algorithms -0.740670 -0.400183 -0.172630 -0.076224 0.075926 0.337223 0.135139 0.029384 0.198152 -0.046751 -0.365083 0.045718 0.300669 0.324491 -0.130877 -0.033832 -0.282738 -0.106842 0.094585 -0.239359 
performance -0.520830 -0.331205 0.023559 0.066672 0.037251 0.135526 -0.092591 -0.214335 0.079690 0.101175 -0.649940 0.135558 -0.211390 -0.054075 -0.001624 0.331509 -0.380109 -0.062347 -0.116443 -0.002628 
linear -0.444569 0.320195 -0.187134 -0.089879 0.374268 -0.168081 0.365135 0.104744 0.037549 0.083057 -0.007880 0.124354 0.142428 -0.029747 -0.572058 -0.407039 -0.313376 -0.015605 0.229014 -0.046340 
number -0.130600 0.214661 0.471793 -0.122908 0.333662 -0.087855 0.456370 -0.129524 0.359059 0.319102 -0.048895 -0.027347 -0.144011 -0.294266 -0.236846 -0.017762 -0.230418 -0.229472 -0.406137 0.166619 
present -0.375355 -0.176610 -0.171934 -0.222832 -0.225468 0.021468 -0.167742 -0.160396 0.177578 -0.099274 -0.347335 0.139999 0.425661 0.129505 -0.144088 0.053080 -0.436533 0.385831 -0.073550 0.156938 
than -0.296018 -0.218969 0.390836 0.033270 0.268174 1.364100 0.089180 0.311172 -0.194904 0.347189 -0.597915 0.074258 -0.469042 0.384172 0.144177 0.152973 0.285004 -0.481581 0.018640 -0.016073 
error -0.224369 0.657690 -0.091784 0.088042 -0.114535 0.282187 0.455650 -0.841280 -0.358156 0.230759 -0.707424 0.062229 -0.483068 -0.155417 0.201852 0.141481 -0.486207 -0.369646 0.190915 0.278486 
methods -0.701014 -0.252182 -0.080225 -0.061545 0.015896 0.273317 0.028325 0.074335 0.141447 -0.253754 -0.593908 0.167062 0.095537 0.402178 -0.079974 -0.055307 -0.082654 0.137694 -0.059269 -0.115770 
its -0.044008 -0.147786 0.189457 0.102735 0.214985 -0.046873 -0.073590 -0.007714 -0.021266 0.156529 -0.196905 0.208061 -0.046767 -0.167610 -0.042066 0.086040 -0.195921 -0.101150 0.187558 0.060129 
use -0.206769 -0.224087 -0.223837 -0.084000 0.172296 0.087752 0.061194 -0.104152 0.089185 -0.036625 -0.158729 0.042629 0.004110 0.245621 -0.160185 0.013054 -0.156288 0.107413 -0.144973 0.148816 
been -0.399451 -0.097435 -0.037539 0.956718 -0.520076 -0.076816 0.058976 0.337394 0.918717 -0.339881 0.104919 0.442408 -0.392981 -0.027280 0.182422 -0.982959 0.697430 0.874927 -0.084357 -0.540415 
both -0.176232 -0.253872 0.117897 -0.077524 0.112958 0.176977 -0.019586 -0.067682 0.254180 -0.188815 -0.187901 0.152473 -0.013912 0.176365 -0.100281 -0.068286 -0.179064 0.090644 0.002988 0.114248 
more -0.135005 0.080406 0.244548 -0.211419 -0.021490 0.566929 -0.284144 0.387762 0.154973 -0.113376 -0.668193 0.178815 -0.213729 0.087153 -0.020286 -0.018611 -0.064201 0.007915 -0.284780 0.106001 
space 0.158309 0.340145 -0.080567 -0.425379 0.507176 -0.276002 0.123468 -0.057245 0.923102 0.317116 0.118368 0.105925 0.079058 -0.084950 -0.276850 -0.176263 -0.156852 -0.212446 -0.192614 0.233494 
analysis -0.504099 0.049731 -0.192660 -0.261983 0.137620 -0.026759 0.105098 0.363425 -0.094855 0.176323 0.017036 0.586446 -0.131169 -0.089066 -0.792329 -0.308500 -0.373035 0.620601 0.380647 0.267757 
over 0.339549 0.196039 0.052549 -0.283506 0.152460 -0.174508 0.080024 -0.268936 0.225470 0.005905 -0.254576 0.129708 -0.111261 0.126708 0.048192 0.195717 0.080771 -0.047448 -0.094761 0.384169 
problems -0.493104 -0.337922 -0.023581 -0.075623 0.146028 0.020304 0.132699 -0.076547 0.528706 -0.212727 -0.517480 0.076075 0.393779 0.128228 -0.198305 -0.022309 -0.231517 0.327252 -0.036390 0.012422 
neurons -0.268955 0.297495 0.706682 -0.008418 0.108676 -0.000581 -0.351349 0.289218 -0.355288 0.370108 0.611448 0.340361 -0.313115 -0.512090 0.005711 0.090551 0.206990 0.037444 0.404694 0.034805 
but -0.117355 0.177849 0.440950 0.014513 0.318103 0.298854 -0.014004 -0.038925 0.096153 0.192594 -0.081553 0.072650 -0.279247 0.068709 0.209845 -0.137657 -0.122635 -0.119564 0.068872 0.006050 
classification -0.544310 -0.110370 -0.322335 -0.041872 0.130516 0.161510 0.283493 0.037048 0.311226 -0.093454 -0.608106 -0.028440 0.121771 -0.023584 -0.213946 0.243973 -0.323972 0.420600 -0.483589 0.277297 
functions -0.525987 0.200038 -0.075020 0.081278 0.386110 -0.457713 0.123131 -0.086598 0.172725 0.331136 -0.052222 -0.110934 0.243345 0.305576 -0.530626 -0.439346 -0.314114 -0.503723 -0.052748 -0.086029 
other -0.187168 -0.274411 0.087287 0.123564 0.245795 0.335458 -0.235371 -0.011964 0.218171 0.059102 -0.125785 0.124140 -0.152260 -0.012510 -0.082237 0.108197 0.130815 -0.181104 0.026971 -0.007065 
given 0.240500 0.294510 0.143065 0.114760 0.400854 -0.221996 0.364896 -0.076148 0.136748 0.210186 -0.006186 0.053262 0.011202 0.001794 0.250852 -0.065229 -0.077550 -0.354954 -0.058870 0.199808 
distribution 0.458686 0.531435 0.012656 -0.244867 0.321223 -0.480753 0.257692 0.043315 -0.083187 0.189495 -0.424097 -0.221326 -0.088277 0.374477 0.278725 -0.241698 -0.122601 -0.132967 -0.101437 0.232871 
different -0.150725 -0.345285 0.168316 -0.107786 0.182673 0.087334 -0.152155 0.350825 0.332286 -0.060005 0.127004 0.167167 -0.140108 -0.021885 -0.012917 0.232966 -0.088091 0.049621 0.045725 0.076212 
parameters -0.144665 0.052494 0.143900 -0.265366 0.212325 -0.295673 0.386808 -0.148128 -0.101344 0.005365 -0.107804 -0.056857 -0.164127 0.160760 0.047401 0.125309 0.034387 -0.353254 -0.022906 -0.001474 
recognition -0.472811 -0.406555 0.163829 0.190779 -0.034227 0.698694 -0.077435 -0.264429 0.557361 -0.735221 -0.367007 0.229788 -0.167042 -0.045128 -0.131064 0.269767 -0.106366 0.670643 -0.562103 0.469020 
into 0.036674 0.006924 0.023813 0.204313 0.288199 -0.012294 -0.253653 -0.013657 0.215555 0.051758 0.158260 -0.012084 0.206134 0.126607 -0.162553 0.045838 -0.026564 -0.056660 -0.238547 0.302356 
simple -0.338425 0.022768 0.138604 -0.041795 0.135682 -0.187051 0.001493 0.197989 -0.043192 -0.093028 0.050505 0.145705 0.168274 0.280935 -0.092068 -0.039511 -0.150824 0.184943 -0.033402 -0.065995 
large -0.461167 -0.102233 0.588259 -0.271146 0.161320 -0.043672 0.280843 -0.119365 -0.182734 0.053630 -0.172093 0.040470 0.319255 0.086757 -0.374794 -0.015644 -0.271650 0.197502 -0.546793 0.165395 
well -0.348518 -0.274625 -0.033131 -0.151183 0.139446 0.049812 -0.121386 0.122839 0.283756 0.231110 -0.203639 -0.047951 -0.225345 -0.024689 -0.116398 0.162287 -0.053168 0.176242 -0.052979 0.054123 
noise 0.206858 0.246763 0.332780 -0.213564 0.010663 -0.496086 -0.232688 -0.128486 0.005383 -0.147275 -0.146460 -0.011862 -0.517259 0.261930 0.027952 0.195671 0.029307 0.011094 0.147676 0.533117 
local 0.008572 0.176933 0.039340 0.000671 0.198367 -0.164056 0.114906 0.041841 -0.035460 0.378358 0.095948 0.027532 -0.087898 0.363449 -0.128193 -0.105871 -0.207884 0.063475 0.169839 0.052318 
order -0.189567 0.381595 -0.042098 -0.088108 0.122282 0.015885 0.007120 0.176106 0.109722 -0.314429 0.001188 0.108479 -0.187982 0.362568 0.039214 0.168009 -0.130601 0.099645 -0.051690 0.137471 
their 0.010379 0.075531 0.181049 0.074839 0.289354 0.022728 -0.246477 0.121580 0.105409 0.182949 0.172955 0.138313 -0.025234 0.045301 -0.024689 0.071629 0.118853 -0.005350 0.198685 0.057897 
first -0.239089 0.113610 -0.063813 -0.035702 0.132997 -0.160055 -0.055591 -0.132329 0.123997 -0.262400 0.134595 0.258706 0.093110 0.177863 0.090748 0.044624 -0.082171 0.012117 -0.001189 -0.057773 
image 0.133870 -0.148871 -0.076686 -0.028254 0.100491 0.143721 0.119878 0.154983 0.465216 0.034294 0.250192 -0.117716 -0.198341 0.391404 -0.233383 0.212700 -0.313865 0.761669 -0.442833 0.517767 
images 0.072732 -0.097937 0.161678 -0.105577 0.002812 0.137588 -0.084866 0.219839 0.550297 0.122410 0.185206 -0.202403 -0.185519 0.438816 -0.127943 0.152025 -0.423732 0.560572 -0.457614 0.252346 
probability 0.502088 0.420086 -0.208070 -0.080737 0.535956 -0.375435 0.331452 -0.258217 0.107817 0.166169 -0.253392 -0.114450 0.179286 0.524466 0.238436 -0.273273 0.066239 -0.120568 0.036796 0.353329 
visual -0.166984 -0.039103 0.335713 0.339487 0.037769 0.295417 -0.450511 0.250412 0.139370 -0.220765 0.410691 0.070903 -0.242329 -0.315171 -0.018644 0.338200 -0.156413 0.891623 -0.126729 0.145435 
optimal -0.182242 0.138994 -0.142665 -0.009720 0.195595 0.001543 0.206058 -0.040528 0.063403 0.179161 -0.516785 0.211139 0.230275 -0.038893 0.143574 -0.041415 -0.278960 -0.378389 0.347583 -0.014481 
vector 0.468445 0.465398 -0.419215 0.334462 0.517955 0.414154 0.842870 -0.094817 0.772537 0.316527 -0.459400 -0.068195 0.782595 0.101305 -1.044443 0.576099 -0.052664 -0.289726 -0.023701 -0.102091 
class -0.191318 0.107809 -0.062627 0.098515 0.402786 -0.230931 0.216066 0.022661 0.221694 -0.020806 -0.059147 -0.050356 0.349525 0.253928 -0.197954 0.130704 -0.116457 0.079310 -0.280457 0.098318 
structure -0.222518 -0.080155 -0.171240 0.003293 0.196841 -0.312194 -0.147303 0.201168 0.188734 -0.019612 0.075170 -0.073935 0.234800 0.165313 -0.229115 0.134341 0.000766 0.183662 -0.023008 0.181313 
single -0.112256 -0.050878 0.088795 -0.008989 0.298162 -0.054141 0.007568 0.016848 0.094110 -0.062298 0.139201 0.303409 -0.053810 0.074229 0.074516 -0.013724 0.067324 -0.178649 -0.077995 0.196621 
non -0.430286 0.414034 0.003842 -0.178672 0.362986 -0.195030 0.181317 -0.016101 -0.068392 0.221561 0.072317 -0.042076 -0.132203 0.421344 -0.385737 -0.362072 -0.290333 0.051184 0.056827 -0.142894 
hidden -0.337863 0.219165 0.249137 -0.327805 0.909297 -0.326247 0.251698 -0.148223 0.107291 -0.730803 0.196815 0.639830 0.046239 0.062195 -0.532052 -0.313589 0.893231 -0.391670 -0.422004 0.375060 
output 0.429203 0.373230 0.305335 0.000944 0.617617 -0.291348 -0.006923 -0.109484 0.127403 0.222703 0.359018 0.305207 -0.253185 -0.401623 -0.083063 -0.295521 0.498309 -0.109895 -0.156739 0.214234 
gaussian -0.051157 0.201978 -0.195093 -0.287499 0.275294 -0.762657 0.389674 -0.178839 -0.156415 0.154096 -0.446932 -0.055138 -0.091369 0.719225 -0.264040 -0.371480 -0.143876 -0.324448 0.096537 0.362848 
feature 0.111347 -0.115252 -0.314382 -0.156936 0.331581 0.163802 -0.254993 0.304971 0.597014 0.307942 -0.074249 -0.054905 -0.025940 -0.026961 -0.746773 -0.103920 -0.278955 0.368556 -0.066745 0.166952 
many -0.378478 -0.071972 -0.005412 0.118860 0.060070 0.285360 -0.048157 0.100390 0.413805 0.013110 -0.406765 0.153646 -0.083857 0.037772 -0.057261 -0.063382 0.157572 0.341107 -0.015422 -0.043214 
shown -0.397916 -0.017857 -0.125099 0.225442 -0.173342 0.156155 0.026675 0.189703 0.237952 0.115423 -0.171618 0.176643 -0.143274 -0.058154 0.160336 -0.332193 0.278482 0.247530 -0.118778 -0.099483 
systems -0.477551 -0.005946 0.048232 0.113883 0.124975 0.489670 -0.414968 0.037876 -0.310104 -0.278585 -0.109234 0.531845 0.122997 -0.224636 -0.143751 0.235156 0.219181 0.389400 -0.061142 0.020541 
features 0.070746 0.128199 -0.006097 0.054719 0.046425 0.238010 -0.024096 0.220868 0.287428 0.121751 0.304381 -0.034691 -0.231601 0.129865 -0.066681 0.258471 -0.230204 0.285508 -0.225201 0.170664 
experiments -0.458370 -0.214180 0.048482 -0.084774 -0.000347 0.243702 -0.092003 0.075374 0.353201 -0.073777 -0.391259 -0.044272 0.017312 0.091756 -0.107705 0.176917 -0.260185 0.311897 -0.045878 0.211761 
rate 0.019873 0.084574 0.285707 0.427224 0.059690 0.821989 0.268971 -0.212551 -0.435678 0.119145 -0.594352 -0.002534 -0.455128 -0.234908 0.090798 -0.152863 -0.250478 -0.207092 0.215156 0.442918 
task -0.337985 -0.333597 0.130069 0.168800 0.114351 0.124315 -0.245428 -0.049500 0.187823 -0.322484 -0.288950 0.027251 0.109605 -0.044599 -0.010983 0.153710 -0.018212 0.327670 -0.120960 0.185552 
real -0.418029 -0.518824 0.099270 -0.001310 -0.077208 0.470848 -0.053204 -0.455123 0.268868 -0.159021 -0.243248 -0.029236 0.187022 -0.312775 0.074731 0.372628 -0.177693 0.515831 -0.567707 0.724486 
generalization -0.525015 0.152198 -0.222915 0.054107 -0.008718 0.124895 0.007070 -0.455296 -0.300535 -0.046974 -0.733828 0.208653 -0.442907 -0.340661 -0.232634 0.383858 -0.554700 -0.578748 -0.312773 0.296575 
control -0.231362 -0.410038 -0.088235 0.089048 0.361733 0.234204 -0.065375 -0.203519 0.050265 -0.209362 -0.176592 0.414918 0.554574 0.002539 0.003620 0.041322 0.311453 -0.168236 0.235042 -0.092906 
may -0.004506 -0.011574 0.178223 0.090868 0.231102 0.148018 -0.201194 0.090339 0.215623 0.142269 -0.068986 -0.171495 0.063018 0.053451 -0.094192 0.115868 -0.035768 -0.103501 0.125201 -0.032840 
process -0.112332 0.106290 0.208593 -0.182604 0.345386 -0.376658 0.145311 -0.214269 -0.298299 -0.071742 0.035551 0.094407 0.121065 0.394419 -0.056829 -0.005205 0.132049 -0.082826 0.073760 0.235098 
case -0.259450 -0.012808 -0.085208 0.042285 0.379817 -0.001930 0.012793 -0.220963 0.064999 0.126374 -0.167292 -0.123141 -0.081039 0.233495 0.076055 -0.282024 -0.257789 -0.307604 -0.078311 -0.093939 
proposed -0.608477 -0.270925 -0.566853 0.329363 -0.206672 0.091486 0.372968 0.148519 0.266634 0.045339 -0.448139 0.214401 0.047465 0.281604 -0.119673 -0.089038 0.079900 0.407177 0.062141 -0.099967 
value -0.066953 -0.063696 -0.226378 0.217099 0.535238 0.058680 0.114891 -0.163283 0.329074 0.121754 -0.147114 0.140137 0.451443 -0.042932 0.123808 -0.620792 -0.116553 -1.074919 0.290541 -0.312053 
propose -0.467480 -0.291247 -0.367923 -0.086927 -0.081586 -0.157893 0.090908 -0.107865 0.124284 0.010328 -0.169627 0.164960 0.583148 0.267939 -0.291449 -0.060979 -0.341211 0.370833 0.155316 -0.028226 
high 0.151625 0.297294 0.448082 -0.433547 0.089544 0.398444 -0.047660 0.141901 0.507269 0.228885 0.112205 -0.448764 -0.373477 0.139811 -0.255064 -0.056611 -0.351676 0.555932 0.015190 0.338232 
bayesian -0.291244 -0.070247 -0.216776 -0.258204 0.022061 -0.358517 0.023578 0.089133 -0.049354 -0.147798 -0.620846 0.060683 0.135753 0.430002 -0.126544 -0.157273 -0.238439 0.213306 0.036722 0.005495 
examples -0.342606 -0.015236 0.295728 0.055315 0.352787 -0.267977 0.517517 -0.111391 -0.155611 0.023716 -0.422450 -0.166458 -0.106287 0.092310 -0.044462 0.012840 -0.216844 -0.022934 -0.408629 -0.021799 
weights -0.004608 0.399247 0.315442 -0.159525 0.285021 -0.206347 0.040101 -0.240173 -0.104013 0.158848 0.200872 0.171794 0.014044 -0.196488 -0.220200 -0.175725 0.203453 -0.573649 -0.450569 -0.092907 
units -0.061833 0.585335 0.352487 -0.028780 0.537094 -0.215066 0.071704 -0.162062 -0.044826 -0.230122 0.655845 0.410737 -0.009735 -0.209564 -0.235206 -0.203287 0.547941 -0.345849 -0.175913 0.066934 
speech -0.184013 -0.487848 0.501449 0.233027 0.191812 0.241922 -0.316075 -0.155738 0.401228 -1.027367 -0.208174 -0.037578 -0.295786 -0.041270 0.001686 0.307492 0.256216 0.464242 -0.378554 0.452285 
framework -0.579679 -0.321100 -0.292921 -0.106678 0.295689 -0.337541 0.150862 0.075542 -0.260172 -0.236171 -0.515755 0.038676 0.255042 0.489568 -0.095886 0.035432 -0.222549 0.424530 -0.107104 0.107792 
patterns 0.047190 0.217760 0.488102 0.152701 0.323013 0.025138 -0.186696 0.050842 -0.108301 -0.123780 0.157728 0.134962 -0.233051 -0.363837 -0.171381 0.265469 0.150837 0.017416 -0.085643 0.216814 
signal 0.379459 0.391702 0.306417 0.286258 -0.087388 0.060031 -0.639427 -0.077309 -0.084817 -0.019928 0.125262 0.189780 -0.372938 -0.239217 0.228869 0.245606 0.226140 0.097518 0.069102 0.408166 
processing 0.200310 0.176309 0.201065 0.409505 0.025249 0.246078 -0.491152 0.192803 -0.245041 -0.211900 0.261202 0.258125 -0.015183 -0.244978 -0.117070 0.267626 0.050320 0.796089 -0.078016 0.118294 
while 0.029301 -0.060756 0.093206 0.198584 0.232705 0.310607 -0.158140 -0.079683 0.102964 0.260893 -0.168627 0.037985 -0.119715 0.105714 -0.147621 0.078808 -0.218364 0.134097 -0.051807 0.012061 
form -0.197937 0.304057 -0.013633 -0.053645 0.188957 -0.169251 0.005149 0.020482 -0.068073 0.122550 -0.246798 -0.014685 0.236270 0.280310 -0.013647 -0.241070 -0.160178 -0.218033 -0.061643 -0.185281 
same -0.013145 0.157856 0.197545 0.137902 0.173631 0.124826 0.109115 0.004061 0.009881 0.134816 -0.155464 0.097730 -0.229585 0.162642 0.114336 0.022122 -0.062798 -0.262654 -0.086256 -0.019415 
representation 0.122010 -0.039195 -0.052435 -0.088342 0.248891 0.082822 -0.050367 0.038969 0.320807 0.007837 0.163539 0.129129 -0.125190 0.010986 -0.327493 0.031705 -0.000865 0.203085 0.081692 0.325620 
general -0.332625 -0.165871 -0.346714 -0.010687 0.171404 0.006308 0.033311 0.282484 -0.070468 0.119276 -0.440883 0.265061 0.364819 0.190033 -0.148529 -0.206516 -0.018552 0.035430 0.022527 -0.110372 
demonstrate -0.329634 -0.231911 -0.152067 -0.030214 -0.184141 0.254053 -0.174735 -0.025219 0.260296 -0.125730 -0.328073 0.327051 0.343986 0.101617 -0.094985 0.089092 -0.223157 0.225111 -0.040198 0.028357 
kernel -0.278430 0.003034 -0.324608 -0.080090 0.415317 -0.416435 0.305049 0.008198 0.206760 0.425879 -0.514419 -0.211286 0.150313 0.329431 -0.523284 -0.251245 -0.332814 -0.223427 -0.027144 0.090612 
sets -0.281615 0.022924 0.592101 -0.485289 0.165261 0.147994 0.317068 0.021057 0.172036 0.294657 0.006286 -0.314384 -0.061050 -0.136759 -0.023301 0.171101 -0.574558 -0.151915 -0.190527 0.307566 
here -0.159309 -0.057859 0.113975 0.074699 0.135197 0.035631 -0.145752 0.023181 -0.183681 0.049518 -0.198802 0.277672 0.088175 0.058773 0.076767 -0.078485 -0.085237 0.121709 0.258613 0.014135 
nonlinear -0.455228 0.052146 -0.158555 -0.198454 0.358932 0.013910 0.069147 0.115831 -0.039831 -0.085898 -0.023595 0.356103 0.311899 0.013832 -0.379486 -0.211416 0.080746 -0.010741 0.111530 -0.060901 
several -0.467377 -0.322666 -0.034327 0.154219 0.093232 0.240502 -0.105686 -0.145092 0.178832 -0.014313 -0.210038 0.041986 -0.033345 0.114430 -0.126014 0.086321 -0.091695 0.227136 -0.201021 -0.012444 
markov -0.314726 -0.067364 0.062251 -0.293837 0.614641 -0.612378 0.220146 -0.591084 -0.213371 -0.729465 0.114585 0.083961 0.327220 0.733879 -0.350281 -0.408879 0.442471 -0.400150 -0.286973 0.411615 
statistical -0.367933 -0.249836 -0.275247 -0.220027 0.100725 -0.124275 -0.003669 0.143820 -0.163749 -0.058569 -0.286075 0.063076 0.135280 0.332505 -0.233448 -0.022171 -0.141988 0.433476 0.150897 0.063862 
they -0.330988 0.090131 0.063950 0.125504 0.171050 -0.001099 -0.280745 0.151786 0.249949 0.091350 -0.030548 0.034057 -0.016008 -0.001722 0.109644 0.043716 -0.021479 0.150652 -0.004779 -0.223269 
neuron 0.272760 0.287442 0.373689 0.355204 0.447886 0.078807 -0.230610 0.137791 -0.246014 0.383153 0.796676 0.260009 -0.280732 -0.220302 0.248776 -0.197904 0.533277 -0.114020 0.377964 0.010205 
estimation -0.276310 -0.115516 -0.215275 -0.112462 0.078921 -0.342401 0.211681 -0.056105 0.075949 -0.259428 -0.609450 0.138975 -0.052871 0.539278 -0.153590 -0.373111 -0.141842 -0.087197 0.014306 0.098415 
about 0.215702 0.324610 0.105292 0.326292 0.199719 0.303544 -0.117857 0.124926 -0.197332 0.078076 -0.060097 -0.097175 -0.188979 0.078486 0.064083 0.294878 -0.087652 0.266390 0.146774 0.129234 
approximation -0.242769 0.321134 -0.222080 0.028393 0.196590 -0.212570 0.136448 0.026505 0.064959 -0.107264 -0.602420 -0.031253 0.360724 0.273579 0.015590 -0.416533 -0.426790 -0.375013 0.150500 0.063428 
theory -0.216621 -0.073441 -0.162109 0.229764 -0.124418 0.025480 -0.018631 -0.034838 -0.053244 0.071832 -0.428641 0.086904 0.305281 0.363775 -0.026037 -0.298154 -0.190913 0.187706 0.166249 0.029587 
second 0.187178 0.518962 0.153417 -0.058559 0.018257 0.017755 0.115052 -0.011031 0.038440 -0.127462 -0.035974 0.207019 -0.027148 0.423938 -0.020840 0.147925 -0.137173 0.074317 0.075360 -0.000700 
presented -0.182530 -0.219481 -0.044466 0.036362 -0.087957 0.021309 -0.015613 -0.078223 0.064277 -0.083688 -0.141411 0.371991 0.276372 0.093203 -0.078410 0.003948 -0.241917 0.336295 -0.220060 0.159877 
natural -0.108589 0.025516 0.086023 -0.097633 0.143109 0.236557 0.069248 0.315894 0.178857 0.103849 -0.201096 -0.345642 -0.068566 0.374139 -0.053364 0.174339 -0.305578 0.494537 -0.318789 0.301451 
possible 0.058130 0.177656 0.141862 -0.053879 0.202073 -0.022238 -0.005119 -0.079704 0.224274 0.167541 -0.152557 0.151624 -0.075989 -0.119476 0.084355 0.051928 -0.076923 -0.048416 0.006589 0.084137 
dimensional -0.237286 0.214757 0.234426 -0.556866 0.278377 -0.117801 0.298431 0.307244 0.662338 0.350391 0.286116 -0.137921 -0.293844 0.022207 -0.605879 0.032631 -0.795422 0.299696 -0.016558 0.361804 
propagation -0.362493 0.401391 -0.036241 -0.316186 -0.275722 0.225342 -0.683648 -0.403890 -0.003014 -0.493162 -0.373453 0.448736 0.330185 0.314464 0.040499 -0.531756 0.246197 -0.361074 -0.323468 -0.122756 
trained -0.356052 0.108238 0.120864 -0.026485 0.102751 -0.052068 0.130817 -0.107462 -0.108021 -0.307059 0.124681 0.204043 -0.321007 0.008855 -0.228173 -0.039818 0.430745 0.123509 -0.420801 -0.014327 
applied -0.576872 -0.169400 -0.138260 0.172607 0.177316 0.021572 0.017748 0.186113 0.335806 -0.012302 -0.116005 0.184053 -0.059565 0.027235 -0.054567 -0.204358 0.221764 0.415782 -0.053129 -0.144834 
known -0.422990 0.021555 0.014554 0.071025 0.190019 0.105520 0.036174 -0.062236 0.089014 0.114073 -0.452149 0.055616 -0.034951 0.013203 -0.196214 0.036214 -0.131923 -0.120564 0.258549 0.041946 
work -0.205110 -0.253802 -0.103944 0.149118 -0.152344 -0.009371 -0.097415 0.371144 -0.210373 0.062695 -0.199543 0.132798 0.017609 0.130956 0.112009 0.073726 -0.039328 0.584314 0.083117 0.042615 
techniques -0.527943 -0.164185 -0.251934 0.020867 0.041307 0.122598 -0.029301 0.163603 0.122878 -0.131788 -0.346423 0.133319 0.109018 0.351578 -0.236103 -0.170777 -0.071303 0.382371 -0.054197 -0.086833 
prediction 0.028494 -0.009058 0.025377 0.030102 0.332389 0.066169 0.015474 -0.328158 -0.256163 0.058051 -0.639769 0.150900 0.121011 -0.291653 0.126365 -0.017743 -0.158387 -0.114680 -0.060610 0.337055 
point 0.292137 -0.065026 0.095858 0.033717 0.320448 0.113191 0.054832 -0.048486 0.014341 0.275966 -0.135405 -0.077498 0.052539 0.389347 0.161689 0.059156 -0.203284 -0.162985 0.013359 0.196850 
particular -0.319462 0.021417 -0.014389 -0.017598 0.198642 -0.013848 0.029100 0.071403 0.130619 0.147393 -0.264051 0.064453 -0.092154 0.035303 0.046825 0.059689 -0.171034 -0.011617 -0.026431 0.116087 
figure 0.325589 -0.004345 0.131821 0.047645 0.085963 -0.026928 -0.275231 -0.188449 0.194083 0.314022 0.175901 0.266287 -0.211694 0.044552 0.617536 0.050741 -0.412473 -0.410163 -0.166366 -0.210383 
computational -0.310600 -0.238149 -0.018054 0.089335 -0.156826 -0.107462 -0.251659 0.113783 -0.099218 0.098822 -0.205708 0.111364 0.104985 -0.166678 -0.183122 0.044984 -0.219477 0.355311 -0.030521 0.006038 
small -0.177914 0.049507 0.441033 -0.095863 0.180595 -0.061263 0.191126 -0.057996 -0.020003 0.253434 0.152758 0.093937 -0.036819 -0.075137 -0.133386 -0.057950 -0.137758 -0.069168 -0.394019 0.197948 
so 0.062944 0.302487 0.001876 0.177799 0.219729 -0.135799 0.188495 -0.122946 0.007822 0.345241 0.160442 0.157724 -0.238083 0.020714 0.110717 -0.190136 -0.035151 -0.079581 0.073222 -0.025646 
complexity -0.297157 0.181098 -0.046704 0.082481 0.025088 0.094357 0.134608 0.120526 -0.096007 0.167606 -0.353732 0.009877 -0.119343 -0.099068 -0.100645 0.001785 -0.372412 0.072152 -0.195901 -0.169521 
most -0.141682 -0.122322 -0.048379 0.091275 0.211702 0.183751 -0.062101 0.007571 0.267039 -0.009528 -0.176277 0.052273 -0.127968 0.122209 -0.024970 0.157979 -0.108591 0.286903 -0.087757 -0.029157 
gradient -0.553599 -0.052718 0.261734 -0.553707 -0.306719 0.309849 0.103435 0.012923 0.567950 0.083341 -0.530293 0.473156 0.229922 0.119632 -0.205127 -0.586914 -0.133116 -0.608824 0.231854 -0.243974 
estimate 0.111013 0.311792 0.061941 -0.078462 0.163695 -0.060372 0.253731 0.042870 0.109468 0.206507 -0.354212 0.190697 -0.119237 0.100266 0.526739 -0.029106 -0.242642 -0.220439 0.228980 0.177258 
regression -0.399308 0.308279 -0.336272 -0.091708 0.045444 -0.282256 0.509706 0.256803 -0.071595 0.077174 -0.652490 0.112484 0.002477 0.081566 -0.411999 -0.163064 -0.303935 -0.070965 0.127522 -0.060273 
policy -0.076144 -0.286278 0.039189 -0.184608 0.698831 0.202320 0.214953 -0.234817 0.654885 -0.061530 -0.286654 0.271566 0.471224 -0.069742 0.368703 -0.353839 -0.086527 -1.083961 0.399939 -0.237134 
points 0.303342 0.121138 0.353930 -0.278202 0.396887 -0.164518 0.353201 0.001224 0.108448 0.542064 0.019064 -0.290121 0.107773 0.042993 0.136831 0.014012 -0.483034 -0.204963 -0.252775 0.212825 
reinforcement -0.547719 -0.804566 -0.358581 0.133617 0.063690 0.187939 -0.199362 -0.040711 -0.336836 0.081942 -0.478175 0.169721 0.647414 -0.035006 -0.098453 -0.269363 0.305753 -0.221270 0.262021 -0.414765 
pattern -0.233787 0.038009 0.103277 0.091516 0.312610 -0.020234 -0.086539 0.035948 0.456700 -0.286053 -0.198881 0.065008 -0.052894 -0.055600 0.037097 0.241590 0.287842 0.279661 -0.209959 0.293719 
inputs 0.143249 0.586823 0.312058 -0.050969 0.124928 0.099970 -0.285532 0.193448 0.045795 0.159756 0.294717 0.316557 -0.149749 -0.179131 -0.035939 0.156019 0.241973 -0.038927 -0.017300 0.051954 
properties -0.262433 -0.025061 0.222812 0.060042 0.087093 0.099139 -0.215949 0.307238 0.024134 0.057829 0.179811 0.047151 0.017124 -0.099895 -0.141536 0.162037 -0.084828 0.228649 0.126373 0.008372 
through -0.006340 0.007699 0.184894 0.111485 0.205887 -0.042165 -0.376164 -0.151875 -0.038357 0.154087 0.124831 0.210034 -0.007065 -0.042057 -0.008251 0.153301 0.184628 0.193954 0.285181 -0.019181 
matrix 0.640756 0.132131 0.177325 -0.092749 0.315001 -0.364053 0.191271 -0.012329 0.124902 0.715142 0.037452 0.084304 0.012867 0.109060 -0.011907 -0.268891 -0.260415 -0.393350 0.326408 0.069060 
states 0.203827 0.011510 0.311275 -0.043855 0.396885 0.221096 0.006304 -0.209306 0.155121 0.315525 0.020960 0.154011 0.135197 -0.185962 0.232440 -0.106886 0.294014 -0.359750 0.106433 -0.036207 
layer -0.124539 0.311810 0.193041 -0.042369 0.536637 -0.176128 0.021542 0.021572 0.025954 -0.382045 0.646767 0.499085 0.339177 0.066525 -0.408560 -0.366357 1.000022 -0.139748 -0.570683 0.090541 
independent -0.165901 0.014881 0.317771 -0.155179 0.172098 0.067242 0.192075 0.068640 -0.018762 0.101613 0.019179 0.263957 -0.398490 -0.227458 -0.148041 -0.054841 -0.174572 0.413469 0.146649 0.231179 
convergence -0.339246 0.017338 -0.374145 0.026750 -0.017556 0.568271 -0.022459 -0.021194 0.087510 0.071080 -0.584657 0.344984 0.085743 -0.039994 0.025022 -0.120215 -0.234359 -0.429296 0.437724 -0.004705 
tasks -0.531612 -0.338340 -0.036126 0.078568 0.175604 0.144566 -0.140969 -0.077178 0.264079 -0.318320 -0.232524 0.146700 0.107237 -0.107864 0.038523 0.497166 -0.023174 0.543833 -0.064071 0.230226 
standard -0.322296 -0.106943 -0.175093 -0.063177 -0.041973 0.122854 0.124025 -0.045997 0.062269 0.019763 -0.577598 0.162136 0.055384 0.284605 -0.173542 -0.103335 -0.151657 -0.010916 0.027642 -0.152186 
dynamics -0.228012 -0.126255 0.266512 -0.035029 0.042533 -0.050224 -0.283293 -0.103699 -0.267834 -0.058252 0.074250 0.165287 0.085183 -0.160788 -0.176482 -0.047140 0.266887 -0.078221 0.063055 -0.088499 
temporal -0.036123 -0.111679 0.184085 0.278356 -0.088146 -0.021128 -0.247816 0.157260 -0.267719 -0.005958 0.269766 0.155230 -0.172958 -0.108807 -0.082593 0.147836 -0.058541 0.328908 0.227594 0.190237 
architecture -0.241067 -0.138560 0.099321 0.090775 0.115448 -0.295064 -0.296628 -0.269151 -0.011793 -0.088159 0.021969 0.321387 0.290037 -0.072899 -0.182554 -0.123974 0.271957 0.315373 -0.308318 -0.050442 
novel -0.304518 -0.329327 -0.212555 -0.106981 -0.026647 -0.125777 -0.000825 0.121990 -0.055336 -0.058981 -0.263708 0.298531 0.380283 0.104610 -0.291818 -0.098140 -0.456187 0.371064 -0.111496 -0.079267 
weight 0.568949 0.342479 0.324058 0.074433 0.238033 -0.111912 0.265586 -0.305134 -0.056948 0.405968 -0.062397 0.163010 -0.143998 0.023404 -0.058629 -0.004753 -0.030031 -0.393304 0.041633 0.150601 
allows -0.328423 0.222669 -0.158284 0.191757 0.366935 -0.031094 0.110004 0.129049 0.216185 0.117606 0.038244 0.042628 0.002118 0.284321 -0.059995 -0.200151 0.024633 0.034561 -0.049209 -0.140866 
random 0.167571 -0.009865 0.209199 -0.195510 0.201341 -0.291466 0.142565 -0.192106 0.077090 0.053462 -0.040937 0.183558 0.163029 0.541382 0.042593 -0.217082 0.316187 -0.232551 -0.195008 0.321446 
learn -0.216130 0.086408 -0.152098 -0.104649 0.301233 0.021281 0.010256 0.014654 0.182057 0.006671 -0.122305 0.036613 0.055462 -0.052108 -0.141348 -0.109857 0.060778 0.090889 -0.130375 -0.023986 
provide -0.227921 -0.009081 -0.077457 0.105913 0.093644 0.224458 -0.023150 -0.174262 0.059661 -0.005093 -0.315168 -0.125399 -0.071314 0.113631 -0.146790 0.060761 -0.181558 -0.170949 0.015813 0.138390 
multi -0.387559 -0.052946 -0.272089 0.062329 0.484420 -0.026897 0.319603 -0.001874 -0.063301 -0.264784 -0.108233 0.360636 0.133092 -0.039070 0.014547 -0.072619 0.491677 0.188724 -0.205959 -0.016553 
under -0.059446 0.086010 -0.040755 0.144052 0.259853 0.210975 0.077514 0.075312 0.323990 0.191497 -0.277353 -0.077376 0.107990 -0.061122 0.070571 0.185743 -0.065310 -0.363795 0.294823 -0.193356 
spike 0.399103 0.395857 0.582612 0.509913 -0.021535 0.443561 -0.179176 0.311086 -0.536217 0.251108 0.225493 0.388299 -0.537015 -0.296615 0.331797 0.216645 0.102820 0.062566 0.757933 0.230189 
similar -0.341230 -0.166715 0.041827 0.033475 0.043156 -0.004241 -0.010743 0.016647 -0.032817 -0.014093 0.062322 0.266349 -0.284714 0.122545 0.074028 -0.003664 -0.012277 0.220083 -0.028129 -0.093422 
multiple 0.047601 -0.059195 0.116162 -0.041013 0.200301 -0.150355 -0.193601 -0.047705 -0.039795 0.054631 0.123768 0.095817 0.183291 0.047177 -0.138111 -0.007147 0.090155 0.189810 -0.015095 0.074081 
step 0.045131 -0.180151 -0.071748 -0.210139 0.402862 -0.031823 0.243733 -0.255567 0.275162 -0.067463 -0.152166 0.166512 0.220935 0.274846 0.201389 -0.209162 0.078631 -0.491789 0.122517 0.060913 
human -0.182645 -0.526873 0.050072 0.123726 -0.091782 0.023800 -0.312768 -0.057713 0.099325 -0.032872 -0.075337 -0.156872 -0.144823 0.182134 0.177823 0.243590 -0.186184 0.493410 0.036236 0.135674 
variables 0.101802 0.092731 0.129496 -0.151957 0.521494 -0.458354 0.286840 -0.139617 0.277188 -0.100076 0.156777 0.195258 0.266639 0.280571 0.013175 -0.244535 0.340766 -0.195856 -0.167006 0.170059 
example -0.121140 -0.022257 0.272742 0.000292 0.063935 -0.012049 -0.161870 -0.154837 0.172346 0.048709 -0.118089 -0.020778 -0.044961 -0.099908 0.192652 -0.032892 -0.111930 0.147411 -0.147882 0.149095 
activity 0.168485 0.238546 0.409526 0.287880 0.252082 0.087525 -0.329457 0.182213 -0.025348 0.110441 0.335668 0.261123 -0.258688 -0.206477 -0.103842 0.063830 0.465518 0.123295 0.105280 0.131122 
three -0.121944 -0.226643 0.153629 -0.182151 0.175778 0.044496 -0.122846 0.096458 0.187917 -0.040582 -0.051463 0.161599 -0.106722 0.076104 -0.110237 0.020785 -0.150799 0.195927 -0.294941 0.115916 
describe -0.296743 -0.139916 -0.202854 -0.130580 0.064201 -0.043877 -0.025195 0.007412 -0.134914 -0.207449 -0.219807 0.055292 0.391650 0.128920 -0.269197 -0.027371 -0.102271 0.189720 0.075058 0.010172 
memory -0.271586 -0.228266 0.049120 0.186595 0.197945 -0.158670 -0.183283 0.077182 0.007441 0.012655 -0.022087 0.368506 -0.063307 -0.051012 -0.231473 0.091017 0.081489 0.200912 0.195319 0.032658 
technique -0.297353 -0.160550 -0.180718 -0.058954 -0.107902 -0.093729 -0.027251 -0.047999 0.097775 0.060860 -0.381609 0.095323 0.136868 0.176483 -0.194076 0.008268 -0.237635 0.245914 0.151588 0.028906 
field 0.026255 0.352014 0.120727 0.291665 -0.151059 -0.208345 0.073920 0.060323 0.016072 0.035990 -0.163790 0.282978 0.414331 0.794314 0.215115 -0.364907 -0.044080 0.121346 0.144264 0.135270 
parameter -0.016671 -0.035192 -0.014396 -0.065842 0.303201 -0.024230 0.208448 -0.114508 -0.004719 0.258901 -0.404755 0.037767 -0.033231 0.208395 -0.084768 -0.131254 -0.182313 -0.341228 0.063352 0.033572 
mean 0.319407 0.475776 -0.108966 0.142548 -0.190968 -0.148210 0.348169 -0.292370 -0.068184 0.153414 -0.559324 0.098444 0.062832 0.558727 0.223839 -0.248379 -0.196234 -0.261765 0.112692 0.550506 
efficient -0.347778 -0.123508 -0.263740 -0.222922 -0.013613 0.174564 0.121441 0.164468 -0.062166 0.121719 -0.589709 0.124039 0.334700 0.300313 -0.140820 -0.147152 -0.224637 0.061423 0.098492 -0.037828 
basis -0.458713 0.151008 -0.143530 0.159041 0.415980 -0.632186 -0.192690 0.152357 0.002668 0.242588 0.005207 -0.195171 0.422133 0.421632 -0.557030 -0.437891 -0.262939 -0.385074 -0.208316 0.104170 
level -0.215294 0.070948 0.108023 0.179904 0.219840 0.003793 -0.281827 0.209675 0.111856 -0.067250 -0.055907 -0.073883 -0.563172 0.235586 -0.024563 0.095315 -0.131489 0.359537 -0.016865 0.178498 
study -0.215914 -0.047199 -0.133053 0.191621 0.119037 -0.093424 -0.258963 -0.018402 -0.052525 -0.083696 -0.021514 0.168182 0.061167 0.159045 -0.010311 -0.071240 0.072614 0.130409 0.039810 0.029529 
low 0.268008 0.341716 0.242686 -0.286688 0.142419 0.103617 0.019055 -0.028838 0.289578 0.318295 0.069046 -0.139515 -0.268535 0.302029 -0.174651 -0.093803 -0.383688 0.495589 0.094878 0.408936 
important -0.189287 -0.126098 -0.117055 0.058616 0.055211 0.158598 -0.346820 0.271419 0.162138 -0.041947 -0.096397 0.228349 -0.154540 -0.060248 -0.139737 0.221830 -0.064823 0.193312 -0.225313 0.094275 
experimental -0.551416 -0.333816 0.244605 -0.223715 -0.512721 0.023643 -0.078940 0.060957 0.421703 0.002494 -0.408534 0.143083 0.029772 0.166795 -0.119088 0.083537 -0.445678 0.194096 -0.054784 0.377513 
inference -0.310919 0.180456 -0.195612 -0.160841 0.118829 -0.263279 0.154944 -0.064610 0.242966 -0.195537 -0.496485 0.088564 0.163100 0.421017 0.127889 -0.243610 0.049628 0.114752 0.104334 -0.112237 
stochastic -0.379256 -0.081679 0.041339 -0.207920 0.066227 0.174723 0.024439 -0.116030 0.092448 0.032622 -0.184110 0.343695 0.135128 0.031062 0.020816 -0.389081 0.070243 -0.159153 0.131123 -0.051271 
those -0.245660 0.102190 0.209209 0.075197 0.140234 0.276616 -0.221608 0.172228 0.008478 0.051747 -0.101104 0.133321 -0.218345 -0.012393 0.042395 0.236121 0.001832 -0.147457 -0.110626 0.014406 
machine 0.125041 -0.053871 -0.064850 0.468627 0.153059 0.297426 0.183485 0.066016 -0.120295 0.166655 -0.630226 -0.116270 0.492648 0.222904 -0.508432 0.135209 -0.161654 0.148618 0.037385 -0.095885 
object 0.172549 -0.076403 0.125712 0.091838 0.270380 -0.223611 -0.082720 0.258193 0.241632 -0.083613 0.226982 -0.297996 0.064949 0.303915 0.027912 0.340642 -0.336381 0.432469 -0.263506 0.254303 
clustering -0.188827 -0.432664 -0.314899 -0.049381 0.148324 -0.105004 0.290753 0.192248 0.174006 0.110374 -0.396965 -0.109830 0.166842 0.455137 -0.053371 0.003038 -0.558379 0.091677 0.097581 0.099376 
rule -0.334357 -0.132622 -0.140883 0.227867 0.187321 0.076590 -0.015467 0.031873 -0.243350 0.151232 -0.324458 0.050093 0.090146 0.294994 0.063428 0.025856 0.087594 -0.197285 0.160774 -0.164431 
cells 0.014139 0.091589 0.613680 0.262302 0.051695 0.066136 -0.564476 0.337715 -0.023196 0.133882 0.821999 0.243987 -0.139085 -0.055215 0.285937 0.183322 -0.095025 0.218558 0.187003 0.095659 
size -0.160373 0.299254 0.330824 -0.067220 0.029079 -0.016864 0.020643 -0.194785 -0.004260 0.301619 -0.022670 -0.064740 -0.078667 -0.189680 0.117782 -0.258731 -0.131593 -0.184296 -0.282983 0.217557 
complex -0.254918 -0.246918 0.269716 0.078152 0.157735 0.233446 -0.238366 0.039565 0.104290 0.117800 0.081785 0.265122 0.055817 0.151896 -0.061944 0.111116 0.079266 0.173315 0.075742 0.136129 
obtained -0.186654 -0.000858 0.219590 0.049060 -0.030337 0.065239 0.038100 0.036801 0.152895 0.057999 -0.349897 0.014636 0.012812 0.220656 -0.085461 0.131517 -0.218816 -0.227520 0.034842 0.056093 
find -0.237849 -0.100654 -0.048362 -0.002665 0.166329 0.190676 -0.085017 0.023493 0.183159 0.068766 -0.018482 0.137039 0.002892 0.148058 -0.022422 -0.022599 -0.073467 0.049611 0.151308 -0.009146 
representations -0.239902 0.078803 0.030860 -0.151729 0.267898 -0.099401 -0.183104 -0.109468 0.172212 0.005717 -0.093927 0.158601 0.090078 0.059893 -0.143599 -0.130394 0.147764 0.202771 0.152364 0.033045 
consider -0.147386 0.002400 -0.096971 -0.055154 0.490495 -0.093130 0.030455 0.120447 -0.059286 0.043808 -0.137614 -0.080229 0.332602 0.086718 0.158516 -0.075779 -0.057046 -0.119726 -0.059123 0.165000 
way -0.243271 -0.039878 0.044601 -0.191747 0.230200 0.029263 -0.083363 0.027645 0.096005 0.031718 -0.038966 0.041041 0.131446 0.142944 -0.172424 0.082604 -0.148848 0.169541 0.031112 0.002429 
thus 0.097306 0.198917 -0.020103 0.054839 0.332680 -0.131391 -0.071652 -0.013396 0.111438 0.262340 0.052474 0.105994 0.109950 0.092959 0.033140 0.002724 0.011905 -0.133899 0.204669 0.122676 
solution -0.238557 0.028511 -0.207966 0.040069 0.228909 0.038095 0.213462 0.049821 0.196581 0.156886 -0.572846 -0.045670 0.310880 0.004094 -0.194505 -0.050205 -0.220794 -0.045086 0.091244 -0.014941 
support 0.230505 0.134039 -0.053583 0.370955 0.336110 0.321741 0.447099 -0.054087 0.417004 0.145400 -0.934303 -0.288974 0.708949 0.274407 -1.240323 0.665944 -0.238896 -0.234788 -0.174988 -0.127501 
approaches -0.457474 -0.348434 -0.091937 0.046131 0.011475 0.212815 -0.112113 0.366111 0.134873 -0.045328 -0.389620 0.102640 0.189662 0.293468 -0.136698 -0.025230 -0.366169 0.224336 -0.099700 -0.008243 
conditions -0.167031 -0.119377 0.245202 0.054057 0.216385 0.008915 -0.156549 0.152015 0.149087 0.140422 -0.131564 0.166471 0.080432 0.077697 0.088901 0.142545 -0.063932 -0.489242 0.196612 0.046903 
ie 0.072940 0.432195 0.304282 0.158862 0.365052 -0.200209 -0.087673 -0.174239 -0.122809 0.025185 -0.051700 0.150529 -0.264589 0.031654 0.104173 -0.029262 -0.158136 -0.331815 -0.134421 0.106673 
better -0.246794 0.032839 -0.117103 0.004501 -0.069369 0.513884 -0.432552 -0.269365 -0.083550 -0.273578 -0.730339 0.211959 -0.410046 0.130800 -0.012751 0.189991 -0.192481 -0.404018 -0.338772 0.224325 
objects 0.102811 0.037245 0.091484 0.017755 0.237254 0.048669 -0.033468 0.141390 0.179820 0.028343 0.301636 -0.203897 0.141435 0.449463 -0.063007 0.236446 -0.393442 0.452839 -0.240841 0.019298 
maximum -0.129040 0.031153 -0.237878 0.125685 0.324641 -0.075771 0.767467 -0.267170 -0.045957 0.021561 -0.547211 -0.267626 -0.491280 0.630981 0.064625 -0.181113 -0.291733 -0.151562 0.067335 -0.043812 
response -0.048853 0.190662 0.349482 0.249704 0.345309 0.043911 -0.431468 0.187385 -0.059363 0.293094 0.445438 0.242631 -0.269325 -0.429268 0.201324 0.105780 0.139320 0.121104 0.274884 0.044161 
classifier -0.411687 -0.043815 -0.066424 0.098414 0.483881 -0.110531 0.448524 -0.101806 0.006210 -0.025329 -0.098865 -0.037532 -0.053636 0.251616 -0.351030 0.114947 -0.318435 -0.044310 -0.249721 0.000585 
continuous -0.266530 -0.112062 0.194703 -0.186285 0.124951 0.146068 -0.298466 -0.377259 0.228964 -0.295927 -0.112170 0.317040 0.060575 -0.298960 -0.060154 -0.196878 0.373013 -0.158839 -0.296666 0.259548 
likelihood 0.039801 -0.081313 -0.230327 0.414695 0.470763 -0.187229 0.519232 0.317954 -0.203433 0.030477 -0.324242 -0.261356 -0.301149 0.754767 0.037960 -0.117249 -0.000219 -0.507162 -0.030166 0.133213 
probabilistic -0.379689 -0.152270 -0.172326 -0.352458 0.137585 -0.380543 0.151181 -0.071608 -0.108154 -0.216173 -0.320831 0.116126 0.269975 0.272489 -0.312822 0.049673 -0.184027 0.318846 -0.100591 0.133889 
during 0.037735 -0.036442 0.375960 0.198736 0.206972 -0.010148 0.018074 -0.353495 -0.151638 0.134726 0.278199 -0.042536 -0.211297 -0.050595 0.180084 0.218913 0.146108 0.116512 -0.278235 0.044309 
bound -0.092673 0.427046 -0.356534 0.150582 0.053291 -0.035723 0.213144 -0.474149 -0.363634 0.316468 -0.645183 -0.085666 -0.305517 0.197646 0.150658 -0.196918 -0.507510 -0.179755 -0.050844 0.320056 
test -0.078559 0.169799 0.047403 -0.226909 0.037493 0.073019 0.084788 -0.225723 0.047369 -0.019880 -0.254129 -0.022434 -0.223575 -0.045274 0.019732 0.238295 -0.335840 0.043326 -0.154586 0.209465 
terms -0.047902 0.304267 -0.155776 -0.012790 0.173578 -0.044907 -0.020481 -0.068649 -0.033482 0.094152 -0.157734 0.154626 -0.028657 0.073986 -0.001028 0.178587 -0.367947 0.069138 -0.043874 0.091874 
mixture -0.305058 -0.103833 -0.159919 -0.282406 0.400180 -0.698890 0.453903 0.184684 -0.124773 -0.043368 -0.195979 -0.027797 -0.188523 0.487231 -0.197401 -0.169482 -0.095842 0.044040 0.002968 0.129085 
even -0.099164 0.159334 0.273765 0.048620 0.266638 0.072350 -0.082069 0.015267 0.195758 0.020386 0.051878 0.016070 -0.090398 0.017183 -0.028336 0.016927 -0.198731 -0.186882 0.022707 0.072722 
decision -0.193482 -0.130546 -0.228342 -0.022259 0.276202 -0.239327 -0.054264 -0.388153 -0.137221 -0.089589 -0.067432 0.278791 0.540399 0.554589 -0.280669 -0.302596 -0.018691 -0.168491 -0.232666 0.164233 
behavior -0.283565 -0.235120 0.037602 0.272685 0.125770 -0.042996 -0.510100 0.054895 0.024190 0.049555 0.119905 0.145492 -0.060965 -0.173953 0.153835 0.091799 0.119483 0.338895 0.127937 -0.079476 
line -0.171169 -0.252244 0.137093 -0.113051 0.196079 -0.051088 0.106504 -0.161399 -0.514351 0.425854 -0.124661 0.032824 -0.239757 0.026858 0.595729 -0.251848 -0.068665 -0.298817 -0.113626 0.070862 
perform -0.597752 0.077154 0.100203 0.044786 0.005960 0.278636 -0.189333 0.053434 0.160588 -0.064692 -0.180177 0.170794 -0.089479 -0.019037 -0.189136 0.033787 0.181947 -0.032804 -0.041215 -0.082137 
analog -0.001873 0.097803 0.335206 0.201455 -0.254591 -0.232589 -0.652028 -0.099005 -0.069182 -0.051656 0.156705 0.546331 0.240327 -0.106954 -0.033147 -0.079739 0.440607 0.307342 -0.435265 -0.187082 
motion 0.155865 -0.019202 0.249164 0.097015 0.037978 0.008349 -0.353004 0.149527 0.250581 -0.025162 0.225081 0.230439 -0.023062 0.055627 0.138407 0.318938 -0.140105 0.622270 -0.005732 0.214354 
uses -0.155193 -0.050474 0.057053 -0.031191 -0.078393 -0.274791 -0.284240 -0.129040 -0.125353 0.046062 -0.110400 0.443025 0.213189 -0.174797 -0.047124 -0.038854 0.004081 0.151339 -0.161903 0.009402 
tree 0.147197 -0.244573 -0.175660 0.191457 0.376594 -0.326036 -0.035844 -0.412565 -0.141479 0.105607 -0.145019 0.045141 0.386842 0.516005 0.213069 -0.198848 -0.007849 0.072492 -0.144083 -0.030745 
context -0.143618 0.109267 -0.160931 0.007334 0.074217 0.035745 -0.039563 -0.100648 0.115903 -0.216847 -0.192983 -0.107634 -0.002012 0.308800 0.055967 -0.057763 0.094963 0.347726 0.003860 0.133980 
signals 0.096270 0.197554 0.368893 0.117572 0.103274 0.076709 -0.623389 -0.008295 0.043086 -0.070357 0.109432 0.277339 -0.221543 0.000101 -0.031053 0.239504 0.127943 0.292754 0.009135 0.248629 
learned -0.181492 0.061305 0.095243 0.014774 0.344470 -0.228581 0.078320 0.135606 0.076858 -0.061143 -0.014190 -0.030663 -0.020621 0.083242 0.098777 -0.085477 -0.041663 -0.287765 0.011218 -0.056850 
dynamic -0.159035 -0.080410 -0.057571 0.174357 0.051403 -0.102304 -0.058432 -0.038078 -0.228810 -0.108443 -0.234350 0.243147 0.479533 0.189922 -0.013930 -0.190250 -0.011101 0.003551 0.137914 -0.089328 
within -0.073322 0.067030 -0.077666 0.088226 0.194235 -0.111703 0.031782 -0.103306 -0.047561 -0.060409 -0.048234 0.028356 0.062152 0.289593 -0.007479 0.014984 -0.195702 0.007751 0.032970 0.158663 
synaptic 0.153323 0.331808 0.293273 0.161698 0.217933 -0.020826 -0.424994 0.155765 0.010124 0.289484 0.522078 0.301833 -0.040531 -0.257076 0.183822 0.088314 0.230091 -0.255302 0.178773 -0.102689 
resulting -0.048104 0.101032 0.096597 -0.076701 0.096869 0.137795 -0.070774 -0.121739 0.154531 -0.022642 -0.093677 0.136596 0.090781 -0.011336 -0.077618 -0.030863 -0.168562 -0.153213 -0.015538 0.006242 
observed -0.091273 0.053884 0.289753 0.151598 0.263024 -0.125509 -0.044422 0.068569 0.147387 -0.057866 0.304086 -0.002527 -0.102890 0.136359 0.354642 -0.130287 0.041899 0.170748 0.109833 0.153384 
previous -0.231756 -0.068202 -0.155754 -0.007279 0.042650 0.211916 -0.153468 0.143291 0.047402 0.016873 -0.496193 0.149119 -0.105822 0.050533 -0.093320 -0.046353 0.060643 0.174217 0.025686 0.172606 
auditory 0.015563 -0.003836 0.457647 0.280217 -0.193583 0.229930 -0.783705 0.030111 -0.291952 -0.000422 0.202845 0.172932 -0.389084 -0.622678 0.286938 0.296394 0.042920 0.768096 0.047318 0.091447 
selection -0.073516 -0.095482 -0.177193 -0.192783 0.001529 -0.009459 0.225226 0.103710 0.257750 0.188919 -0.097133 0.109992 0.131947 0.178118 -0.051900 -0.090671 -0.346014 -0.001933 0.071973 -0.002887 
components 0.166426 0.097572 0.209459 -0.044443 0.248252 -0.280043 0.133175 0.132919 0.092487 0.195001 0.068351 0.124713 -0.436165 0.161921 -0.233410 0.014708 -0.265736 0.233396 0.124218 0.133198 
shows -0.036195 -0.111826 0.070922 0.062965 0.029270 0.127272 -0.163528 -0.098258 0.077132 0.164173 0.077360 0.336429 -0.217998 -0.049423 0.397695 0.008887 -0.251100 -0.103395 -0.032708 0.022176 
found -0.348396 0.238936 0.105211 0.216808 -0.107861 0.191765 -0.078656 0.101200 0.057551 -0.121295 -0.220313 0.223817 -0.048300 0.053967 -0.061241 -0.065918 -0.182524 0.139478 -0.016276 -0.050172 
result -0.132431 0.101443 0.100836 0.028668 0.123796 0.026598 -0.185614 -0.108211 0.014500 0.031579 -0.338403 0.032986 -0.012496 0.046849 0.121342 0.020477 -0.395950 -0.076661 0.080136 0.031169 
called -0.324431 -0.064128 -0.107004 0.003277 0.053436 -0.215632 0.070360 -0.096085 -0.079560 0.170385 -0.032063 0.185286 0.197969 -0.287052 -0.004496 -0.224554 0.193472 0.036892 -0.312456 -0.022097 
optimization -0.544853 -0.120500 -0.197607 -0.128997 0.267564 -0.126670 0.177803 0.081612 0.177230 0.130131 -0.449341 0.198855 0.302926 -0.146050 -0.283065 -0.173172 -0.146652 0.133186 0.105628 0.055953 
approximate -0.263496 0.308551 -0.131686 -0.276924 0.097062 -0.242614 0.331754 -0.079006 0.221520 -0.142388 -0.538049 0.162059 0.396614 0.383456 0.090007 -0.415821 -0.088747 -0.217687 -0.078098 -0.155759 
values 0.145272 0.261286 0.109124 -0.016716 0.473707 -0.004241 0.150238 0.004311 0.221841 0.319837 -0.074268 0.111742 -0.124146 0.174249 0.309884 -0.156004 -0.210982 -0.323433 0.002507 0.042392 
phase 0.143424 -0.115170 0.112422 0.212545 0.123173 0.069532 -0.314367 -0.003324 0.140142 0.199736 0.070623 0.191136 -0.114973 -0.043272 0.048199 0.103074 -0.059935 -0.135426 0.115983 0.116697 
distributions 0.277970 0.493049 -0.017289 0.023689 0.342288 -0.397025 0.137714 -0.037074 -0.130113 0.076161 -0.159896 -0.076619 0.092078 0.625461 0.119071 -0.088194 -0.180127 0.082050 -0.096753 0.136005 
provides -0.166384 -0.099209 -0.015356 0.036711 0.126514 0.163884 -0.025202 -0.019949 -0.004714 0.109503 -0.267715 0.099628 -0.103063 0.107624 -0.005503 0.079887 -0.158664 0.037491 0.069460 0.177851 
search -0.385760 -0.144341 -0.325739 -0.171072 0.124102 0.042945 -0.018397 0.009865 0.397249 0.079785 -0.283094 0.058512 0.046600 -0.047505 0.114266 -0.171099 -0.304392 -0.274792 0.357977 -0.183038 
up 0.156996 0.228902 0.231365 0.078491 0.229847 0.349821 -0.094159 -0.168731 -0.082487 0.162331 -0.012674 -0.044538 -0.047489 0.188014 0.051129 0.321978 0.113195 -0.019127 -0.053603 0.183162 
feedback -0.181104 0.196762 -0.335094 0.238134 0.173611 0.101016 -0.299737 0.126545 0.294809 -0.133241 0.188895 0.314816 -0.146160 -0.131473 0.130480 0.100359 0.252663 0.093039 -0.140799 -0.245864 
bounds -0.558357 0.116502 -0.430506 0.107443 0.011460 0.155697 0.081402 -0.426813 -0.241456 0.078020 -0.856898 -0.070592 -0.223897 0.129030 0.015694 -0.109483 -0.457103 -0.326937 -0.051457 0.152514 
em -0.267645 -0.285129 -0.212679 -0.273731 0.389267 -0.257245 0.564646 0.087698 -0.101457 -0.088376 -0.481283 0.198635 -0.034400 0.715959 -0.118358 -0.303875 -0.017822 -0.240062 0.185945 0.071143 
density -0.166783 0.138760 -0.131913 -0.058716 0.393298 -0.273341 0.408341 0.055070 -0.135472 0.045586 -0.276206 -0.130192 -0.080034 0.648497 -0.107300 -0.172304 0.034859 -0.198639 0.123941 -0.116631 
do -0.065654 0.173109 -0.018855 0.040344 0.268330 0.154824 -0.085822 -0.086543 0.096246 0.226604 -0.187533 0.071568 -0.089137 0.050745 0.145406 -0.121576 0.081640 -0.044457 -0.246964 -0.061228 
out 0.072987 0.087372 0.146253 0.053678 0.149214 0.055299 0.019372 -0.165258 0.163842 0.372642 0.125232 0.096941 -0.238530 0.234119 0.106110 -0.061223 0.039577 0.186394 0.201008 0.070815 
without -0.160291 0.190930 0.171176 -0.039505 0.096947 -0.115449 -0.082885 -0.173122 0.105709 -0.010331 -0.188517 0.121456 -0.321663 -0.056229 0.144501 0.008473 0.124463 -0.200973 -0.104149 0.186920 
map 0.226625 0.053752 -0.164927 0.201891 0.230609 -0.258083 -0.391919 0.036569 0.145628 0.133510 0.233470 0.199837 0.219825 0.143904 -0.107355 -0.150258 0.219223 0.055769 -0.223797 -0.058867 
classifiers -0.422064 0.104490 0.070026 0.177339 0.445978 0.218268 0.293041 -0.136625 -0.049979 -0.068501 -0.293704 -0.098505 -0.110550 0.290553 -0.387562 0.262885 -0.330554 -0.107713 -0.297209 -0.032472 
because -0.124492 0.341269 0.162801 0.101513 0.235231 0.291948 -0.033822 0.127340 0.118280 0.354769 -0.202769 0.163048 -0.241987 0.016912 0.116514 0.055177 -0.031284 0.118785 0.084077 0.025463 
compared -0.410313 -0.082531 -0.026711 -0.048407 -0.027468 0.236784 0.106022 -0.161628 -0.011835 -0.059279 -0.344181 0.130212 -0.208024 0.223468 0.014991 0.049836 -0.048289 0.050129 -0.072371 0.031244 
derive -0.345049 0.005504 -0.234242 -0.105660 0.175924 -0.131624 0.157804 0.051313 0.004809 0.068203 -0.337517 0.032189 0.017456 0.468475 -0.027469 -0.184512 -0.224210 -0.307615 0.241676 0.048024 
procedure -0.206713 -0.109311 -0.020603 -0.079641 0.308393 0.045812 0.297261 -0.107125 -0.026755 -0.005769 -0.335187 -0.017643 -0.086404 0.317508 0.199918 -0.007037 -0.084087 -0.022519 0.026841 0.059461 
measure -0.095785 -0.029079 -0.284093 0.074686 0.151152 0.032153 -0.008197 -0.152256 -0.063078 0.356874 -0.122323 0.047984 -0.138954 0.108575 0.064965 0.115214 -0.353587 0.007817 -0.072641 0.167912 
best -0.309145 -0.125783 -0.062500 0.000964 -0.013231 0.183743 -0.023649 -0.191007 0.133587 0.067191 -0.205441 0.002205 -0.188671 0.013307 0.070188 0.040091 -0.248841 -0.115007 -0.009090 -0.014659 
recurrent -0.638152 0.140857 0.161848 0.001972 -0.052213 -0.052701 -0.384317 -0.083886 -0.443843 -0.257339 -0.014285 0.212515 0.165533 -0.224714 -0.396133 -0.254510 0.839249 0.372096 -0.573567 -0.168459 
component 0.184866 0.151077 -0.232409 -0.216942 0.539619 0.146552 0.722918 0.236584 0.230266 0.321970 0.106597 0.524711 -0.440526 0.023629 -0.582076 -0.229299 -0.150289 0.430308 0.561603 0.167914 
stimuli -0.171716 0.121799 0.349561 0.217987 0.211709 0.134981 -0.225587 0.267837 -0.135578 0.199626 0.350980 0.185684 -0.466806 -0.181778 0.384552 0.220052 0.039319 0.446446 0.261682 -0.062382 
much -0.092789 0.048501 -0.003696 0.217424 0.272098 0.909527 -0.031609 0.180926 0.188948 0.123239 -0.355961 0.128429 -0.307444 0.220500 0.114556 0.107380 0.117115 0.043624 -0.107213 0.076307 
does 0.136555 0.190634 0.150331 -0.002248 0.213452 0.203855 -0.073963 -0.140547 0.041750 0.261852 -0.062568 0.232552 -0.076366 -0.072538 0.290924 -0.034388 -0.102803 -0.200462 0.066182 -0.052996 
eg 0.057959 0.192740 0.179958 0.007697 0.233859 -0.163393 -0.065476 0.017774 -0.011391 0.229182 -0.122678 0.057285 -0.050352 0.120934 0.131615 0.027353 -0.128302 -0.005266 0.007249 0.213567 
after 0.214965 0.294522 0.257324 0.118851 0.502460 0.104513 -0.089077 -0.345153 0.353553 0.154923 0.094739 0.105856 -0.379057 0.018026 0.484028 0.173708 0.092721 -0.376438 0.026619 -0.042896 
rules -0.103451 -0.039731 0.117212 0.125823 0.015436 -0.091966 0.141211 -0.043917 -0.147552 0.114785 -0.035439 0.074095 0.019000 0.345191 -0.038686 -0.259459 0.170655 0.164508 0.090459 -0.065784 
sample -0.177157 0.237774 0.084548 -0.226794 -0.019369 -0.084647 0.271282 -0.203051 0.182246 0.272806 -0.174115 -0.005418 -0.044890 0.135722 0.088112 0.057510 -0.313611 -0.171476 -0.231496 0.283931 
corresponding 0.318211 0.289704 0.115119 -0.049638 0.340956 -0.201479 -0.103363 -0.076730 0.194456 0.443705 0.144118 0.204240 -0.054926 0.031226 0.288033 -0.032350 -0.147289 -0.097626 0.021384 0.043764 
detection 0.005241 -0.126645 0.085360 0.191564 -0.054650 0.067951 -0.253577 0.022263 0.026514 -0.130215 -0.176372 0.102692 0.048169 0.134228 -0.059756 0.417167 -0.296756 0.401767 0.039824 0.341087 
accuracy -0.338239 -0.117281 0.241463 -0.005144 0.072830 0.287626 -0.021626 0.089635 0.231849 -0.039635 -0.360924 -0.062458 -0.344904 0.072293 0.019377 0.347039 -0.192932 0.111049 -0.040278 0.207999 
cell 0.013757 -0.231366 0.332432 0.257544 0.315170 0.090078 -0.406490 0.174090 -0.067939 0.132078 0.769118 0.229882 -0.025285 0.102752 0.158859 0.211829 0.089543 0.195120 -0.002925 -0.202719 
simulations -0.402000 -0.115741 0.107517 -0.015748 -0.040216 0.058750 -0.148594 0.003761 0.174922 0.094143 -0.261916 0.188900 0.007336 0.114879 -0.030991 0.025264 0.029785 0.221998 0.204950 0.087229 
average -0.019782 0.349454 0.080751 -0.065207 0.139477 0.180421 0.086402 -0.286913 0.106481 0.270413 -0.208487 0.219998 -0.254240 -0.096190 0.333018 -0.010439 -0.193191 -0.330676 0.072440 0.142376 
sequences 0.080296 -0.097811 0.197006 -0.140792 0.275742 -0.106194 -0.141545 -0.052668 0.378985 -0.100844 0.277586 0.085268 0.235064 0.155002 -0.000985 -0.072561 -0.008142 0.309251 -0.201991 0.129738 
chip 0.163891 -0.029942 0.387687 0.305860 -0.305894 -0.070033 -0.564944 -0.063275 -0.088567 0.134502 0.083901 0.394454 0.120907 -0.081593 0.210152 -0.033637 0.488379 0.350925 -0.170044 -0.010595 
current 0.234853 -0.110098 0.080515 0.149654 0.370965 -0.061709 -0.151501 -0.190954 0.221078 0.149781 0.103896 0.291823 0.052241 -0.045063 0.184067 -0.043902 0.278466 -0.370667 0.241061 -0.005262 
knowledge -0.007665 0.207264 -0.022672 -0.021281 0.295831 -0.032838 -0.057436 0.202787 -0.102822 0.086091 -0.136343 -0.167626 0.219096 0.338234 0.001089 0.002017 -0.004871 0.087390 -0.301236 0.252908 
often -0.259771 -0.020667 0.094745 0.051726 0.105073 0.264992 -0.071552 0.053563 0.064251 0.028771 -0.205355 -0.032269 -0.058636 0.121829 -0.062493 0.155164 -0.082006 -0.082306 0.068347 0.117906 
nodes 0.232972 0.368713 0.149152 0.056641 0.447237 -0.445241 0.022759 -0.251296 -0.049677 0.137638 0.470348 0.279002 0.107061 0.293367 0.043167 -0.262725 0.394766 0.192462 -0.074989 0.068997 
give -0.305373 0.128662 -0.008142 -0.050962 0.185386 0.139117 0.013959 -0.120361 0.178882 0.017854 -0.334791 0.068411 -0.092552 0.157829 0.023452 -0.035512 -0.168399 -0.201275 0.103822 0.115295 
cases -0.167026 -0.223159 -0.106271 -0.000850 0.072850 0.145935 -0.041518 -0.136296 0.321828 0.011104 -0.040576 -0.021759 -0.222289 0.245410 0.210741 0.264360 -0.361111 0.031730 -0.004347 -0.016218 
belief -0.281536 0.319046 -0.162143 -0.779653 -0.047902 0.101946 0.046975 -0.371645 0.361621 0.068033 -0.447159 0.211078 0.411093 0.204739 -0.038113 -0.562956 0.560329 -0.162682 -0.043552 -0.186903 
described -0.144198 -0.211792 -0.019967 0.080862 -0.009338 -0.063033 -0.224254 0.037450 0.091187 -0.087362 -0.028605 0.094824 0.190296 -0.012811 0.088282 0.065872 0.056399 0.246879 0.042799 -0.073570 
theoretical -0.389735 -0.190565 -0.018418 -0.109049 -0.097867 0.133447 -0.060377 -0.014333 0.118112 0.139490 -0.442572 0.186352 0.113025 -0.030516 -0.189887 0.063768 -0.298713 0.174465 0.233779 0.231805 
applications -0.256876 -0.041615 0.060476 0.105556 -0.116104 0.133562 -0.062279 -0.020480 0.107626 -0.155296 -0.232577 0.103538 -0.117574 -0.072636 -0.054096 0.038980 0.041476 0.426291 -0.130344 0.082611 
sequence 0.044217 -0.143183 0.187321 0.019623 0.290604 -0.109063 -0.069021 -0.149090 0.269383 0.009550 0.026290 0.067376 0.027594 0.223684 0.058276 -0.161143 0.056052 0.127259 -0.144346 0.151588 
introduce -0.097979 -0.192675 -0.289136 -0.169958 0.067415 -0.284132 0.150449 -0.168466 -0.015050 0.186994 -0.281592 0.057776 0.342399 0.326675 -0.126636 -0.261061 -0.255461 -0.011193 0.097338 -0.001364 
scale 0.076498 -0.062903 0.406490 -0.069963 -0.023480 0.021038 -0.206022 -0.111924 0.298002 0.032525 0.064158 -0.043650 0.288961 0.258114 -0.084565 0.063074 -0.110904 0.126804 -0.256979 0.236922 
prior 0.290509 0.157392 -0.187561 -0.036673 0.296137 -0.341127 0.062884 -0.096021 0.037472 0.355152 -0.219593 -0.149019 0.088902 0.498745 0.129905 0.048990 -0.221794 0.026981 -0.347064 0.061494 
et -0.000605 -0.940347 0.251576 0.969583 -0.438742 -0.538586 -0.705498 -0.275918 -0.563768 0.474883 -0.546080 0.349950 -0.282728 0.342924 0.466510 -0.203831 -0.408661 0.344193 0.468842 -0.415314 
processes -0.221936 0.077990 0.163002 -0.135891 0.435633 -0.274721 0.194060 -0.112262 -0.410077 -0.110054 -0.102983 0.298715 0.257179 0.528585 -0.193820 -0.071778 0.256299 -0.177292 0.108383 0.286024 
world -0.408237 -0.736384 -0.220977 -0.331522 -0.088303 0.398723 0.080163 -0.544644 0.776376 0.015895 -0.562733 0.100847 0.038804 -0.207517 -0.110597 0.098738 -0.142537 0.412464 -0.136501 0.147248 
finite -0.367908 0.095070 0.161977 -0.351743 0.481913 -0.298493 0.280792 -0.369776 -0.064181 0.203112 -0.058122 0.200779 0.170899 -0.040118 0.038532 -0.265236 -0.167808 -0.256258 -0.197938 0.026445 
target 0.192413 0.104327 0.118592 0.202183 0.414603 0.044064 0.000254 0.011637 -0.034391 0.117610 0.052032 0.088033 -0.280439 0.010745 0.413272 0.108851 -0.219410 0.008179 -0.040473 0.199920 
application -0.281544 -0.161231 -0.108510 0.018776 -0.099193 0.110297 0.008849 -0.055412 0.075031 -0.126767 -0.399532 0.094578 0.322941 0.015849 -0.142136 -0.077302 -0.085724 0.254735 -0.073821 0.092860 
including -0.402660 -0.181690 0.077768 0.126592 0.374920 -0.043589 -0.059022 -0.050503 0.073818 -0.143747 -0.257184 0.149594 -0.044800 0.129394 -0.118888 0.200312 -0.129826 0.142646 -0.152088 0.164241 
positive 0.402603 0.000113 0.044702 0.223083 0.318134 -0.350027 -0.055047 -0.001953 -0.077845 0.541243 0.022583 0.066887 -0.102340 0.230990 0.011368 -0.197910 -0.232799 -0.064390 0.239447 0.078088 
higher -0.105456 0.633165 0.000403 0.009662 0.080542 0.431430 -0.215270 0.187861 0.005244 -0.109226 -0.044869 0.243853 -0.339424 0.253824 -0.028539 0.392600 -0.198805 0.268014 -0.133238 -0.008207 
predictions -0.002476 -0.146324 0.106057 0.062429 0.290014 -0.028709 -0.001095 -0.139391 -0.162952 0.137474 -0.204538 0.105313 -0.047764 0.184298 0.197157 -0.030890 0.092520 -0.058046 0.114037 -0.041942 
modeling -0.325377 -0.147058 -0.097551 -0.003278 0.166585 -0.020652 -0.136614 -0.008405 -0.062380 -0.164921 -0.205764 0.045346 -0.008306 0.055463 -0.089154 -0.012763 0.064794 0.534911 -0.100320 0.067953 
vectors 0.433428 0.271222 0.112465 -0.083716 0.389059 -0.132189 0.377723 -0.027580 0.369193 0.429939 0.084516 -0.012614 0.046134 0.031390 -0.240006 0.068868 -0.322999 -0.076609 -0.264034 0.147623 
spatial 0.206447 0.070141 0.136615 0.145876 0.046841 -0.170538 -0.350592 0.231880 -0.106471 0.137069 0.159860 0.027476 -0.068971 0.250482 -0.088807 0.203595 -0.235639 0.325903 -0.002099 0.226631 
like -0.003269 0.125170 0.164550 0.103601 0.288529 0.168105 -0.135147 0.120456 -0.028629 0.140449 0.086023 0.103649 -0.038111 0.172129 -0.005942 0.057679 -0.092553 0.082646 0.017686 -0.080963 
hand 0.114827 -0.017972 0.267417 0.141899 0.376004 0.178753 -0.263621 -0.069420 0.203414 0.032502 -0.002698 0.061241 0.034312 0.120822 0.178749 0.264912 -0.063510 0.132488 -0.139954 0.290468 
actions 0.036590 0.023103 0.171001 -0.091656 0.527241 0.108389 -0.203607 -0.055402 0.018444 0.189083 -0.054966 0.125032 0.034455 -0.010339 0.243874 -0.084482 0.010083 -0.067202 0.061316 -0.018822 
developed -0.503911 -0.075180 -0.059506 0.463375 -0.259559 -0.187931 -0.060791 0.222183 0.001669 -0.245249 -0.019675 0.029511 0.027143 0.207149 -0.070309 -0.443738 0.360846 0.519263 -0.107073 -0.167137 
compare -0.540139 -0.254466 -0.064418 -0.124829 -0.141065 0.269160 0.121275 0.000544 0.027086 -0.194361 -0.441173 0.262748 -0.158923 0.097022 -0.013353 0.140668 -0.284134 0.141474 0.125902 0.142588 
cost -0.276482 0.347411 -0.200861 -0.024537 0.224395 -0.085985 0.058772 0.037243 0.006620 0.071748 -0.307308 -0.034560 0.075267 0.214505 0.006530 -0.411426 -0.583772 -0.517439 0.052510 -0.041385 
al -0.079802 -0.346076 0.009862 1.051255 -0.782237 -0.219053 -0.965665 -0.478542 -1.168991 0.198347 -0.863973 0.472216 -0.181747 0.194867 0.364115 -0.135709 -0.536928 0.425458 -0.100409 -0.004843 
frequency 0.108969 0.173666 0.366367 0.335299 0.091755 0.139004 -0.550637 -0.003890 0.058920 0.175919 0.320546 0.253434 -0.407219 -0.171243 0.330362 0.299246 -0.091893 0.242065 0.186936 0.180766 
generated -0.089726 0.068953 0.360771 -0.033242 0.374029 0.059485 0.139161 0.019460 -0.002306 0.170937 0.151942 -0.158621 -0.337159 -0.032237 0.147955 0.054321 0.159956 -0.019256 -0.070107 -0.021657 
range -0.033323 0.059057 0.092147 0.202512 0.056402 -0.065596 -0.351674 0.168504 0.195613 0.283854 -0.002616 0.133939 -0.170443 0.113251 0.029110 0.138626 -0.199031 0.309789 0.003459 -0.033859 
action 0.351084 -0.234267 0.191469 -0.145309 0.457873 -0.209848 0.048426 -0.437904 0.148265 0.271517 0.219767 0.293757 0.201711 0.037664 0.160595 -0.191705 0.136543 -0.381957 0.147183 -0.077011 
good -0.305544 0.028316 0.024199 -0.145837 -0.071638 0.182095 0.011596 -0.117575 0.184867 0.073739 -0.384357 0.027612 0.067433 -0.050001 0.022099 0.079825 -0.139336 -0.185232 -0.063975 0.126575 
cortex 0.092346 0.154902 0.294737 0.531164 -0.007708 0.196586 -0.682916 0.348920 -0.183543 -0.026718 0.426761 0.080983 -0.074963 -0.167089 0.250949 0.350966 0.141938 0.621911 0.022915 -0.157705 
fixed 0.065360 0.275777 0.082329 -0.187912 0.400728 -0.023089 0.093058 -0.128151 0.221997 0.210766 -0.194838 0.167655 -0.011311 -0.008317 0.034556 -0.129149 0.064687 -0.176963 -0.162983 0.080403 
constraints 0.003739 -0.026431 0.084898 0.029000 0.184116 -0.173266 -0.109997 0.138757 -0.050329 0.139060 -0.043144 -0.007173 0.001141 0.227913 -0.014073 -0.047531 -0.055816 0.048779 0.046735 0.019829 
global 0.036414 0.275079 -0.041910 0.092360 0.163319 0.019708 0.011296 0.118619 0.086276 0.140683 -0.218577 0.071366 -0.030172 0.158250 -0.020591 -0.138715 -0.164704 -0.052536 0.159939 0.093711 
node 0.382580 0.111373 0.200187 0.221208 0.103252 -0.326562 -0.048150 -0.224342 -0.177026 0.314722 0.454493 0.194388 -0.055080 0.184881 0.371749 -0.436172 0.593616 0.400269 -0.089163 -0.190311 
computation -0.010078 -0.071260 0.041964 -0.037924 0.063799 0.040225 -0.165296 0.053373 -0.138893 0.125370 -0.039347 0.334386 0.091937 -0.007183 -0.025743 -0.036708 0.146319 0.128843 -0.067077 0.004289 
distance 0.073142 0.164603 -0.258352 0.240464 0.255479 -0.177792 0.073519 0.234895 -0.066694 0.335475 -0.092121 -0.098237 -0.074288 0.262130 0.103280 -0.346545 -0.555127 -0.101060 0.002681 -0.149367 
classes -0.096473 0.182097 0.063292 0.132975 0.497957 -0.040949 0.187387 0.200191 0.092919 -0.011175 -0.076365 -0.026741 -0.059303 0.183775 -0.017383 0.049404 -0.258928 0.106150 -0.267073 0.147288 
related -0.112481 -0.026474 -0.084516 0.075459 0.256260 0.085831 -0.022277 0.034538 0.148088 0.272172 0.024754 0.138746 -0.101657 0.323296 0.105965 0.036195 -0.091519 0.193842 0.173952 0.081796 
binary -0.264176 0.089796 0.144544 -0.055106 0.434741 -0.168674 0.179390 -0.215785 0.121195 -0.042501 -0.209798 0.063125 0.087960 -0.003503 -0.183475 0.110306 0.154645 0.039039 -0.255730 0.224520 
recent -0.350839 -0.230262 0.065156 -0.000631 -0.141770 0.394969 -0.126589 0.269229 -0.028495 0.193593 -0.211729 0.203840 -0.071195 0.057479 0.116631 -0.152297 0.121931 0.508342 0.204053 0.098589 
outputs 0.147848 0.495038 0.180069 0.039242 0.334057 -0.148285 -0.090823 0.055831 -0.108379 0.226259 0.104809 0.466999 -0.199785 -0.172060 0.101910 0.069820 0.246705 -0.113376 -0.108616 -0.014522 
term 0.092047 0.342435 -0.052019 0.184394 0.176943 -0.020512 -0.105248 0.071264 0.329670 0.111730 -0.237936 0.287174 -0.047451 -0.103773 0.173348 -0.003938 -0.024066 0.132511 0.265356 0.027471 
specific 0.014474 0.056930 0.075750 -0.042371 0.114759 0.033909 -0.283980 0.074459 0.081769 0.034286 0.142023 0.117880 -0.074787 0.058431 0.003970 0.037967 -0.104532 0.141395 -0.141944 0.064814 
variable 0.021265 0.008075 0.029844 -0.080148 0.508097 -0.208124 0.124794 -0.121351 0.180445 0.033511 0.127458 0.080228 0.014165 0.141912 0.086368 -0.118824 0.183719 0.020710 -0.096707 0.166459 
estimates 0.012116 0.168056 -0.119272 -0.030487 0.155754 -0.015924 0.219556 -0.070436 0.139607 0.098027 -0.317069 0.074836 -0.028771 0.356343 0.187463 -0.102219 -0.229220 -0.148336 0.162497 0.010023 
kernels -0.324567 -0.036721 -0.196326 0.004807 0.252946 0.078004 0.172031 0.153488 0.292086 0.088453 -0.413842 0.007791 0.297535 0.406505 -0.375451 0.085037 -0.327884 0.104004 0.015808 0.065418 
threshold -0.028770 0.383078 0.321688 0.341005 0.341746 -0.210441 -0.228586 0.000519 -0.275979 0.354452 0.406473 0.210349 0.029137 -0.140666 -0.118494 -0.479229 0.099548 -0.280558 -0.124602 -0.139267 
supervised -0.661981 -0.433753 -0.226488 0.101014 0.124826 0.052123 0.110011 0.025381 -0.056089 -0.190336 -0.349475 -0.044752 0.289393 0.201601 -0.244998 -0.118299 -0.018701 0.070200 0.058138 0.051831 
relevant 0.497359 0.184380 -0.068290 0.015966 0.206268 0.142247 0.313768 0.073026 0.532861 0.180702 0.472940 -0.133426 -0.365130 0.931699 -0.037759 0.310036 -0.469515 0.430924 -0.146991 0.151928 
derived -0.317809 0.026172 0.059466 0.071636 0.149965 -0.030845 0.068482 0.009021 -0.129043 -0.013247 -0.171383 0.138573 0.075201 0.168008 -0.058580 -0.233440 -0.199037 0.008532 0.063586 -0.033792 
us 0.073862 0.493573 -0.031754 0.054521 0.444774 -0.058444 -0.106545 0.024696 0.015358 0.040227 -0.082464 -0.069873 0.049113 0.345405 -0.012771 0.008370 -0.225887 -0.079398 -0.187898 0.067848 
connections -0.024611 0.345294 0.233347 -0.017113 0.198885 -0.040747 -0.170911 0.036268 0.188057 0.099187 0.410052 0.289487 -0.075682 -0.226767 -0.090353 0.026634 0.184306 -0.084545 -0.038033 -0.058302 
lower -0.271686 0.308417 -0.008228 0.057304 0.008833 0.256438 -0.104494 -0.491814 -0.178977 0.195501 -0.517384 -0.015362 -0.570154 0.117091 0.197420 0.132310 -0.508992 -0.177280 -0.113133 0.078862 
rather 0.034655 0.346408 0.148491 0.124204 0.218617 0.472809 -0.414189 -0.075397 -0.081499 -0.144327 -0.779566 0.263694 -0.324346 0.068809 0.238549 0.134504 0.041899 -0.248874 -0.301869 0.345574 
adaptive -0.425895 -0.128640 -0.201665 -0.062279 0.039692 0.064274 -0.194759 -0.175620 0.023591 -0.159617 -0.331915 0.433913 0.089680 -0.017069 -0.012741 -0.169607 0.239252 0.174580 -0.062524 -0.036609 
should 0.016190 -0.007317 0.158834 0.056736 0.232248 0.083034 -0.062536 -0.040698 0.112493 0.269877 0.018727 0.018542 -0.073672 0.296560 0.064963 0.068966 -0.045644 0.024036 -0.025885 0.069178 
able -0.168909 0.047986 -0.010229 0.087650 0.060616 0.008252 -0.060889 -0.018359 0.086370 -0.019922 -0.055156 0.034740 0.006230 0.153472 -0.040037 -0.010829 0.062841 0.135052 0.038209 0.009604 
zero 0.249366 0.376606 0.210686 -0.023920 0.357566 -0.130443 0.061731 -0.129381 0.231146 0.302301 0.087117 0.236797 -0.254246 0.234664 0.113270 -0.174496 -0.012963 -0.228198 0.062160 0.075326 
significant -0.134091 -0.081794 0.071832 -0.125334 -0.075353 0.146498 -0.066771 -0.118645 0.234411 0.081342 -0.216364 0.289478 -0.206779 -0.060350 -0.011011 0.292230 -0.164907 -0.049529 0.079741 0.192263 
sparse -0.053356 0.178159 0.018648 -0.119035 0.148894 -0.190105 0.118799 0.049718 0.257218 0.145116 -0.035702 0.073766 0.094260 0.204472 -0.135712 -0.100538 -0.191853 0.175469 0.026649 0.084050 
noisy -0.126944 0.194310 0.266778 -0.037456 0.213794 -0.013835 -0.248074 -0.044448 0.106197 -0.060399 -0.001063 0.028449 0.032619 0.026179 -0.079961 0.075650 -0.046211 0.152697 -0.147813 0.206958 
unit 0.347976 0.389544 0.261494 0.064281 0.596012 -0.399759 -0.142449 -0.087199 0.090336 0.101064 0.618877 0.423003 -0.032720 -0.163812 0.101055 -0.158154 0.473933 -0.211891 -0.040790 0.148761 
difficult -0.279949 0.072677 -0.048577 -0.115523 0.091078 0.271462 -0.013274 -0.047305 0.267679 0.039571 -0.353576 0.032049 -0.056853 0.102096 -0.044548 0.058206 -0.136577 0.084388 -0.144546 0.092246 
power -0.019898 0.185967 0.087958 0.286667 -0.079061 -0.010494 -0.398391 0.018135 0.151211 -0.051073 0.096683 0.037475 -0.006512 -0.035570 -0.037787 -0.064099 -0.069722 0.071397 -0.060971 -0.066571 
conditional 0.151111 0.427742 -0.163280 -0.260856 0.253075 -0.463844 0.383764 -0.259559 0.076032 -0.057401 -0.239952 0.074625 0.018591 0.479067 0.211474 -0.148149 0.028161 -0.081395 0.084145 0.231909 
graph -0.087960 -0.063029 -0.319739 -0.163051 0.175983 -0.166489 0.234177 0.048110 0.220581 0.137516 -0.201827 0.083155 0.395857 0.379514 -0.010051 -0.157493 -0.093063 0.226819 0.061805 -0.046433 
posterior 0.137366 0.514358 -0.272329 -0.206685 0.342435 -0.352696 0.319035 -0.173736 0.032033 0.099629 -0.412882 -0.081837 0.102863 0.595890 0.314239 -0.211616 -0.042724 -0.068582 0.156753 0.124678 
due -0.011572 0.046970 0.223516 -0.027672 0.012287 -0.014592 -0.240871 0.006094 0.074971 0.264858 -0.058019 0.006352 -0.007980 0.076395 0.104037 -0.003909 -0.118728 0.015923 -0.019783 -0.007973 
margin -0.180734 -0.076780 -0.091613 -0.026129 0.118403 0.085171 0.480039 -0.197429 -0.015742 0.329695 -0.562393 -0.033749 0.033986 0.213324 -0.131934 -0.033825 -0.476029 -0.338875 0.004280 0.112951 
firing 0.193891 0.444943 0.361175 0.337947 0.177621 0.507036 -0.225756 0.148305 -0.442595 0.282124 0.275800 0.184679 -0.553563 -0.251021 0.404774 0.137119 0.152307 0.182677 0.642344 0.313524 
eye 0.081493 -0.039944 0.484204 0.150344 0.250014 0.007820 -0.410537 0.128124 0.455649 0.081263 0.585724 0.105546 -0.139511 -0.029255 0.254307 0.103828 0.014938 0.476258 -0.067816 0.300897 
would 0.185610 0.199027 0.192316 0.028443 0.177319 0.110331 -0.027155 0.004616 0.085495 0.241168 -0.131623 0.055263 -0.168028 0.122362 0.174889 0.067181 -0.011215 -0.064440 -0.075783 0.154342 
compute -0.031542 0.160137 -0.076284 0.041429 0.297753 -0.047520 0.123629 0.049220 0.163054 0.101005 -0.072163 0.055372 0.242746 0.255250 -0.089696 -0.227741 -0.003285 -0.134456 -0.102446 -0.131425 
discrete -0.196237 0.016991 0.119496 -0.074656 0.358497 -0.128346 0.112416 -0.277605 -0.027904 -0.126244 -0.173651 0.109111 0.085862 0.132036 -0.168910 -0.009200 0.242803 -0.090006 -0.050093 0.207484 
dependent -0.016462 0.045017 0.158468 0.055782 0.094039 -0.044244 -0.187359 -0.103545 0.089363 -0.030491 0.064367 0.169625 -0.154707 -0.121229 0.275487 -0.017116 0.290925 0.091841 0.134739 0.175044 
probabilities 0.161324 0.200760 0.061705 -0.169789 0.489858 -0.138685 0.272340 -0.313889 0.117085 0.072988 0.042872 0.138623 0.074905 0.235379 0.168980 -0.234466 0.334689 -0.295280 0.264183 0.179282 
distributed 0.022509 0.251061 0.137875 -0.083353 0.224789 -0.124892 -0.116346 -0.040844 0.005545 0.141368 -0.080749 0.047156 0.040605 0.240408 -0.163479 -0.154797 0.187009 0.172909 0.006613 0.120674 
suggest -0.233325 -0.156339 0.182832 -0.120876 -0.116023 0.193302 -0.158205 0.115842 0.251243 -0.030582 -0.186380 0.052219 0.024249 0.088016 0.033379 0.091691 -0.162315 0.225529 0.212984 0.210515 
stimulus 0.155034 0.291420 0.289535 0.249588 0.270515 0.171350 -0.134874 0.221913 -0.177156 0.299116 0.258797 0.148409 -0.419741 -0.215743 0.442891 0.234433 0.001999 0.036110 0.228908 0.130017 
goal -0.152780 -0.191729 -0.059612 0.106565 0.259187 0.094633 0.028065 -0.069741 0.199985 0.166525 0.040320 0.095348 -0.008484 -0.018849 0.307447 0.015556 0.159582 0.047179 0.207799 -0.061257 
obtain -0.071966 0.218770 -0.104327 0.021247 0.124951 0.097970 0.060009 -0.104564 0.005210 0.037266 -0.309160 -0.064871 -0.081258 0.347320 0.169375 0.136120 -0.242207 -0.140518 0.073774 0.117204 
them -0.017614 0.013180 -0.028529 0.226704 0.166201 0.063578 -0.151160 -0.034149 0.171955 0.000830 0.071610 0.084240 -0.116530 0.033419 0.132565 0.174481 -0.235808 0.047400 -0.009191 0.015553 
mapping 0.074596 0.174769 0.190324 -0.040986 0.442008 -0.017485 0.073469 -0.035223 0.118107 0.206228 0.039095 0.175948 -0.097656 0.096009 -0.043579 -0.059798 0.161353 -0.091492 0.094018 0.058031 
variance 0.062634 0.269834 0.012871 0.012880 0.199040 -0.186023 0.223176 -0.201610 0.146670 0.233537 -0.339731 0.199294 -0.233103 0.173809 0.262928 -0.243250 -0.269796 -0.174589 0.174833 0.394750 
position 0.632008 0.188144 0.367184 0.117783 0.272078 0.186865 -0.093824 -0.035309 0.344487 0.353500 0.459254 0.008733 -0.019701 0.079506 0.086194 -0.015059 0.116513 0.098395 -0.015179 0.144196 
cortical -0.080024 0.189124 0.385351 0.087330 0.078731 0.187657 -0.409169 0.445759 -0.079092 0.225514 0.577423 0.177311 -0.093214 -0.373330 0.244049 0.227093 0.181890 0.364194 0.152622 0.020650 
following -0.006932 0.076500 0.050007 0.146594 0.321867 -0.082245 0.032139 -0.022656 -0.032397 0.310919 -0.238912 0.087070 -0.007122 0.198221 0.232616 -0.188410 -0.060171 -0.202138 0.064434 0.116382 
series 0.041428 0.461230 -0.170372 -0.146887 0.279291 0.033565 -0.330536 -0.266344 0.196295 -0.116089 -0.068365 0.201489 0.378086 0.135266 0.177248 -0.008491 0.088496 0.082132 -0.047491 0.243733 
machines 0.321514 0.162398 -0.242044 0.498067 0.436209 0.459878 0.696504 -0.010555 0.291386 0.252194 -0.834086 -0.367516 0.515603 0.249039 -1.073747 0.526472 -0.308430 -0.196776 -0.132725 -0.188443 
part 0.017683 -0.028420 0.225529 0.154561 0.221212 -0.016734 -0.157530 -0.157606 0.130975 -0.012800 -0.028110 0.234151 -0.088145 -0.035823 0.150030 0.096763 0.208752 0.063797 -0.219136 0.292987 
iteration -0.043880 0.039854 -0.144704 0.060548 0.355529 0.351353 0.141264 -0.154649 0.645355 0.052886 -0.163062 0.476288 0.260376 0.114792 0.370056 -0.256604 -0.273652 -0.740275 0.163900 -0.276676 
certain -0.051038 0.056106 -0.098469 0.105243 0.279118 -0.021071 0.030501 0.006532 -0.007782 0.153985 -0.065240 0.084270 -0.035515 0.078657 0.024757 0.039930 0.003617 -0.247877 0.096927 0.008889 
long -0.078138 0.010867 0.038656 0.281412 0.221689 -0.195475 -0.132791 0.089576 0.158659 0.050733 0.026306 0.337265 -0.128952 0.072808 0.174604 -0.268262 0.222608 0.206364 0.187321 -0.032341 
demonstrated -0.332863 -0.164811 -0.165117 0.182057 -0.037558 0.047791 -0.093238 -0.041924 0.211203 -0.001412 -0.216141 0.230515 -0.155677 -0.023553 0.083406 -0.290334 0.077689 0.286817 -0.094417 -0.110564 
sensory -0.051268 0.244045 0.212197 0.149581 0.031144 0.134482 -0.416815 0.031810 0.185912 -0.256809 0.295814 0.468126 -0.267052 -0.400412 0.193142 0.278587 0.129434 0.242803 0.055499 0.117130 
true 0.181253 0.379426 -0.157373 -0.201629 0.300717 -0.122194 0.197355 -0.106488 0.146823 0.201067 -0.347684 0.135545 -0.038204 0.216718 0.368717 -0.178986 -0.226512 -0.201975 0.065357 0.131831 
empirical -0.227807 0.006549 -0.107940 0.006723 -0.101147 0.087988 0.172458 -0.171005 0.057208 0.042729 -0.651225 0.140970 0.053339 0.218370 -0.041310 -0.134257 -0.400962 0.038406 0.013511 0.448566 
domain 0.032766 -0.069867 0.019851 0.070790 0.098007 -0.158405 -0.196308 0.278122 0.023571 0.087510 0.097678 0.064252 0.157486 0.351695 -0.006914 0.071135 -0.343571 0.244789 -0.085558 0.007889 
expected -0.144160 0.140848 -0.031800 0.092541 0.229825 0.089852 0.116659 -0.224547 -0.068667 0.309572 -0.429859 0.355753 -0.157037 -0.135737 0.287895 -0.209696 -0.312848 -0.443666 0.163650 0.123607 
parallel -0.019233 0.009747 0.361037 0.085618 0.096046 0.044351 -0.327619 -0.039446 -0.179677 0.012951 0.033823 0.246636 0.059523 -0.105203 -0.018719 0.034224 0.125353 0.111130 -0.148090 0.046037 
regions 0.121846 0.234429 0.044019 -0.069563 0.225558 -0.190192 -0.180870 0.025595 0.309110 0.172764 0.199906 -0.007962 -0.112835 0.258486 0.066131 0.094631 -0.322956 0.204962 0.101641 0.187491 
individual 0.065934 0.276386 0.126580 0.082155 0.211326 -0.085580 -0.134338 -0.139873 -0.015041 0.039691 -0.060678 0.127390 -0.438074 0.027637 0.092790 0.314808 -0.144545 0.067328 0.188255 0.108182 
recently -0.510345 -0.115353 -0.356797 0.499438 -0.093208 0.086235 0.021297 0.278676 0.271026 -0.015513 -0.109088 0.063334 -0.045893 0.193768 0.071519 -0.338524 0.281841 0.473498 -0.071777 -0.369622 
minimum -0.036436 0.179667 -0.077788 0.174293 0.222441 -0.174759 0.184171 -0.126954 -0.121523 0.271179 -0.391533 0.015431 -0.149007 0.055009 0.103860 -0.162434 -0.323498 -0.117155 0.164971 0.114727 
statistics -0.086807 0.517343 -0.018384 -0.035347 0.084600 0.009554 0.029211 0.174672 0.208791 0.104858 0.013172 -0.056898 -0.214080 0.399721 -0.048274 0.108942 -0.296608 0.393038 -0.061098 0.011466 
train 0.126309 0.220575 0.451544 0.346869 0.370010 0.237190 -0.270336 0.101800 -0.271357 -0.111174 0.224024 0.097174 -0.647822 -0.079362 0.157826 0.198932 0.207092 -0.104530 -0.083113 0.341045 
rates -0.070887 0.221754 0.082588 0.294096 0.106926 0.588574 0.107453 0.140639 -0.296290 0.083676 -0.452202 0.073703 -0.348925 -0.027388 0.121362 0.125557 -0.132714 -0.184291 0.346789 0.205689 
dynamical -0.298903 -0.093358 0.032871 -0.164728 0.134775 0.010199 -0.002251 -0.198366 -0.317193 -0.032047 -0.015761 0.271603 0.069020 -0.305378 -0.215273 -0.052231 0.145490 0.076741 0.187531 0.071999 
required -0.113052 0.027844 0.297442 0.026713 0.390558 0.107363 -0.042982 -0.238453 -0.021000 0.205739 -0.211307 0.214146 -0.208686 -0.148944 -0.078809 0.016386 0.064219 -0.015415 -0.092859 0.088499 
significantly -0.225324 0.022710 -0.026050 0.112440 0.019727 0.511120 -0.040591 -0.052008 -0.048621 0.024273 -0.586848 0.202020 -0.263759 0.056420 0.119595 0.157929 -0.162286 -0.118129 -0.150040 0.052823 
computer -0.094530 -0.102192 0.061678 0.196791 -0.067210 0.065809 -0.257102 -0.017826 0.058804 -0.027959 0.038701 0.174332 -0.008774 -0.094262 0.176892 0.054160 0.025522 0.346845 0.013003 -0.138808 
equation 0.036860 0.062903 0.055983 -0.004701 0.247985 0.105725 0.095965 -0.154880 0.007469 0.246235 -0.105321 0.186552 0.162895 0.003032 0.225264 -0.312316 0.043222 -0.416019 0.260252 -0.132369 
responses 0.003025 -0.063469 0.448722 0.276451 0.070869 0.129837 -0.460066 0.339071 0.077282 0.226756 0.511073 0.291474 -0.217117 -0.292619 0.101987 0.142012 0.088226 0.367518 0.056919 -0.041991 
environment -0.019990 -0.070958 0.125827 -0.019306 0.344418 -0.034933 -0.187831 -0.161714 0.130104 0.052502 0.097601 0.032355 0.053420 0.106939 0.044606 0.127004 0.146937 0.028498 0.108784 0.017693 
scheme -0.274185 0.061482 -0.148904 0.131258 0.137375 0.007875 -0.137686 0.025872 -0.109270 0.050470 -0.164496 0.193178 0.169630 0.049903 -0.117078 -0.119071 0.030753 0.243108 0.089718 -0.121795 
achieved -0.218661 -0.060238 -0.021315 -0.006817 0.149110 0.111567 0.021448 -0.029201 0.142304 0.083115 -0.116661 0.079580 -0.222358 0.067899 0.025783 0.176184 -0.152565 0.163460 -0.143475 0.093444 
design -0.233537 -0.060468 -0.040695 0.068263 0.006641 -0.084500 -0.124021 0.011006 0.125257 -0.018265 -0.286492 0.096974 0.267121 0.070687 -0.153011 -0.089433 -0.080642 0.057872 -0.025583 -0.004063 
contrast -0.135729 0.096653 0.028205 0.153631 0.165283 -0.112730 -0.180462 0.171305 -0.121947 0.090736 -0.084403 0.181101 -0.035222 0.014114 -0.020801 0.064039 -0.133520 0.210591 -0.025040 0.031456 
account -0.106498 0.116454 0.077956 0.032540 0.128817 -0.123061 -0.217651 0.083233 0.084410 -0.134992 0.056597 0.025679 -0.054151 0.099057 0.093727 0.062791 -0.039590 0.024256 -0.133025 0.103736 
log 0.233167 0.382547 -0.120895 0.432032 0.526739 -0.549669 -0.173609 -0.123065 -0.172638 0.347683 -0.115766 -0.684026 -0.119595 0.512926 0.453086 -0.188901 -0.082159 -0.485656 -0.082027 0.084708 
arbitrary -0.021600 0.332075 0.047598 -0.175494 0.370814 -0.353516 -0.075435 -0.302031 0.142220 -0.055562 -0.013017 0.051712 0.233973 0.108137 -0.042081 -0.188768 0.106011 -0.181674 -0.092904 0.029271 
net -0.119042 0.196314 0.179682 0.216187 -0.016101 -0.030666 -0.271979 -0.202108 -0.360794 -0.146815 -0.041155 0.360644 0.062313 -0.127769 -0.258420 -0.001584 0.572851 0.235004 -0.662169 0.096076 
underlying -0.074458 0.187378 -0.196091 -0.096524 0.300754 -0.242033 0.254627 -0.017043 0.022331 0.007535 0.084024 -0.015458 0.052860 0.241565 0.081984 0.034781 0.012260 -0.014605 0.125248 0.168029 
self -0.134728 -0.110967 -0.000301 0.164072 -0.053196 -0.208681 -0.447055 0.031152 0.041820 0.170490 -0.034207 0.277919 0.123204 -0.005824 -0.068836 -0.088296 0.104586 0.158142 -0.114981 -0.110615 
requires -0.011277 0.147428 0.153627 -0.126575 0.299055 0.088173 0.043729 -0.045865 -0.037244 0.283116 -0.186859 0.130797 -0.053429 0.053422 -0.015780 -0.065012 -0.142624 -0.110637 -0.033702 -0.005953 
call 0.087970 0.041013 -0.018128 0.418639 0.322464 0.053910 0.178185 -0.248750 -0.529970 0.031621 -0.238196 0.377406 0.052014 -0.006490 0.145755 0.109690 0.074094 -0.064043 0.166533 -0.007519 
various -0.251876 -0.105136 -0.004196 0.052750 0.158794 0.112018 -0.277409 -0.001101 -0.033671 0.079164 -0.081439 0.211422 -0.183769 0.020445 -0.032637 0.137636 -0.149969 -0.029984 -0.028416 0.068117 
coding -0.140180 0.215458 0.206284 0.201212 0.264836 0.108968 -0.170154 0.235955 0.067808 0.016027 0.143859 0.263633 -0.233679 0.033010 -0.058780 -0.073462 -0.033196 0.251869 0.060760 0.073327 
programming -0.272349 0.144642 -0.260430 -0.026628 0.279213 -0.085331 0.214966 0.031705 -0.024481 0.035586 -0.361873 0.215138 0.355626 0.168977 -0.418790 -0.331370 -0.316317 -0.188037 0.112621 -0.213974 
defined 0.038971 0.023346 0.056968 0.034430 0.232857 -0.164214 0.084230 -0.036529 -0.108099 0.220222 -0.062516 0.191256 -0.037281 0.046544 0.140303 -0.160959 -0.150460 -0.095879 0.032566 -0.056555 
make -0.136855 0.001662 0.059005 -0.036310 0.263434 0.170332 -0.088806 -0.103240 0.157912 0.281309 -0.231761 0.010249 -0.083574 0.196104 0.001127 -0.005094 -0.024878 -0.004238 0.044305 0.003992 
hierarchical -0.213718 -0.245813 -0.099487 0.058820 0.095930 -0.151571 0.022334 0.065815 -0.018060 -0.155225 -0.188738 -0.138993 0.085907 0.355278 -0.069056 0.063778 -0.228656 0.236666 -0.004343 0.013058 
loss -0.343213 0.091579 -0.318487 0.108541 0.320533 -0.101604 0.071596 -0.033956 -0.179172 -0.025114 -0.535534 -0.036006 -0.068092 0.018511 0.028053 -0.239811 -0.479221 -0.577971 0.091901 -0.054181 
artificial -0.281996 -0.147909 0.199090 0.199213 -0.216268 -0.091787 -0.319372 -0.112072 -0.240304 -0.196865 -0.062114 0.265589 0.051175 -0.156428 -0.184117 -0.031983 0.494347 0.329145 -0.468479 0.076323 
online -0.509867 -0.371630 -0.246887 -0.075806 0.024346 -0.045772 0.149030 -0.096610 -0.178199 -0.044079 -0.519574 0.034105 0.204494 0.192133 -0.191846 -0.079119 -0.164767 -0.092449 0.042736 -0.016431 
respect 0.074274 0.089217 -0.132979 -0.019225 0.310850 -0.150779 0.022639 -0.067079 0.247268 0.115038 -0.231039 0.150402 0.043245 0.054451 0.143350 -0.165186 -0.254059 -0.369286 0.080938 0.248448 
improve -0.317510 -0.050942 -0.229981 -0.004059 -0.047430 0.381742 -0.102233 -0.219589 0.170049 -0.054148 -0.402021 0.059755 -0.098234 0.106204 0.053872 0.167169 -0.223736 -0.141543 -0.086281 -0.062513 
learns -0.191052 -0.013537 0.098325 0.048704 0.209595 -0.192355 -0.030975 -0.029766 -0.105568 0.038514 0.112922 0.136574 0.055312 -0.174957 -0.027255 -0.088242 0.179693 -0.005650 -0.120558 -0.181887 
further -0.102007 0.142306 0.016851 0.039765 0.132404 0.229794 -0.089707 0.016764 0.188038 0.061142 -0.129199 0.158565 -0.094318 0.058117 0.098661 -0.077253 -0.153990 0.054659 -0.025014 0.096276 
motor -0.027357 -0.011573 0.179420 0.003824 0.037027 0.144882 -0.496702 -0.129896 0.199246 -0.095934 0.218462 0.400814 0.080425 -0.325615 0.172848 0.128051 0.451810 0.069488 0.075600 0.105992 
leads -0.137234 0.022084 -0.084251 -0.060395 0.237443 0.097834 0.134054 -0.096825 0.150677 0.130190 -0.210078 0.035824 0.085655 0.190048 -0.086078 -0.024769 -0.199376 -0.161078 0.047292 0.047949 
robust -0.170796 0.009636 0.086850 -0.086552 0.080659 0.179213 -0.036096 -0.028118 0.200126 -0.075549 -0.345040 0.040374 -0.026094 0.323515 0.113413 0.088885 -0.225702 -0.070816 0.116402 0.129329 
type -0.231584 0.011478 -0.034596 0.002317 0.148839 0.008224 -0.198890 0.024455 0.023113 -0.010052 0.086597 0.167301 -0.059477 0.150093 -0.072089 0.014080 -0.083145 0.206268 -0.166231 -0.007840 
exact -0.001273 -0.038799 -0.123208 0.035574 -0.027050 0.033659 0.113655 -0.109577 0.018459 0.008802 -0.279436 0.053705 0.114132 0.393723 0.077328 -0.179958 -0.154640 -0.176214 0.206148 -0.188723 
back -0.251266 0.296324 0.191626 -0.516860 0.127610 0.132787 -0.203754 -0.275742 0.056360 -0.028414 -0.145854 0.294635 0.157663 -0.032599 -0.103858 -0.526938 0.766807 -0.181494 -0.295970 -0.135204 
unsupervised -0.609014 -0.376724 -0.332166 -0.073325 0.139102 -0.110312 0.112027 0.138396 -0.120818 0.125950 -0.208570 0.037139 0.098454 0.316673 -0.141282 -0.132609 -0.117496 0.270587 -0.000216 -0.095162 
relative -0.039802 0.128263 -0.077778 0.122583 0.030209 -0.030656 -0.172731 -0.108379 0.080036 0.236476 -0.197208 0.244636 -0.321166 0.111945 0.154103 0.047840 -0.211187 -0.250118 0.218379 0.070563 
filter 0.074948 0.245865 0.203594 0.022724 0.107179 -0.175535 -0.259373 -0.057037 0.147665 0.051078 0.389588 0.238252 -0.140400 0.303123 0.117139 0.161073 -0.191702 0.238017 0.079800 0.057826 
functional -0.080413 0.372470 -0.040670 0.119962 0.131438 0.018519 -0.158361 -0.077449 0.067491 0.218481 -0.102684 0.155116 0.006253 0.197655 0.079219 -0.005332 -0.229202 -0.033508 0.067971 -0.125016 
similarity 0.138757 0.085291 -0.100810 0.068637 0.172325 -0.137928 -0.090730 0.255404 0.216382 0.396934 0.101771 -0.046814 -0.037286 0.399134 -0.185395 -0.020094 -0.490680 0.125788 -0.065440 -0.142644 
factor 0.045626 0.099465 -0.153265 -0.257945 0.179708 0.140831 0.296942 -0.029134 0.240229 0.269629 -0.075529 0.290647 -0.213080 0.275528 -0.275081 -0.259922 -0.149558 0.146034 0.205092 0.178309 
existing -0.432525 -0.505910 -0.237811 0.039510 0.031905 0.115050 -0.150491 -0.039688 0.186259 0.017002 -0.565231 0.058297 0.032715 0.035394 -0.078154 0.072832 -0.116420 0.036035 0.057289 0.081856 
means -0.092060 0.200594 0.006918 -0.062823 0.259086 0.028864 0.047351 -0.026523 0.171216 0.099500 -0.065984 0.067296 0.073623 0.216933 0.173407 0.003501 -0.090345 0.041246 -0.076934 0.001921 
could -0.059523 0.016889 0.290794 0.082527 0.168141 0.333400 -0.164299 -0.079284 0.101494 0.009743 0.089006 0.112485 -0.085124 -0.073006 0.165540 0.050239 -0.035282 0.087049 0.039012 -0.075230 
computed -0.014863 0.107482 -0.036169 0.037334 0.230740 0.009866 -0.021147 0.017825 0.186407 0.159313 0.039903 0.140928 0.028757 0.190553 0.045707 -0.087601 -0.316656 -0.086061 0.127343 -0.046319 
circuit 0.053889 0.102735 0.259549 0.197492 0.094966 -0.031715 -0.436194 -0.015673 0.040640 0.125254 0.347104 0.339939 0.081819 -0.041028 0.106101 -0.007133 0.217422 0.174109 -0.140607 -0.091846 
effective -0.232193 -0.031131 0.025028 -0.062195 0.019140 0.090994 0.028422 0.076827 0.012188 0.096162 -0.266899 0.049004 -0.048925 0.124220 -0.080796 -0.074205 0.006209 0.026306 -0.093291 -0.005126 
apply -0.220304 -0.077410 -0.126122 -0.120628 -0.050413 -0.102413 0.129440 -0.172691 0.078482 -0.047875 -0.243639 0.117496 0.125117 0.116870 -0.066774 -0.105586 -0.098264 0.067746 0.004748 0.175286 
face -0.199636 -0.033570 0.054209 -0.233346 0.139139 0.149941 0.188023 0.057582 0.409177 -0.201112 -0.186729 -0.103171 -0.071341 0.121224 -0.161216 0.424769 -0.341657 0.391976 -0.232749 0.251719 
alternative -0.147955 -0.066597 -0.063243 -0.113899 0.033543 -0.112910 -0.151611 -0.070272 0.084447 -0.001317 -0.199868 0.214347 0.253055 0.164312 0.008208 0.010301 -0.234207 0.070484 0.088016 0.031976 
active -0.102847 -0.010850 0.031298 -0.009178 0.064711 -0.004946 -0.073085 0.221637 -0.056032 0.311878 0.052656 -0.063231 0.017470 0.012603 0.096893 -0.027855 0.001457 0.010066 0.039712 -0.014992 
correlations 0.175210 0.209959 0.154716 0.091282 0.107144 0.090494 -0.377872 0.057613 0.064262 0.178167 0.202849 0.087338 -0.129581 -0.027424 0.230910 0.208174 0.024652 0.067235 0.139443 0.142371 
validation 0.092797 0.052915 0.256322 -0.278494 0.219706 -0.150917 0.406955 -0.535340 -0.132096 0.301012 -0.293970 0.064901 -0.451729 -0.298907 0.342555 0.243778 -0.459349 -0.420619 -0.126619 0.554077 
update -0.079007 0.100929 0.347678 0.048120 0.330941 0.024033 0.084667 -0.221497 -0.191161 0.063440 -0.316307 0.118811 -0.000941 0.261751 0.090680 -0.208136 -0.257106 -0.497508 0.199578 0.134698 
highly -0.349939 0.063477 0.257936 0.021051 0.168567 -0.080015 -0.196766 0.096362 0.008103 0.019738 0.072135 0.047212 -0.006209 0.041377 -0.016717 -0.083312 0.056012 0.118991 -0.076613 0.148358 
per 0.253859 0.183505 0.300340 0.236217 0.361205 0.234821 -0.035137 -0.123650 -0.026325 0.131216 -0.001506 0.117763 -0.193931 0.057182 0.250432 0.092641 -0.014574 -0.141647 -0.039281 0.164936 
simulation -0.221865 -0.253056 0.187108 0.051910 -0.247565 0.048740 -0.277272 -0.142853 0.035773 0.079627 -0.225590 0.182854 0.005013 -0.080777 0.089526 -0.069484 0.013488 0.028917 -0.048917 0.047502 
fields -0.144298 0.099931 0.397904 0.133758 0.156687 -0.133186 -0.177772 0.251385 0.003291 0.123783 0.367653 0.168123 0.165715 0.254748 0.137993 0.071147 -0.156875 0.234451 -0.197294 -0.205533 
descent -0.727850 -0.081819 0.143927 -0.409612 0.130065 0.469068 0.210252 0.142787 0.108984 0.309662 -0.466390 0.415631 0.152453 -0.371791 0.076450 -0.506616 0.112408 -0.458905 0.119597 -0.209737 
less -0.120121 0.158897 0.076688 0.047424 -0.031296 0.497437 -0.086514 0.073206 -0.109301 -0.004577 -0.452832 0.247736 -0.211886 -0.050834 0.132835 0.115510 0.011037 -0.006333 -0.040648 0.165603 
initial 0.041343 -0.023614 0.207697 0.095367 0.234593 0.075734 -0.084655 -0.136397 0.140694 0.339968 0.064087 0.155878 0.136944 0.075061 0.113704 0.017517 -0.041432 -0.139543 0.078758 0.116785 
effect 0.105276 0.166007 0.130617 0.058489 0.032991 0.081562 -0.271707 -0.087766 -0.012232 0.204198 -0.073881 0.244610 -0.015652 0.105739 0.209616 -0.025759 0.094361 0.125004 0.094060 0.086347 
correlation 0.071545 0.092435 0.121444 0.044366 0.048419 -0.090169 -0.226202 -0.054518 -0.039987 0.191409 0.116605 0.181227 -0.107233 -0.120347 0.125394 0.052990 -0.001468 0.180378 -0.000538 -0.044886 
dimension -0.056039 0.204253 0.051303 -0.139375 0.249021 0.063268 0.216397 -0.160698 0.191840 0.198972 -0.137890 0.086262 -0.146621 0.048678 -0.276352 -0.043689 -0.256635 -0.183650 -0.034454 0.197033 
word -0.200610 0.052525 -0.034994 0.111178 0.071162 0.115664 -0.106623 -0.177339 0.269071 -0.469696 -0.211284 -0.058473 -0.123162 -0.006861 0.143648 0.120124 0.017488 0.020324 -0.181154 0.395866 
entropy 0.030726 0.269435 -0.138581 0.303540 0.355280 -0.081920 0.122205 -0.070754 -0.119869 -0.043263 -0.269449 -0.015437 -0.331861 0.272767 0.212172 -0.215918 -0.126561 -0.267264 0.361812 0.230626 
brain -0.023089 -0.035141 0.037268 0.175093 0.214407 -0.009988 -0.284426 0.153390 -0.015470 0.093387 0.011634 0.166421 -0.107593 -0.065955 0.044722 0.081824 0.024800 0.152108 0.192434 0.126470 
previously -0.391400 -0.076602 -0.017071 0.401268 -0.178652 0.108087 -0.141128 0.154996 0.258647 -0.044717 -0.245877 0.178938 -0.244672 0.272443 0.100882 -0.281089 0.206608 0.208916 -0.039768 -0.181133 
performed -0.235637 -0.095607 -0.020368 -0.012123 0.005234 0.031346 0.000480 0.096076 0.148173 -0.051267 -0.103687 0.290725 -0.124063 0.040891 -0.107051 -0.053086 -0.192337 0.195507 0.056748 -0.035554 
fast -0.169547 -0.053988 -0.018850 0.079295 0.096949 0.045736 -0.004164 -0.086615 -0.110803 0.025570 -0.231974 0.187900 0.209038 0.153778 -0.143825 -0.164964 -0.176624 -0.063916 -0.065532 -0.025360 
implementation -0.057901 0.004169 0.283512 0.074931 -0.164936 -0.098978 -0.427721 -0.144276 -0.077056 0.092783 -0.092468 0.363563 0.143407 -0.035988 0.114394 -0.124813 0.075141 0.101280 -0.206780 -0.040996 
represent 0.176979 0.089120 0.136115 -0.048371 0.333703 -0.115732 -0.000832 0.139287 0.115132 0.168936 0.259521 0.054995 -0.068729 0.222941 0.007161 -0.132387 0.066733 0.009028 -0.118322 -0.089102 
either -0.057958 0.090716 0.115188 0.072898 0.264977 0.026196 -0.026353 0.067442 0.204663 0.153485 -0.072907 0.063021 -0.180278 0.063900 -0.001821 -0.061614 0.066072 -0.077391 0.018898 -0.041986 
forward -0.029805 -0.011070 0.083123 0.128362 0.213417 -0.088385 -0.189648 -0.322484 -0.187293 -0.205738 0.020128 0.173855 0.216035 0.010149 -0.077728 -0.278608 0.504784 -0.031945 -0.355983 -0.113231 
capacity -0.176332 0.197802 0.193107 0.241056 0.331573 -0.012044 0.040195 -0.066264 -0.066283 0.104504 -0.060718 0.136290 -0.144772 0.088049 -0.048774 0.157261 -0.158491 -0.068860 -0.087061 0.069777 
common -0.176761 -0.035080 0.010138 -0.058944 0.171874 0.183555 -0.246455 0.100055 0.151638 0.129123 -0.179672 0.021063 -0.088648 0.077164 0.121941 -0.033676 -0.043585 0.050264 0.050428 0.058903 
available 0.059330 0.032773 0.116883 0.121843 0.118650 0.248004 0.149404 0.063748 0.022725 0.141382 -0.158113 0.037427 -0.244527 0.005964 -0.038094 0.221276 -0.347195 0.100847 -0.082500 0.126412 
take -0.084849 0.183720 -0.035469 0.008501 0.325746 -0.246412 -0.108949 0.017176 0.086852 0.140285 0.020066 0.119277 0.049623 0.019045 0.109529 -0.181685 0.118574 -0.008353 -0.158669 -0.034555 
solutions -0.242782 0.047982 0.100998 -0.065860 0.266910 0.201526 0.033858 -0.047119 0.153083 0.109994 -0.321442 0.120958 0.084881 0.037003 0.035312 -0.037992 -0.190634 -0.108218 0.048661 0.059199 
times 0.181457 0.125515 0.258868 0.270126 0.218319 0.453287 -0.054579 -0.059206 -0.151592 0.096635 -0.250542 0.179539 -0.261252 -0.061658 0.209373 0.030268 0.099263 -0.121612 0.069452 0.082160 
directly -0.126693 0.075156 0.084340 0.084792 0.311647 0.088173 -0.011615 0.012045 0.237199 0.011061 -0.077988 0.210226 -0.130175 -0.033188 0.103294 -0.001013 0.036362 -0.072687 0.013102 -0.123890 
although -0.210009 0.115613 0.077885 0.072936 0.145662 0.090094 -0.008543 -0.012015 -0.039751 0.112162 -0.118583 0.166895 -0.110035 0.122009 0.056824 -0.183913 0.074812 0.235416 0.043748 -0.085238 
implemented -0.284990 0.052540 0.092881 0.362737 -0.063433 -0.073924 -0.215337 0.104771 -0.116854 0.014974 0.061830 0.291078 0.052284 0.020451 -0.095696 -0.179504 0.440909 0.187635 -0.212870 -0.220855 
computing -0.072938 0.068818 -0.005878 -0.018587 0.218234 -0.187654 -0.067501 -0.069799 0.099958 0.138176 -0.016660 0.175303 0.068793 0.166333 0.008796 -0.228476 -0.101253 -0.087872 -0.030652 0.039907 
variational -0.207889 0.015918 -0.258372 -0.008940 0.082718 -0.302055 0.194033 -0.134962 0.002574 -0.009139 -0.707504 0.149190 0.015880 0.623734 -0.018176 -0.290866 -0.295169 0.111339 0.127258 0.022851 
svm -0.096647 0.043988 -0.090367 0.111798 0.239773 0.197474 0.402547 -0.168611 0.199025 0.029107 -0.588258 0.054818 0.206963 0.310788 -0.324687 0.172303 -0.339178 -0.116484 -0.102917 0.107771 
