4991 20
learning 0.043850 -0.010537 -0.189031 0.400309 -0.073175 -0.205230 -0.059645 0.251298 -0.189294 -0.345274 -0.240335 0.592366 -0.005009 0.162734 -0.191662 -0.260361 -0.053989 -0.332734 0.085089 -0.120035 
model -0.109575 0.243877 -0.105519 -0.107058 0.018926 -0.426624 0.045748 -0.097490 -0.153580 -0.144373 0.212858 0.069975 0.279400 0.057827 -0.005758 0.095115 -0.134205 -0.203108 -0.196216 0.276988 
data -0.176963 0.213792 0.405798 -0.130324 0.164324 -0.007215 0.284974 -0.022126 0.352244 -0.050613 -0.139986 -0.025167 -0.208943 0.098153 -0.235753 0.258057 -0.171061 -0.007041 -0.332104 0.211822 
network -0.003868 0.076688 0.321508 0.141639 0.127391 -0.550415 -0.224251 -0.198576 -0.486523 -0.404901 0.024620 0.061341 -0.175451 0.114358 0.170662 0.152897 0.343700 -0.013368 -0.229212 -0.076512 
algorithm -0.053723 -0.183545 -0.349885 0.196095 -0.097625 -0.338806 0.459759 0.011137 -0.186711 -0.195828 -0.233696 0.283083 0.030835 0.275607 -0.645808 -0.354203 -0.155166 -0.396081 -0.169017 -0.183714 
neural -0.234454 0.196178 0.016644 0.500424 0.373878 -0.648058 -0.263690 0.104679 -0.650432 -0.053832 0.114509 0.120307 -0.222573 -0.109187 0.109389 0.050952 0.775728 -0.168764 -0.028105 -0.233127 
using -0.048894 0.071824 0.036025 0.147643 -0.052055 -0.374355 0.066997 0.009490 -0.070100 -0.177178 0.069586 0.226873 0.153900 0.111953 -0.135200 -0.261788 -0.068440 -0.051507 0.102925 -0.015866 
based -0.150134 0.070417 -0.036621 0.306737 -0.299982 -0.227168 0.194418 0.141835 -0.129497 -0.196772 -0.159637 0.227279 0.171193 0.020198 -0.330822 -0.219991 0.030901 0.042142 0.087661 -0.055770 
networks -0.197977 0.044351 0.316279 0.068657 0.359777 -0.549981 0.039256 -0.106043 -0.608718 -0.527239 0.131810 -0.070089 0.025209 0.285503 -0.127198 -0.001406 0.511250 -0.368428 -0.233124 -0.180516 
our -0.089780 -0.283956 0.007768 0.282488 -0.233795 -0.327536 0.290448 0.082439 0.392445 -0.256734 -0.164572 0.025502 0.059292 -0.121892 -0.293008 -0.155094 -0.066446 -0.104307 0.171789 0.070308 
these -0.038139 -0.064155 0.418475 0.117218 -0.004720 -0.141077 0.035370 0.094615 0.324636 0.100469 0.023835 0.143850 0.163044 0.086229 -0.050722 -0.231007 0.059739 -0.125064 0.053529 0.066533 
problem 0.000233 0.246793 -0.270928 0.394564 -0.013273 -0.201974 0.229508 0.015528 0.143999 -0.060676 -0.111334 0.300168 0.149447 0.058096 -0.442206 -0.449508 -0.120456 -0.155011 -0.195451 0.036368 
time -0.125052 -0.077653 0.424441 -0.134000 0.270646 -0.011277 -0.471313 -0.018213 0.205013 -0.171239 0.164306 0.516254 0.127036 0.008576 -0.053157 -0.114966 -0.014809 -0.019966 -0.288047 0.138483 
models -0.259263 0.363149 0.226890 0.049280 0.156026 -0.418187 -0.114690 0.179064 0.095169 -0.271896 -0.007126 0.345048 0.198742 0.188958 0.061227 -0.054734 0.014047 -0.217825 -0.241328 0.250700 
function -0.364814 -0.198364 -0.341211 -0.079156 0.390118 -0.227999 -0.252692 -0.709310 -0.237004 0.005245 -0.146183 0.117389 0.015309 0.163747 -0.183337 -0.149173 -0.549491 -0.097043 0.224618 -0.129657 
two 0.029673 0.035033 0.322168 0.167670 0.027440 -0.292526 -0.003292 0.099689 -0.174604 -0.189782 -0.089089 0.160084 0.161786 -0.058078 -0.006202 -0.080720 0.082677 0.015278 -0.028735 0.043804 
have -0.484604 0.069511 0.114767 0.166836 0.269045 -0.277891 0.061033 0.341225 0.201059 0.303003 -0.080976 0.151176 -0.055718 -0.335307 0.223101 -0.744653 0.459616 0.197404 -0.047709 -0.220342 
method -0.251127 -0.145648 -0.190811 0.271285 -0.237081 -0.286831 0.626327 0.043264 -0.189184 -0.243274 -0.191384 0.142106 -0.086843 0.119028 -0.421860 -0.176956 -0.288422 -0.145723 0.025083 -0.051432 
results 0.068533 -0.237865 0.682097 0.232198 -0.144158 -0.231980 0.469243 0.242535 0.349955 -0.140531 -0.320591 -0.037897 0.016342 -0.009837 -0.242758 -0.350817 0.057357 -0.178861 0.184791 0.101057 
show -0.099721 0.000085 0.423671 0.175773 -0.078723 -0.144402 0.397946 0.179120 0.219278 -0.039690 0.043359 0.050814 -0.270677 0.193339 -0.093185 -0.323956 -0.256370 -0.252951 0.132382 0.129590 
paper -0.150946 -0.298166 -0.282837 0.588769 -0.393482 -0.582529 0.246521 0.280949 -0.231683 -0.029740 -0.042726 0.350887 0.072001 -0.112030 -0.443166 0.023881 0.010675 -0.215433 -0.284047 0.047761 
used -0.243428 0.161419 0.135317 0.129803 0.056990 -0.173351 0.178849 -0.013936 0.072557 -0.032440 0.024645 0.098582 -0.036505 -0.111865 0.029098 -0.287728 0.028654 0.085849 0.029782 -0.135046 
information -0.088336 0.495094 0.032813 0.360502 -0.466724 0.373447 0.240062 -0.093823 -0.202453 0.121243 0.167705 -0.067617 -0.377189 -0.192607 0.204775 -0.015139 0.004997 0.340541 0.269147 0.279778 
such 0.000657 0.164982 0.183051 0.235480 0.067153 -0.304194 -0.047291 0.042992 0.022603 -0.048499 0.081874 0.128421 0.003528 0.069654 -0.261982 -0.012632 -0.058338 -0.133545 -0.113372 0.065118 
system -0.020287 0.087261 0.293313 0.466735 0.008433 -0.096946 -0.245848 -0.167142 -0.191719 -0.345664 0.022118 0.294918 0.152875 -0.504536 0.385946 -0.250321 0.472749 -0.080551 -0.041252 0.077836 
training -0.321468 -0.131533 0.309983 -0.060290 0.184882 -0.202630 0.216808 -0.173765 0.068885 -0.172610 -0.205504 -0.252629 -0.918470 0.302241 -0.171858 0.120471 -0.169900 0.127703 -0.158675 0.022901 
has -0.498387 0.053111 0.103943 0.348508 0.189278 -0.121597 0.114255 0.052618 -0.099487 0.604203 -0.025841 0.018478 -0.170243 -0.452554 0.278380 -0.769458 0.529362 0.306136 0.083789 -0.386813 
input -0.114293 0.656133 0.574706 -0.033097 0.312645 -0.035910 -0.355120 -0.193149 -0.049224 -0.029814 0.204145 0.020395 -0.111230 -0.099547 0.109918 0.179886 0.249158 0.599086 0.222970 0.365665 
each 0.005332 0.168577 0.343624 -0.221121 0.080714 -0.138670 -0.450169 -0.247502 -0.004009 0.220932 0.017752 0.160101 0.119459 0.082293 0.096685 -0.061781 -0.218213 0.424911 -0.209238 0.213001 
set 0.070680 0.245143 0.447901 -0.050019 0.234746 -0.091469 0.195392 -0.253796 0.086863 0.008138 -0.380314 -0.091313 -0.539046 0.241551 -0.020849 0.023208 -0.368584 0.217126 -0.161427 0.286084 
between -0.101329 0.132397 0.338064 0.109747 -0.067378 0.012982 -0.032792 -0.113957 0.121093 0.226938 -0.076729 -0.012340 0.029459 0.060852 0.098810 0.214670 -0.200578 0.274571 0.328339 0.244292 
new -0.090982 -0.173669 -0.218099 0.264170 -0.292200 -0.350895 0.200038 0.109753 -0.067045 -0.143001 -0.273314 0.237025 0.067060 0.110292 -0.435505 -0.001389 -0.121593 -0.152564 -0.082171 0.233764 
approach -0.137158 0.000580 -0.143487 0.274721 -0.190149 -0.486031 0.535497 -0.092908 -0.048109 -0.335439 -0.238506 0.372086 0.105155 -0.178940 -0.156090 -0.229380 0.019364 -0.266344 -0.047718 0.116969 
state -0.075686 0.155449 0.278180 -0.211699 0.256751 0.179445 -0.834659 -0.456735 0.442398 0.236442 -0.200815 0.696771 0.307451 0.100609 -0.284822 -0.132155 0.055533 -0.213701 -0.040389 0.481524 
algorithms -0.109869 -0.202662 -0.184087 0.293224 0.092687 -0.222755 0.389183 0.226443 -0.011852 -0.075302 -0.227302 0.184249 -0.065101 0.062654 -0.400713 -0.635268 -0.292979 -0.490927 -0.022934 -0.138085 
performance -0.159488 -0.587200 0.331627 0.115420 -0.223872 -0.172847 0.364920 -0.194946 -0.144239 -0.290477 -0.381220 0.086466 -0.286145 -0.161930 -0.090642 -0.162578 -0.159995 -0.110050 0.021040 -0.063581 
linear -0.352388 0.206138 -0.291252 -0.278207 0.361143 -0.367895 0.188070 -0.079945 -0.122284 -0.281117 0.145403 0.137072 -0.073469 0.049198 -0.541088 -0.054700 -0.366406 -0.115800 0.371281 -0.187241 
number -0.087560 0.030538 0.547218 0.087824 0.533959 0.013710 -0.207616 -0.284722 0.138709 -0.010547 -0.051431 -0.173058 -0.451483 0.171085 -0.413310 -0.180149 -0.257490 0.184629 -0.276247 0.185214 
present 0.147519 -0.153235 -0.135269 0.432255 -0.308881 -0.325626 0.164433 0.118003 0.113633 -0.306844 -0.076435 0.072506 0.082300 0.040773 -0.437690 -0.374663 -0.119328 -0.214665 -0.072250 0.235961 
than -0.595801 -0.122601 0.709748 -0.428416 -0.224774 0.844603 0.303015 -0.082089 -0.720990 0.275420 -0.243504 -0.315742 -0.193703 -0.198648 -0.092119 -0.770673 0.001824 -0.539030 -0.300984 -0.055408 
error -0.130884 -0.466215 0.210576 -0.111040 -0.400865 0.531029 0.026957 -0.699397 0.004209 -0.535480 -0.196406 -0.102668 -0.864202 0.503828 0.125583 -0.305184 -0.479579 -0.068694 0.257110 -0.447111 
methods -0.272937 -0.170708 -0.015920 0.255668 -0.065737 -0.316033 0.518273 0.164336 0.115249 -0.142140 -0.252666 -0.005093 -0.103714 0.120114 -0.353218 -0.749261 0.026367 -0.500075 -0.134708 -0.182887 
its -0.145873 -0.071790 0.283237 0.146661 -0.135404 -0.072382 0.009778 -0.166537 -0.038974 0.058198 0.072897 0.220969 -0.097061 -0.166850 -0.003741 0.123815 -0.277134 -0.150047 0.148090 0.070066 
use -0.043203 0.087004 -0.011303 0.095729 -0.059058 -0.229012 0.164451 -0.070969 -0.072569 -0.136369 -0.076905 0.199110 0.025422 -0.031036 -0.174647 -0.216418 -0.218294 -0.100407 -0.159806 0.063959 
been -0.467523 -0.199834 -0.157581 0.151139 -0.102857 -0.318057 -0.063487 0.385568 0.340763 -0.137884 0.342942 -0.361304 0.074039 -0.315769 0.134388 -1.354741 1.075760 0.859493 0.087614 -0.581268 
both -0.128618 -0.023091 0.405313 0.112248 -0.221838 -0.143337 0.147029 -0.028244 0.263739 -0.141472 -0.102360 0.019150 0.037623 0.107582 -0.025396 -0.289087 -0.036684 -0.056536 0.020966 0.194132 
more -0.095267 0.016965 0.546354 -0.036769 -0.218034 0.122932 0.234326 -0.106424 -0.056569 -0.077570 0.010181 -0.352411 0.018631 -0.172984 -0.292843 -0.358988 0.164746 -0.476681 -0.257887 -0.144097 
space -0.007897 0.488952 0.069788 -0.254591 0.369979 0.132084 -0.352385 -0.419575 0.316490 0.130619 0.005669 0.121711 0.157604 -0.246276 -0.660008 -0.204835 -0.246196 0.122092 -0.201364 0.272176 
analysis -0.473102 0.081713 0.117579 -0.098568 -0.291042 -0.561230 0.314051 0.097798 -0.306439 -0.307179 0.378172 0.118675 -0.105568 -0.223310 -0.758493 0.046792 -0.198715 0.142731 0.404465 -0.108170 
over 0.108096 0.202943 0.256572 -0.092597 -0.122872 0.131567 -0.213582 -0.435371 0.194798 -0.168139 -0.152674 -0.018021 -0.012937 0.107864 -0.221546 0.014208 -0.037205 0.019901 -0.186340 0.103301 
problems -0.045647 -0.145859 0.087984 0.378799 -0.011542 -0.232214 0.100349 0.253601 0.366316 -0.219271 -0.299692 0.313871 0.041815 0.000151 -0.576026 -0.546175 -0.053550 -0.191975 -0.289476 0.158032 
neurons 0.015964 0.298443 0.628479 0.219891 0.217048 -0.232568 -0.251781 0.225907 -0.179466 0.185967 0.820920 0.029478 -0.323286 -0.139574 0.439715 0.094550 0.154029 -0.016102 0.501287 0.152854 
but -0.095668 0.123212 0.507790 -0.079373 0.076480 0.193742 -0.093809 -0.127720 0.049007 0.198566 0.187141 -0.113793 -0.230700 -0.002217 0.005325 -0.318681 -0.137158 -0.149755 -0.060470 0.043617 
classification -0.158449 -0.043020 0.078017 0.284580 -0.143855 -0.072296 0.547278 0.030178 -0.029676 -0.574129 -0.552362 0.257538 -0.137932 -0.200328 -0.561412 -0.309721 0.041688 -0.085416 -0.400366 -0.093442 
functions -0.429963 0.036772 -0.237061 -0.097336 0.455365 -0.335187 -0.067106 -0.250711 -0.216447 0.183343 -0.042588 -0.128114 0.151910 0.231617 -0.575360 -0.065826 -0.492417 -0.165165 0.126118 -0.323719 
other -0.213841 -0.062186 0.565411 -0.045579 0.063989 0.025599 0.015157 -0.080644 0.050961 0.056813 -0.031190 0.135293 0.009066 -0.167752 -0.025609 -0.240719 0.062785 -0.220660 0.109222 0.101579 
given -0.078162 0.392349 0.103730 -0.080664 0.133264 0.117885 -0.222929 -0.476338 0.033675 0.159121 -0.115880 0.024424 -0.162539 0.250348 0.077306 0.036252 -0.346923 0.282543 -0.141547 0.054598 
distribution 0.006174 0.455963 -0.203379 0.023367 0.088878 0.053920 0.116020 -1.137318 0.409390 0.421372 0.062185 0.021020 -0.058974 0.141539 0.124703 0.053438 -0.270136 0.039433 -0.253127 -0.017790 
different -0.194075 0.039823 0.369460 0.043089 0.072098 -0.004757 0.066605 0.266917 0.146250 -0.024375 0.063522 0.141050 0.136773 -0.073693 0.005300 -0.122227 -0.072429 0.013819 0.011454 0.362266 
parameters 0.008492 0.083569 -0.161392 -0.121798 0.237880 -0.129935 0.008948 -0.256857 -0.023631 -0.107491 -0.115932 -0.081361 -0.218478 0.136830 -0.078868 0.025333 -0.291764 -0.113244 -0.054441 0.030055 
recognition 0.070123 0.322005 0.523217 0.402706 -0.347932 -0.126635 0.335044 0.078553 0.056227 -1.041633 -0.512095 0.139189 -0.095761 -0.653117 -0.136111 -0.437511 0.415435 -0.217920 -0.145705 0.413205 
into -0.070862 0.386994 0.284760 0.195848 -0.082296 0.070676 -0.200078 -0.026681 -0.331029 0.114410 0.028823 -0.109698 0.121572 -0.011818 -0.138810 0.037161 -0.091469 0.146932 -0.089467 0.055967 
simple -0.085124 0.174298 -0.041167 0.297785 0.184306 -0.410196 0.195043 0.073082 -0.064167 -0.069938 0.102642 -0.103805 -0.011429 0.219471 -0.084757 -0.190661 -0.051128 -0.062823 0.036284 0.021892 
large 0.030744 0.018527 0.369371 0.135132 0.140715 -0.581352 0.179243 0.017744 -0.002716 -0.129894 0.123494 -0.020244 -0.397577 0.398534 -0.332173 0.153073 0.190139 -0.218815 -0.372355 0.202060 
well -0.158158 -0.067598 0.233018 0.096479 0.061542 -0.138663 0.179202 0.020102 0.162125 -0.003658 -0.087512 0.110607 -0.003988 -0.365850 -0.260136 -0.162788 -0.010107 0.040854 0.024170 0.097433 
noise -0.586802 0.521230 0.204796 -0.090557 -0.416244 0.072592 -0.043234 -0.538866 0.401293 -0.179140 0.056195 -0.133024 0.168964 -0.282430 0.028754 0.456141 -0.101695 0.244670 0.113994 0.272867 
local -0.006967 0.197078 -0.028962 -0.261394 -0.097592 -0.423470 0.152795 -0.256835 0.024543 0.375825 0.021728 -0.205698 -0.158528 0.173073 -0.282179 -0.118622 -0.337567 0.142231 0.195563 0.073584 
order 0.158974 0.317150 0.177788 0.003401 -0.130311 -0.232490 0.315023 0.139878 -0.236268 -0.153309 -0.075982 -0.238663 0.174614 0.084546 -0.010011 -0.035056 -0.288523 0.088422 -0.178674 -0.273744 
their -0.080616 0.295188 0.278117 0.002489 -0.035427 -0.092024 -0.086999 0.004853 0.056785 0.220929 0.233788 0.027841 0.018630 0.090032 0.164881 -0.024102 -0.112720 0.003313 0.116860 0.062036 
first 0.158594 0.091651 0.102902 0.082124 0.088442 -0.342246 -0.188024 0.163690 -0.110905 -0.296701 -0.017088 0.028133 0.160273 0.109261 0.054459 -0.105675 -0.183418 0.039116 -0.010397 -0.104898 
image 0.102159 0.420927 0.291883 0.046803 -0.253946 -0.213784 0.546014 0.139328 0.065217 -0.178733 -0.173022 -0.314381 -0.201922 -0.233083 -0.210323 -0.231514 -0.023762 0.467661 -0.334367 0.608371 
images 0.327988 0.343036 0.466854 -0.003638 -0.154853 -0.250804 0.535035 0.270445 0.247535 0.247702 0.106546 -0.507389 -0.103263 -0.270979 -0.149879 -0.221298 -0.140983 0.307655 -0.302404 0.427608 
probability 0.032624 0.601091 -0.152397 -0.090112 0.058911 0.081320 -0.137105 -0.794729 0.345097 0.350836 -0.229202 0.160286 0.109083 0.427926 -0.134542 -0.098367 -0.278285 0.212251 -0.205601 -0.034229 
visual 0.440408 0.474338 0.622770 0.585541 -0.083440 -0.439486 0.311007 0.329036 -0.170868 -0.330859 0.490137 -0.131790 -0.277005 -0.672489 0.543480 -0.109009 0.173812 0.173041 0.150873 0.348995 
optimal -0.218599 -0.077636 -0.076555 -0.121016 -0.189940 0.061274 -0.135084 -0.113678 0.017897 0.077442 -0.177776 0.280506 -0.169159 0.208405 -0.188244 -0.288557 -0.581902 -0.287368 0.096718 -0.088197 
vector 0.115965 0.632849 -0.044466 -0.184312 0.189907 0.932018 0.071638 0.235368 -0.128884 0.081459 -0.316101 0.685760 -0.092682 0.317218 -1.231268 0.249246 -0.309931 0.356026 0.083589 -0.768114 
class -0.022556 0.314425 -0.034434 0.292281 0.169803 -0.135832 0.137587 -0.059572 -0.154247 -0.060823 -0.080476 0.185197 -0.010550 0.256986 -0.326427 -0.175606 -0.072582 0.073122 -0.401027 0.219844 
structure -0.112728 0.196486 -0.066494 0.349973 0.060363 -0.287766 0.071465 0.135993 0.008984 -0.011353 0.111229 0.073764 0.263422 -0.201314 -0.303000 0.055121 -0.037741 0.044156 -0.043920 0.109914 
single -0.110477 0.192352 0.164349 -0.228184 0.131111 -0.267494 -0.066633 -0.233761 -0.188292 -0.046318 -0.105506 0.002294 -0.017229 0.109094 0.197780 -0.068392 -0.018802 -0.011552 -0.049217 0.094858 
non -0.369668 0.157199 -0.143616 -0.026692 0.309431 -0.323892 0.171611 -0.192608 -0.095119 0.177866 0.234519 -0.267993 -0.253117 0.271335 -0.376282 -0.246577 -0.321820 0.139393 0.098255 -0.050769 
hidden -0.433138 0.826591 0.132860 -0.344471 0.770024 -0.543601 -0.390926 -0.397044 0.307690 -0.316279 0.039665 0.116194 0.270206 0.809126 0.166575 -0.210533 0.587892 -0.309816 -0.155356 0.223344 
output -0.245283 0.394443 0.427732 -0.291126 0.454676 0.010238 -0.632039 -0.578547 0.000771 0.002341 0.230488 0.235158 -0.006897 -0.071320 0.093708 0.130868 0.234541 0.503540 0.044227 0.137892 
gaussian -0.625769 0.405464 -0.491493 -0.149373 -0.154492 -0.319742 0.064170 -0.597561 0.572806 -0.044870 -0.105155 -0.080068 0.029042 0.265368 -0.446084 0.137810 -0.450313 -0.091289 0.089835 -0.171907 
feature -0.221136 0.307534 0.447857 0.116749 -0.044215 -0.042603 0.405621 -0.023024 -0.235587 0.183140 -0.110604 0.106967 0.253536 -0.452274 -0.795792 -0.048560 -0.006464 0.378368 0.159116 0.108803 
many -0.170170 -0.050789 0.209256 0.236058 -0.129000 0.078393 0.266018 0.119038 0.123070 -0.094378 -0.050505 0.218670 -0.007325 -0.208274 -0.137602 -0.419528 0.126506 -0.119246 -0.155178 -0.085614 
shown -0.271135 -0.132341 0.103934 -0.016204 -0.028765 -0.122013 0.107447 0.012513 0.196598 0.052740 0.154098 0.018792 -0.065634 -0.231999 0.158343 -0.525617 0.434255 0.059193 -0.175822 -0.296671 
systems -0.158038 0.098061 0.285102 0.541032 -0.242325 -0.225238 0.023427 0.337064 -0.493668 -0.417493 0.247335 0.378568 -0.144849 -0.271766 0.250534 -0.153354 0.411085 -0.218824 0.087083 -0.161031 
features 0.037642 0.396116 0.378161 0.050102 0.006560 -0.007401 0.358049 0.179368 -0.023543 0.069947 0.097271 -0.291404 -0.135435 -0.378705 -0.110349 -0.097485 -0.209953 0.394197 0.028720 0.286052 
experiments -0.148189 -0.118204 0.387571 0.190607 -0.227260 -0.185182 0.488557 0.174341 0.242590 -0.310391 -0.112945 -0.038271 0.018695 -0.128227 -0.161042 -0.299550 0.043063 0.008948 -0.020768 0.016077 
rate -0.301990 0.071950 0.334094 0.156906 -0.448044 0.693377 0.100082 -0.353128 0.052047 -0.025568 -0.120229 0.090787 -0.667621 -0.030898 0.275947 -0.196551 -0.137259 -0.491627 0.292799 -0.148999 
task 0.028279 0.089450 0.180747 0.322017 -0.226095 -0.221230 0.070763 0.004899 -0.125851 -0.285931 -0.166959 0.157097 0.144593 -0.154860 -0.006211 -0.256394 0.101613 -0.055517 -0.049734 0.164392 
real -0.238048 0.058698 0.435447 0.706875 -0.258213 0.113986 -0.124587 0.234543 0.631899 -0.346758 -0.156942 0.121798 -0.531114 -0.299545 -0.107928 -0.245759 0.442863 -0.381923 -0.555464 0.587851 
generalization -0.080383 -0.173515 0.239621 0.112030 -0.247104 0.031648 -0.074859 -0.338315 -0.234820 -0.582063 -0.686967 -0.178618 -0.651294 -0.020594 0.009727 0.029805 -0.417620 -0.589230 0.116425 -0.350394 
control -0.250060 -0.045659 -0.189196 -0.005160 -0.215104 -0.018175 -0.311550 0.261239 -0.450307 -0.154620 -0.244534 0.706512 0.291991 0.012775 0.052278 -0.311608 0.128162 -0.285352 -0.025748 0.232223 
may 0.052656 0.159499 0.272534 0.080545 0.028675 0.130354 0.066773 0.048671 -0.006251 0.234633 -0.017714 -0.043993 0.035119 -0.134937 -0.046760 -0.074084 -0.049233 -0.191026 0.090378 0.098507 
process -0.148619 0.339973 -0.055109 -0.080779 0.025773 -0.284927 -0.106847 -0.072083 -0.055697 -0.100987 -0.055906 0.063901 0.029336 0.383853 0.007156 0.138459 -0.171845 -0.037281 -0.084091 0.041086 
case -0.405256 -0.036767 0.014933 -0.111694 0.022925 -0.060974 -0.010402 -0.479542 0.077950 0.008683 -0.042111 -0.154323 0.055612 0.184678 -0.059028 -0.213487 -0.346568 -0.082846 -0.065362 -0.204332 
proposed -0.313613 -0.122291 -0.406828 0.234371 -0.154014 -0.217026 0.478409 0.382537 0.172803 -0.093474 -0.293951 0.253409 -0.071839 0.007830 -0.213638 -0.667361 0.195974 -0.027469 0.185992 -0.127329 
value -0.365481 -0.251171 -0.216887 -0.197484 0.328925 0.373663 -0.697359 -0.137618 -0.277826 0.210300 -0.225286 0.383001 0.222096 0.251376 -0.061352 -0.247765 -0.706291 -0.228629 0.107151 -0.166997 
propose 0.074363 -0.223885 -0.372834 0.333616 -0.162269 -0.375608 0.362664 0.291455 -0.022574 -0.098871 0.060308 0.250433 0.148838 0.209035 -0.512244 -0.223224 -0.296583 -0.057171 -0.096131 0.256421 
high 0.313212 0.181211 0.733644 -0.055956 -0.116521 0.220565 0.546643 -0.136053 0.223460 -0.044404 0.306940 -0.231562 0.162707 -0.410249 -0.368815 0.022128 -0.226431 0.225379 0.070505 0.253919 
bayesian -0.022707 0.004401 -0.321956 0.360140 -0.149305 -0.533024 0.526007 -0.272802 0.220883 -0.161766 -0.296003 0.016715 0.171898 0.254322 -0.424487 -0.046226 -0.094793 -0.329680 -0.052174 -0.062025 
examples -0.259511 -0.009960 0.192302 0.082055 0.319478 -0.111879 0.098577 -0.313517 -0.078846 -0.080122 -0.346212 -0.150875 -0.531394 0.421905 -0.209267 -0.170160 -0.097857 0.094784 -0.434659 0.027627 
weights -0.033313 0.065159 0.301531 -0.345541 0.580096 -0.056724 -0.494087 -0.428036 -0.377655 -0.012101 0.016464 -0.162591 -0.069565 0.391008 0.008658 0.078310 -0.022076 -0.057965 -0.174789 -0.270152 
units -0.110065 0.624523 0.133814 -0.422407 0.743049 -0.302284 -0.555877 -0.238414 -0.214137 -0.133182 0.279128 -0.122135 -0.058329 0.367551 0.253475 -0.129516 0.326535 0.097887 0.094074 0.167001 
speech 0.007393 0.394412 0.599178 0.520557 -0.053594 -0.301720 0.174946 -0.012507 0.088203 -0.982868 -0.421928 0.127434 0.207032 -0.634225 0.351206 -0.207284 0.496878 -0.056252 -0.207539 0.487690 
framework -0.437692 0.122065 -0.440203 0.589427 -0.297105 -0.530614 0.535210 0.110924 -0.046216 -0.229742 -0.291202 0.182875 0.091269 0.236508 -0.220640 -0.062059 -0.102422 -0.037522 -0.411517 0.086256 
patterns -0.086688 0.341621 0.632669 0.060404 0.078366 0.036514 -0.192637 -0.086506 -0.198630 -0.115040 0.192525 -0.123690 -0.158722 -0.210068 0.255221 0.175760 0.176242 0.221768 0.006796 0.179851 
signal -0.048091 0.395538 0.526807 0.277369 -0.436503 0.224701 -0.491597 -0.156367 -0.021581 -0.230367 0.292602 -0.113895 -0.092618 -0.462804 0.442155 0.251884 0.233934 0.161307 0.192481 0.021199 
processing 0.314600 0.507652 0.410426 0.702866 -0.393387 -0.147850 0.092437 0.196047 -0.377987 -0.312668 0.481926 -0.004206 -0.165971 -0.454033 0.255051 0.165176 0.464758 0.289287 0.016882 0.148314 
while -0.054806 0.004720 0.355040 0.141642 -0.238534 0.007789 0.125472 -0.120615 -0.054453 0.309831 -0.001110 0.002412 -0.160468 -0.079651 -0.113218 -0.130490 -0.036101 0.068510 0.020690 0.019407 
form 0.045359 0.220128 -0.151269 0.044195 0.165748 -0.151465 -0.121204 -0.005606 -0.006583 0.238288 -0.000666 0.100968 -0.056209 0.342727 -0.210375 -0.242458 -0.261097 -0.259803 0.057122 -0.281536 
same -0.212190 0.100485 0.243974 -0.055494 0.114411 0.117016 -0.088959 -0.071831 -0.043868 0.054714 -0.083057 -0.153854 -0.224117 0.116232 0.175192 -0.124041 -0.240471 -0.120900 -0.111045 -0.161041 
representation -0.043416 0.354936 0.210325 -0.145393 -0.232636 -0.138422 0.021730 -0.049323 -0.009418 -0.091048 0.099923 0.136534 0.081286 -0.122690 -0.161518 0.089740 -0.026834 0.247635 0.046218 0.026409 
general -0.340904 -0.220532 -0.137425 0.227554 -0.016019 -0.276554 0.344823 0.120241 -0.172148 0.053856 -0.030135 0.344139 0.128009 0.108227 -0.280011 -0.275821 -0.033119 -0.260821 -0.185669 -0.184327 
demonstrate -0.009782 -0.268589 0.244802 0.348472 -0.263285 -0.270066 0.320952 0.243786 0.079333 -0.300100 -0.177434 0.125411 0.129865 0.131203 -0.244535 -0.479499 0.056228 -0.237633 0.116304 0.116216 
kernel -0.602391 0.203486 -0.290890 -0.125852 0.032041 -0.202335 0.384451 -0.306693 0.029881 0.064796 -0.175209 0.085893 0.055700 0.264470 -0.941114 0.012449 -0.504250 0.051983 -0.010038 -0.326728 
sets -0.040077 -0.011073 0.779839 0.041289 0.297178 -0.001659 0.495194 0.182558 0.695094 -0.075302 -0.260970 -0.361332 -0.551198 0.300745 -0.218944 -0.154539 -0.460458 0.010180 -0.253746 0.530759 
here -0.159061 0.049765 0.074702 0.302564 -0.171985 -0.212701 0.034413 -0.031596 -0.013124 0.006941 0.134124 0.176988 -0.000634 0.000369 0.030949 -0.004776 -0.063768 0.009239 0.103728 -0.075149 
nonlinear -0.283182 0.137613 -0.054450 0.050838 0.350196 -0.427238 -0.016044 0.074140 -0.208716 -0.076299 0.085347 0.365168 0.013940 0.125246 -0.252544 -0.226840 -0.024046 -0.189333 0.313094 -0.134693 
several -0.126005 -0.201649 0.289807 0.256183 -0.112809 -0.224098 0.122648 0.135263 0.022320 -0.047771 -0.124078 0.022005 -0.091317 -0.097792 -0.164628 -0.331372 0.152578 -0.103852 -0.163542 0.027058 
markov -0.669477 0.464890 -0.418492 0.043039 0.480981 -0.488321 -0.359678 -0.141931 0.375356 -0.428194 -0.236604 0.104016 0.591500 0.753759 0.199886 0.162308 -0.054031 -0.370802 -0.430224 0.428544 
statistical -0.249213 0.116121 -0.269418 0.249383 -0.293519 -0.569903 0.515259 0.046379 0.065178 -0.219944 0.067763 0.189039 0.039643 -0.056315 -0.325931 -0.183729 -0.023982 -0.034908 -0.022871 -0.084558 
they -0.172573 0.055670 0.359238 0.100906 0.119390 -0.100833 -0.039030 0.165998 0.002862 0.054608 0.157915 0.018269 0.092548 -0.152891 0.033896 -0.222916 -0.134126 0.065314 -0.068994 -0.115969 
neuron -0.291776 0.413948 0.415111 -0.112744 0.189760 0.066084 -0.343240 -0.055878 -0.128789 0.514749 0.743488 0.104467 0.009227 -0.035442 0.573294 -0.041032 0.267063 0.444392 0.413827 0.124059 
estimation -0.287783 0.221726 -0.408258 0.232412 -0.043507 -0.323244 0.242137 -0.469651 0.236318 -0.318668 -0.165056 0.063452 0.239107 0.006697 -0.289351 -0.318669 -0.227953 -0.392198 -0.027416 -0.091493 
about -0.021580 0.501018 0.244309 0.229883 -0.292721 0.330110 0.082273 0.056328 -0.161222 0.066449 0.095176 0.166089 -0.120120 -0.165112 0.205958 0.100003 -0.252961 0.018186 0.075778 0.067483 
approximation -0.158269 0.040027 -0.301323 0.222220 -0.023192 -0.085313 0.079369 -0.340307 0.052081 -0.091761 -0.173214 -0.036007 0.271783 0.365924 -0.237632 -0.174822 -0.469037 -0.311585 -0.033648 -0.303624 
theory -0.167507 -0.150329 -0.078846 0.476666 -0.462373 -0.155532 0.284825 0.111621 0.139818 0.108094 -0.070932 0.080994 0.115702 0.153820 0.025453 -0.278345 0.008177 -0.154855 -0.037067 -0.102956 
second 0.343670 0.291573 0.263232 -0.106829 -0.211969 -0.123751 0.041996 -0.029160 -0.176199 -0.140620 -0.115011 -0.087348 0.080326 0.369048 0.088836 0.064736 -0.291532 0.014619 0.169609 -0.331155 
presented 0.045994 -0.053132 0.132533 0.233980 -0.174310 -0.323891 0.112160 0.119922 0.038202 -0.169551 -0.085221 0.084778 -0.090033 0.081182 -0.212836 -0.097791 0.019266 -0.030743 -0.112368 0.126036 
natural 0.330086 0.393359 0.337673 0.321559 -0.191069 -0.149643 0.538271 0.136383 0.157449 0.063624 0.074684 -0.218546 -0.206315 -0.168369 -0.274983 -0.188146 -0.189854 -0.098004 -0.471914 0.074701 
possible 0.028726 0.085533 0.274737 -0.013927 -0.049378 0.073082 -0.130939 -0.193739 0.113630 0.052977 0.126006 0.067124 -0.195090 -0.041381 -0.206153 -0.040027 -0.102436 0.062794 -0.049822 0.031115 
dimensional -0.264523 0.358710 0.451532 -0.097093 0.116130 -0.002980 0.214227 0.140055 0.250631 0.161806 0.317860 -0.031647 -0.195515 -0.491826 -0.879292 0.113673 -0.552419 0.270599 -0.104973 0.492610 
propagation 0.144035 -0.252610 0.242218 0.188379 0.171186 -0.630115 -0.200061 -0.370929 -0.203108 -0.563225 -0.248404 -0.329643 0.563734 0.608530 0.075134 -0.440575 0.496052 -0.789726 0.067943 -0.381624 
trained -0.370679 0.170283 0.125677 -0.164949 0.276341 -0.364807 -0.053186 -0.046088 -0.254119 -0.503028 -0.103483 -0.239921 -0.149006 0.084631 0.064661 -0.113629 0.488539 0.125393 -0.111101 -0.028025 
applied -0.367293 -0.056224 0.061762 0.250125 0.125301 -0.218291 0.140967 0.200656 0.076102 -0.100199 0.057062 0.179091 0.032301 -0.184568 -0.051178 -0.573704 0.352079 0.079341 -0.071223 0.045469 
known -0.229979 0.053693 0.207854 0.272824 -0.037423 -0.009594 0.051238 -0.069553 0.240440 0.058365 -0.052653 0.152736 -0.226740 -0.042014 -0.291660 -0.168613 -0.086759 -0.152014 0.211473 -0.225932 
work -0.098803 -0.095883 -0.011718 0.264951 -0.491344 -0.394695 0.385640 0.321402 0.091690 0.094829 0.107426 0.104010 0.041005 -0.276519 0.103608 -0.035141 0.209936 0.040670 -0.018526 -0.116404 
techniques -0.276580 0.005601 -0.004161 0.320408 -0.134715 -0.272602 0.415608 0.225302 -0.144990 -0.203388 -0.177754 0.045091 0.150521 -0.064648 -0.412892 -0.451469 0.051625 -0.163789 0.031965 -0.078645 
prediction -0.350614 -0.039825 0.160229 0.177102 -0.254023 0.141456 -0.199798 -0.217125 0.050412 -0.326201 -0.345318 0.367682 -0.069352 0.035446 -0.148493 0.092339 -0.230774 -0.162424 -0.307139 0.063386 
point -0.012326 0.314895 0.042058 -0.225804 -0.131563 -0.141047 0.106068 -0.289774 0.026135 0.296751 -0.071498 -0.020117 -0.025493 0.074505 -0.004679 -0.047712 -0.310037 0.001308 -0.003507 0.111056 
particular -0.203035 0.104204 0.135394 -0.001749 0.050332 -0.195115 0.141644 -0.188733 -0.000170 -0.042154 -0.055503 0.077406 -0.175413 -0.230451 -0.095818 -0.188812 -0.203615 -0.122072 -0.039490 -0.027954 
figure 0.075479 -0.337882 0.252668 -0.394394 -0.162763 0.041422 -0.187136 -0.368588 0.223956 0.196019 -0.039613 -0.146449 -0.001301 -0.176900 0.443555 -0.144391 -0.473095 0.304588 -0.141944 -0.214140 
computational -0.028737 -0.097825 0.140640 0.304332 -0.262992 -0.387328 0.244979 0.119311 -0.178404 -0.057366 0.052851 0.032457 0.093559 -0.405579 -0.197897 -0.062297 0.024209 -0.118709 0.107418 0.015082 
small -0.150683 0.058619 0.472441 -0.116506 0.155357 -0.175484 -0.000349 0.079616 -0.001973 0.108941 0.111191 -0.225153 -0.374355 0.342094 -0.027580 0.065630 -0.058631 0.101177 -0.258316 0.146027 
so -0.075852 0.268860 -0.048661 -0.138096 0.023512 0.056320 -0.080583 -0.271268 -0.047819 0.265258 0.133990 0.095127 -0.498628 -0.038965 0.148942 -0.309607 -0.142697 0.282105 0.147862 -0.124941 
complexity -0.081332 -0.123022 0.085403 0.108031 -0.037982 -0.105496 0.278906 -0.026884 -0.288861 -0.067278 -0.001006 -0.056857 -0.198714 -0.059055 -0.329702 -0.203791 -0.350154 -0.019048 -0.175645 -0.210887 
most 0.116425 0.026417 0.306710 0.141059 -0.149334 -0.151017 0.168595 -0.009760 0.064520 0.116871 -0.004308 0.037695 -0.001242 -0.104473 -0.107923 -0.316850 -0.002187 0.111180 -0.145448 -0.017439 
gradient -0.000488 -0.500050 0.134615 -0.362584 0.320813 -0.071492 -0.192922 -0.026663 0.241881 -0.237096 0.001087 -0.014212 0.103120 0.142750 -0.578462 -0.720862 -0.255992 -1.009193 -0.028917 -0.231917 
estimate 0.123526 0.296730 -0.031900 -0.100647 -0.233593 0.233202 0.015640 -0.526700 0.236199 0.046942 0.125910 0.015771 -0.090996 0.020407 0.088036 -0.163803 -0.523064 -0.178127 0.067173 -0.112770 
regression -0.493300 -0.010103 -0.253606 -0.093306 -0.022846 -0.110240 0.375138 -0.214659 0.043185 -0.355393 -0.139191 0.316991 -0.088569 -0.022782 -0.784238 0.008001 -0.370179 -0.173514 0.231560 -0.478074 
policy -0.127121 -0.220246 -0.113042 -0.354539 0.219738 0.297084 -0.590270 -0.125987 0.016431 -0.158316 -0.324484 0.603374 0.294862 0.430058 0.113215 -0.453396 -0.818350 -0.466219 0.134606 -0.119268 
points -0.049917 0.193108 0.327571 -0.300302 0.246952 0.217598 0.115234 -0.294954 0.215384 0.399151 0.063681 -0.128643 -0.234460 0.305558 -0.126626 0.198535 -0.496942 0.303956 -0.405225 0.364847 
reinforcement -0.356062 -0.395829 -0.486352 0.368103 -0.124842 -0.022225 -0.234003 0.271958 -0.455271 0.242805 -0.287593 0.887016 0.221059 -0.012628 -0.133890 -0.271944 0.262934 -0.495825 0.046455 0.000293 
pattern -0.024215 0.346681 0.182582 0.158723 0.110834 -0.200973 0.064396 0.071233 0.116110 -0.452976 -0.189036 0.289600 0.194392 -0.200802 0.196917 -0.303143 0.205970 0.171481 -0.077366 0.112134 
inputs 0.144886 0.534620 0.480238 -0.004150 0.255191 0.150027 -0.219577 -0.022231 -0.006894 0.008511 0.444407 0.021825 -0.030685 -0.036070 0.183629 0.153468 -0.049723 0.070687 0.111422 -0.055970 
properties -0.040849 0.096476 0.318265 0.293481 0.039607 -0.182648 0.204858 0.204284 -0.055014 -0.038310 0.421792 -0.059691 0.025373 -0.157297 0.085430 -0.054016 0.033998 -0.056904 0.195223 0.033125 
through 0.038352 0.190344 0.356378 0.026520 -0.127231 -0.147104 -0.178217 0.059787 -0.044578 0.169947 0.134052 0.272457 0.064589 0.074287 0.281667 -0.061068 0.099935 0.048098 0.336592 0.060338 
matrix -0.204764 0.072070 -0.154276 -0.629082 0.001797 0.166320 -0.336450 -0.316301 0.032897 0.553316 0.117865 0.209227 0.107957 0.171541 -0.194029 0.232204 -0.743765 0.248875 0.102291 -0.137483 
states 0.037384 -0.012956 0.405757 -0.311466 0.107210 0.264062 -0.419482 -0.222906 -0.051866 0.277586 -0.018819 0.438491 0.095005 0.223263 0.149304 -0.127338 -0.053306 -0.151154 -0.036445 0.111166 
layer -0.262828 0.582604 0.180172 -0.238297 0.655688 -0.508422 -0.695256 0.119778 -0.505101 -0.293985 0.103331 0.011126 0.612049 0.541329 0.326811 -0.186922 0.759967 0.000239 -0.293637 0.209236 
independent -0.054270 0.149681 0.450198 -0.029129 -0.100288 -0.138984 0.295773 -0.204304 0.006101 -0.320043 0.300263 -0.025766 -0.363661 -0.266426 -0.100878 -0.000773 -0.017909 0.183699 0.054041 0.182105 
convergence -0.143041 -0.166470 -0.017131 -0.064704 -0.133538 0.228260 0.132879 -0.088510 -0.050307 -0.065454 -0.141413 0.265775 0.000824 0.025875 -0.105700 -0.502089 -0.333545 -0.546790 0.406137 -0.308983 
tasks -0.077249 0.101845 0.236979 0.439686 -0.326741 -0.209681 0.192968 0.291172 -0.006727 -0.517777 -0.133516 0.280160 -0.045111 -0.314033 -0.103744 -0.313024 0.150952 -0.034421 -0.149206 0.156177 
standard -0.246993 -0.171424 0.041233 0.027121 -0.182695 -0.130379 0.319912 -0.143767 0.027609 -0.239408 -0.271926 0.051019 0.069935 0.067185 -0.370002 -0.307674 -0.091922 -0.256446 -0.052490 -0.178621 
dynamics -0.146614 -0.067685 0.130899 0.105747 0.218621 -0.297806 -0.317227 -0.000639 -0.255093 -0.082833 0.163769 0.208514 0.007957 0.010677 0.075655 0.041769 0.172600 -0.140062 0.090658 0.169018 
temporal 0.070980 0.123895 0.208896 0.306613 -0.159708 -0.349346 0.049281 0.148425 0.165590 -0.025368 0.297693 0.097800 -0.122998 -0.189732 0.425166 0.297958 0.185637 0.010756 0.249383 0.100179 
architecture -0.079780 -0.044398 0.084186 0.240479 -0.050659 -0.549966 -0.318641 -0.013528 -0.417251 -0.204958 0.051327 0.130261 0.064221 0.032090 0.027384 -0.092914 0.415651 0.111787 -0.100384 -0.010605 
novel -0.128818 -0.262573 -0.019755 0.473429 -0.191961 -0.400380 0.233882 0.128027 -0.354457 -0.160122 -0.072929 0.220207 0.114256 0.001101 -0.391483 -0.114613 -0.061792 -0.035829 -0.044874 0.123072 
weight -0.177755 0.067457 0.241245 -0.628109 -0.111158 0.298365 -0.208401 -0.435576 -0.157694 0.010914 -0.017971 0.121833 -0.115879 0.351047 -0.059374 0.306540 -0.418167 0.241882 0.017560 -0.189715 
allows -0.330390 0.322499 -0.171943 -0.037064 0.138513 -0.302434 0.128418 0.016637 -0.037309 0.137041 -0.021690 0.046796 0.028080 -0.104604 -0.030481 -0.407081 -0.166075 0.099456 -0.013107 -0.023195 
random -0.228181 0.251255 0.138754 -0.026240 -0.046511 -0.136059 -0.010793 -0.434032 0.316665 0.061716 0.019063 -0.017624 0.331605 0.558119 -0.058276 -0.049105 0.108449 0.038098 -0.465622 0.117600 
learn -0.168324 0.090746 -0.076262 0.129816 0.087334 -0.193657 -0.004144 -0.050209 -0.234398 -0.092493 -0.045126 0.202641 -0.014881 -0.062198 -0.127433 -0.183252 -0.045901 0.046503 -0.063551 -0.015090 
provide -0.134960 0.080003 0.176439 0.068308 -0.059129 0.001668 0.210365 -0.035948 -0.003666 -0.175854 -0.101636 -0.006140 -0.038386 0.169622 -0.030027 -0.165448 -0.214064 -0.186352 0.049789 -0.158862 
multi -0.246289 0.195807 -0.114130 -0.083803 0.142884 -0.314129 -0.146256 0.128192 -0.286879 -0.437689 -0.155389 0.532130 -0.070713 0.268612 0.079864 -0.226368 0.315295 -0.093284 -0.191082 -0.039710 
under -0.200184 0.100602 0.140288 -0.099280 0.078968 0.296025 0.034520 0.123089 0.214933 0.126681 0.002657 0.415252 0.013571 0.077441 0.013538 -0.066965 -0.269462 -0.174384 0.210168 -0.228824 
spike -0.109450 0.372734 0.616987 0.228666 -0.345921 0.496600 -0.206123 0.073406 0.115483 0.266982 0.661663 0.082195 -0.304148 0.197293 0.756601 0.359259 0.071804 0.193727 0.570692 0.037624 
similar -0.269236 -0.015607 0.204687 -0.080646 -0.023515 -0.184804 0.112063 0.013809 -0.020543 -0.108110 0.085872 -0.216824 -0.203162 -0.028111 0.056321 -0.289263 0.063050 0.030472 0.000248 -0.101076 
multiple 0.046807 0.152511 0.094696 -0.014653 -0.109684 -0.326133 -0.165199 0.086103 -0.237967 -0.002681 0.100941 0.182112 0.190672 0.031196 -0.005127 0.113705 0.068636 0.112217 -0.004664 0.104774 
step -0.030627 0.052176 -0.148243 -0.128172 0.094922 -0.008622 -0.267625 -0.288887 0.163536 0.042097 -0.206614 0.288906 0.293746 0.392752 -0.084501 -0.154864 -0.355814 -0.324212 -0.248674 0.089756 
human 0.053001 -0.103627 0.164673 0.235278 -0.523648 -0.341963 0.217438 0.126378 -0.014194 -0.069364 0.054640 -0.135110 -0.001865 -0.333984 0.112006 -0.098578 0.052645 0.149499 -0.111941 0.141131 
variables -0.222753 0.378946 0.020138 -0.194830 0.280157 0.014938 -0.171952 -0.311963 0.261181 0.112272 0.111415 0.189063 0.296797 0.369189 -0.104504 -0.009188 0.022662 0.169152 -0.324124 0.241246 
example 0.005260 0.010973 0.265336 0.154880 -0.127700 -0.055541 -0.058937 -0.068098 0.059343 -0.133889 -0.001702 -0.072697 -0.016901 -0.194572 0.063215 -0.252684 -0.015111 0.067896 -0.145603 0.085930 
activity -0.079942 0.391635 0.537015 -0.040800 0.143324 -0.057249 -0.222119 -0.048916 -0.111851 0.198249 0.286427 0.108636 0.211998 -0.131824 0.511251 0.069771 0.410403 0.183344 0.226239 0.207248 
three -0.013914 -0.016699 0.480514 0.076082 0.025785 -0.247181 0.139622 0.050791 0.032172 -0.221138 -0.062251 -0.009717 0.098976 0.009312 -0.005800 -0.196151 -0.053968 -0.016155 -0.262879 0.251760 
describe 0.048517 0.041707 -0.147915 0.297384 -0.177798 -0.344823 0.289593 0.132709 -0.174757 -0.246285 -0.128527 0.190031 0.173385 0.115252 -0.249142 -0.038266 -0.029838 -0.237589 -0.108691 0.116127 
memory -0.213206 -0.006889 0.149074 0.097687 -0.089631 -0.435113 -0.079127 0.185009 -0.176318 -0.078775 0.195733 0.249868 0.024291 -0.168194 -0.061051 0.033660 0.122840 -0.024654 0.222460 -0.072018 
technique -0.037379 0.034660 -0.080238 0.209667 -0.272731 -0.251240 0.169836 0.067965 -0.010252 -0.107128 -0.145515 0.113506 0.050835 -0.039054 -0.403036 -0.214010 -0.091992 -0.096309 0.096572 -0.112399 
field -0.159171 0.283440 -0.043913 0.329347 -0.310672 -0.156088 0.353355 -0.212927 0.037082 0.025382 0.249269 -0.308556 0.443393 0.619416 0.165204 -0.227468 -0.256499 -0.046934 -0.005617 -0.129720 
parameter -0.186694 -0.025495 0.011942 -0.086872 0.030570 0.189989 0.094159 -0.276178 0.051291 0.098035 -0.104981 0.229942 -0.018311 0.120556 -0.318642 -0.061540 -0.294580 -0.174804 -0.024965 -0.107559 
mean -0.127359 0.239378 -0.294048 0.103498 -0.559948 0.366831 0.073659 -0.558100 0.372116 -0.148983 -0.196732 -0.112004 0.125985 0.437250 0.040652 -0.138444 -0.412555 -0.109263 0.012124 -0.146333 
efficient -0.042686 -0.096453 -0.231556 0.194581 -0.166686 -0.080855 0.293382 0.148014 -0.056484 0.019280 -0.073698 0.129206 -0.031864 0.152087 -0.564376 -0.351786 -0.272378 -0.490019 -0.184832 -0.109009 
basis -0.700838 0.197948 -0.282503 -0.037918 0.436462 -0.539370 -0.280434 -0.191996 -0.291587 0.128446 -0.179116 -0.095110 0.422856 0.293439 -0.524581 0.055330 -0.464028 -0.102933 0.124820 -0.105160 
level -0.311836 0.192817 0.345619 0.217632 -0.252619 -0.154627 0.063520 0.108318 -0.084386 -0.114014 0.046584 -0.232520 0.095294 -0.348070 -0.099102 -0.048631 -0.195828 0.126931 -0.003401 -0.002865 
study -0.120042 0.092326 0.063086 0.192337 -0.084911 -0.389894 -0.067930 0.051046 -0.039688 -0.032998 0.049805 0.009030 0.098062 -0.051604 0.092060 -0.136362 0.199239 0.019545 0.042158 -0.041100 
low 0.119683 0.347100 0.551698 -0.128804 -0.412397 0.117040 0.205688 -0.298327 0.130804 0.074916 0.186162 -0.111853 0.034141 -0.294392 -0.307352 0.071216 -0.314753 0.277824 0.036094 0.125905 
important -0.031276 0.128060 0.254600 0.274658 -0.160491 -0.111271 0.177005 0.073266 -0.019109 -0.128230 0.136285 0.095624 0.091718 -0.386710 -0.111325 -0.074796 -0.077265 -0.113080 -0.127461 -0.055797 
experimental -0.110850 -0.179996 0.423559 0.083874 -0.154641 -0.313873 0.473316 0.298267 0.561817 -0.325124 -0.310180 -0.404874 -0.019751 0.232680 -0.194800 -0.369511 0.023613 -0.330658 0.097840 0.270083 
inference -0.070973 0.208855 -0.306109 0.323842 0.018792 -0.293122 0.335942 -0.253667 0.409692 -0.223130 -0.016648 0.131781 0.301549 0.247501 -0.235206 -0.462438 -0.044902 -0.277723 -0.190902 -0.019942 
stochastic -0.242130 -0.126727 0.026193 0.007312 0.077932 -0.131702 -0.164889 0.028460 0.081002 -0.002809 0.076868 0.306198 -0.078386 0.086812 -0.030447 -0.304922 -0.108758 -0.403557 0.050511 -0.008788 
those -0.169977 0.104378 0.391330 0.041355 0.032638 -0.011559 0.009938 0.182178 -0.088321 0.024752 -0.172174 -0.128817 -0.144230 -0.107288 0.195453 -0.294774 -0.157465 -0.192914 0.057236 -0.054261 
machine -0.019004 -0.069394 0.097975 0.358841 -0.381481 0.215165 0.290181 -0.045047 -0.220001 0.245864 -0.167025 0.365345 -0.095018 0.229678 -0.647301 -0.011724 0.220961 -0.083133 -0.014879 -0.602066 
object 0.057665 0.405932 0.056837 0.184389 -0.047310 -0.310359 0.209357 0.062416 -0.058622 -0.040399 0.079398 -0.137698 0.286982 -0.178654 0.098209 0.261710 -0.254177 0.368058 -0.309654 0.361407 
clustering -0.175537 -0.038956 -0.186564 0.195851 -0.218173 -0.270822 0.511567 0.002164 0.205795 0.095907 -0.191193 0.081310 0.133172 0.125448 -0.363478 -0.134393 -0.439861 0.032757 -0.103041 0.033912 
rule -0.217254 -0.147058 -0.091526 -0.016676 -0.021159 -0.078053 0.132795 -0.100043 -0.198683 0.185751 -0.186262 0.148942 0.038813 0.248974 0.088619 -0.299840 -0.180459 -0.275208 0.066913 -0.307402 
cells 0.184332 0.326087 0.720185 0.130084 0.003995 -0.201414 -0.183989 0.188891 0.046362 0.264926 0.757882 -0.216355 0.152637 -0.153645 0.738900 0.031959 0.099967 0.143348 0.247930 0.387077 
size -0.177537 0.021456 0.340428 -0.085553 0.287872 -0.025960 -0.279720 -0.298584 -0.005615 -0.000830 0.001683 -0.220943 -0.326549 0.106289 -0.001722 -0.064819 -0.116751 -0.074885 -0.155030 -0.085889 
complex -0.144626 0.030519 0.330364 -0.018371 -0.177363 -0.185385 0.055655 0.313580 -0.088884 0.057863 0.074955 -0.040082 0.040690 -0.097083 0.056191 -0.297071 0.087756 -0.129662 0.031794 0.221235 
obtained -0.042027 -0.073873 0.215873 0.088826 -0.042272 -0.054040 0.253013 0.036274 0.306879 -0.060575 -0.199459 -0.161390 -0.181749 0.112792 -0.006489 -0.158025 -0.208060 -0.296439 0.100238 -0.174397 
find -0.080166 0.036062 0.095266 0.003694 -0.106433 -0.126122 0.170544 0.008855 -0.009476 0.042320 0.015501 0.056230 0.032110 -0.065319 -0.090518 -0.390055 -0.120423 -0.114278 0.205558 0.022836 
representations -0.067210 0.201710 0.119291 0.053415 0.102059 -0.254145 -0.081852 -0.008445 -0.037217 -0.059990 0.081167 0.259094 0.164854 -0.007654 -0.116033 -0.173995 0.096398 -0.052813 -0.033028 0.083335 
consider -0.156716 0.155875 -0.119411 0.150218 0.084465 0.009331 -0.066537 -0.008167 -0.057089 0.154212 -0.087948 0.206891 0.164561 0.086170 -0.112424 -0.006160 -0.275768 -0.190072 -0.298572 0.171006 
way 0.040509 0.110606 0.146915 0.059200 0.043623 -0.128800 0.069895 0.209936 -0.057721 -0.032275 0.100612 0.167669 -0.006866 0.110734 -0.252589 -0.083301 -0.190708 -0.082727 0.004196 0.090361 
thus -0.112258 0.253843 0.066152 0.048553 -0.087455 0.023884 -0.283138 -0.049477 -0.169543 0.270724 0.067472 0.188759 0.061570 0.060590 -0.079946 0.011944 -0.286253 0.144762 0.039275 0.044463 
solution -0.113355 -0.010531 -0.149450 0.034757 -0.119971 0.090075 0.133946 -0.024566 -0.102772 0.026852 -0.141451 0.292887 0.044430 -0.065863 -0.514896 -0.250012 -0.329821 -0.236101 -0.045939 -0.283074 
support 0.079186 0.324403 0.216846 0.172943 -0.163337 0.624960 0.463654 0.074413 0.040325 0.051881 -0.428577 0.454599 -0.218521 0.481062 -1.289822 0.431584 0.052063 0.023824 0.185744 -0.962359 
approaches -0.203607 -0.126654 0.162303 0.310250 -0.123999 -0.243721 0.413917 0.286094 -0.059634 -0.120488 -0.150737 0.007007 0.256129 -0.166693 -0.346501 -0.310784 -0.204104 -0.319020 -0.096810 -0.062938 
conditions -0.466248 0.040586 0.300406 -0.115585 0.219762 0.045793 -0.142058 0.235477 0.288084 0.126119 0.020902 0.173896 0.137004 0.124685 0.175205 0.107277 -0.376018 -0.289911 0.112907 -0.059080 
ie -0.204351 0.264953 0.322467 -0.101396 -0.027299 0.095246 -0.331867 -0.420047 -0.093409 -0.020500 0.031870 -0.172923 -0.215516 0.198876 0.178535 0.006629 -0.346984 0.003684 -0.124171 -0.204809 
better -0.264104 -0.185124 0.346176 0.041496 -0.311066 0.059531 0.051183 -0.555700 -0.190322 -0.426198 -0.293345 -0.462383 -0.150317 -0.278202 -0.117514 -0.278464 -0.122244 -0.665015 -0.076586 -0.294628 
objects 0.304266 0.207743 0.289212 0.243507 -0.071827 -0.094505 0.358319 0.135301 -0.216997 0.195471 0.163245 -0.145523 0.125818 0.115767 0.039767 0.077565 -0.237381 0.211428 -0.285324 0.406712 
maximum -0.341379 -0.026494 -0.401593 0.036758 -0.267486 0.239690 0.603797 -0.677040 -0.180229 -0.040512 -0.116352 -0.159340 -0.117733 0.111950 -0.227613 -0.107314 -0.581742 0.047995 -0.234110 -0.236078 
response -0.010106 0.343042 0.611344 0.120619 0.125567 -0.030121 -0.300348 0.060395 -0.014833 0.189657 0.631579 0.077939 -0.079259 -0.400555 0.357454 0.060809 -0.011084 0.165987 0.146736 -0.001751 
classifier -0.343771 0.045194 -0.186345 0.134498 0.005074 -0.266619 0.279846 -0.093423 -0.258354 -0.192199 -0.176521 -0.054267 -0.339622 0.131478 -0.380000 -0.017470 -0.272300 0.072841 -0.142343 -0.116593 
continuous -0.169034 0.022869 0.376997 0.077853 0.195531 -0.153155 -0.399830 -0.406905 0.066205 -0.410947 -0.063566 0.184362 0.166919 -0.258784 -0.073538 -0.255510 0.435379 -0.347463 -0.115232 0.030387 
likelihood -0.604486 0.325108 -0.389447 0.097471 -0.086453 0.271869 0.552766 -0.335426 -0.501550 0.116384 -0.185400 -0.190368 0.269736 0.043691 -0.033282 0.112674 -0.683248 -0.085790 -0.224467 -0.172041 
probabilistic 0.005244 0.244534 -0.341406 0.405785 0.011299 -0.624338 0.342868 0.005702 0.018641 -0.364160 -0.130075 0.211097 -0.143019 0.176384 -0.380550 0.056844 -0.026987 -0.228288 -0.160674 0.155893 
during 0.013565 0.102197 0.234802 -0.068187 0.045232 -0.150351 -0.139709 -0.017392 -0.246433 0.007976 -0.004624 -0.017693 -0.399401 0.076189 0.393842 0.038971 0.183895 0.236468 -0.195272 0.134803 
bound -0.318546 -0.034208 -0.129468 0.201428 -0.441652 0.169301 0.004610 -0.681426 0.285910 -0.009089 -0.291265 -0.100842 -0.629798 0.146607 0.001089 -0.155936 -0.589568 -0.153428 -0.141926 -0.367871 
test 0.192697 0.014252 0.293956 -0.135864 -0.050149 0.084038 0.050358 -0.152904 0.206094 -0.264665 -0.143074 -0.071474 -0.383308 0.076378 -0.172734 -0.067934 -0.165433 0.021771 0.005440 0.019110 
terms 0.186416 0.294737 0.013314 0.160746 -0.228535 -0.052954 0.025061 -0.097093 -0.086702 -0.032401 -0.084359 -0.010879 -0.207244 0.179930 0.004242 -0.045903 -0.385829 0.040832 -0.072955 -0.060745 
mixture -0.545826 0.257313 -0.406361 -0.027255 0.150429 -0.559028 0.383026 -0.249205 0.163355 -0.164154 -0.066262 0.022114 -0.061394 0.079519 -0.326419 0.173527 -0.347629 0.051157 -0.139298 0.047234 
even -0.112243 0.158883 0.294215 -0.046371 0.112067 0.075492 -0.040080 -0.135859 0.030639 -0.017411 0.063184 -0.179411 0.032872 -0.036085 -0.012058 -0.136284 -0.213460 -0.044652 0.028904 0.043745 
decision -0.195061 0.018061 -0.165806 0.109579 -0.220079 -0.408697 -0.233921 0.050212 0.045276 0.099858 -0.146343 0.180914 0.368531 0.531655 -0.217233 -0.134753 -0.140050 -0.129321 -0.239964 -0.095133 
behavior -0.138902 0.009180 0.256291 0.193222 -0.182882 -0.384517 -0.163656 0.218928 -0.204777 -0.032676 0.238349 0.173977 0.076932 -0.343797 0.233071 -0.077875 0.075661 0.097873 0.056610 0.000513 
line -0.602933 -0.233026 -0.128546 -0.204443 -0.071937 0.075862 0.111667 -0.640694 -0.003695 0.087033 0.253452 -0.084928 -0.262138 -0.306026 0.178443 -0.131262 -0.327454 -0.129064 -0.409514 -0.075586 
perform -0.350555 0.024084 0.203845 0.078759 0.110763 -0.158273 0.079986 0.032889 -0.200175 -0.141102 -0.007647 0.059106 -0.150807 -0.265514 -0.124042 -0.367098 0.195767 -0.229932 0.067149 -0.158891 
analog 0.056347 -0.064236 0.466950 0.154920 -0.100993 -0.590673 -0.325322 0.140768 -0.447781 -0.137782 0.028005 -0.078131 0.064852 -0.191618 0.202978 0.115562 0.707465 0.082606 -0.227301 -0.097213 
motion 0.371213 0.355691 0.479407 0.223481 -0.274997 -0.377549 0.122982 0.131086 0.027042 0.002478 0.256711 -0.004160 0.229987 -0.289950 0.254546 0.014127 0.003687 0.100051 -0.056759 0.191525 
uses 0.164173 -0.069145 0.136019 0.243336 -0.073561 -0.501956 -0.214274 0.061516 -0.221967 -0.109821 0.039401 0.064347 -0.034905 0.018360 -0.194497 -0.051814 0.093369 -0.021952 -0.131447 -0.093213 
tree -0.163944 -0.215478 -0.192386 0.021701 -0.226309 -0.222064 -0.157224 -0.452124 -0.102573 0.237172 -0.081844 0.057558 0.139756 0.506951 -0.052663 -0.116965 -0.205033 -0.014554 -0.463695 -0.215850 
context -0.052766 0.261831 0.016867 0.101806 -0.132215 -0.145075 0.265439 -0.114685 0.050642 -0.131481 -0.107734 0.007490 0.161404 0.087450 0.021389 -0.223245 -0.034827 0.020799 -0.106085 0.057749 
signals 0.165882 0.328151 0.561474 0.262843 -0.306057 -0.241921 -0.148679 -0.021052 -0.051198 -0.103114 0.241461 0.027497 0.061959 -0.287474 0.356073 0.108977 0.249749 0.043675 0.185513 0.050311 
learned -0.155175 0.111009 0.011597 0.045819 0.296103 -0.021719 -0.114978 -0.105708 -0.055632 -0.078435 0.009040 -0.007420 0.086400 0.157133 0.032536 -0.094838 -0.216105 -0.152983 -0.029530 0.030551 
dynamic -0.219715 -0.037866 -0.224022 0.131127 -0.069697 -0.277726 -0.200329 0.250396 -0.091177 -0.093958 -0.057671 0.394227 0.140477 0.165258 -0.018825 -0.076444 -0.061347 -0.352220 -0.019630 -0.083909 
within -0.053221 0.211137 0.004830 0.090382 -0.140766 -0.136698 -0.004466 -0.031852 -0.063475 -0.058743 -0.091329 -0.138724 0.064940 0.186699 -0.020657 -0.045759 -0.152595 -0.010170 -0.018903 0.093074 
synaptic 0.067925 0.183690 0.332564 -0.150940 0.292536 -0.013418 -0.464035 0.223624 -0.027084 0.278480 0.433176 0.100011 0.083059 -0.072991 0.633853 0.065292 -0.006834 0.160450 0.404573 -0.068677 
resulting 0.154990 0.036747 0.157527 0.014346 0.009322 -0.026289 -0.004412 -0.130848 0.029250 -0.161216 0.006642 0.042062 0.059575 0.094732 0.041576 -0.087938 -0.162270 -0.117447 0.046518 -0.105912 
observed -0.167567 0.320517 0.281092 0.155607 0.008460 -0.112105 -0.070104 0.016308 0.283267 0.118676 0.200081 -0.059818 0.032061 -0.073341 0.355933 -0.245620 -0.035382 0.196746 -0.091006 0.298836 
previous -0.202963 -0.079637 0.325564 0.078431 -0.223827 -0.189475 0.304336 -0.055362 0.005704 -0.158524 0.080446 0.111170 0.197028 0.001673 -0.105224 -0.157055 0.007127 -0.227197 0.073250 -0.174861 
auditory 0.510344 0.110549 0.823085 0.586501 -0.327873 -0.318796 -0.004501 0.147244 0.088522 -0.217214 0.703337 -0.026604 -0.514973 -0.837820 0.496698 0.057625 0.502024 0.143467 -0.046074 0.040069 
selection -0.059744 0.171008 -0.221281 -0.120461 -0.127210 -0.047889 0.344382 0.138571 0.103571 0.119447 -0.167258 0.047916 0.138647 -0.016517 -0.396344 -0.123842 -0.327247 0.223018 -0.082919 -0.053626 
components -0.239353 0.109367 0.284739 -0.325195 -0.127640 -0.271361 0.189669 -0.050156 0.043267 0.025074 0.168621 -0.065722 -0.026137 0.091456 -0.230378 0.274891 -0.353317 0.376578 0.137437 0.004649 
shows 0.083344 -0.144132 0.293132 -0.110798 -0.120519 -0.082206 0.014198 -0.254385 0.152109 0.003350 0.077322 -0.012311 -0.046820 -0.094343 0.347961 -0.123098 -0.324116 -0.024120 -0.130610 -0.058049 
found -0.061222 -0.060830 0.205834 0.154479 -0.048367 -0.170298 0.229744 0.164918 0.158248 -0.133753 0.035233 -0.192435 -0.076625 0.043432 0.072565 -0.359258 -0.008952 -0.114420 -0.016111 -0.193449 
result 0.089421 -0.054262 0.137686 0.118212 -0.170127 -0.063705 -0.026110 -0.005468 -0.028663 -0.108342 -0.132012 -0.020138 -0.087962 0.102424 -0.080929 -0.081498 -0.282513 -0.111456 -0.083192 -0.051317 
called -0.128543 -0.072071 -0.138967 0.141916 0.303306 -0.328425 -0.070883 -0.072464 -0.149471 -0.075868 0.225477 0.300999 -0.162169 -0.048260 -0.054499 -0.085612 0.070881 -0.116937 -0.132105 -0.091455 
optimization -0.222940 0.128941 -0.237999 0.231127 0.140012 -0.357917 0.216830 0.042275 0.180192 -0.234351 0.003067 0.496227 -0.050984 -0.092042 -0.476151 -0.297689 -0.263609 -0.307776 -0.002406 0.050838 
approximate -0.006997 0.215444 -0.296839 0.075366 0.200491 -0.140753 0.132099 -0.385529 0.172394 -0.158554 -0.252142 0.115751 0.254120 0.566389 -0.334586 -0.368393 -0.298841 -0.300122 -0.301172 -0.146213 
values 0.011299 0.160705 0.324280 -0.331528 0.044609 0.162776 -0.223818 -0.197216 0.023012 0.163149 -0.127279 0.066306 0.015780 0.166790 0.032014 -0.193134 -0.574496 0.059530 -0.228384 0.005336 
phase -0.123840 -0.000369 0.342696 -0.085295 -0.246927 -0.169955 -0.343769 0.022478 -0.128707 0.081413 -0.098310 0.195988 0.185321 -0.299389 0.218616 0.053017 -0.273990 0.050276 0.255545 0.099707 
distributions -0.008279 0.548479 -0.158401 0.042848 -0.092156 -0.082109 -0.004086 -0.441523 0.002828 0.095656 -0.119530 0.078742 0.096873 0.383648 -0.097664 0.035369 -0.334224 0.070089 -0.059381 -0.055325 
provides -0.106363 -0.021305 0.142987 0.066009 -0.234583 -0.055475 0.157926 0.004469 -0.122432 -0.114412 0.009514 0.077170 -0.142625 -0.077296 -0.043756 -0.154196 -0.155356 -0.125248 0.119719 -0.058174 
search 0.064250 -0.261276 -0.133326 -0.049475 0.155268 0.033369 -0.165429 0.006494 -0.010302 -0.013897 -0.057965 0.361909 0.257114 -0.216858 -0.206196 -0.483165 -0.515416 -0.240545 0.180527 0.037375 
up 0.006021 0.379325 0.353410 -0.110234 -0.142008 0.010168 -0.088183 0.109827 -0.170223 0.075541 -0.079485 -0.017188 -0.181283 0.215551 0.307753 0.003567 -0.002409 -0.077095 0.024388 -0.029669 
feedback -0.117418 0.204254 0.052425 0.053291 0.146517 -0.000310 -0.136019 0.224991 -0.390749 -0.090825 0.122068 0.316216 0.162846 -0.314487 0.335520 -0.427550 -0.022120 0.113839 0.238472 0.048558 
bounds -0.423186 -0.141513 -0.097447 0.364069 -0.224766 0.052262 0.049272 -0.336684 0.185437 -0.123919 -0.510128 -0.005131 -0.456563 0.276483 -0.171624 -0.435600 -0.445547 -0.563749 0.083030 -0.352696 
em -0.252606 0.049943 -0.606389 -0.073428 -0.112097 -0.290214 0.447569 -0.288877 0.268811 0.041631 -0.270599 0.138569 0.126909 0.541643 -0.249288 -0.305059 -0.255192 -0.419315 -0.055038 -0.055472 
density -0.427835 0.244847 -0.301569 0.002628 0.149750 -0.153901 0.301444 -0.416508 -0.012329 0.121366 -0.193925 -0.148364 0.045485 0.119381 -0.193683 -0.099241 -0.295951 -0.027052 -0.037215 0.031042 
do -0.106190 0.026952 0.316850 -0.113707 0.058385 0.087325 -0.128011 -0.029661 -0.136410 0.128152 -0.077788 0.091168 -0.009479 0.016434 0.013645 -0.326813 -0.081009 -0.074685 -0.175499 -0.170672 
out -0.099481 0.144680 0.271980 -0.310989 -0.227828 0.024564 0.063986 -0.099188 0.041843 0.159350 0.254509 -0.099764 -0.089084 0.121495 -0.062894 -0.307892 0.122330 0.268211 0.048112 -0.040602 
without -0.079077 0.171005 0.203736 -0.175857 0.033500 -0.100620 -0.121401 -0.232424 0.032436 -0.187235 -0.076146 -0.080825 -0.124360 -0.145856 0.140115 -0.172532 -0.059219 -0.066303 0.054877 -0.037915 
map -0.072379 0.267427 0.069965 0.050083 0.000383 -0.203921 -0.202498 0.008551 -0.365123 0.265993 0.079375 0.023809 0.231028 -0.233669 -0.059969 -0.000214 -0.000339 0.203261 -0.192913 0.033053 
classifiers -0.281467 0.118323 0.145715 0.031681 -0.008627 -0.049742 0.383225 -0.034147 -0.363151 -0.226919 -0.209905 -0.115131 -0.368383 0.200748 -0.219242 0.011488 -0.239470 -0.100844 -0.088936 -0.307569 
because -0.036292 0.087963 0.357355 -0.010247 -0.008678 0.088750 0.166463 0.027051 -0.037691 0.051778 0.193327 0.105231 -0.159555 -0.076330 -0.036645 -0.271468 -0.200413 0.038733 -0.057356 -0.176554 
compared -0.307237 -0.113755 0.157548 -0.012339 -0.073596 -0.121752 0.242713 -0.034267 -0.014973 -0.339774 -0.268870 0.023303 -0.104415 0.008893 -0.036377 -0.449744 -0.001705 -0.196843 -0.114096 -0.089656 
derive -0.209484 0.046049 -0.310497 0.052785 -0.045626 -0.196369 0.342242 -0.019467 0.132356 -0.055557 -0.157297 0.022026 0.077957 0.260986 -0.259819 -0.150166 -0.513941 -0.298114 0.178975 -0.120027 
procedure -0.357699 -0.039644 -0.165267 -0.081856 -0.064169 0.045651 0.194325 -0.117739 -0.106334 -0.103792 -0.075797 0.032663 -0.145608 0.041876 -0.133285 -0.354986 -0.260529 -0.052788 -0.175528 -0.144455 
measure -0.147554 0.024281 0.071204 0.090520 -0.211634 -0.074069 0.249805 -0.236925 -0.064333 0.071223 0.073371 0.132300 -0.069706 -0.102052 -0.087410 -0.047472 -0.359045 0.094651 -0.098941 -0.153919 
best -0.108692 -0.056572 0.121810 -0.060226 -0.117472 0.004779 -0.030210 -0.084687 0.080667 -0.130338 -0.182434 0.083761 -0.138189 -0.117592 -0.048623 -0.212840 -0.173630 -0.171440 0.040306 0.000034 
recurrent -0.227761 0.152348 0.050422 0.274901 0.370718 -0.654352 -0.153086 0.054000 -0.526595 -0.207129 -0.030153 0.016650 -0.119241 -0.084898 0.017873 -0.031604 0.979432 -0.291510 -0.312082 -0.089897 
component -0.354148 0.123032 0.164138 -0.662490 -0.208766 -0.177271 0.391592 0.184682 -0.225660 -0.282461 0.327329 0.478049 0.064463 0.067498 -0.584317 0.047328 -0.504448 0.624942 0.676138 -0.146841 
stimuli -0.104354 0.286372 0.371782 0.171019 0.031398 0.027634 0.212430 -0.083910 0.032776 0.064414 0.480540 0.000172 -0.322872 -0.471509 0.540887 -0.201492 0.039827 0.174087 0.021875 0.084788 
much -0.189356 0.133366 0.534162 -0.093271 -0.228425 0.367328 0.400658 -0.061447 -0.156495 0.191341 -0.126675 -0.047095 -0.216162 -0.205101 -0.039737 -0.574264 0.020793 -0.207592 -0.109762 -0.161027 
does 0.100710 0.051542 0.322395 -0.163716 0.000539 0.173090 -0.164474 -0.184878 0.073308 0.106141 0.059999 0.089475 -0.166268 0.011547 0.020976 -0.194041 -0.299203 -0.008176 -0.077900 -0.223689 
eg -0.085885 0.194549 0.313707 -0.016803 -0.190030 -0.026073 -0.023388 -0.094892 0.186852 0.178215 -0.039504 -0.005952 -0.133259 0.065116 0.084089 0.019355 -0.116079 0.025269 -0.048161 0.083904 
after 0.068300 0.245663 0.421069 -0.381992 0.060923 0.253486 -0.392182 -0.471531 0.004559 0.181731 -0.125014 0.014973 -0.191558 -0.099761 0.408875 -0.161909 -0.323556 0.171481 -0.086256 -0.029133 
rules -0.057455 -0.004260 -0.063639 0.044793 -0.195619 -0.270733 0.117022 -0.023183 -0.164812 0.189795 0.024446 -0.182759 -0.066375 0.353152 0.046477 -0.203898 0.144163 0.176394 0.045982 -0.138138 
sample 0.002004 0.176963 0.189688 -0.125619 0.014898 -0.077582 0.029226 -0.177444 0.349838 0.014497 -0.091273 -0.114541 -0.248501 0.213082 -0.261569 -0.142400 -0.473041 -0.086087 -0.207740 -0.016987 
corresponding 0.016147 0.166378 0.303330 -0.352953 -0.052011 0.098979 -0.435613 -0.182227 -0.085349 0.249428 -0.016485 0.127837 -0.019264 0.174272 0.148534 0.108654 -0.408101 0.260385 -0.143454 -0.149820 
detection 0.166278 0.188983 0.277394 0.368157 -0.531620 -0.208886 0.109617 0.097944 -0.051016 -0.187431 -0.224202 -0.064402 -0.007326 -0.228851 0.035621 0.036589 0.010060 -0.016444 -0.018377 0.245928 
accuracy -0.292817 -0.080528 0.535127 -0.008359 -0.242811 -0.076309 0.337358 0.028821 0.186570 -0.230994 -0.234653 -0.019899 -0.136915 -0.217251 -0.002340 -0.197158 0.011382 -0.183875 -0.048509 -0.003007 
cell 0.075394 0.147470 0.380401 0.046271 -0.071185 -0.306629 -0.153756 0.223984 -0.325985 0.205820 0.601210 -0.023053 0.219553 -0.023605 0.365951 -0.010026 0.078645 0.311779 0.051489 0.159317 
simulations -0.165004 0.033360 0.353378 0.198281 -0.119938 -0.264127 0.157105 0.050655 0.352215 -0.066501 -0.007356 0.087485 -0.003475 -0.094842 0.029722 -0.274922 0.086588 -0.198032 0.187128 0.033012 
average -0.036459 0.006471 0.261800 -0.315829 -0.097258 0.194754 -0.260290 -0.414524 0.101916 -0.067375 -0.015096 0.098090 -0.291127 0.130987 0.092883 -0.236625 -0.381384 -0.035961 0.077534 -0.142376 
sequences 0.210325 0.202830 0.401232 0.095913 0.021789 -0.205903 -0.236395 0.109709 0.118049 0.038964 -0.003966 0.050457 0.136139 0.133118 -0.049497 -0.028714 -0.003885 0.130914 -0.319986 0.357453 
chip 0.193023 -0.035011 0.591106 0.078122 -0.187192 -0.383336 -0.271462 0.138219 -0.493084 -0.199617 0.089676 -0.194136 0.227581 -0.018740 0.233467 -0.166919 0.773443 0.171433 -0.032085 -0.154040 
current -0.080575 0.121606 0.247940 -0.204866 -0.003070 0.073135 -0.525743 -0.135788 0.069120 0.193029 0.019739 0.453542 0.129930 0.052954 0.191084 -0.014714 -0.022336 0.009288 0.234712 -0.062403 
knowledge 0.076126 0.448921 -0.025327 0.265957 -0.111306 -0.128610 0.070544 0.025995 -0.300558 0.057927 -0.030308 -0.034471 0.001186 0.118085 0.036629 0.079103 -0.234438 -0.144201 -0.400156 0.021236 
often -0.175590 0.035094 0.168424 0.152222 -0.031619 0.070186 0.145066 -0.024700 0.099869 0.086796 0.026353 -0.053388 -0.007113 -0.123646 -0.011425 -0.140385 -0.123342 -0.144868 -0.115872 -0.038215 
nodes 0.043816 0.246537 0.155602 -0.208426 0.050482 -0.327492 -0.421943 -0.234197 -0.345220 0.036077 0.165485 -0.062293 0.288178 0.494421 0.041568 0.067943 0.025103 0.377654 -0.191547 -0.136874 
give -0.071464 0.182166 0.160711 -0.047176 -0.024269 -0.001768 0.077623 -0.204424 0.144440 -0.045970 -0.055341 -0.000042 0.035797 0.252842 -0.151917 -0.370446 -0.284409 -0.224373 0.082217 -0.156899 
cases -0.133633 -0.092799 0.021949 -0.099467 -0.230526 -0.037561 0.142615 -0.106999 0.175899 -0.010092 -0.162084 -0.161378 0.017654 -0.221838 -0.042265 -0.175959 -0.381160 0.051079 -0.001976 -0.120507 
belief -0.041991 -0.005739 -0.051665 -0.263913 0.396343 -0.309728 0.167293 -0.344140 0.295539 -0.143139 -0.108548 0.219701 0.191768 0.574122 -0.507221 -0.484860 0.490333 -0.441519 -0.122129 -0.171215 
described 0.084585 -0.019889 0.069792 0.179167 -0.076492 -0.232798 0.059995 0.219794 -0.113189 -0.174628 0.021081 0.105141 0.092344 -0.033059 0.037492 -0.124950 0.009587 -0.056607 0.003077 -0.172483 
theoretical -0.152172 -0.177991 0.149860 0.173094 -0.243433 -0.204518 0.315654 0.122928 0.214090 -0.110355 -0.130244 0.072914 -0.071637 -0.063448 -0.497972 -0.072328 -0.066237 -0.208357 0.134432 -0.100503 
applications -0.052397 -0.064532 0.163528 0.293637 -0.210940 -0.071045 0.107610 0.057619 0.054293 -0.211245 0.046968 -0.045894 -0.109563 -0.196802 -0.053093 -0.138757 0.216606 -0.071177 -0.175941 0.016418 
sequence -0.057939 0.275523 0.240037 -0.034076 -0.004353 -0.193782 -0.268158 -0.181020 0.135464 0.139038 -0.047309 0.177509 0.140051 0.031501 -0.053609 -0.096998 -0.061025 -0.020991 -0.223567 0.256798 
introduce -0.041033 -0.150882 -0.357983 0.139609 -0.174886 -0.249150 0.194888 -0.013354 0.041496 0.118320 0.017593 0.253755 0.153883 0.201989 -0.376261 -0.065024 -0.328645 -0.114386 -0.086747 0.090896 
scale 0.085110 0.076256 0.390160 0.147842 -0.029010 -0.119813 -0.081043 0.032953 0.137319 0.128046 0.039304 -0.218839 0.141514 0.139854 -0.124457 0.096392 -0.033468 -0.022684 -0.327518 0.287704 
prior 0.159670 0.288913 -0.171622 0.060689 -0.109019 -0.100769 0.026647 -0.226012 0.029547 0.219291 -0.160367 -0.060143 0.025243 0.216118 -0.133566 -0.051283 -0.487027 0.120549 -0.459358 -0.117122 
et 0.177654 -0.984534 0.215603 0.299018 -0.977415 -1.091999 -0.320629 -0.176902 0.352364 0.861316 -0.357737 0.185776 -0.259393 -0.324709 0.426826 -0.138068 -0.013947 -0.198841 0.497290 -0.567072 
processes -0.555794 0.410197 -0.196644 -0.124106 -0.038041 -0.304133 -0.156012 0.352510 0.054505 -0.153744 -0.113330 0.276367 0.214410 0.510448 -0.047820 0.188065 -0.226290 -0.166057 -0.080476 -0.044067 
world -0.010570 -0.374396 0.231480 0.270380 -0.141502 0.018219 0.281877 0.002562 0.809203 -0.352240 -0.012221 0.505678 -0.160191 -0.267430 -0.426502 -0.802590 0.282167 -0.135060 -0.243988 0.566349 
finite -0.145867 0.026750 -0.037782 -0.088784 0.345279 -0.143974 -0.274356 -0.332418 0.116844 -0.000879 0.093710 0.233205 -0.423347 0.380748 -0.213678 -0.111646 -0.242260 -0.004590 -0.202671 -0.011418 
target -0.010592 0.212277 0.246169 -0.004362 -0.060021 0.125322 -0.066578 -0.221330 0.090385 0.050563 0.173378 0.154487 -0.108318 -0.255777 0.308589 -0.046831 -0.373081 -0.020135 -0.229208 0.096268 
application -0.045485 -0.010829 -0.024207 0.285463 -0.238263 -0.189974 0.194011 0.032699 0.013773 -0.253916 -0.103834 0.210528 0.121778 -0.027856 -0.294965 -0.204880 0.179685 -0.160555 -0.040751 -0.040346 
including -0.127904 0.128485 0.250385 0.248948 -0.132952 -0.356306 0.179027 -0.025702 0.082051 -0.210297 -0.063064 0.090784 -0.035393 0.113853 0.084469 -0.144707 -0.044933 -0.127628 -0.166573 0.047858 
positive -0.057517 0.072639 0.095569 -0.403252 -0.172029 -0.009873 -0.359018 -0.182859 0.013381 0.410757 -0.083966 0.088248 0.032956 0.260760 0.077513 0.098749 -0.384664 0.282706 0.149039 -0.197328 
higher 0.253691 0.344324 0.348230 -0.023949 -0.413241 -0.096216 0.155958 0.316926 -0.372201 -0.223964 -0.055578 -0.193962 -0.196224 0.028882 0.113117 -0.124930 -0.234386 -0.088522 0.108882 -0.342162 
predictions -0.180404 -0.060207 0.184200 -0.087913 -0.091453 0.002276 -0.080029 0.007834 0.056514 0.118718 -0.145876 0.290648 0.038855 0.310564 0.106035 -0.091091 -0.218537 0.075600 -0.178142 -0.092682 
modeling -0.227553 0.059923 0.064621 0.353547 -0.156289 -0.315824 0.139990 0.141714 -0.084045 -0.254593 0.022398 0.298336 0.039817 -0.145694 -0.053827 -0.149312 0.173107 -0.073211 -0.165269 0.203835 
vectors 0.000626 0.330706 0.132373 -0.245718 -0.011485 0.345423 0.011448 -0.164105 -0.141616 0.119493 0.049877 0.121551 -0.016896 0.033599 -0.411809 0.298425 -0.409950 0.567214 -0.256793 -0.117766 
spatial 0.131321 0.289721 0.196410 0.226803 -0.342155 -0.371555 0.104821 0.112655 -0.002615 0.233793 0.168358 -0.190740 0.046365 -0.209348 0.143331 0.255239 -0.133240 0.134576 0.109512 0.064483 
like 0.068483 0.098883 0.299468 0.025215 -0.081202 -0.127197 -0.053201 0.159897 -0.237331 0.137451 0.173979 0.059993 0.102664 0.150962 0.188505 -0.032700 -0.157308 0.030463 -0.027693 -0.120925 
hand 0.103901 0.386223 0.365542 0.055357 -0.208189 0.027808 -0.101024 0.058827 -0.033598 0.084910 -0.035159 -0.063209 0.051683 0.024258 0.158843 -0.222055 -0.121167 0.091902 -0.199160 0.238870 
actions 0.043632 0.151419 0.351712 0.015610 -0.026573 -0.014591 -0.426941 0.022652 -0.143008 0.113282 0.078002 0.294889 0.027004 0.229486 -0.038569 -0.042998 -0.226441 -0.156175 -0.177911 -0.003835 
developed -0.429297 -0.049480 -0.159646 0.384812 0.038110 -0.462925 0.163205 0.287633 -0.094209 -0.086079 0.043725 -0.239538 0.185839 -0.026874 0.211375 -0.456066 0.569433 0.126987 -0.018630 -0.056157 
compare -0.042788 -0.280826 0.173538 0.123474 -0.194578 -0.212280 0.460454 0.113723 0.222428 -0.339295 -0.134748 0.039915 -0.202883 0.057235 -0.258066 -0.304785 -0.072947 -0.306439 0.046682 -0.001823 
cost -0.130292 -0.127823 -0.172482 -0.045681 0.189097 0.001866 -0.080660 -0.332209 -0.098839 -0.111897 0.028267 -0.034896 0.131973 0.215124 -0.174427 -0.228255 -0.852976 -0.373125 0.031546 -0.306931 
al 0.283001 -0.656499 0.157921 0.960671 -1.446424 -0.898049 -0.648631 -0.053145 0.347343 0.527807 -0.342092 0.134701 -0.488989 -0.205803 0.544767 -0.051311 0.236275 -0.684312 0.194659 -0.742205 
frequency 0.186223 0.162848 0.651707 0.060588 -0.432838 -0.078083 -0.426401 0.109921 0.073240 0.141266 0.339407 -0.168919 -0.091849 -0.527872 0.309182 0.008824 -0.162984 0.332410 0.157688 -0.068039 
generated -0.096421 0.158466 0.354539 -0.225544 0.291943 0.007522 0.011656 -0.147609 0.075423 0.030043 0.001356 -0.005354 -0.161698 -0.023669 0.072167 0.041736 0.077572 0.103955 -0.103950 0.139255 
range -0.003140 0.152453 0.357517 0.096006 -0.135429 -0.312796 0.083883 0.189278 0.120622 0.175250 0.101225 0.026856 -0.008057 -0.394638 0.041901 -0.124678 -0.132636 0.065396 -0.033346 0.090266 
action -0.011023 0.001561 0.153723 -0.377132 0.056442 0.029053 -0.710093 -0.370918 0.037029 0.242390 0.024685 0.500404 0.127630 0.283679 0.111338 0.158151 -0.230401 0.150789 0.009550 0.225510 
good 0.001340 -0.125698 0.178311 -0.029114 -0.029493 0.017023 0.005972 -0.007717 0.135723 -0.073562 -0.222968 -0.094161 -0.172537 0.069875 -0.216302 -0.330300 -0.158941 -0.344643 -0.128251 -0.014015 
cortex 0.491639 0.420968 0.487396 0.592242 -0.113780 -0.174694 0.161920 0.142955 -0.090992 0.168955 0.638731 -0.176826 -0.071407 -0.331953 0.672226 -0.099694 0.482193 0.243760 0.096809 0.055508 
fixed -0.057454 0.233748 0.258006 -0.235879 0.232203 0.065160 -0.108889 -0.333546 0.088005 0.044190 -0.042673 0.173110 -0.114512 0.127398 -0.199353 -0.127721 -0.214324 -0.007467 -0.178160 -0.116557 
constraints -0.185341 0.079918 0.050740 0.124475 -0.072964 -0.104971 -0.032434 0.030967 0.058735 0.216141 0.117201 0.117053 -0.025597 0.077213 0.043340 0.122881 -0.136770 0.013662 -0.130793 0.015076 
global -0.122666 0.206234 0.067491 -0.126517 -0.037493 -0.016463 0.029962 -0.089337 0.074559 0.168556 0.010294 0.138518 0.233530 0.053034 -0.077779 -0.247639 -0.314459 0.053197 0.079130 0.003685 
node -0.007643 0.045852 0.117400 -0.248659 -0.180827 -0.118939 -0.405138 -0.282230 -0.471370 0.350060 0.250473 -0.136776 0.230041 0.276211 0.120121 0.080937 0.227307 0.649412 -0.305635 -0.133166 
computation -0.145743 -0.009878 0.095778 0.024648 -0.165415 -0.225398 -0.067720 0.082793 -0.225266 -0.071233 0.000739 0.004210 -0.012085 -0.054276 -0.045924 0.013130 0.125040 -0.072390 -0.032715 -0.099830 
distance -0.157684 0.037107 -0.200004 0.143839 0.008053 -0.000758 0.102596 -0.078519 -0.074978 0.422356 -0.066204 -0.017169 0.205159 0.048753 -0.156061 -0.097811 -0.602041 0.268614 -0.210775 -0.139866 
classes -0.212062 0.325329 0.354574 0.020928 0.218423 -0.069269 0.162841 -0.020386 -0.070109 -0.036237 -0.028860 -0.046051 -0.058734 0.228444 -0.010530 -0.129640 -0.229665 0.099916 -0.223184 0.159666 
related -0.237232 0.061963 0.238908 0.000853 -0.107272 -0.167597 0.148430 0.158561 0.124277 0.106419 0.115145 0.089231 -0.027223 0.160733 0.050660 -0.209564 -0.214014 0.145656 -0.007789 -0.001522 
binary -0.169341 0.342627 0.147593 0.006316 0.091452 -0.199497 -0.086280 -0.263348 -0.124967 -0.268247 -0.034902 0.110558 -0.124686 0.207592 -0.268594 -0.112089 0.103437 0.048851 -0.251988 -0.021726 
recent -0.152961 -0.171556 0.325529 0.195789 -0.324742 -0.238384 0.510818 0.242760 0.104989 0.075657 0.202291 0.038647 -0.065008 -0.194307 -0.086444 -0.325587 0.195467 -0.138552 -0.014208 0.018106 
outputs -0.039716 0.459675 0.445595 -0.242679 0.211706 -0.026591 -0.246491 -0.193267 -0.150733 -0.082319 0.072106 0.213945 -0.045971 0.056846 0.170677 0.073219 -0.036868 0.291541 0.078111 -0.130256 
term 0.082653 0.241921 0.278738 -0.037351 -0.225047 -0.067015 -0.205670 -0.042653 0.042601 0.014742 0.149444 0.295531 -0.055062 -0.108634 -0.010516 -0.094427 -0.139154 0.196637 0.182786 -0.266073 
specific 0.075787 0.148585 0.233957 0.021910 -0.114483 -0.295853 -0.089573 0.072292 -0.082546 -0.004731 0.149086 -0.007022 0.077837 -0.072186 0.154337 -0.099136 -0.071226 0.060690 -0.072751 0.119969 
variable -0.148330 0.287710 0.115767 -0.130887 0.223428 -0.052268 -0.081413 -0.032810 0.028925 0.162218 0.044047 0.220752 0.106053 0.106688 -0.043030 -0.111631 -0.058610 0.029329 -0.227648 0.236768 
estimates -0.085873 0.059596 -0.125014 0.090754 -0.193760 0.159717 0.171089 -0.264692 -0.025241 0.021532 -0.160798 0.033322 0.102733 0.167454 -0.085742 -0.290170 -0.356889 -0.116775 0.043449 -0.100007 
kernels -0.086188 0.122741 -0.041187 0.288734 -0.307295 -0.154250 0.535078 0.076403 0.076787 0.157886 -0.100169 0.269408 0.040394 0.257889 -0.520419 -0.073794 -0.327610 -0.121451 -0.089129 -0.257623 
threshold -0.380578 0.199121 0.244214 -0.162442 0.361422 -0.243221 -0.632736 -0.309020 -0.368937 0.387218 0.385891 -0.139375 0.041937 0.163850 0.146120 -0.015871 -0.003961 0.129943 0.126334 -0.298457 
supervised -0.252798 -0.277901 -0.181576 0.342566 -0.083619 -0.275077 0.290094 -0.012277 -0.191887 -0.321958 -0.272800 -0.001823 0.066248 0.015414 -0.473481 -0.281599 0.070942 -0.224923 -0.057136 0.031727 
relevant 0.230045 0.628947 0.171802 -0.366564 -0.043833 -0.052881 0.633916 0.062282 0.147536 0.248242 -0.044648 -0.429873 -0.242922 0.074830 -0.125634 -0.087110 -0.545144 0.689621 -0.110173 0.210108 
derived -0.231259 -0.022255 -0.107361 0.239581 -0.048873 -0.120295 0.105617 -0.099658 -0.206149 -0.019574 0.017006 0.071918 -0.056194 0.255044 0.024587 -0.171195 -0.160889 -0.148027 0.036021 -0.054650 
us -0.164541 0.465391 0.084768 -0.052595 0.089887 -0.019410 -0.151791 -0.054282 -0.160320 0.070736 0.048947 -0.045409 -0.036139 0.180298 0.006988 0.038719 -0.537738 -0.065256 -0.208642 -0.079359 
connections 0.051802 0.383197 0.363369 -0.065617 0.309086 -0.436257 -0.338402 0.111849 -0.100605 -0.000902 0.238877 0.114709 -0.073738 -0.214020 0.247671 -0.031881 0.233985 0.059459 0.253948 0.105654 
lower -0.174213 -0.174992 0.300900 -0.114899 -0.420359 0.155845 -0.096288 -0.429653 -0.030569 -0.219765 -0.356677 -0.243383 -0.516508 0.011055 0.034786 -0.278376 -0.470998 -0.201074 0.089794 -0.475662 
rather -0.040988 0.337735 0.642038 -0.062340 -0.316055 0.108147 -0.173360 -0.523290 -0.055258 -0.245608 -0.226787 -0.257065 -0.136261 -0.057721 0.070615 -0.219634 -0.044526 -0.592723 -0.269114 -0.225334 
adaptive -0.183841 -0.101104 -0.072784 0.112192 -0.101333 -0.330221 -0.108749 0.026069 -0.225041 -0.320147 -0.156783 0.248949 -0.049853 0.041557 -0.051982 -0.447022 0.296863 -0.179946 0.076912 -0.158509 
should -0.064102 0.119076 0.323611 -0.037237 -0.122968 -0.022545 0.002873 -0.073630 -0.095864 0.275005 -0.022965 0.037226 -0.100245 0.018990 0.072526 -0.184903 -0.164784 0.078996 -0.085248 -0.019354 
able -0.192899 0.131083 0.093551 0.119437 -0.105144 -0.224205 0.067050 0.042605 0.013698 0.030252 -0.040809 -0.084422 -0.014876 0.031478 -0.065566 -0.185717 0.025507 -0.017449 0.065017 -0.034839 
zero -0.045302 0.390136 0.271816 -0.368442 0.054677 0.124624 -0.308901 -0.292088 0.164109 0.230455 0.129484 0.038954 0.022673 0.324979 0.046688 -0.094024 -0.406572 0.104580 -0.055681 -0.142175 
significant -0.018412 -0.164950 0.387430 -0.029282 -0.191829 -0.003645 0.082419 -0.033038 0.124056 -0.197675 -0.112139 0.048914 -0.178657 -0.054427 -0.052078 -0.224262 -0.164280 -0.204144 0.062555 0.046258 
sparse 0.049711 0.178939 0.020392 0.075265 -0.008368 -0.109587 0.128642 -0.055927 0.185630 0.081155 0.012637 -0.034400 0.036460 0.152999 -0.303086 -0.049288 -0.249141 -0.024585 0.013023 -0.042008 
noisy -0.012877 0.285003 0.396227 0.169354 0.075354 -0.236638 0.023205 -0.115849 0.053250 -0.041168 0.077383 -0.060531 -0.064408 0.048266 -0.102206 -0.027732 0.068122 0.018347 -0.052319 0.105505 
unit -0.259896 0.504998 0.251008 -0.456958 0.401751 -0.104463 -0.803739 -0.382071 -0.006143 0.154508 0.225869 0.096330 0.202184 0.115442 0.308697 0.038909 0.189575 0.482617 -0.042116 0.183530 
difficult -0.016208 -0.103221 0.163650 0.184931 -0.049763 0.022828 0.221962 -0.029707 0.080874 -0.013063 -0.102554 0.010282 -0.130207 -0.089814 -0.191585 -0.338113 -0.155103 -0.179604 -0.200888 -0.013576 
power -0.021751 -0.018533 0.179493 0.184941 -0.034250 -0.066640 -0.128123 -0.185919 -0.001227 0.066219 0.167142 -0.158818 0.238590 -0.136671 0.010303 0.024255 -0.018084 0.016183 0.067821 -0.050608 
conditional -0.143498 0.397430 -0.284425 0.008280 -0.080240 0.083853 0.104359 -0.483845 0.340999 -0.108953 0.005002 0.008567 0.022898 0.554081 -0.138890 -0.133507 -0.227955 0.038082 -0.234354 0.088870 
graph 0.080430 0.054433 -0.155618 0.052219 -0.124680 -0.279689 0.250190 0.027223 0.127199 0.089763 -0.165576 0.148581 0.190017 0.271645 -0.411587 -0.239097 -0.225241 0.089634 -0.196671 -0.043288 
posterior 0.011267 0.382818 -0.378346 0.093158 -0.017427 0.090563 0.079952 -0.618661 0.380872 0.183249 -0.221572 0.069363 0.186208 0.425168 -0.207733 -0.297877 -0.405922 -0.065004 -0.327420 -0.032969 
due 0.036649 0.047910 0.311774 0.064287 -0.194756 0.008397 -0.039250 -0.068290 -0.013113 0.308707 0.101498 -0.086143 -0.027361 -0.102536 0.056018 -0.020675 -0.114972 0.009761 -0.078815 -0.006685 
margin -0.207068 -0.151854 -0.023346 0.003342 -0.113093 0.253423 0.317002 -0.233588 0.070975 -0.041332 -0.191272 -0.048819 -0.336037 0.206079 -0.377924 -0.042278 -0.430662 -0.239050 -0.069453 -0.286105 
firing -0.172173 0.408916 0.632675 -0.000935 -0.237401 0.524225 -0.141089 -0.096984 0.027868 0.170703 0.539897 0.186843 -0.233038 -0.323905 0.734449 -0.077287 -0.127244 0.178890 0.451221 0.110048 
eye 0.003612 0.381417 0.509818 -0.024798 -0.115615 -0.461149 -0.074161 -0.002777 0.141019 -0.013032 0.541640 0.222747 0.363416 -0.662657 0.471268 -0.087579 0.088000 0.425428 -0.197705 0.543506 
would 0.138383 0.277964 0.380930 -0.125899 -0.033767 0.106728 -0.115837 -0.101070 0.054598 0.134811 -0.065168 -0.023745 -0.068840 0.272241 0.094792 -0.136696 -0.073470 -0.127487 -0.233060 0.010896 
compute -0.045091 0.118070 0.001478 -0.082426 0.218111 -0.057335 -0.030751 -0.018086 -0.151756 0.145317 -0.037184 0.067342 0.106144 0.248881 -0.177292 -0.200394 -0.189674 -0.053223 -0.215785 -0.197213 
discrete -0.411078 0.166410 0.064165 -0.026845 0.112437 0.019463 -0.222088 -0.212867 0.017408 -0.136148 -0.151179 0.153771 -0.131107 0.202752 -0.142164 0.047266 -0.023223 -0.134887 -0.056726 0.108157 
dependent -0.043088 0.125310 0.212779 -0.001197 -0.026219 -0.055477 -0.215039 -0.103247 0.165328 -0.029250 0.190607 0.104318 0.141359 -0.047314 0.361125 -0.173254 0.115520 0.075035 0.103506 0.110945 
probabilities -0.110276 0.330798 -0.051091 -0.338892 0.158708 0.009658 -0.302207 -0.497083 0.178298 0.139747 -0.137933 0.336648 0.181795 0.463771 0.055868 -0.136547 -0.101769 -0.000634 -0.003005 0.100126 
distributed -0.162959 0.329311 0.160253 0.142961 -0.014312 -0.160120 -0.072421 -0.033716 -0.115123 0.097617 0.169550 0.089239 -0.016848 0.199935 -0.059275 -0.094991 0.093353 0.055388 0.005236 -0.156051 
suggest 0.047490 -0.006048 0.296302 0.169502 -0.113181 -0.148654 0.329402 0.109821 0.420632 -0.006862 0.015453 -0.037230 0.118897 0.103760 -0.050819 -0.212793 -0.046744 -0.208169 0.090162 0.238841 
stimulus -0.122103 0.370136 0.416370 -0.076707 -0.059710 0.320880 0.043688 -0.018466 -0.019545 0.244885 0.456680 0.041626 -0.063752 -0.173086 0.443622 0.097046 -0.180818 0.290864 0.003687 0.031245 
goal -0.104060 -0.114687 0.114486 -0.030459 -0.097768 -0.030619 -0.167148 -0.036201 0.074864 0.167574 0.125316 0.288167 0.050952 -0.028496 0.182084 -0.216542 0.042198 0.073442 -0.032888 -0.073733 
obtain 0.003386 0.137501 0.101026 0.046385 -0.184176 0.156618 0.333556 -0.229820 0.114996 -0.077036 -0.174566 -0.003575 -0.126115 0.175772 -0.111288 -0.193252 -0.470438 -0.103226 -0.018369 -0.260176 
them 0.017319 0.025096 0.266683 0.076287 -0.177289 -0.053469 -0.045609 0.042071 -0.080350 0.064109 0.033914 0.064573 -0.023751 -0.122262 0.200757 -0.097435 -0.222654 0.108209 0.013723 -0.090930 
mapping -0.173996 0.334333 0.285080 -0.106944 0.097397 0.014109 -0.184447 -0.276724 -0.121554 0.106949 -0.060426 0.226128 0.042194 0.112397 0.003186 -0.148904 0.024891 0.092409 -0.018271 0.051646 
variance -0.369673 0.123134 -0.125109 -0.280398 -0.164122 0.058105 -0.149012 -0.553140 0.340791 -0.111840 -0.076451 -0.090854 -0.177959 0.063317 -0.070249 -0.208512 -0.537440 0.156334 -0.086078 -0.152156 
position 0.176670 0.385729 0.458449 -0.234141 -0.096685 0.166064 -0.149825 -0.099616 -0.130401 0.355136 0.286879 0.211394 0.263143 -0.289239 0.212457 0.053829 -0.045362 0.473724 -0.070400 0.380487 
cortical 0.311642 0.472735 0.580661 0.163413 0.182291 -0.203728 0.022641 0.351766 -0.102435 0.096661 0.533896 0.020181 -0.056208 -0.299091 0.422064 0.027581 0.075557 0.006096 0.162241 0.162767 
following -0.306887 0.171557 0.070471 -0.158317 -0.001793 -0.008866 -0.148020 -0.141816 -0.103360 0.178939 0.019719 0.098273 0.082848 0.234811 0.127358 -0.220329 -0.379648 -0.009333 -0.088932 -0.166023 
series 0.193882 0.347484 0.068769 0.183396 0.024819 -0.129537 -0.465439 0.131774 0.069374 -0.147537 0.092565 0.203281 0.193277 0.209418 -0.105766 -0.121396 -0.327254 -0.251691 -0.085715 -0.172133 
machines -0.120479 0.129178 0.098151 0.097093 -0.139791 1.014128 0.625930 -0.050857 -0.136889 0.278539 -0.328435 0.564894 -0.265550 0.509514 -1.105434 0.405443 -0.062249 0.037345 0.069495 -0.746170 
part -0.183864 0.423645 0.319467 0.019045 -0.047627 -0.151020 -0.226162 0.019205 0.019616 -0.115302 -0.104551 0.097944 -0.148632 -0.213289 0.138234 -0.114670 0.085838 0.097934 -0.202042 0.136412 
iteration -0.053153 0.042908 0.039214 -0.442878 0.176380 0.220863 -0.314186 -0.084304 0.057634 -0.023127 -0.249042 0.296180 0.157051 0.264303 0.105619 -0.623806 -0.617207 -0.162750 0.092433 -0.138292 
certain -0.234810 0.135439 0.057625 0.007141 -0.016597 0.002604 0.058135 -0.000036 0.051192 0.077256 -0.057574 0.230560 -0.038459 0.126163 0.045371 0.003394 -0.262697 -0.095696 0.151952 -0.207842 
long -0.048658 0.044834 0.278591 0.053971 -0.049575 -0.438167 0.000644 0.104621 0.149221 0.197671 0.116868 0.144629 0.192204 -0.037608 0.345141 -0.148075 0.018733 0.155099 0.118166 0.078504 
demonstrated -0.174043 -0.179767 0.122982 0.080503 -0.048603 -0.364544 0.073892 0.068643 0.030333 -0.126048 -0.113443 0.142457 -0.004003 -0.181379 -0.018362 -0.512653 0.218956 0.032159 0.077247 -0.057124 
sensory 0.097813 0.422102 0.444197 0.226785 0.016956 -0.142606 -0.310434 0.133611 0.056415 -0.310237 0.288662 0.253832 -0.164209 -0.587767 0.389700 -0.047543 0.098761 0.147276 0.274621 0.169340 
true 0.044543 0.313116 -0.110821 -0.136944 0.071028 0.088595 -0.048090 -0.530447 0.422064 0.058344 -0.020131 0.142175 -0.099828 0.184900 -0.078588 -0.219093 -0.507624 -0.115825 -0.209941 -0.220320 
empirical -0.058614 -0.005335 -0.063966 0.183967 -0.277584 0.010536 0.193238 -0.263426 0.440201 -0.111109 -0.315996 -0.024428 -0.207394 0.330250 -0.303392 -0.295310 -0.214896 -0.303970 -0.052102 -0.088310 
domain 0.152795 0.049031 0.166960 0.084473 -0.066802 -0.385909 0.050811 0.212316 -0.143788 0.107187 0.015375 -0.140834 0.078874 -0.073140 -0.090591 0.021877 -0.182476 0.121370 -0.100254 -0.019044 
expected -0.271302 -0.102203 0.153264 -0.075567 -0.132019 0.202079 -0.134996 -0.336132 0.222852 0.043218 -0.088749 0.282708 -0.234928 0.149964 0.010726 -0.277495 -0.634103 -0.196650 0.009236 -0.181130 
parallel 0.084407 -0.009083 0.437676 0.202468 -0.101696 -0.332208 -0.203477 0.088473 -0.273500 -0.143172 0.081186 0.016022 -0.107327 -0.045814 0.081454 0.055244 0.282288 -0.122729 -0.165672 -0.145249 
regions 0.172437 0.338338 0.208806 0.024738 -0.232038 -0.087171 0.033453 -0.102773 0.048787 0.268783 0.151069 -0.180148 0.195509 0.034590 -0.064991 -0.024674 -0.318629 0.235354 -0.087978 0.144884 
individual 0.070236 0.099586 0.292822 0.022863 -0.301023 0.049915 -0.126095 -0.170824 0.021259 -0.111938 0.006308 -0.009138 -0.198029 -0.010935 0.098732 0.089628 -0.284970 0.173221 0.137543 -0.128595 
recently -0.414685 -0.047490 -0.172384 0.242150 0.021725 -0.215912 0.280902 0.327930 0.012967 0.076799 0.063980 -0.030271 -0.098166 -0.219224 -0.012258 -0.667730 0.401418 0.179299 -0.031322 -0.296480 
minimum -0.238366 -0.050573 0.011808 -0.026328 -0.133928 -0.055924 -0.043191 -0.403809 0.057938 0.075261 -0.055918 0.028162 -0.169581 0.170517 -0.119282 -0.177439 -0.440094 0.084886 -0.053702 -0.138200 
statistics 0.242719 0.253441 0.327017 0.123892 -0.145327 -0.178432 0.235108 0.139103 -0.071661 0.074888 0.055673 -0.119506 -0.106641 0.190815 -0.200764 -0.023742 -0.276431 0.033608 0.021317 -0.106101 
train -0.421244 0.540773 0.488228 0.304034 -0.080587 0.289928 -0.093900 0.017902 -0.161727 0.035410 0.427760 -0.077221 -0.173067 -0.129900 0.585382 0.406638 -0.079467 0.077540 0.103036 0.001103 
rates -0.206237 0.135231 0.259493 0.107756 -0.353445 0.496100 0.209238 -0.016204 -0.080460 0.081764 0.009126 0.194903 -0.220587 -0.155890 0.273222 -0.129066 -0.273570 -0.180769 0.281664 -0.152109 
dynamical -0.088945 -0.035435 0.008664 0.031546 -0.022639 -0.275278 -0.233959 -0.027968 -0.246173 -0.269575 0.125026 0.302050 -0.140173 -0.129460 -0.013515 -0.066838 0.354575 -0.087939 0.192958 0.008758 
required -0.155505 0.069978 0.441856 -0.155370 -0.037804 -0.127615 -0.256684 -0.206558 -0.242796 -0.059732 -0.083981 0.028712 -0.239272 0.071382 -0.090571 -0.153615 -0.069023 0.041144 -0.065771 -0.096081 
significantly -0.136655 -0.174348 0.186880 0.016853 -0.319685 0.167184 0.197195 -0.129503 -0.068240 -0.074501 -0.231722 -0.198191 -0.266307 -0.081128 0.003472 -0.266916 -0.208619 -0.325220 -0.143930 -0.391594 
computer 0.159223 -0.072557 0.231002 0.152989 -0.211317 -0.176741 -0.166314 0.229004 -0.141331 -0.142706 0.037113 0.044709 0.119862 -0.237103 0.115085 -0.116249 0.233108 0.250584 0.003677 -0.112802 
equation -0.066455 -0.095489 -0.053125 -0.173845 0.105859 0.186322 -0.408840 -0.237543 0.002948 0.308602 0.001700 0.438799 0.060309 0.246911 0.086938 -0.173614 -0.336895 -0.271788 0.011157 -0.132814 
responses 0.101044 0.228119 0.757632 0.205642 0.017697 -0.324744 -0.011936 0.305809 -0.044607 0.039881 0.516997 0.049380 0.009978 -0.464285 0.334415 -0.104912 0.158827 0.189619 0.149195 0.185951 
environment 0.011410 0.132000 0.193863 0.018345 -0.117905 -0.031700 -0.242730 -0.007609 -0.097318 0.024572 -0.005708 0.280127 0.140500 0.018203 0.117076 0.057199 -0.097223 0.043484 -0.002858 0.146244 
scheme -0.087170 0.097502 -0.033684 0.114602 -0.212841 -0.173488 0.064014 0.121082 -0.389397 0.031127 0.003383 0.128219 -0.032296 0.002603 -0.136758 -0.184221 0.122916 0.037369 0.181098 -0.091604 
achieved -0.076443 -0.028504 0.231146 -0.007278 -0.211254 -0.191167 0.263854 -0.112305 -0.009606 -0.202023 -0.078254 0.017088 -0.132244 -0.119706 -0.089467 -0.202946 -0.071729 -0.020830 -0.133171 -0.109606 
design -0.095675 -0.122617 0.014665 0.336811 -0.154174 -0.218979 0.141430 0.107883 -0.122213 -0.036233 -0.111140 -0.041939 0.024053 0.048485 -0.396687 -0.168343 -0.056023 -0.187188 -0.126363 -0.177252 
contrast -0.117678 0.164652 0.247026 0.259479 -0.105146 -0.293426 0.096392 0.098708 -0.117994 -0.008851 0.162690 0.111938 -0.076071 -0.091236 0.022526 -0.044686 -0.115607 -0.021978 0.026334 -0.055278 
account 0.115070 0.288402 0.187490 0.153549 -0.091199 -0.176971 0.058952 0.091030 -0.041438 -0.056895 0.108092 -0.172546 0.118425 -0.002405 0.212842 -0.002756 -0.049552 0.035802 -0.184154 -0.044921 
log -0.182415 0.280668 -0.105939 0.117270 -0.082228 0.354454 -0.351364 -0.897838 -0.410626 0.499834 0.064662 -0.686078 0.088328 0.165160 0.101874 0.093569 -0.841028 0.279149 -0.554994 -0.511346 
arbitrary -0.165831 0.215999 0.043100 -0.215461 0.235572 -0.211333 -0.366941 -0.343483 -0.086714 -0.136412 -0.040214 0.044058 0.116066 0.314964 -0.073368 -0.080112 0.014160 0.041610 -0.159003 0.003765 
net -0.027329 0.138761 0.323445 0.100673 -0.021881 -0.467160 -0.377134 -0.019678 -0.558797 -0.263744 -0.069390 0.108655 -0.039410 0.066298 0.184739 0.007758 0.564917 -0.181586 -0.135134 -0.147777 
underlying -0.094624 0.341888 -0.222536 0.001462 0.131407 -0.105910 0.091772 -0.066956 0.183718 -0.054536 0.072076 0.140960 -0.007825 0.112541 0.031351 -0.009234 -0.243767 0.038920 -0.025719 0.049904 
self -0.062803 0.063658 0.086076 0.089931 -0.157071 -0.405863 -0.227237 0.222044 -0.343610 0.130997 -0.083456 0.157932 0.074334 -0.219874 -0.013987 -0.034838 0.237647 0.129425 0.104313 -0.059993 
requires -0.164247 0.101692 0.234035 -0.078370 0.096890 -0.091710 0.046976 -0.141953 -0.140950 0.087828 0.087687 0.117830 -0.125030 0.097231 -0.123712 -0.116825 -0.283489 -0.110341 -0.177485 -0.115904 
call -0.036213 0.144313 -0.119198 0.047813 -0.306267 -0.051947 -0.229690 0.095319 -0.324075 -0.076790 -0.145918 0.404318 0.115831 0.395881 0.253770 0.013208 -0.299407 0.057535 0.054857 -0.321785 
various -0.130169 -0.024857 0.244234 0.083861 -0.198040 -0.294020 0.023345 0.026932 -0.009809 -0.055761 -0.030096 0.127481 -0.045325 -0.195294 0.045333 -0.135715 -0.097420 -0.078580 0.056637 -0.108377 
coding 0.015881 0.379077 0.401857 0.114659 -0.004226 -0.215713 0.272844 0.238953 -0.041243 -0.060544 0.349180 -0.058745 -0.027566 -0.035830 0.047023 -0.233972 -0.049314 0.124608 0.017382 0.045368 
programming -0.305579 0.161614 -0.404089 -0.118261 0.199423 -0.088806 -0.168312 0.026404 -0.087772 -0.088023 -0.095544 0.435163 0.006311 0.368860 -0.395317 -0.252872 -0.323586 -0.310286 0.002237 -0.189237 
defined -0.233132 -0.072421 0.091736 -0.048280 -0.090652 -0.009241 -0.107395 -0.148641 -0.112461 0.111641 0.002076 0.196717 -0.096444 0.142570 -0.011848 -0.042505 -0.313195 0.167119 -0.193188 -0.131228 
make -0.148147 0.060798 0.234875 0.015289 -0.102679 0.048247 0.151243 -0.004571 0.006407 0.212428 -0.078831 0.149890 -0.037374 0.085668 -0.042179 -0.210003 -0.201658 -0.006909 -0.092055 -0.010788 
hierarchical -0.077150 0.093590 -0.170780 0.260946 -0.117773 -0.356183 0.260515 0.187265 -0.135817 -0.120154 -0.230147 0.025801 0.135100 0.047635 -0.106859 -0.004176 -0.159128 -0.060032 0.009420 0.116000 
loss -0.348144 -0.187202 -0.187511 0.157370 0.076609 0.070899 0.002813 -0.303473 -0.017383 -0.110768 -0.316506 0.188535 -0.061813 0.085321 -0.016802 -0.128689 -0.661110 -0.397930 0.133610 -0.315232 
artificial -0.101224 -0.012304 0.203406 0.416168 -0.105129 -0.530132 -0.071535 0.074052 -0.312145 -0.347203 -0.005087 0.038987 -0.041266 -0.190741 0.069676 -0.064817 0.705769 -0.180720 -0.217317 0.022348 
online -0.269803 -0.350361 -0.350845 0.243923 -0.094797 -0.163474 0.157687 0.063977 -0.134671 -0.045491 -0.352474 0.204947 -0.082376 0.128696 -0.329021 -0.249357 -0.113839 -0.376983 -0.049411 -0.053498 
respect -0.109168 0.129438 -0.000027 -0.008543 -0.079316 0.059293 -0.252043 -0.228979 0.053164 0.033990 -0.207630 0.220844 0.117246 0.016177 -0.014699 -0.118032 -0.533132 -0.123836 -0.019383 -0.072438 
improve 0.048857 -0.160851 0.005947 0.091872 -0.252108 -0.059491 0.187262 -0.155276 0.020928 -0.193999 -0.292344 0.005253 -0.118085 -0.119008 -0.051955 -0.375603 -0.077904 -0.330839 0.038215 -0.216041 
learns -0.199465 0.080547 -0.001664 -0.001999 0.224156 -0.210936 -0.280738 0.016265 -0.268924 -0.078342 -0.028918 0.135662 -0.048973 -0.037623 0.035380 -0.014215 0.098376 0.006912 0.028792 -0.004491 
further 0.019099 0.009980 0.213870 0.074578 -0.049123 0.032863 0.143433 -0.051571 0.097046 -0.010082 -0.000621 -0.013292 0.041578 -0.024430 -0.021289 -0.273670 -0.182970 -0.083666 0.013371 -0.056774 
motor 0.056214 0.133065 0.360206 0.134134 -0.110386 -0.158007 -0.326733 0.014659 -0.117154 -0.296171 0.220504 0.257124 0.073084 -0.376293 0.298713 -0.106439 0.398215 0.064582 0.196689 0.124040 
leads -0.162116 0.035479 -0.002615 -0.001025 -0.091280 0.007225 0.243061 -0.098344 0.116404 -0.032023 -0.121129 0.138414 0.022972 0.093492 -0.255979 -0.234288 -0.317103 -0.112250 -0.014859 -0.098753 
robust -0.163804 0.081205 0.143575 0.068474 -0.105908 0.034127 0.234249 -0.091778 0.105384 -0.103560 0.003319 -0.255932 0.038201 -0.040975 -0.122254 -0.335801 -0.293665 -0.150413 -0.004381 -0.136284 
type 0.011546 0.221795 0.129718 0.105437 0.001537 -0.393742 0.073599 0.044448 -0.072476 -0.069574 0.031931 -0.003499 -0.147907 -0.035880 -0.075000 -0.079448 0.010331 -0.026513 -0.100695 -0.018506 
exact 0.002706 -0.024044 -0.260433 -0.023963 -0.065295 0.139060 0.095886 -0.165512 0.183358 0.082974 -0.173756 0.022306 0.180083 0.232378 -0.209760 -0.222195 -0.358642 -0.233898 -0.035078 -0.145262 
back 0.058069 -0.120600 0.309714 -0.286947 0.453869 -0.566226 -0.127008 -0.351011 -0.236423 -0.265729 0.073481 0.169026 0.278350 0.398040 -0.136993 -0.378997 0.860971 -0.469054 -0.117867 -0.275017 
unsupervised -0.305951 -0.092477 -0.244445 0.222137 -0.059362 -0.448458 0.519769 -0.000108 -0.149882 -0.009802 -0.104745 0.077181 -0.001006 -0.116001 -0.257360 -0.285693 -0.015641 -0.103295 -0.069659 -0.044986 
relative -0.154525 -0.008046 0.144066 0.000718 -0.368615 0.040693 -0.081225 -0.247704 0.125534 -0.010769 -0.106247 0.100059 -0.000189 -0.036520 0.120828 -0.114094 -0.447671 0.066601 0.167943 -0.060408 
filter 0.373126 0.191897 0.191360 -0.202450 -0.445347 -0.486612 -0.129120 0.022306 0.072154 0.102417 0.128575 -0.103676 0.068275 -0.157910 0.135365 0.044487 -0.323286 0.333671 0.118622 -0.198221 
functional 0.271883 0.290924 0.084761 -0.017238 -0.182650 -0.108009 -0.043996 0.118556 -0.033249 0.105854 0.128432 -0.021108 -0.100002 0.251848 -0.114224 -0.213914 -0.534658 -0.044681 0.072594 -0.378273 
similarity 0.131966 0.064377 0.082724 0.077045 -0.186967 -0.139952 0.211516 0.047871 -0.116324 0.417884 0.017363 -0.031474 0.160074 -0.081518 -0.201335 0.063412 -0.430051 0.279183 0.014230 -0.093365 
factor -0.225383 -0.075848 0.177445 -0.178964 -0.165090 -0.047563 0.289941 -0.076543 0.080582 0.092624 0.018648 0.106989 0.072172 0.040276 -0.427554 -0.227229 -0.307724 0.156469 0.156571 -0.029576 
existing -0.158046 -0.317766 0.082995 0.279337 -0.178244 -0.185997 0.130907 -0.000940 0.241783 -0.156277 -0.211503 0.320654 -0.079860 -0.168101 -0.256975 -0.287974 0.037194 -0.386289 0.019511 -0.126060 
means 0.037066 0.119857 0.081000 -0.134600 -0.001100 -0.152171 0.113532 -0.141613 -0.007269 0.010514 -0.032641 0.019675 0.015990 0.325512 0.003366 -0.194323 -0.236280 -0.013372 -0.088192 -0.077691 
could -0.017547 0.200632 0.457997 -0.035902 -0.064731 0.124464 -0.059654 -0.060417 -0.016545 0.042687 0.152521 0.050245 -0.062755 -0.085249 0.246890 -0.227628 -0.030624 0.012698 -0.033525 -0.003765 
computed -0.113667 0.021265 0.078881 -0.033215 0.002507 -0.013387 -0.042645 -0.066320 0.028340 0.214984 0.067453 0.051179 0.108188 0.194129 -0.094804 -0.194210 -0.508655 0.052658 0.032469 -0.023014 
circuit 0.180048 0.229200 0.410573 0.155207 -0.014662 -0.283687 -0.254442 0.165938 -0.239788 0.039193 0.226240 0.063239 0.111835 -0.102897 0.217526 -0.072451 0.202373 0.138514 -0.066086 0.012535 
effective -0.268324 -0.054821 0.082482 0.125634 0.036390 -0.085813 0.228494 0.018509 0.054946 0.016032 -0.102833 -0.030680 -0.073366 -0.025423 -0.125019 -0.331214 0.038339 -0.167840 -0.124422 -0.009622 
apply -0.109430 0.135589 -0.097855 0.224581 -0.047759 -0.135281 0.085101 -0.075206 0.137256 -0.209630 -0.066376 0.127830 -0.031388 0.074203 -0.230002 -0.155439 -0.037384 -0.154004 -0.123167 0.115280 
face 0.247565 0.424360 0.168765 0.230954 -0.022047 -0.353298 0.452226 0.205975 0.216500 -0.304187 -0.281958 -0.064358 -0.078245 -0.059659 -0.165072 -0.201689 -0.064003 0.098372 -0.177781 0.412067 
alternative 0.147381 -0.040278 -0.084529 0.125780 -0.267380 -0.253720 0.035634 -0.062651 0.030083 0.069274 -0.015741 0.217875 0.011972 0.041045 -0.167043 -0.057459 -0.198730 -0.088856 -0.128545 0.004968 
active -0.183002 0.100529 -0.036931 -0.008597 0.056234 0.061641 0.125898 0.013188 -0.066776 0.430701 0.064517 -0.031480 0.130471 0.020532 0.072515 -0.119292 -0.015623 0.149633 -0.005176 0.045627 
correlations -0.008150 0.347916 0.375851 0.054728 -0.068574 0.032646 -0.116612 0.058570 0.054545 0.219186 0.185659 -0.213584 0.140049 -0.090312 0.257559 -0.000824 -0.164995 0.160347 -0.033827 0.127424 
validation -0.276183 0.188802 0.181534 -0.364052 0.021174 0.300512 -0.282572 -0.401635 0.508135 -0.143733 -0.340467 -0.055761 -0.889370 0.029509 -0.035068 0.103639 -0.578877 0.003399 -0.234365 0.085883 
update -0.188647 0.125802 0.052076 -0.165902 -0.097181 0.049236 -0.188784 -0.364872 0.047095 0.045236 -0.153583 -0.023822 -0.022900 0.421541 0.062733 -0.251502 -0.522117 -0.476790 -0.032747 -0.080354 
highly -0.123274 0.156828 0.233868 0.065954 0.054703 -0.341273 0.049348 0.047204 -0.010158 0.017235 0.118034 -0.164929 0.049583 0.043087 0.232356 -0.127275 0.039781 -0.127475 -0.014795 0.105112 
per -0.158301 0.297958 0.452654 -0.074587 -0.057033 0.233461 -0.145836 -0.408832 0.030824 0.292910 0.068859 -0.018841 -0.186432 0.327390 0.401999 -0.097130 -0.228990 0.018695 -0.098678 -0.042312 
simulation -0.044948 -0.264233 0.242174 -0.007561 -0.195589 -0.187797 -0.096453 -0.010692 0.111201 -0.120196 -0.037585 -0.082185 -0.062501 -0.126200 0.132516 -0.166890 0.138997 -0.130955 0.006907 -0.023058 
fields 0.106619 0.203008 0.424479 0.172428 0.106289 -0.391844 0.053594 0.229007 -0.075672 0.159043 0.403860 -0.156104 0.147117 0.073305 0.162189 -0.010092 -0.230132 0.003972 -0.132133 0.065097 
descent -0.044438 -0.479481 0.163484 -0.168254 0.443780 -0.031800 -0.115469 -0.008842 0.038504 -0.103425 0.191873 0.569128 -0.182559 0.052151 -0.281018 -0.672732 -0.152681 -0.945187 -0.093580 -0.330452 
less -0.240239 -0.007963 0.253285 -0.110255 -0.227374 0.153420 0.181273 -0.185147 -0.052443 -0.175689 -0.084794 -0.147443 -0.209273 -0.153997 -0.009189 -0.160724 0.027592 -0.300106 0.001505 -0.233487 
initial -0.016571 0.094633 0.332016 -0.013371 0.048927 0.114876 -0.291489 -0.042293 -0.023824 0.215122 0.017992 0.263969 0.042980 0.089596 0.109945 -0.068344 -0.145487 0.012733 -0.066503 0.114302 
effect -0.005526 0.021482 0.318331 -0.015607 -0.310903 -0.021874 -0.073583 -0.108408 -0.007987 0.024926 0.108480 -0.008081 0.039349 -0.155733 0.193727 -0.101543 -0.000243 0.179732 0.005782 -0.070611 
correlation -0.013137 0.057704 0.146539 0.028652 -0.078312 -0.155206 -0.127624 0.020425 -0.079174 0.141000 0.206175 0.114047 0.045239 -0.140243 0.182879 0.104319 -0.130208 0.216751 -0.020737 -0.074859 
dimension -0.220231 0.188988 0.175996 -0.196731 -0.095390 0.172411 -0.031015 -0.201280 0.045890 0.078248 -0.110242 -0.037564 -0.321264 0.100306 -0.374850 -0.042954 -0.346986 -0.002091 0.025048 -0.110447 
word 0.117885 0.254434 0.249427 0.161623 -0.228399 -0.119267 -0.175273 -0.063933 0.129559 -0.644920 -0.236287 -0.164634 0.170472 -0.129384 0.210207 -0.200226 0.125805 -0.059820 -0.136949 0.094009 
entropy -0.420793 0.333518 -0.146668 0.201743 -0.344130 0.273000 0.230867 -0.488675 -0.023055 -0.054002 0.021421 -0.140948 0.098045 0.166397 0.153356 0.102863 -0.473348 0.116016 0.193063 -0.111127 
brain -0.106001 0.167853 0.236583 0.099515 -0.317039 -0.269755 -0.003161 0.217367 -0.046080 -0.050710 0.137399 0.144342 0.118023 -0.194560 0.225133 -0.059089 -0.082362 0.134269 0.143608 -0.009594 
previously -0.427148 -0.173256 0.164318 0.151319 -0.089475 -0.127438 0.072409 0.153340 0.086852 0.040346 -0.013176 -0.273430 0.042314 -0.134160 0.083439 -0.642002 0.254938 -0.028186 -0.007827 -0.236873 
performed 0.023515 0.043482 0.127204 0.143992 -0.116466 -0.224197 0.119432 0.034848 0.119992 -0.161179 0.041577 0.030336 -0.036842 -0.038706 -0.067652 -0.234702 -0.133639 0.005799 0.025698 0.052248 
fast -0.164759 -0.136301 -0.023504 0.159951 -0.027045 -0.077542 0.002574 -0.152722 -0.142569 -0.018367 -0.107395 0.191730 -0.003981 0.251305 -0.105456 -0.098790 -0.075508 -0.201793 -0.184903 -0.132495 
implementation 0.071639 -0.105558 0.322196 0.132899 -0.257473 -0.588620 -0.188283 -0.013626 -0.318255 -0.078918 -0.027372 -0.098401 0.032550 -0.163818 0.012950 -0.144598 0.330672 0.002339 -0.228902 -0.245964 
represent -0.122123 0.247458 0.213810 -0.133301 0.260865 -0.084949 -0.101046 -0.075492 -0.109073 0.253652 0.021678 0.055460 0.086358 0.116580 0.071956 0.009960 -0.100199 0.199650 -0.146023 0.108127 
either -0.206610 0.222572 0.306429 -0.105028 0.171776 -0.023670 0.093478 -0.177015 0.116162 0.074172 -0.030610 0.002561 0.014801 -0.125899 -0.042367 -0.182850 -0.019315 0.051592 0.007747 0.017621 
forward -0.019368 -0.064567 -0.024139 -0.102543 0.051610 -0.142294 -0.516892 -0.192545 -0.677081 -0.185114 -0.160374 0.057139 0.276099 0.314700 0.151831 -0.143737 0.344402 -0.187000 -0.196724 -0.254008 
capacity -0.110697 0.132319 0.288651 0.100241 -0.073188 -0.108624 0.004417 -0.035362 -0.275353 -0.034840 0.004348 -0.124697 -0.261148 0.154461 0.048462 -0.043141 -0.247916 0.049385 -0.105026 -0.167353 
common -0.139958 -0.039182 0.262489 0.070518 -0.045754 -0.002486 0.112888 0.019212 0.085666 0.073405 0.109543 0.073760 0.105160 -0.139480 -0.036884 -0.155726 -0.145775 -0.173110 -0.150978 0.051577 
available -0.027360 0.183729 0.417822 0.043958 -0.143706 0.086991 0.359722 -0.064665 0.204339 -0.005338 -0.011065 0.000581 -0.318229 -0.004592 0.035211 -0.079138 -0.185771 0.120395 -0.100646 0.066163 
take 0.021932 0.183131 0.039445 0.032357 0.130279 -0.221000 -0.201534 -0.141014 -0.015104 0.063221 0.153770 -0.003154 -0.064641 -0.023076 -0.103870 -0.132735 0.008446 0.094745 -0.241361 -0.272868 
solutions -0.157574 -0.031033 0.167607 -0.014939 -0.034441 -0.046750 0.030411 -0.126295 0.110621 0.068343 -0.030167 0.128486 -0.115253 -0.011310 -0.185550 -0.175292 -0.226858 -0.251708 -0.047417 -0.108515 
times -0.204190 0.139163 0.435508 -0.004774 -0.116762 0.451810 -0.150162 -0.067282 -0.066848 0.094611 0.159705 0.135023 -0.132594 -0.010418 0.298347 -0.041241 0.019605 -0.053254 -0.012009 -0.122053 
directly -0.141082 0.198132 0.181045 -0.016808 0.095514 0.060394 -0.144081 -0.000902 0.016046 0.028497 0.057009 0.207770 -0.087505 0.038572 0.017303 -0.297499 -0.151978 0.015203 -0.035708 -0.024425 
although -0.157442 0.067225 -0.003130 0.027065 -0.045993 -0.183742 0.074226 0.004503 0.052662 0.126031 0.062117 0.096959 -0.127676 0.042644 0.038566 -0.348004 0.083828 0.063152 0.046818 -0.101970 
implemented -0.126472 -0.058967 0.193246 0.106623 0.075753 -0.494320 -0.172352 0.248461 -0.389952 -0.043851 0.167149 0.063490 0.082970 -0.065872 0.095115 -0.158353 0.442110 -0.011433 0.026856 -0.349932 
