7881 20
learning -0.147398 -0.094052 -0.320630 0.215587 0.335902 -0.562709 0.286978 -0.270406 -0.517864 0.003262 0.263998 -0.209072 -0.104031 -0.077147 0.430842 -0.415566 -0.093057 0.409732 0.098576 -0.035200 
model -0.298239 0.162847 -0.102868 -0.062130 0.274269 -0.253037 0.067335 -0.006916 0.155274 0.071021 -0.189022 0.057647 0.244077 -0.321373 0.256847 -0.185262 -0.179289 -0.354050 0.209319 0.002589 
data 0.049092 -0.086389 0.441014 -0.268008 -0.030690 0.013584 0.050411 -0.071968 -0.136798 0.302593 0.039532 -0.398115 0.053255 -0.412577 -0.068999 -0.141650 -0.252772 -0.285781 -0.164482 0.257128 
each 0.251696 -0.185522 0.079486 -0.491473 -0.195693 0.010909 0.089479 -0.104067 -0.014515 -0.016245 -0.292327 0.130887 0.057915 0.196151 0.005905 0.068133 -0.764833 -0.422856 -0.180785 0.216117 
network 0.129192 0.315412 -0.435376 -0.212897 0.404780 -0.361936 -0.118662 -0.244251 -0.242500 -0.011325 -0.120261 0.315165 0.168109 -0.426649 -0.086844 0.335438 -0.643921 0.277338 -0.059255 -0.025327 
set 0.452344 -0.108281 0.305128 -0.372802 -0.333483 0.185968 0.168035 -0.176339 -0.525291 -0.085299 0.065979 -0.086925 0.183416 -0.359937 -0.423287 -0.114570 -0.560922 -0.199822 -0.134305 0.305659 
function 0.708042 0.272277 -0.061389 0.121381 -0.249859 -0.145996 -0.291697 -0.259946 -0.232950 -0.141646 -0.162214 0.333186 0.367262 -0.165280 0.340994 -0.260452 -0.143404 -0.033996 0.441801 0.062291 
have -0.144321 0.126555 0.167676 0.096622 -0.141300 -0.123371 0.041274 0.082565 -0.416591 -0.251847 0.241866 0.099168 -0.082911 -0.570487 -0.109705 0.269805 0.034454 -0.460589 0.133345 0.135004 
figure 0.257067 -0.279986 0.096277 0.103434 0.138411 0.085686 0.440318 0.019608 0.607566 0.182457 0.127292 0.550386 -0.067538 -0.340241 0.150414 -0.131442 -0.615443 0.124014 -0.010846 0.398536 
using 0.142847 0.249926 0.071113 -0.287144 0.275512 -0.078397 0.052790 -0.163770 -0.084105 -0.023961 0.128726 -0.096494 -0.126415 -0.288581 0.451611 -0.137800 -0.320379 -0.142378 0.168409 0.168936 
neural 0.085345 0.133784 -0.543422 -0.396774 1.189378 -0.364730 0.029668 0.100779 -0.634973 0.068623 -0.179297 0.118871 0.101063 -0.420036 0.138618 0.259097 0.065051 0.761207 -0.178747 -0.351478 
time 0.213052 -0.128940 -0.169639 -0.161686 -0.258617 -0.509624 0.432077 -0.104610 0.259316 -0.201395 -0.726499 -0.131066 -0.274835 -0.266292 0.082737 0.221283 -0.004614 0.037322 0.048628 0.335145 
algorithm 0.059894 0.391882 -0.023350 -0.345177 0.134345 -0.488528 0.091719 0.016455 -0.176926 -0.231284 0.725554 -0.156901 -0.327989 0.091072 0.434803 -0.126428 -0.311517 -0.032394 0.148840 0.256302 
two -0.037183 -0.208234 0.429717 0.127068 0.030467 -0.114294 0.070616 -0.114338 -0.071675 0.179458 0.105086 0.332433 0.265241 -0.069145 0.047651 0.205080 -0.334942 -0.229666 -0.107172 0.406883 
input 0.365125 0.055080 -0.194259 -0.238349 -0.293797 -0.270778 0.003799 -0.081326 0.003071 0.331609 -0.629697 0.563512 0.301955 -0.167851 -0.000190 0.205199 -0.474038 -0.283889 -0.196778 -0.064840 
training 0.356607 -0.040239 0.160395 -0.282321 -0.271295 -0.077448 0.316375 -0.347297 -0.372159 -0.062761 0.228179 -0.405005 0.096331 -0.515022 -0.438131 -0.092806 -0.702286 0.072944 -0.206115 0.136646 
our -0.251874 0.297282 0.468883 -0.068050 0.173735 -0.384387 0.109844 0.034853 0.067897 -0.227921 0.328377 0.047995 0.037258 -0.308873 -0.114400 -0.252402 -0.162652 -0.235981 0.133422 0.283010 
these -0.232562 -0.085644 0.315428 0.157083 -0.017670 -0.244373 0.039858 -0.110529 -0.120313 0.016384 0.226985 -0.001730 0.309493 -0.348330 -0.068141 0.192541 -0.192211 -0.353052 0.047230 0.184575 
used -0.016927 0.186985 0.130061 -0.199313 0.008122 -0.184595 0.142490 -0.223424 -0.224805 -0.049964 0.127932 -0.110133 -0.088648 -0.398700 0.072416 -0.064671 -0.450366 -0.330745 -0.071158 0.109085 
number 0.413730 -0.104013 0.152764 -0.181029 -0.572886 -0.120246 -0.083523 -0.030037 -0.316447 0.106556 0.055116 -0.105751 0.271258 -0.322938 -0.148131 0.402938 -0.457694 0.052523 -0.071022 0.038503 
has 0.007482 0.125538 0.048777 -0.096224 -0.276825 -0.313632 -0.067323 0.145040 -0.318676 -0.317487 -0.051470 0.115688 -0.269788 -0.577803 -0.038228 0.192868 -0.031606 -0.443056 -0.057062 0.019038 
networks 0.018525 -0.024240 -0.235781 -0.235537 0.924202 -0.291269 -0.221356 -0.178885 -0.629964 0.162187 -0.023065 0.085056 0.216527 -0.558344 0.064966 0.289285 -0.176770 0.646443 0.203039 -0.285322 
between 0.234354 -0.153667 0.386046 0.467180 -0.130477 -0.138976 0.461343 -0.242657 0.048882 0.315598 0.004562 0.117001 0.663243 0.426540 0.293167 0.069989 -0.312445 -0.296869 -0.119627 -0.071236 
such 0.164277 0.016893 0.013550 0.079216 0.012082 -0.205575 -0.245653 -0.077349 -0.320673 -0.092543 0.098044 0.005329 0.267580 -0.049120 -0.084664 -0.033604 0.131644 -0.357007 0.064228 0.249628 
error 0.929112 0.230439 0.117243 0.109328 -0.288882 -0.176681 0.592704 -0.400141 0.143867 -0.195863 0.417230 -0.309543 0.345177 -0.523007 0.039581 -0.428318 -0.546257 0.392443 0.367458 -0.130370 
given 0.306017 0.084435 0.112120 -0.305338 -0.207457 0.108922 -0.036069 0.033561 -0.123016 -0.286851 -0.131710 0.134131 0.371961 0.000264 -0.033895 -0.435634 -0.245212 -0.209705 0.296697 0.245386 
results -0.204904 0.041357 0.613298 0.090007 0.113447 -0.257300 0.471207 -0.059405 0.218599 0.057444 0.596436 0.094223 -0.084645 -0.665566 -0.150415 -0.188088 -0.226928 0.023709 0.119573 0.386334 
information 0.113758 0.258659 -0.055291 -0.331123 0.743184 -0.216388 0.524177 0.381360 -0.090282 -0.176926 -0.282158 -0.552898 0.748817 0.220163 -0.027338 0.004176 0.284196 0.111305 -0.618283 -0.327552 
more -0.073453 0.319419 -0.031521 -0.125403 -0.235472 -0.536882 -0.213187 0.348814 0.138703 0.084087 0.522447 -0.453311 0.369469 -0.193393 -0.275679 0.438762 0.057369 -0.362786 0.057542 0.177187 
problem 0.113979 0.440634 0.186804 0.114223 0.303053 -0.377423 -0.542728 -0.179653 -0.285031 -0.196467 0.287590 -0.261708 -0.122663 0.019213 0.253496 -0.033577 0.075903 -0.323698 0.059301 0.460172 
state -0.188651 -0.488002 -0.344254 -0.316359 -0.301011 -0.615355 -0.195406 0.003348 0.194572 -0.062813 -0.638654 0.201963 0.207949 0.196671 0.070555 -0.210086 -0.315792 0.152356 0.448493 0.475118 
than 0.456648 0.390189 -0.195600 -0.272776 -0.649644 -0.554827 -0.032371 0.297252 0.430550 0.198567 0.535492 -0.478703 0.427331 -0.311343 -0.243022 0.606841 -0.082975 -0.039768 -0.078126 0.166880 
models -0.529511 -0.026247 0.040929 -0.131279 0.487376 -0.203028 -0.186323 -0.035159 -0.203624 0.396323 0.070625 -0.215785 0.284706 -0.365111 0.381378 0.044486 -0.088360 -0.191513 0.409250 -0.176554 
output 0.432821 0.255068 -0.428626 -0.184747 -0.089901 -0.236295 0.020527 -0.368338 0.041696 0.276851 -0.723160 0.708967 0.348692 -0.054898 -0.019450 0.313684 -0.652220 -0.010827 0.054841 0.049284 
system -0.110175 0.006564 -0.307642 0.191242 0.432243 -0.462136 -0.009044 -0.017168 0.106444 -0.039648 -0.390364 0.161874 -0.047822 -0.254762 -0.179794 -0.037725 -0.036335 -0.090413 -0.175706 0.238028 
its 0.360937 0.056914 -0.081518 0.033377 -0.225622 -0.421107 -0.047104 0.024049 0.155636 -0.192181 -0.223989 0.017353 0.175984 0.068024 -0.005449 -0.091408 -0.269161 -0.277497 -0.046009 -0.036959 
over 0.296637 -0.318739 0.279815 -0.334891 -0.323464 0.100194 0.057235 -0.127358 0.024429 -0.266643 -0.131255 -0.279370 0.361590 -0.291077 0.013602 -0.084876 -0.478222 -0.175312 0.337258 0.013955 
based -0.045663 0.291454 0.151430 -0.156432 0.535042 -0.489385 0.171259 -0.116569 -0.115664 0.045916 0.201114 -0.158423 -0.031184 0.093516 0.104636 -0.395753 -0.024574 -0.331103 -0.056892 -0.094836 
first -0.019477 0.191670 0.306747 -0.208134 -0.020801 -0.116641 0.121550 0.150319 -0.051802 -0.117577 0.030958 0.303973 0.089213 -0.074252 0.247188 -0.073612 -0.429362 -0.113206 -0.184880 0.386845 
but 0.112490 0.090686 -0.030532 0.149382 -0.283822 -0.374191 -0.108259 0.008435 0.083821 -0.180734 0.184341 -0.332476 0.411784 -0.234547 -0.061183 0.287002 -0.028357 -0.284280 0.016467 0.155171 
space 0.334743 -0.110560 -0.021970 -0.338302 -0.350316 -0.431861 -0.641450 0.343691 0.007341 0.305310 -0.004854 0.210067 0.315736 0.099004 0.245886 -0.478317 0.075373 -0.285390 -0.306948 0.425257 
different -0.068340 -0.378729 0.366292 0.185477 -0.053482 -0.059387 0.044855 -0.317658 -0.067534 0.282723 0.161741 -0.089802 0.284509 -0.356639 -0.093009 0.252863 -0.415440 -0.383392 -0.161726 0.131673 
distribution 0.151549 -0.399817 0.093421 -0.560074 -0.276703 0.336777 -0.078853 0.161057 0.064344 -0.172103 -0.231662 -0.253115 0.782716 -0.354959 0.150717 -0.334571 -0.045941 -0.535133 0.817746 0.024707 
other 0.045297 -0.063179 -0.001013 0.156736 -0.114913 -0.210079 -0.068935 -0.195245 -0.158992 0.266519 0.306997 -0.162255 0.275438 -0.017509 -0.061134 0.367870 -0.269680 -0.247829 -0.081788 0.275803 
linear 0.360335 0.301095 -0.002082 0.130325 -0.043920 -0.459149 -0.335410 -0.263197 -0.287872 0.416383 0.097692 0.185000 0.124215 -0.242093 0.787919 -0.127541 0.156782 -0.154107 0.122690 0.209151 
use 0.043764 0.353587 0.189842 -0.204879 0.071716 -0.241551 -0.063969 0.025344 -0.217858 -0.163111 0.196303 -0.187348 0.198178 -0.139253 0.220871 0.020793 -0.096906 -0.252285 0.072024 0.104010 
probability 0.288766 -0.254030 0.141823 -0.573787 -0.146260 0.258954 -0.093863 0.054112 -0.013544 -0.206339 -0.298313 -0.061894 0.810751 0.097512 -0.183695 -0.323324 -0.055397 -0.309945 0.757020 0.039318 
case 0.201150 0.073355 0.244755 -0.062356 -0.244108 -0.260845 -0.218304 -0.029609 -0.105591 0.019547 0.194075 0.126279 0.461764 -0.321145 0.097049 0.062115 0.148499 -0.046051 0.331377 0.408293 
performance 0.340614 0.255394 0.105919 0.180468 0.124442 -0.497412 0.418261 -0.439402 0.205031 0.199826 0.498004 -0.357593 0.076054 -0.563348 -0.411617 -0.160650 -0.377411 0.159906 0.078193 0.125922 
value 0.649132 -0.071085 0.007549 -0.105026 -0.701296 -0.323748 0.114376 -0.138134 0.089531 -0.402361 -0.064011 -0.166035 0.198465 0.218591 0.093913 -0.126769 -0.234041 -0.190640 0.289287 0.082276 
vector 0.644305 0.012509 -0.318162 -0.415202 -0.375774 -0.293495 -0.015185 0.008557 -0.813234 0.282676 -0.498468 0.349985 -0.048428 0.088859 0.360836 -0.727826 -0.123844 -0.232364 -0.311254 0.201818 
method 0.030966 0.373160 0.264335 -0.307645 0.296861 -0.451316 0.082526 -0.070306 -0.101342 -0.121928 0.614258 -0.236907 -0.224132 -0.165615 0.386743 -0.184881 -0.108665 -0.347189 0.104542 0.054455 
same 0.128982 -0.065017 0.179780 -0.015685 -0.279733 -0.165112 0.088450 -0.082779 0.099062 -0.087742 0.082853 0.009490 0.307536 -0.161089 -0.020876 0.181563 -0.364222 -0.300132 -0.078602 0.184922 
parameters 0.059113 0.161293 -0.054063 -0.177982 -0.140886 0.053089 0.031445 -0.154358 -0.086142 -0.283424 -0.213181 -0.145454 0.327645 -0.279235 0.377076 -0.017418 -0.285058 -0.350932 0.251051 0.029555 
units 0.318232 0.300600 -0.337765 -0.206820 -0.194098 -0.129045 -0.248831 -0.207704 -0.191375 0.330433 -0.269422 0.688354 0.421431 -0.222973 0.229681 0.924796 -1.008408 0.102631 -0.071666 -0.270872 
into 0.065270 0.032703 0.250076 -0.321838 0.138156 -0.060300 -0.107242 0.170230 -0.108245 0.016474 -0.122717 -0.008635 0.253416 0.045641 0.065638 0.157941 -0.323715 -0.370798 -0.430220 0.432039 
order 0.220654 0.288799 0.025057 -0.088906 -0.080930 -0.256243 0.069197 0.158209 0.031824 -0.283882 0.020091 -0.099158 0.565747 -0.258550 0.337382 0.112004 -0.053245 -0.018179 0.057330 0.130937 
been -0.526468 0.093389 -0.065023 0.102557 -0.121324 -0.251516 0.042148 -0.036554 -0.639883 -0.129223 0.330521 -0.110451 -0.855979 -0.792507 -0.094395 0.407767 0.060592 -0.742410 -0.013590 0.052432 
shown -0.019277 -0.166141 0.287707 0.075514 0.108095 0.060912 0.244037 -0.039274 0.394860 0.005165 0.296102 0.452004 -0.155473 -0.604357 0.191273 0.064762 -0.409888 -0.083161 0.000548 0.428033 
both -0.005853 -0.017464 0.149651 0.148303 -0.014874 -0.226360 0.174732 -0.212025 0.041850 0.071811 0.149315 -0.050904 0.194420 -0.289650 0.104187 0.062085 -0.182260 -0.234659 0.049979 0.134793 
image 0.246447 -0.191332 0.166872 -0.270558 0.621171 0.129926 -0.376714 0.134243 0.364619 0.245319 -0.151004 -0.197954 -0.090181 -0.141434 0.139824 -0.308588 -0.259059 -0.793566 -0.774196 0.054768 
matrix 0.377500 0.092678 0.178562 -0.172869 -0.490761 0.158065 0.157881 0.591164 -0.498712 -0.023787 -0.135636 0.113840 0.257389 0.115156 1.048842 -0.136641 0.348513 -0.230653 -0.336808 0.713412 
may 0.022659 0.062863 0.013159 0.168759 -0.086477 -0.338547 -0.262406 -0.007132 -0.046581 -0.101042 0.083599 -0.339390 0.408161 -0.078620 -0.022202 0.238124 0.104737 -0.320771 0.014446 0.082370 
approach -0.217602 0.410269 0.229172 -0.177042 0.575751 -0.461801 -0.077227 0.036523 -0.038253 -0.084603 0.326981 -0.347765 -0.079992 -0.087873 0.149901 -0.206156 0.088970 -0.288013 0.084657 0.065365 
new 0.116796 0.155302 0.235630 -0.393303 0.196130 -0.391151 0.160899 0.317247 -0.381451 -0.048375 0.083171 -0.136440 -0.221154 0.466851 -0.216718 -0.489350 -0.111372 -0.107775 0.161798 -0.284392 
functions 0.513111 0.033408 0.134852 0.065758 -0.176625 -0.219293 -0.530098 -0.354252 -0.467586 0.208056 -0.009122 0.420177 0.234475 -0.337943 0.382366 -0.090753 0.060112 -0.094334 0.490545 0.131639 
example 0.062026 -0.100994 0.124592 -0.047096 -0.020932 -0.063807 -0.031427 -0.101330 -0.152426 -0.019767 0.073797 0.061288 0.129277 -0.090357 -0.051432 -0.105843 -0.316067 -0.260097 -0.044411 0.410355 
values 0.362605 -0.217734 0.122557 -0.128767 -0.527238 -0.062057 0.087664 -0.290089 -0.022414 -0.144204 -0.139242 -0.060554 0.278128 -0.204209 0.123891 0.194928 -0.368950 -0.240549 0.153770 0.139476 
noise 0.272280 0.066494 0.017945 -0.140644 -0.249470 -0.046009 0.167250 -0.041207 0.292422 0.414985 -0.526212 -0.394876 0.456617 -0.763127 0.314212 0.034075 0.267169 -0.178523 0.284360 0.180975 
hidden -0.042097 0.220610 -0.392675 -0.643291 -0.000707 -0.079622 -0.363764 -0.176990 -0.297067 0.690277 -0.236325 0.647046 0.690623 -0.177718 0.409925 0.779560 -1.198707 0.021124 0.298942 -0.175664 
so 0.246666 0.059552 -0.098233 0.047967 -0.342135 -0.165716 -0.164306 0.068202 -0.084329 -0.293935 -0.026268 -0.182093 0.319992 -0.049697 -0.006476 0.194533 -0.102805 -0.283996 0.022992 0.208670 
weights 0.364489 0.197566 -0.284292 -0.027441 -0.498722 -0.168828 0.072008 -0.184482 -0.390928 -0.195956 -0.056336 0.186567 0.386828 -0.266185 0.322976 0.569824 -0.646593 0.027797 -0.030094 -0.072422 
systems -0.098921 -0.361777 0.043123 -0.185676 1.285583 -0.397476 0.457442 0.467713 -0.783350 -0.339706 -0.409589 -0.566121 0.162238 0.008157 0.189231 0.308382 0.406894 0.569672 -0.457198 -0.352086 
large 0.463449 -0.177811 0.139088 -0.039285 -0.246026 -0.289847 -0.350572 -0.118353 -0.250862 -0.021364 0.262226 -0.385661 0.179568 -0.427447 -0.132321 0.296473 0.126316 -0.024940 0.011323 -0.041156 
their 0.049528 -0.121482 0.173532 0.261466 -0.156907 -0.191055 -0.021409 0.105812 -0.065765 0.131611 0.048556 -0.143282 0.392074 -0.059961 -0.043537 0.151796 -0.282741 -0.298363 -0.057312 -0.145521 
gaussian 0.255977 -0.214919 0.007606 -0.551997 -0.182367 0.174700 -0.143962 -0.071841 -0.128097 0.630267 -0.043225 -0.220661 0.321150 -0.805058 0.946701 -0.245953 0.052536 -0.443245 0.692159 -0.027377 
point 0.397688 -0.367891 0.061338 -0.065779 -0.364106 -0.289596 -0.137268 0.200215 0.231407 -0.599347 0.091095 0.159995 0.004247 0.166790 0.132327 -0.260210 -0.211272 -0.367628 -0.257205 0.157716 
algorithms -0.169295 0.164918 0.195801 -0.037125 0.260957 -0.589312 0.003245 -0.270878 -0.289223 0.027347 0.758984 -0.347356 -0.361124 -0.012236 0.399020 0.004278 -0.141917 -0.046221 0.277004 0.201012 
neurons -0.133252 -0.122739 -0.166463 0.456316 0.036803 -0.360103 0.249471 0.071216 -0.066657 0.346593 -0.276160 0.814576 0.157154 -0.027950 -0.135423 0.740949 0.067261 -0.521823 0.225990 -0.464774 
methods -0.160425 0.053646 0.240514 -0.126401 0.343182 -0.455202 0.007766 -0.130352 -0.294885 0.242266 0.709018 -0.562257 -0.259161 -0.195179 0.430834 -0.020267 0.130612 -0.337284 0.252234 -0.061488 
class 0.271988 -0.121913 0.342821 -0.349552 -0.076161 0.004833 -0.167344 -0.229921 -0.444597 0.426563 0.181518 -0.100731 0.527469 0.245626 -0.112991 -0.208968 -0.296389 -0.247329 0.241368 0.207513 
points 0.514287 -0.598316 0.285153 -0.093862 -0.460791 0.150306 -0.402963 0.023492 -0.072544 -0.161021 0.129656 -0.047922 0.254630 0.024670 0.055899 -0.039491 -0.329256 -0.368280 -0.459673 0.339726 
test 0.436124 0.001245 0.475573 -0.075285 -0.175509 0.104905 0.612755 -0.481369 -0.001356 0.189123 0.328696 -0.283663 -0.061459 -0.650328 -0.531326 -0.204345 -0.908033 -0.038874 -0.136996 0.375049 
see -0.038082 0.089727 0.148543 -0.002127 -0.019497 -0.033673 0.052537 0.344593 -0.017530 -0.117999 0.468293 0.377329 0.096986 -0.264340 0.134141 -0.213139 -0.110329 -0.093005 0.026461 0.378182 
thus 0.362305 0.171814 0.082934 -0.047575 -0.347232 -0.101483 -0.126262 0.120180 -0.064194 -0.199749 -0.019581 -0.003238 0.406088 -0.065642 0.106752 0.153336 -0.000739 -0.298436 0.133552 0.210289 
single 0.221293 0.068607 -0.072582 -0.357026 0.090098 -0.256757 -0.000955 -0.082762 0.171760 0.196257 -0.230587 0.281614 0.017035 -0.125530 -0.043123 0.246989 -0.472050 -0.269374 -0.131284 0.086775 
analysis -0.070300 -0.047143 0.250644 -0.168319 0.445699 -0.427526 0.204453 0.232684 -0.106219 0.562696 0.106905 -0.144270 -0.122038 -0.056807 0.343636 -0.631528 0.490076 -0.142196 -0.022346 0.041231 
feature 0.288271 0.165669 0.089052 -0.469381 0.043318 -0.483207 -0.181689 0.117300 -0.288502 0.496720 0.053135 0.230598 0.090657 0.235905 0.115156 -0.332303 -0.253531 -0.452851 -0.593258 0.019959 
optimal 0.530614 0.158505 -0.094901 0.036096 -0.170546 -0.536538 -0.233937 -0.107736 -0.082543 -0.363459 0.385879 -0.087744 0.080321 0.159222 0.250123 -0.444601 0.019108 0.015860 0.194437 0.028265 
rate 0.755544 0.263535 -0.108033 0.211172 -0.366499 -0.436397 0.934257 -0.297848 0.421258 -0.065213 -0.275964 -0.220642 -0.053081 -0.235914 -0.138647 -0.160031 0.029674 0.177891 0.214440 0.024534 
weight 0.687821 0.379883 -0.258940 -0.040464 -0.610429 -0.319766 0.356908 -0.078983 -0.366205 -0.116864 -0.252029 0.263160 0.194403 0.097670 0.433863 0.278144 -0.275435 -0.023547 -0.126046 0.018639 
local 0.274369 0.094722 -0.053036 0.090143 0.111625 -0.344229 -0.313596 0.042866 0.008658 -0.009517 0.364144 -0.090463 0.270302 0.047101 0.566496 0.119635 -0.187788 -0.527554 -0.132226 -0.366041 
well -0.049871 0.045763 0.122977 0.169993 -0.011970 -0.333822 -0.139635 -0.164618 -0.131041 -0.001001 0.256525 -0.200600 0.236605 -0.281243 0.051294 0.097021 0.057796 -0.385735 0.088575 0.042520 
recognition 0.048320 0.354114 -0.295025 -0.256335 1.052219 -0.121885 -0.125985 -0.367083 -0.191107 0.643314 -0.293463 -0.397686 -0.265086 -0.193698 -0.663713 -0.271493 -0.312742 0.163290 -0.338125 0.304412 
layer 0.287349 0.395661 -0.262271 -0.364626 0.147889 -0.173921 -0.103193 -0.192886 -0.123541 0.451912 -0.237847 1.080359 0.417844 -0.101178 0.097538 0.734679 -0.991106 0.033114 -0.118011 -0.057901 
processing 0.166110 -0.120437 -0.102431 -0.407523 1.409351 -0.332690 0.863590 0.515704 -0.560657 -0.255461 -0.546905 -0.549845 0.252040 0.054445 0.149573 0.370411 0.562924 0.415614 -0.945283 -0.451065 
second 0.270404 0.318514 0.121269 -0.111405 0.005172 -0.168427 0.187503 -0.046843 0.155405 -0.160755 -0.122880 0.088700 0.250781 -0.068431 0.347446 0.010936 -0.476763 -0.078014 -0.290749 0.176737 
non 0.192081 -0.227914 0.141293 0.246663 -0.238856 -0.268734 -0.358364 -0.258626 -0.195599 0.310187 -0.064323 -0.088399 0.258577 -0.214806 0.784818 0.062679 0.163803 -0.354059 0.014291 0.247047 
classification 0.326251 0.341062 0.149487 -0.145369 0.291016 -0.350795 0.018399 -0.584557 -0.437130 0.579208 0.316972 -0.293199 -0.142800 -0.016602 -0.308320 -0.383771 -0.343437 0.043834 0.149065 0.237226 
following 0.089251 0.317560 0.315466 -0.088666 0.075125 0.019557 -0.063726 0.170375 -0.257468 -0.623168 0.155784 0.420234 0.185717 0.043306 0.071808 -0.329465 -0.000141 -0.088900 0.340996 0.551228 
paper -0.491864 0.489282 0.610756 0.076441 0.325988 -0.496439 -0.070882 0.301379 -0.128702 -0.187506 0.235367 0.229501 -0.007129 -0.095824 -0.120650 -0.272144 -0.066516 -0.164350 0.156949 0.276944 
they -0.122347 0.001709 -0.048364 0.284544 -0.251601 -0.326041 -0.209666 -0.060617 -0.101001 0.084063 0.217209 -0.347369 0.413980 -0.137841 -0.104589 0.486134 -0.079638 -0.455344 -0.088760 0.170711 
shows 0.157990 -0.345748 0.355341 0.113886 0.014367 0.037345 0.333851 -0.050275 0.677939 0.186189 0.323828 0.498770 0.134933 -0.498057 0.203223 -0.299269 -0.612074 0.179995 -0.055188 0.503449 
features 0.032265 -0.022278 0.264101 0.042830 0.077592 -0.145005 -0.152162 -0.162873 -0.220132 0.368523 0.022030 -0.221810 0.343449 -0.043374 -0.327489 0.145541 -0.306582 -0.579308 -0.455381 0.174936 
kernel 0.478886 0.154918 0.116771 -0.307278 -0.140676 -0.268429 -0.191572 -0.061075 -0.710241 0.397418 0.475651 0.056890 -0.147832 -0.094304 0.605834 -0.437450 0.242954 -0.410607 -0.028678 0.234383 
et 0.065645 0.092493 -0.974492 -0.469002 0.087125 0.081156 0.476121 0.877340 -0.637739 0.269712 0.434701 0.265100 -0.710811 -0.543524 -0.291611 -0.196669 -0.278486 -0.252721 0.382778 -0.104574 
examples 0.172632 -0.188875 0.404609 -0.061370 -0.357205 0.163198 0.054018 -0.339815 -0.532307 -0.122147 0.244655 -0.199437 0.222753 -0.294068 -0.342244 -0.015194 -0.557906 -0.107946 -0.168653 0.421187 
most 0.068104 0.056079 0.066477 -0.053085 -0.139854 -0.380518 -0.148102 0.035474 -0.129323 0.051276 0.168970 -0.265482 0.189348 -0.026509 -0.228989 0.262561 -0.118180 -0.446720 -0.053122 0.110843 
mean 0.699035 -0.304356 0.118777 -0.144108 -0.384765 0.287296 0.446379 -0.010486 0.190150 -0.134530 0.119458 -0.150225 0.222558 -0.554361 0.635209 -0.167813 -0.190799 -0.324120 0.504579 -0.489864 
section -0.369382 0.457681 0.700696 -0.176625 0.324744 -0.553808 0.269476 0.196704 0.006941 -0.391218 0.449463 0.478034 -0.028725 -0.243974 0.132877 -0.551742 -0.230152 -0.161155 0.219193 0.485506 
form 0.125905 0.222620 0.089716 -0.052030 0.014211 0.173514 -0.150103 0.154721 -0.309212 -0.222807 -0.039888 0.237318 0.476233 -0.083462 0.470270 -0.023856 0.021991 -0.424218 0.222348 0.343729 
simple -0.082254 0.195111 -0.016382 0.056614 0.228823 -0.356339 -0.119141 -0.093257 -0.058798 -0.094511 0.205124 0.322922 0.119909 -0.197987 0.113813 0.055804 -0.015933 -0.347886 0.115641 0.012157 
show -0.045437 -0.013844 0.501515 0.164286 0.027091 -0.258189 0.128444 -0.106655 0.242103 -0.093038 0.455010 0.227630 0.124009 -0.409380 0.068119 -0.141960 -0.172297 0.000533 0.226490 0.293789 
possible 0.061375 -0.018634 0.069051 -0.168115 -0.199370 -0.325739 -0.217239 -0.036973 -0.066130 -0.248347 0.040743 -0.268031 0.434410 -0.081099 -0.240824 0.027466 -0.212468 -0.334504 0.041934 0.167987 
small 0.485883 -0.159503 0.036115 0.094483 -0.505795 -0.214290 -0.128267 -0.066966 -0.019083 -0.083600 0.062818 -0.243738 0.193481 -0.476475 -0.091237 0.316011 -0.002514 -0.173832 -0.090743 0.086956 
random -0.009705 -0.761642 0.103178 -0.509872 -0.300667 0.040797 -0.079764 -0.015299 -0.205002 0.079061 -0.240672 -0.074949 0.160278 -0.182899 0.251728 -0.177903 -0.356381 -0.383145 0.383511 0.098708 
let 0.581520 -0.015416 0.316819 -0.353277 -0.374848 0.284814 -0.381299 0.254798 -0.553337 -0.429688 -0.278799 0.592302 0.479175 0.142726 -0.138190 -0.643989 0.116128 -0.055920 0.298138 0.662762 
while 0.146671 -0.036483 0.096406 0.107913 -0.211771 -0.203212 0.052354 0.018749 0.179223 -0.062029 0.097025 -0.183977 0.149000 -0.105220 0.103275 0.105986 -0.252078 -0.206576 -0.095505 0.139208 
pattern 0.321986 -0.052350 -0.089782 -0.073639 0.663822 -0.256985 0.120336 -0.398309 -0.363516 0.672774 -0.257747 0.142756 -0.008283 0.174106 -0.388864 -0.367204 -0.292049 -0.083058 -0.120601 -0.165505 
here -0.176871 0.252985 0.320341 0.043872 -0.009452 -0.133162 0.195703 0.103419 -0.222216 -0.151243 0.175077 0.266214 0.064155 -0.243576 0.070101 -0.215105 -0.033836 -0.358886 0.246978 0.299858 
many -0.282282 -0.124077 0.112662 0.249107 -0.117623 -0.327435 -0.344970 0.016680 -0.384847 0.121209 0.155422 -0.438871 0.104354 -0.346105 -0.193839 0.401912 -0.060948 -0.351254 -0.061597 0.105061 
ie 0.549134 -0.018584 -0.051794 -0.034067 -0.376529 0.029752 -0.076163 0.007407 -0.131138 -0.056583 -0.168705 0.073413 0.436483 0.031836 0.134745 -0.074441 -0.096012 -0.236518 0.072773 0.187040 
al -0.049046 -0.025919 -0.849446 -0.466909 0.261623 -0.074852 0.483314 1.040075 -0.623092 0.486741 0.874243 0.182381 -0.627117 -0.527207 -0.374968 -0.130718 -0.035789 -0.362900 0.081519 -0.006693 
size 0.683731 -0.261777 0.102408 -0.373236 -0.461909 -0.109814 -0.052996 0.001680 -0.180223 -0.173157 0.116325 0.055652 -0.012191 -0.526620 -0.300649 0.121661 -0.376333 -0.131790 -0.283974 -0.000034 
step 0.206391 0.206743 -0.243720 -0.461542 -0.272745 -0.298925 0.277539 0.003156 0.226058 -0.680425 -0.172593 -0.231061 -0.083690 0.306801 0.419601 -0.235590 -0.507888 -0.184346 0.211860 0.336665 
log 0.802629 0.516414 0.147732 -0.271366 0.046222 0.979999 0.106200 0.322027 0.309597 -0.728477 0.131725 0.013034 0.557207 -0.091725 0.276129 -0.089607 -0.048086 -0.211366 0.800777 0.579084 
unit 0.513268 0.320886 -0.320696 -0.333390 -0.505840 -0.237807 -0.087668 0.083838 -0.091734 0.279270 -0.514976 0.708663 0.240350 0.147972 0.235334 0.342821 -0.862952 -0.029905 0.047560 -0.348996 
images 0.181986 -0.385431 0.460447 0.050307 0.541653 0.311496 -0.318272 -0.079857 0.185692 0.561741 0.005870 -0.260629 -0.074665 -0.448272 0.082390 -0.264468 -0.354476 -0.778267 -0.778375 0.250901 
would 0.034066 0.288344 -0.112131 0.372485 -0.311247 -0.311633 -0.324531 0.230558 0.141128 -0.127982 0.118036 -0.446441 0.404200 -0.253470 -0.117688 0.232823 -0.130657 -0.284274 -0.070103 0.080719 
work -0.742369 0.547783 0.061329 0.351263 0.010137 -0.289495 -0.216039 0.751399 -0.240028 -0.022722 0.297160 -0.256888 -0.125417 -0.634150 -0.247541 -0.218513 -0.205418 -0.157664 -0.059619 0.125871 
problems -0.075127 0.040048 0.248358 0.157997 0.286093 -0.488477 -0.548890 -0.497492 -0.526053 0.052240 0.368351 -0.385861 -0.278611 -0.301470 0.048134 0.195126 0.156252 -0.215950 0.083165 0.375871 
signal 0.314486 0.176297 -0.432414 -0.165008 0.515288 -0.239515 0.551232 -0.103248 0.557522 0.373765 -0.965108 -0.294721 0.056348 -0.184198 0.195590 0.095766 0.261225 -0.087685 -0.122269 0.134696 
structure -0.311749 -0.000243 0.133396 -0.084115 0.399515 -0.369195 -0.180571 0.138066 -0.029043 0.129902 0.184482 -0.093878 0.482485 0.117676 0.212603 0.127218 -0.153027 -0.568506 -0.081452 0.079969 
control -0.129161 -0.186438 -0.616005 0.446174 0.671197 -0.466414 -0.188512 -0.209286 0.082096 -0.335638 -0.485514 0.033963 -0.303833 -0.192183 0.017086 -0.200367 -0.122800 0.187544 -0.118267 0.013736 
neuron 0.200175 0.135501 -0.121561 0.232875 -0.135383 -0.391454 0.477480 -0.109299 0.109310 0.140167 -0.693299 0.913981 -0.106681 0.106577 -0.041094 0.603128 0.025553 -0.330867 0.128719 -0.021220 
process -0.283776 -0.118497 -0.105705 -0.287100 0.016594 -0.322397 0.111591 0.040686 0.119830 -0.065957 -0.302158 -0.227417 0.069766 -0.188776 0.340241 -0.112616 -0.127982 -0.218667 0.141584 0.229689 
note 0.270981 0.100977 0.131261 0.085223 -0.357597 0.178934 0.050541 0.087812 -0.081549 -0.203231 0.153954 0.024820 0.344800 -0.019849 0.203020 -0.016458 -0.117573 -0.198961 0.157284 0.450054 
task -0.176316 0.247375 -0.180463 0.140047 0.297234 -0.413051 -0.100319 -0.278393 -0.061906 0.197610 0.033265 -0.232904 0.025622 -0.149009 -0.510095 -0.270523 -0.476724 -0.208586 -0.131175 0.239884 
fig 0.146034 -0.403007 0.178492 0.226473 0.090250 0.003498 0.296034 -0.055915 0.701718 0.228771 0.274708 0.531395 0.044463 -0.260816 0.128433 0.035391 -0.483482 -0.153212 -0.112037 0.499333 
three -0.117555 -0.310092 0.332532 -0.011390 0.087060 -0.016933 0.064871 -0.160402 0.011573 0.301308 0.092060 0.218773 0.107707 -0.400865 0.028809 0.183593 -0.655665 -0.145972 -0.310553 0.356187 
because 0.118488 0.165920 -0.043713 0.227218 -0.189286 -0.293128 -0.186501 -0.023333 -0.022489 -0.124286 -0.014485 -0.312210 0.377074 -0.128438 0.094506 0.266889 -0.068430 -0.391068 -0.079389 0.169748 
parameter 0.374475 0.102924 -0.022008 -0.119419 -0.329287 -0.148680 0.024252 -0.091082 -0.075894 -0.229279 -0.058658 -0.075494 0.247181 -0.162406 0.368973 -0.269546 -0.036846 -0.346050 0.244268 0.023356 
high 0.513422 0.077966 0.166103 -0.284746 -0.077409 -0.463230 -0.335339 -0.075143 0.506012 0.418864 -0.144256 -0.442777 0.181027 -0.378027 -0.314669 0.133341 0.213602 -0.308530 -0.105864 0.190867 
similar -0.205113 0.075290 0.202806 0.056419 0.012081 -0.245275 0.132474 0.092364 -0.018926 0.064981 0.477444 0.117825 0.047763 -0.237624 0.014177 0.054077 -0.156041 -0.469435 -0.013256 0.113881 
experiments -0.399251 -0.004719 0.550401 0.051022 0.202319 -0.258382 0.483224 -0.163743 -0.019101 -0.072594 0.344790 -0.001992 -0.506656 -0.612516 -0.270626 -0.198259 -0.402699 -0.261815 -0.068027 0.313506 
approximation 0.426173 0.144454 0.106584 -0.065009 0.060359 -0.233348 -0.290196 0.020729 -0.034824 -0.392503 0.393100 -0.143826 0.172668 -0.301804 0.548350 -0.111967 0.121021 0.012027 0.428151 -0.110783 
variables -0.145310 -0.281314 0.173415 -0.346349 -0.156353 0.178946 -0.387965 -0.069234 -0.418000 0.054545 -0.347939 -0.028194 0.595449 0.011603 0.351862 0.219945 -0.321052 -0.437270 0.561586 0.238380 
patterns 0.036549 -0.122226 0.054792 0.196911 -0.100853 -0.212650 0.340286 -0.264032 -0.281053 0.589863 -0.042391 0.138479 0.352759 -0.170141 -0.437865 0.138414 -0.543630 -0.379636 -0.187020 -0.026420 
average 0.711277 -0.085699 0.106884 0.038218 -0.417801 -0.106248 0.602534 -0.368097 0.259019 -0.074822 0.077113 -0.254601 0.258146 -0.091982 0.068438 -0.231558 -0.491346 0.051735 0.285846 -0.016082 
representation 0.078141 0.192629 -0.136403 -0.213603 0.207855 -0.401228 -0.202272 0.196059 0.098597 0.308329 -0.155946 0.038029 0.377285 -0.025478 0.255203 -0.200912 -0.122084 -0.485219 -0.360483 -0.043995 
visual -0.268427 -0.195176 -0.566030 0.381341 0.963715 -0.230553 0.103793 0.353633 0.325046 0.235050 -0.240394 0.212820 0.124942 0.010733 -0.505946 -0.112292 0.052791 -0.769713 -0.416888 -0.572873 
about -0.062155 0.001887 0.126222 0.020599 -0.061926 -0.357743 0.106952 0.260131 0.233996 -0.213090 -0.202271 -0.495902 0.619095 -0.079752 -0.384720 0.040024 -0.110578 -0.203006 -0.213474 -0.089733 
consider -0.005624 0.126605 0.406410 -0.141161 -0.089467 -0.224005 -0.343448 -0.022304 -0.317744 -0.161598 -0.049226 0.363007 0.383658 -0.118019 0.127510 -0.299853 0.047084 -0.217734 0.245453 0.346614 
after 0.187235 -0.086445 -0.268961 -0.108450 -0.335143 -0.160653 0.546552 0.006921 0.202782 -0.460999 -0.118125 -0.110835 -0.168847 -0.099106 -0.019342 0.091659 -0.671663 -0.100218 -0.192866 0.207746 
general -0.095437 0.265762 0.268563 -0.013204 0.106317 -0.437386 -0.419850 0.093011 -0.258680 -0.143614 0.283421 0.088906 0.265671 -0.216846 0.138103 -0.067534 0.209371 -0.201242 0.182265 0.204942 
solution 0.402526 0.120023 0.300500 0.112090 -0.122716 -0.289386 -0.403645 -0.006436 0.062307 -0.604847 0.371003 -0.015380 0.063407 0.148150 0.489074 -0.015708 0.059209 -0.216687 -0.018201 0.385144 
university -0.004770 0.189899 1.190926 0.562853 0.464773 0.061698 -0.480248 1.161214 -0.582723 0.805506 -0.662536 -0.302721 -1.273978 0.974577 0.163204 -0.192613 -0.523826 0.651067 0.988252 -0.965950 
obtained 0.266033 0.083716 0.254434 -0.198985 -0.112615 -0.050647 0.209261 -0.161320 0.114283 0.085159 0.318604 -0.100854 0.079140 -0.438457 0.256894 -0.156258 -0.356429 -0.106192 0.119810 0.255460 
inputs 0.195761 0.108344 -0.182478 -0.043514 -0.244432 -0.121060 0.050295 -0.204121 -0.117264 0.217439 -0.508449 0.455735 0.435498 -0.399394 0.093011 0.463403 -0.336010 -0.222015 0.046545 0.010655 
vectors 0.621846 -0.176106 0.140976 -0.274886 -0.602692 -0.146203 -0.138180 -0.005627 -0.530631 0.486826 -0.157601 0.355764 0.133421 -0.025755 0.380457 -0.409479 -0.221179 -0.498162 -0.606698 0.460688 
result 0.122796 0.203314 0.268521 0.068647 -0.015952 -0.348584 0.108452 0.095106 0.183097 -0.263221 0.418949 0.268016 0.293104 -0.143114 0.018940 -0.194731 0.106743 -0.036439 0.152722 0.467979 
response 0.384088 -0.114636 -0.220951 0.406860 -0.174309 -0.293597 0.694299 -0.036457 0.449028 0.399286 -0.386392 0.598946 0.157118 -0.105765 -0.022686 0.087344 0.003074 -0.424112 0.112124 -0.332277 
theory 0.136707 -0.366290 -0.014795 0.090499 0.827531 -0.470665 0.011690 0.292943 -0.518715 0.047004 0.228817 -0.121534 -0.017508 -0.028557 0.000216 -0.508488 0.596533 0.305347 0.419796 -0.479008 
sequence -0.028811 -0.287445 -0.050931 -0.458599 -0.136822 -0.089640 0.015115 -0.033521 -0.043134 -0.035171 -0.319841 -0.023604 0.195614 0.169389 -0.132730 -0.291839 -0.393414 -0.319007 -0.018591 0.585678 
above 0.091043 0.318725 0.359330 0.123397 -0.100498 -0.207990 0.142057 -0.065620 0.017030 -0.473638 0.227055 0.294788 0.115249 -0.297730 0.174575 -0.063025 -0.085728 -0.146798 0.164946 0.450618 
level 0.315257 0.210100 -0.005867 -0.219061 0.055372 -0.189572 -0.027465 -0.126672 0.550030 0.320388 -0.267518 -0.159077 0.372617 -0.041771 -0.220805 0.104367 -0.242572 -0.197784 -0.045121 0.062878 
fixed 0.379351 -0.311887 -0.104468 -0.178894 -0.461580 -0.163980 -0.104627 0.000472 -0.035561 -0.418553 -0.149774 0.273553 0.149272 -0.193238 0.280636 0.102911 -0.139471 -0.179090 -0.045615 0.106274 
current 0.254365 0.067377 -0.096951 -0.025415 -0.311378 -0.444307 0.306212 0.055506 0.322664 -0.211502 -0.868461 0.183504 -0.140023 0.003868 -0.066988 0.241011 -0.029435 -0.378855 0.100661 0.158926 
dimensional 0.313964 -0.269273 0.275380 -0.466215 -0.207532 -0.296575 -0.940939 0.115239 0.051573 0.588499 -0.165220 0.237967 0.043318 -0.274129 0.393940 -0.350011 0.265412 -0.341922 -0.398009 0.620437 
states -0.309655 -0.560549 -0.188756 -0.073876 -0.432084 -0.315757 -0.238061 -0.013949 0.043965 -0.188530 -0.303079 0.030281 0.385232 0.174885 -0.069548 0.141361 -0.481783 0.080748 0.342149 0.455705 
standard 0.440683 0.194972 0.150267 -0.211827 -0.061253 0.017123 0.192123 -0.288190 0.107353 0.105337 0.360042 -0.154892 -0.017707 -0.534356 0.507855 -0.211981 -0.485196 -0.128206 0.302679 -0.016458 
corresponding 0.368819 -0.348048 0.137166 -0.131815 -0.377739 0.113214 -0.047054 0.074038 -0.053464 0.130161 -0.314547 0.299910 0.362954 0.103830 0.271202 -0.107870 -0.339996 -0.349937 -0.188070 0.279194 
estimate 0.450315 0.320570 -0.032459 -0.412504 -0.082371 -0.090719 0.043414 -0.063502 0.346125 -0.409823 -0.094787 -0.434329 0.430562 -0.147448 0.189602 -0.442628 -0.222506 -0.351018 0.402558 -0.080104 
defined 0.427844 0.054913 -0.016866 -0.020681 -0.234789 0.149101 -0.067181 -0.082100 -0.341786 -0.136834 -0.140930 0.256124 0.464028 0.140262 0.248140 -0.395064 -0.123735 -0.244539 0.193486 0.359798 
cells 0.056151 -0.293790 -0.195176 0.571473 0.023936 -0.137222 0.390879 0.241641 0.253693 0.273831 -0.019946 0.891594 0.118582 0.156110 -0.308054 0.723012 0.053115 -0.975266 0.134665 -0.650831 
equation 0.169884 0.270213 0.016522 0.205195 -0.080933 0.127260 0.087493 0.184638 -0.040698 -0.722090 -0.098315 0.366852 0.261695 -0.134225 0.768799 -0.142253 0.068018 -0.131660 0.379625 0.497176 
independent 0.001006 -0.016603 0.179766 -0.448194 -0.197150 0.066785 0.213092 0.273920 -0.072981 0.658412 -0.392588 -0.274081 0.409866 -0.298011 0.205902 -0.263880 0.159055 -0.394012 0.014642 0.184791 
eg -0.054327 -0.101144 -0.057409 -0.021284 0.064713 -0.083401 -0.125407 0.153073 -0.222312 0.248422 0.256719 -0.040916 0.109130 -0.301365 0.104792 0.065744 -0.117461 -0.368037 0.092887 0.202091 
does 0.131485 0.331247 -0.023479 0.259676 -0.225536 -0.509424 -0.056606 -0.014541 0.098840 -0.292325 0.191005 -0.265421 0.553190 -0.112274 -0.023442 0.139802 0.056707 -0.239025 0.073541 0.127080 
zero 0.560833 -0.343759 -0.122552 0.093317 -0.902232 0.006176 0.040462 -0.029450 -0.063143 -0.139593 -0.159487 -0.240663 0.481500 -0.164619 0.614770 0.133172 -0.043935 -0.168728 0.109241 0.263451 
particular 0.071392 0.054227 0.082031 -0.110090 -0.061290 -0.334165 -0.206404 -0.083316 -0.078705 -0.001800 0.025332 0.004609 0.315453 -0.092015 -0.152435 -0.164170 -0.120029 -0.460392 0.080822 0.044637 
through 0.141181 0.065489 -0.090038 0.071849 0.063061 -0.223943 0.029546 0.031063 0.131266 -0.232941 -0.398820 0.127581 -0.050871 -0.100408 0.210258 0.262608 -0.332605 -0.039520 -0.169745 0.095301 
computation 0.131633 0.083611 -0.082655 -0.473411 0.582078 -0.400336 -0.162829 0.442161 -0.382906 -0.026556 0.030513 -0.020706 0.006259 -0.021600 0.453203 0.462014 0.080386 0.349454 0.061432 -0.488700 
field 0.231430 -0.559283 -0.164368 0.081544 0.056015 -0.109819 -0.050868 0.210324 0.139469 -0.352048 0.275251 0.187460 -0.060935 -0.665230 0.235354 -0.019387 -0.378048 -0.613899 0.058027 -0.903405 
generalization 0.501796 0.340621 0.176050 0.131715 -0.051822 -0.611647 0.446164 -0.309554 -0.111811 0.089566 0.515865 -0.167701 0.400159 -0.510275 -0.237322 -0.512784 -0.151358 0.463155 0.368643 -0.158155 
machine 0.112893 -0.485833 -0.271126 0.119629 0.362995 -0.485683 -0.192161 -0.269630 -1.077951 0.484302 0.078527 -0.462582 -0.432560 0.025910 0.119100 -0.679722 0.150030 0.551138 -0.024327 -0.001283 
term 0.283936 0.641081 0.005405 0.510552 -0.367266 -0.019740 0.658566 -0.097918 -0.256462 -0.463587 -0.193575 -0.304062 0.616024 -0.176847 0.624046 0.011923 -0.112099 0.007856 0.105113 0.190136 
distance 0.742727 0.100078 0.257741 0.255386 -0.226730 -0.087285 0.096789 -0.112488 -0.131454 0.395880 0.447920 0.117288 0.431271 0.552655 0.683815 -0.524618 -0.250129 -0.250793 -0.466197 0.093061 
likelihood 0.447005 0.535242 0.300474 -0.580908 0.241698 0.413420 0.001258 0.006149 0.504539 -0.390016 0.297961 -0.598046 0.558945 -0.033443 0.303667 -0.359668 -0.290542 -0.392186 0.592483 -0.098440 
right 0.354631 -0.528254 0.098575 0.577105 -0.028394 0.254349 0.036814 0.042442 0.994545 0.154870 0.412385 0.307282 0.283568 0.094713 0.319363 -0.189833 -0.791476 -0.038982 -0.304758 0.548184 
out 0.122018 0.019422 0.236604 -0.156404 -0.194820 -0.030088 0.219107 0.247420 0.025482 -0.500729 0.217892 -0.170218 -0.011398 -0.333813 -0.012919 0.332894 -0.387779 -0.246322 -0.169014 0.090188 
do -0.109344 0.112121 -0.058766 0.209813 -0.142820 -0.406237 -0.149858 0.039873 -0.150525 -0.156747 0.166025 -0.303775 0.599928 0.053245 -0.090199 0.244356 -0.102181 -0.333024 0.008296 0.207738 
gradient 0.329943 0.424964 -0.341083 0.138787 -0.013295 -0.263053 0.290139 -0.028365 0.018363 -0.810371 0.291062 -0.291711 -0.272136 0.131491 1.170235 -0.005137 -0.271402 0.002916 -0.039556 -0.002804 
real -0.063809 -0.375647 0.331892 0.089281 0.154821 -0.384065 -0.403136 -0.513940 -0.304536 -0.009505 -0.507288 -0.083397 -0.417414 -0.445218 -0.086814 0.029211 0.105992 -0.110210 -0.101883 0.346086 
bound 0.892198 0.378408 0.440390 -0.049660 -0.112656 -0.176019 -0.121918 0.215747 0.333272 -0.461534 0.730347 0.254865 0.936057 -0.033758 -0.085019 -0.082098 0.167995 0.582071 0.719034 0.419217 
sets 0.172236 -0.326426 0.681518 -0.262638 -0.199092 0.101712 0.184906 -0.329852 -0.529891 0.101825 0.387721 -0.193354 0.004329 -0.428695 -0.255721 0.060008 -0.533603 -0.254729 -0.182172 0.325095 
rule -0.135330 0.506805 -0.381768 0.055676 -0.001184 -0.436510 0.587284 -0.166646 -0.324389 -0.283899 0.052252 0.228594 0.329449 0.282916 0.481613 -0.102884 -0.263321 0.060048 0.238586 0.211234 
line 0.254083 -0.314259 -0.165975 0.218261 0.260754 -0.145353 0.153164 -0.179428 0.519308 -0.039336 0.277122 0.248574 -0.078247 -0.151935 0.390748 -0.121619 -0.360509 0.258977 -0.177185 0.496283 
sample 0.423778 -0.379491 0.252697 -0.726981 -0.425258 0.179236 -0.038692 0.166972 -0.139637 -0.191789 0.014294 -0.236928 0.172581 -0.266338 -0.153992 -0.356864 -0.326130 -0.418147 0.123293 0.337175 
under -0.015221 -0.049144 0.207238 0.561536 -0.183504 0.086166 -0.221944 0.204251 0.091424 -0.049484 -0.204785 -0.040686 0.337696 -0.529256 -0.073143 -0.582425 -0.154990 -0.065729 0.058932 -0.029395 
described -0.365854 0.261207 0.307500 -0.258754 0.323113 -0.351392 0.168187 0.079162 0.004516 -0.223240 0.130242 0.390425 -0.242068 -0.410882 0.203831 -0.193334 -0.331629 -0.279671 -0.014036 0.347463 
trained -0.076874 0.233810 -0.207595 -0.193611 0.351646 -0.159714 0.093227 -0.576169 -0.145328 0.094074 0.062529 -0.025568 0.088676 -0.625535 -0.066583 0.172471 -1.104828 0.127977 -0.242763 0.050572 
terms 0.307573 0.323395 0.298543 0.089698 -0.071878 -0.020085 0.134317 -0.104536 -0.086078 -0.151514 0.012030 -0.026904 0.597381 -0.138216 0.317126 0.040581 0.020321 -0.183918 0.247797 0.185626 
therefore 0.230658 0.172982 0.078790 0.092659 -0.257250 -0.263877 -0.182571 0.038279 -0.036495 -0.306633 0.015671 -0.108062 0.362733 -0.032130 0.013726 0.190012 0.008289 -0.267578 0.020547 0.237344 
prior -0.040610 0.016015 0.150749 -0.341012 0.002518 0.269487 -0.063793 0.179050 0.120002 -0.163271 -0.282453 -0.617825 0.817627 -0.479060 0.253503 -0.334168 -0.047967 -0.614548 0.433111 -0.100484 
xi 0.633118 0.261824 -0.037076 0.046255 -0.409262 1.289581 -0.188737 0.079787 -0.844051 -0.381844 -0.412239 0.161929 0.550698 0.390482 0.072809 -0.334163 -0.070414 -0.891150 0.264512 0.677907 
target 0.261418 -0.229545 -0.397722 0.125278 -0.092432 -0.215252 0.050220 -0.169070 0.523224 0.011438 -0.340544 0.094309 0.222252 0.109988 -0.265419 -0.221592 -0.512602 -0.381464 -0.151116 -0.000808 
left 0.225696 -0.551022 0.023799 0.383520 -0.026453 0.401598 0.076320 0.208248 0.870569 0.194153 0.233054 0.451486 0.183126 -0.051583 0.309694 -0.202469 -0.847225 0.048750 -0.331300 0.597748 
constant 0.662324 0.065015 -0.065101 0.166036 -0.693219 -0.129637 0.173222 -0.010086 0.044852 -0.356715 -0.435192 0.007744 0.073888 -0.242046 0.292470 0.205383 0.236340 -0.089726 0.331346 0.186937 
speech -0.254335 0.388967 -0.221824 -0.399892 1.152715 -0.248943 0.171605 -0.197367 0.001378 1.121467 -0.880026 -0.772145 -0.131822 -0.140627 -0.405622 0.046827 -0.163547 0.119940 -0.240572 0.585487 
should 0.202199 0.171329 0.034234 0.209440 -0.245958 -0.305248 -0.163976 0.029400 -0.005248 -0.153663 0.158159 -0.276149 0.499092 -0.087462 -0.223908 0.085936 -0.147365 -0.371990 -0.139843 0.049687 
found 0.022504 0.062883 0.106989 0.035955 -0.125250 -0.335495 0.107689 0.143346 0.037212 -0.173521 0.491371 0.010815 -0.012464 -0.287110 -0.003440 0.107539 -0.233051 -0.421783 -0.010476 0.039760 
memory -0.172713 0.046209 -0.256436 -0.094346 0.091720 -0.851837 0.275824 0.113118 -0.376178 0.111141 -0.157215 0.051284 0.131732 0.110818 -0.442400 0.199543 -0.045837 0.134605 -0.079301 -0.017503 
computer 0.135420 -0.012638 0.703392 0.589156 0.997988 -0.180891 -0.618336 0.492506 -0.175843 0.379592 -0.826661 -0.515530 -0.982768 0.496266 -0.104200 -0.185685 -0.059552 0.700141 0.209447 -0.665596 
even 0.114494 -0.029790 -0.000584 0.197661 -0.355631 -0.507437 -0.309891 -0.064630 0.183645 0.013908 0.147529 -0.372025 0.316043 -0.228867 -0.181507 0.470022 0.067576 -0.180456 0.089192 0.273655 
research -0.408314 0.343297 0.042238 0.858905 0.324226 0.115502 -0.559969 1.235871 -0.307210 0.292647 -0.260732 -0.533001 -0.453693 -0.214339 -0.211788 -0.529502 -0.317132 0.385391 -0.157045 -0.512484 
cell 0.327052 -0.172164 -0.034935 0.329502 0.053986 -0.201034 0.436483 0.337676 0.273520 0.097447 -0.394273 0.893114 -0.224713 0.317760 -0.214086 0.652419 -0.013538 -0.765764 0.104537 -0.501957 
table 0.154765 -0.014215 0.488798 -0.159055 0.051334 0.050496 0.675300 -0.164611 0.103472 0.286190 0.542179 -0.018616 -0.057294 -0.457318 -0.159384 -0.180864 -0.802396 0.277458 0.089133 0.472818 
maximum 0.622519 0.604293 0.214457 -0.473874 0.032594 -0.040226 0.194580 -0.024385 0.549376 -0.177771 0.402468 -0.472898 0.361284 0.360423 0.357760 -0.068574 -0.144666 -0.328094 0.333082 -0.346069 
theorem 0.513786 0.232776 0.381827 -0.158453 -0.081971 -0.267308 -0.213574 0.190845 -0.234195 -0.834783 0.485458 0.780065 0.536762 -0.063644 -0.146594 -0.562580 0.471801 0.292503 0.649931 0.806291 
prediction 0.297192 0.181573 -0.092724 -0.117805 -0.016902 -0.378663 0.275976 -0.401883 0.121517 0.101961 -0.049672 -0.281638 0.129882 -0.134456 -0.151157 -0.403855 -0.382822 0.169912 0.473166 0.075819 
bayesian -0.306266 -0.107839 0.107987 -0.345014 0.836257 -0.173955 -0.188829 0.062703 -0.171630 0.232856 0.383524 -0.478969 0.101330 -0.203924 0.492705 -0.331878 -0.040064 -0.059135 0.637139 -0.463107 
present -0.473480 0.213362 0.677808 -0.021664 0.242998 -0.565741 0.091730 0.143595 0.029784 -0.134189 0.029848 0.190317 -0.103801 -0.108145 -0.127085 -0.125300 -0.237289 -0.244439 0.076870 0.170302 
activity 0.047613 -0.227727 -0.276777 0.388102 -0.020156 -0.372969 0.597416 0.040983 0.314167 0.317467 -0.461305 0.450225 0.338628 0.059552 -0.215342 0.280814 -0.173287 -0.406522 0.097811 -0.374354 
known -0.041732 -0.039558 0.148070 0.077703 -0.051449 -0.320614 -0.177808 -0.132004 -0.192399 -0.038831 0.203749 -0.095985 0.331517 -0.319200 0.118431 -0.097612 0.139862 -0.535179 0.355630 0.140882 
components -0.112681 -0.132599 0.276044 -0.176755 -0.281166 0.043355 0.204111 0.219191 -0.068019 0.605973 -0.170020 -0.103507 0.364743 -0.160538 0.583813 -0.022125 0.002677 -0.527342 -0.256485 0.393268 
low 0.665413 0.022052 -0.017630 -0.108354 -0.140464 -0.280084 -0.312203 0.023283 0.698824 0.358558 -0.250617 -0.390396 0.076177 -0.489168 0.087087 0.173471 0.232383 -0.373043 -0.228643 0.203290 
computational 0.107281 0.263182 0.125868 0.332490 0.436850 -0.594058 -0.298044 0.197080 -0.292861 -0.028177 -0.021333 -0.173021 -0.047664 -0.077768 -0.136075 -0.077952 0.224923 0.108043 0.121185 -0.568318 
object 0.024114 -0.156669 -0.123975 0.053042 0.618713 -0.035047 -0.357606 -0.131812 0.132899 0.127036 -0.291951 -0.016120 0.091147 0.303366 -0.282507 -0.335969 -0.596745 -0.847584 -0.635938 -0.004802 
best 0.418553 0.235201 0.178638 -0.183189 -0.174819 -0.431629 0.098850 -0.301889 0.277820 0.082793 0.436452 -0.305426 0.007215 -0.102023 -0.108981 -0.301263 -0.520341 -0.216525 0.122571 0.219269 
positive 0.612083 -0.124942 0.118888 0.472450 -0.777549 0.160988 0.295494 -0.124979 -0.615424 -0.150720 0.064967 0.122496 0.516688 -0.196114 0.092060 -0.018184 0.132052 0.002072 -0.217086 0.603030 
density 0.188021 -0.089236 0.064207 -0.696565 0.127889 0.093745 -0.329468 -0.014650 0.133392 0.229581 -0.234206 -0.125606 0.533875 -0.364977 0.471003 -0.361001 0.115261 -0.460445 0.646324 -0.090179 
now 0.047914 0.311555 0.235702 -0.173050 -0.086494 -0.001077 -0.177075 0.122387 -0.269462 -0.525085 0.040465 0.274913 0.373141 0.068401 0.082358 -0.175128 0.023936 -0.192754 0.302776 0.491190 
node 0.503715 -0.207527 -0.134053 -0.523885 -0.144637 -0.082598 -0.212436 -0.105563 -0.165327 -0.280045 -0.367966 0.413617 0.278848 0.582512 0.146269 0.622167 -0.784039 -0.237571 0.134710 0.234249 
within 0.224550 -0.229691 0.122249 0.010858 -0.227214 -0.188184 -0.020971 0.086449 0.154940 0.062041 -0.094103 0.145533 0.159596 0.051268 -0.052746 0.034071 -0.338740 -0.399656 -0.186606 -0.151860 
nodes 0.364173 -0.334712 -0.022990 -0.385744 0.006260 0.080352 -0.365142 -0.185124 -0.279308 0.018236 -0.053215 0.482306 0.697934 0.375782 0.218548 1.043750 -0.939582 -0.114529 0.111971 0.101474 
variance 0.584285 0.021836 0.046358 -0.154191 -0.578059 0.083089 0.228727 0.063338 0.213773 0.072666 -0.131608 -0.411245 0.503687 -0.651906 0.426553 -0.155740 -0.044905 -0.203849 0.391840 -0.201955 
pp 0.426320 -0.701764 -0.338420 0.034523 1.646382 0.259145 0.315961 0.581585 -0.514221 0.189667 -0.194174 -0.283622 -0.378237 0.191189 0.028612 0.038465 0.519473 0.757158 0.233786 -0.382364 
basis 0.410322 0.139524 0.176007 -0.034374 -0.079152 -0.152749 -0.551861 -0.146309 -0.340170 0.585616 -0.038526 0.297266 -0.065272 -0.441933 0.528627 -0.340060 -0.132101 -0.488528 -0.111792 0.011913 
assume 0.118263 -0.118044 0.208423 -0.173275 -0.329461 -0.020183 -0.276659 0.060957 -0.304245 -0.359909 -0.422841 0.234063 0.520533 -0.155652 -0.007049 -0.348940 0.059443 -0.408467 0.373993 0.375015 
estimation 0.119015 0.322919 0.113743 -0.441549 0.528772 -0.252546 -0.061361 -0.089621 0.155295 0.014111 0.045767 -0.530334 -0.008985 -0.271577 0.562258 -0.448755 0.117345 -0.254320 0.437061 -0.256511 
up 0.322908 -0.080155 -0.009166 -0.049757 -0.135655 -0.253596 -0.011546 0.052781 0.334006 -0.174934 0.024523 -0.173193 0.029607 -0.070675 0.044014 0.314194 -0.238432 -0.016217 -0.198171 0.433929 
find 0.261073 0.283055 0.148921 0.019026 -0.185973 -0.334809 -0.251722 -0.014441 -0.093976 -0.491922 0.325648 -0.236881 0.211986 0.273539 0.167788 -0.192467 -0.164134 -0.391046 0.020903 0.128871 
during -0.094504 -0.135667 -0.365078 0.161015 -0.158672 -0.350431 0.603101 -0.021363 0.165832 -0.285522 -0.262226 -0.182179 -0.157478 -0.223084 -0.298769 -0.050621 -0.637653 -0.105382 -0.273955 -0.047919 
statistical -0.155747 -0.050597 0.250493 0.064020 0.760275 -0.430909 -0.013848 0.129059 -0.384982 0.380164 0.251861 -0.498461 0.106572 0.046491 0.167382 -0.396557 0.431945 -0.207030 0.540453 -0.453790 
several -0.351926 -0.019165 0.334763 0.000054 0.089794 -0.379105 0.039796 -0.070207 -0.243493 -0.004811 0.196917 -0.211284 -0.141153 -0.536967 -0.079383 0.378647 -0.283173 -0.407687 -0.035358 0.172288 
those -0.078490 -0.147876 0.125249 0.103086 -0.284223 -0.229171 0.081339 -0.034291 -0.121608 0.251068 0.427422 -0.004932 0.276960 -0.242985 -0.040744 0.325454 -0.295004 -0.325477 0.003159 0.167528 
press 0.429040 -0.823166 0.033890 -0.008292 1.056834 0.072518 0.603445 0.657870 -1.189820 0.151240 0.018773 -0.670699 -0.912604 0.758289 0.186589 0.127763 0.403375 0.078660 0.514384 -1.133529 
science -0.188475 0.230918 0.566425 0.729228 0.455443 -0.017833 -0.645678 1.076823 -0.353767 0.749467 -0.909961 -0.389068 -0.662296 0.598211 0.184238 -0.224391 -0.591712 0.873824 0.630440 -1.013648 
way -0.099677 0.304588 0.063383 0.033104 0.034483 -0.427905 -0.208104 0.088795 -0.041375 -0.120668 0.123409 -0.149305 0.361030 0.087027 0.061266 0.003913 -0.099081 -0.375460 -0.014850 0.072669 
threshold 0.764018 0.199754 0.075569 0.165134 -0.343879 -0.395474 0.263321 -0.396334 0.134664 -0.032073 -0.338312 0.498849 -0.107237 -0.084265 -0.185952 0.338447 0.036260 -0.116036 0.346844 0.058717 
could -0.030725 0.332413 -0.015211 0.079921 -0.105102 -0.390342 -0.016579 -0.092928 0.060366 -0.000654 0.045767 -0.244856 0.320796 -0.185414 -0.096031 0.309626 -0.177886 -0.478491 -0.097185 0.048886 
convergence 0.189837 -0.044148 0.096667 0.151415 -0.260756 -0.826676 0.280320 0.121459 0.054364 -0.703736 0.772214 -0.093536 -0.066406 -0.104887 0.307254 -0.132688 0.194024 0.402006 0.395654 0.306060 
us 0.062589 0.504027 0.313593 -0.055831 0.062155 -0.231194 -0.237329 0.435819 -0.217768 -0.497334 -0.120699 0.056912 0.579561 -0.015896 -0.266238 -0.446536 0.183018 -0.029240 0.018837 0.438288 
component 0.038030 -0.178785 0.028409 -0.416452 -0.089107 -0.196191 0.463449 0.327938 0.014892 0.707537 -0.425014 -0.034116 -0.015707 0.085651 0.711800 -0.494591 0.139524 -0.570748 -0.204903 0.331072 
frequency 0.429824 -0.017922 0.070605 0.273177 -0.151134 -0.059803 0.501231 0.142892 0.821382 0.617235 -0.418374 0.031712 -0.013609 -0.123247 -0.065659 0.296588 0.262359 -0.671543 -0.242403 0.052357 
presented -0.416085 0.110816 0.348644 -0.094772 0.196290 -0.401073 0.383039 0.043828 0.023523 0.049870 0.240729 0.336295 -0.259164 -0.399463 -0.248904 -0.312683 -0.358098 -0.238875 -0.157173 0.233220 
initial 0.012362 -0.574250 -0.083418 -0.002766 -0.474870 -0.471551 0.065781 -0.137373 0.080266 -0.416896 -0.306228 0.143102 0.198255 -0.272962 -0.121951 -0.162863 -0.599445 -0.042807 0.039800 0.282325 
action -0.210776 -0.467199 -0.417343 -0.058052 -0.376200 -0.719110 0.097145 -0.155884 0.183708 -0.434474 -0.675096 -0.065175 0.000725 0.664533 -0.204139 -0.158938 -0.358984 -0.167143 0.528570 0.423114 
mixture -0.354479 -0.112069 0.176895 -0.738256 0.170477 0.311557 -0.131027 -0.078481 -0.005751 0.843074 0.008814 -0.494074 0.484554 -0.362917 0.822479 -0.061525 -0.305858 -0.486752 0.550795 0.134681 
much 0.076389 0.445069 -0.116129 -0.031565 -0.359370 -0.701990 -0.154449 0.341976 0.284387 0.015242 0.382690 -0.578004 0.311059 -0.391432 -0.242215 0.521996 0.130704 -0.145447 -0.137688 0.114627 
applied -0.191840 0.031655 0.140333 -0.155130 0.327965 -0.295883 -0.016779 -0.223491 -0.285395 0.142198 -0.057354 -0.152437 -0.645115 -0.422430 0.339095 -0.147962 -0.210377 -0.301213 -0.015940 0.009892 
map 0.295901 0.108445 -0.322252 -0.113192 0.133240 -0.261538 -0.273803 0.257031 0.265652 -0.106270 0.114573 0.591856 0.238238 0.058661 0.145434 -0.428607 -0.335348 -0.458504 -0.269705 -0.174733 
like -0.196276 0.370095 -0.216092 0.433992 -0.117251 -0.252740 -0.381010 0.247756 -0.025370 0.101828 0.248236 -0.294148 0.191637 -0.092976 0.162268 0.129852 -0.145808 -0.322364 -0.237478 0.068114 
dynamics -0.382294 -0.268153 -0.368967 0.431443 0.223888 -0.592029 0.093811 0.010735 0.041279 -0.226825 -0.360113 0.383717 0.208705 -0.263982 0.262047 -0.072754 0.207756 -0.006602 0.239174 0.090594 
variable 0.048692 -0.222982 0.045826 -0.478954 -0.280647 -0.096169 -0.297226 0.040312 -0.123640 0.176002 -0.544545 -0.090974 0.332949 0.064987 0.206930 -0.092656 -0.170858 -0.555945 0.429938 0.184687 
cost 0.785983 0.290946 0.085654 0.283209 -0.245824 -0.418050 -0.301947 -0.293173 0.069833 -0.445680 0.152845 -0.187855 0.277677 0.071401 0.275660 -0.100340 -0.048054 0.035513 0.240315 -0.013816 
architecture -0.223014 0.383416 -0.339635 -0.175425 0.680331 -0.554239 -0.081880 -0.133946 -0.168461 0.063227 -0.152312 0.548308 -0.061938 -0.368131 0.100519 0.293262 -0.522856 0.127893 -0.193598 0.196353 
spike 0.233858 0.086275 0.140412 0.075465 -0.250239 -0.569972 1.411355 0.113456 0.485923 0.220624 -0.741795 0.223409 0.039393 0.200320 -0.181042 0.642937 0.441499 -0.400781 0.176287 0.104824 
decision 0.132088 -0.375765 -0.160593 -0.281914 0.410995 -0.512872 -0.546354 -0.474158 -0.305594 0.177765 0.349614 -0.312948 0.395830 0.496437 -0.242031 -0.061994 -0.316323 0.053271 0.461251 0.126897 
graph 0.088177 -0.546588 0.372956 -0.154115 0.246371 0.106294 -0.284051 -0.112780 -0.063208 -0.133204 0.585029 0.073176 0.292645 0.556763 0.622815 0.399481 -0.393946 -0.289349 0.033707 0.483259 
search 0.211915 0.063374 -0.196366 -0.179119 0.099113 -0.682032 -0.303600 0.038015 0.123760 -0.358477 0.484453 -0.415823 -0.185180 0.321140 0.106870 0.006948 -0.262805 -0.164969 -0.257481 0.187172 
better 0.155972 0.465958 -0.271869 -0.145193 -0.264129 -0.641316 0.046694 0.008835 0.481727 0.310950 0.830703 -0.591342 0.356137 -0.445957 -0.298677 0.144251 -0.221911 0.015639 0.218548 0.241122 
nonlinear 0.024827 0.166648 -0.181716 -0.031958 0.370659 -0.620966 -0.387100 -0.135863 -0.213770 0.354987 -0.230009 0.095085 -0.060822 -0.371446 0.866079 -0.133367 0.376943 -0.083585 -0.018536 0.111645 
without 0.082544 0.217045 -0.087745 0.156557 0.015962 -0.360942 -0.023719 -0.135115 0.072178 -0.141043 0.000969 -0.202358 0.388104 -0.210896 0.033971 0.001903 -0.188349 -0.101478 -0.115926 0.181720 
properties -0.175911 0.051639 0.183639 0.368665 0.356145 -0.458712 0.081515 0.113362 -0.085345 -0.050824 0.193174 0.401713 0.149698 -0.239797 0.029325 0.030495 0.408798 -0.585569 0.221770 -0.457513 
range 0.319717 -0.370111 0.210389 0.276019 -0.153955 -0.245349 0.104500 -0.266668 0.308428 0.060972 -0.207943 -0.079680 0.041740 -0.673677 -0.126161 0.500470 0.090129 -0.384909 0.054415 -0.157779 
abstract -0.474438 0.391987 1.168899 0.314134 0.347893 -0.334952 -0.427279 0.881602 -0.184300 0.188925 -0.460360 0.101076 -0.893168 0.815481 0.019979 -0.174518 -0.392121 0.283850 0.577875 -0.507963 
tree 0.160295 -0.290763 0.108668 -0.600892 0.316592 -0.167884 -0.387014 -0.044300 -0.121600 0.006725 0.570237 -0.110710 0.323957 0.646974 0.164046 0.565099 -0.540847 -0.333357 0.180826 0.427512 
regression 0.480979 0.363701 0.113598 -0.106141 0.162970 -0.207165 -0.223112 -0.427396 -0.441845 0.616774 0.557088 -0.210286 -0.287558 -0.374642 0.605792 -0.572885 -0.056117 -0.121941 0.643774 -0.082951 
important -0.206344 0.187207 0.016403 0.258893 0.055712 -0.602731 -0.045584 0.113561 -0.137861 -0.047196 0.113124 -0.251157 0.489658 -0.079192 -0.272582 0.026336 0.247468 -0.438743 -0.142080 -0.013015 
classifier 0.619412 0.331611 0.139168 -0.461046 0.152948 -0.303049 -0.104861 -0.576193 -0.164827 0.382145 0.501176 -0.144772 0.193485 0.038137 -0.226477 -0.239224 -0.668723 -0.105797 0.163334 0.195936 
due 0.172256 0.060906 0.063964 0.354136 -0.259568 -0.348067 0.023891 0.108883 0.139758 -0.054528 -0.067730 -0.210530 0.396904 -0.397387 -0.017618 0.090111 0.292176 -0.205688 -0.047812 0.164551 
stimulus 0.242526 -0.317483 -0.150088 0.258332 -0.121293 -0.231500 0.892858 0.182221 0.801550 0.219555 -0.223969 0.309271 0.224119 -0.000398 -0.441183 -0.182402 -0.110932 -0.577172 -0.188530 -0.159769 
policy -0.144097 -0.448238 -0.497746 0.203784 -0.553485 -0.941810 -0.311366 -0.259580 0.221172 -0.757497 -0.098935 -0.611909 -0.058042 0.662657 0.153707 -0.520760 -0.236784 0.172995 0.488936 0.440991 
phase -0.005155 -0.360203 -0.305956 0.341405 -0.234956 -0.373422 0.752973 0.098505 0.361915 0.009122 -0.247030 0.182441 0.097916 0.018542 0.246093 0.048428 -0.100924 -0.208252 -0.161510 0.149202 
proposed -0.438812 0.321929 0.101777 -0.171409 0.281456 -0.491025 0.053173 0.059912 -0.440538 -0.091739 0.620960 0.074259 -0.575971 -0.452039 0.246327 -0.078788 0.000551 -0.542666 0.114387 -0.005823 
temporal -0.231267 -0.138758 -0.363390 0.452514 0.289873 -0.437479 0.539711 -0.013535 0.131743 0.406496 -0.234328 -0.011713 0.155824 0.121393 0.153582 -0.084396 0.084318 -0.475421 -0.081398 -0.238283 
previous -0.407930 0.351933 0.149445 -0.223482 -0.068608 -0.505376 0.213742 0.280692 0.012875 -0.111482 0.125367 0.160748 0.004664 -0.348024 -0.199999 -0.296386 -0.364939 -0.350337 0.082014 0.233569 
measure 0.609975 0.332882 0.385119 0.083815 -0.029188 -0.107496 0.303789 -0.140778 -0.009979 0.025164 0.190648 -0.071350 0.499076 0.248477 -0.054955 -0.477338 -0.218547 -0.342818 0.163492 -0.169431 
introduction -0.286741 -0.022431 0.093729 0.086921 0.443455 -0.563727 -0.022921 -0.067121 -0.415258 0.289925 0.107081 -0.167065 -0.335616 -0.358397 -0.106629 -0.139510 0.140572 -0.235517 0.163964 -0.129370 
generated -0.147217 -0.567878 0.178992 -0.502659 -0.199359 -0.025905 0.189676 -0.188335 0.000036 0.067740 -0.410948 -0.049646 0.039606 -0.236382 -0.093573 -0.199301 -0.497994 -0.444057 -0.014899 0.303201 
observed -0.264659 -0.302269 -0.036459 0.029349 -0.211680 -0.136106 0.264642 -0.055604 0.040723 0.155370 -0.140824 -0.144233 0.249186 -0.270535 -0.252378 -0.072623 -0.253762 -0.645558 0.187212 -0.002003 
natural -0.185182 0.060974 0.263332 -0.019148 0.450815 -0.091207 -0.154233 0.177583 -0.105967 0.210696 0.014559 -0.432907 0.361535 -0.213880 0.245936 -0.411948 0.116534 -0.672743 -0.336860 -0.021661 
eq 0.325818 0.410062 0.182612 0.210056 -0.125721 0.226534 0.154976 0.040447 -0.133058 -0.693148 -0.014135 0.209320 0.445377 -0.085172 0.741690 -0.174719 0.057879 -0.290173 0.312596 0.536024 
synaptic 0.016664 0.246393 -0.197224 0.622268 -0.294974 -0.446557 1.051386 0.056297 0.095351 0.105189 -0.748391 0.695731 0.150675 0.137577 0.070506 0.808095 0.370004 -0.141234 0.301473 -0.257074 
clustering -0.063416 0.033059 0.456199 -0.294386 0.441042 -0.241891 0.064937 0.176090 -0.136518 0.508108 0.721295 -0.411682 -0.132801 0.144514 0.566568 -0.342554 -0.095163 -0.360296 -0.181419 0.159148 
expected 0.566691 0.134462 -0.101959 0.092530 -0.574503 -0.385183 0.175979 -0.188098 0.317100 -0.347793 0.085179 -0.404213 0.423829 0.071448 -0.175094 -0.369476 -0.300352 0.010893 0.527920 -0.022188 
procedure -0.058886 0.346693 0.068284 -0.347539 0.158387 -0.306414 0.262162 -0.072199 -0.008568 -0.574712 0.451082 -0.277325 -0.145874 0.061453 0.351415 0.027535 -0.501306 -0.285900 -0.002604 0.275394 
motion 0.085542 -0.378192 -0.348895 0.444430 0.722600 -0.155146 -0.074561 0.140922 0.587832 -0.006740 -0.215983 0.006029 -0.046073 -0.267215 0.069051 -0.425999 -0.308796 -0.795121 -0.643525 -0.507210 
complexity 0.461217 0.373503 0.078093 -0.210122 0.025052 -0.557099 -0.260844 -0.141030 -0.150932 -0.213386 0.224637 -0.145463 0.229227 -0.274993 0.028310 0.108608 0.107381 0.183862 0.241787 -0.130269 
optimization 0.247701 0.426349 0.051128 0.157602 0.398327 -0.499143 -0.441381 -0.245660 -0.427664 -0.442353 0.462481 -0.380409 -0.403321 0.073314 0.618499 -0.070922 0.115205 -0.268217 0.195859 0.118451 
ieee 0.863206 -0.463855 -0.384332 -0.050575 2.284949 -0.082625 -0.375905 -0.408796 -0.179924 0.826494 -0.649580 -0.389808 -0.257223 0.182690 0.309867 -0.171816 0.449690 0.783698 0.090660 -0.123948 
references -0.403530 0.133341 -0.410466 0.525946 0.233666 0.128052 -0.173907 1.164322 -0.423692 0.470856 0.151311 -0.398951 -0.245618 -0.478160 0.077391 -0.368327 -0.125523 0.410083 -0.022198 -0.165542 
learn -0.345247 0.148876 -0.214021 0.124720 0.014835 -0.491289 -0.348526 -0.255728 -0.210754 0.002078 0.062596 -0.276184 0.365796 -0.161809 -0.060279 -0.022073 -0.443802 -0.260655 -0.142535 0.052428 
distributions -0.162049 -0.377053 0.302375 -0.436090 0.026614 0.197552 -0.327963 0.026015 0.009700 0.088088 0.077546 -0.263640 0.780769 -0.277283 0.430918 -0.133615 0.059519 -0.558952 0.712617 0.036094 
support 0.286346 0.096096 -0.048154 0.024980 -0.239225 -0.374963 -0.320878 0.261078 -1.067378 0.468456 0.201886 -0.103145 -0.268837 -0.296330 -0.029709 -0.828806 -0.042061 0.025450 -0.539104 -0.111718 
ii 0.576970 0.144044 -0.308384 0.152015 0.450272 0.692424 0.339732 0.273994 -0.261830 -0.090977 -0.192932 0.760672 0.305384 -0.082241 0.028998 -0.246913 0.106525 -0.020689 0.527696 0.582309 
obtain 0.362509 0.395153 0.139415 -0.214478 -0.071190 -0.018603 -0.085752 0.084077 0.049496 -0.477297 0.237876 -0.130973 0.341995 -0.154885 0.240545 -0.133350 0.050462 -0.253909 0.321184 0.376271 
true 0.509519 -0.172849 0.066331 0.021468 -0.361927 0.227017 -0.015473 -0.250158 0.176643 -0.107150 0.226695 -0.312885 0.745593 -0.150949 -0.058463 -0.260808 -0.206363 -0.216215 0.432086 0.087214 
hand -0.038564 -0.294787 -0.093907 0.406400 0.312383 0.079967 -0.264545 -0.175408 0.351551 0.015533 0.170433 -0.202756 0.281819 0.027517 -0.066314 -0.195216 -0.569720 -0.190266 -0.356568 0.491306 
direction 0.376570 -0.428427 -0.564385 0.451764 -0.075850 -0.200541 0.070784 0.138616 0.538156 -0.423311 -0.082031 0.249253 0.084391 0.013523 0.084740 -0.377490 -0.381981 -0.581731 -0.534048 -0.279264 
learned -0.176347 0.033380 -0.087425 0.009359 -0.021213 -0.243048 -0.010724 -0.172893 -0.054188 0.259015 0.119854 -0.197051 0.259598 -0.243818 0.223635 -0.213671 -0.580355 -0.323162 -0.317344 0.158783 
markov -0.844309 -0.692462 -0.277789 -0.697015 0.456111 -0.354135 -0.623804 -0.104390 -0.001945 0.439120 -0.055112 -0.104964 0.115345 0.236829 0.363113 0.030032 -0.231698 0.026369 1.079736 0.132448 
complex -0.310930 0.003733 -0.109315 0.129564 0.187166 -0.417433 -0.225829 0.096715 -0.032520 0.256818 0.104156 -0.056407 0.268659 -0.092238 -0.013997 0.456138 0.250566 -0.565377 -0.109406 -0.090004 
good 0.195031 0.099196 0.157502 0.100405 -0.089697 -0.605176 -0.067576 -0.156170 0.254987 -0.210627 0.498349 -0.402014 0.154261 -0.349413 -0.287412 -0.125234 -0.110494 -0.078894 0.191952 0.157802 
loss 0.908063 0.455540 0.217173 0.346857 -0.091524 -0.177694 -0.213177 -0.533571 -0.369716 -0.207812 0.402013 -0.007489 0.411733 0.092042 -0.038439 -0.631900 0.044736 0.027015 0.701177 0.284531 
position 0.413359 -0.492219 -0.376471 0.223470 0.125739 0.040477 -0.024418 0.266671 0.678939 -0.172329 -0.441068 0.374149 0.088725 -0.030483 -0.144869 -0.484465 -0.593597 -0.505482 -0.573684 -0.072854 
scale 0.436057 -0.224257 0.202952 -0.098563 0.120925 -0.157836 -0.287916 0.028217 0.323007 0.341579 -0.138044 -0.254774 -0.016355 -0.356679 0.325958 0.124043 0.263947 -0.485794 -0.300470 -0.099048 
lower 0.752920 0.072275 0.250629 -0.189510 -0.248024 -0.393990 -0.310346 0.155202 0.836267 0.166949 0.492968 0.213358 0.818386 -0.184852 -0.177104 0.108476 -0.052565 0.489059 0.134721 0.389865 
continuous -0.134302 -0.133621 -0.107558 -0.263009 0.093245 -0.269403 -0.403851 -0.295762 -0.061160 0.310998 -0.646275 0.104342 0.133111 -0.461625 0.212397 -0.099333 -0.025535 0.034689 0.422997 0.538898 
follows 0.164642 0.281315 0.249283 -0.162060 -0.046169 0.135477 0.110178 0.329128 -0.373331 -0.628868 -0.059023 0.557166 0.208106 0.168705 0.131302 -0.456392 -0.078873 -0.269695 0.202171 0.669084 
means 0.264711 0.016966 0.164040 -0.180884 -0.260787 -0.068643 0.002674 -0.021346 -0.013869 -0.004719 0.164985 -0.107537 0.359945 -0.018600 0.428550 0.048540 -0.144680 -0.343984 0.175485 0.200718 
human -0.368329 -0.121770 -0.151169 0.613464 0.734009 -0.109790 0.236931 0.100475 0.288851 0.265754 -0.013710 -0.258543 -0.133485 -0.219391 -0.671552 -0.456956 -0.331340 -0.348654 -0.209183 -0.070591 
samples 0.245833 -0.393935 0.432651 -0.557527 -0.358711 0.332645 0.056371 -0.122773 -0.129731 0.013921 -0.047265 -0.326442 0.243689 -0.341371 -0.259076 -0.003102 -0.564427 -0.457953 0.073237 0.368156 
compute 0.395028 0.310371 0.212570 -0.398879 -0.141524 0.004059 -0.187756 0.026503 -0.050394 -0.522339 -0.014822 -0.082535 0.366850 0.215444 0.362097 0.008734 -0.211235 -0.328628 0.262114 0.124615 
multiple -0.284424 -0.177326 -0.077769 0.117760 0.329033 -0.350972 -0.053575 -0.039028 -0.102916 0.250761 -0.196365 -0.253739 0.248099 -0.082944 0.057974 0.146977 -0.366240 -0.567686 -0.284546 0.032918 
net 0.300757 0.462224 -0.529541 -0.254110 0.465901 -0.335366 -0.221846 -0.093344 -0.056476 0.224955 -0.091610 0.415751 0.230300 -0.363005 -0.019995 0.311946 -0.732646 0.371345 -0.124558 -0.072453 
behavior -0.376207 -0.258476 -0.189590 0.479783 0.030838 -0.523650 0.125271 -0.055329 0.096458 -0.215100 -0.166696 0.186013 0.251036 -0.255529 -0.291836 -0.063157 0.008241 -0.113055 0.371526 -0.095303 
cases 0.032114 -0.069317 0.337177 0.143487 -0.226537 -0.118188 -0.125939 -0.191373 -0.067125 -0.063518 0.492142 -0.286432 0.384186 -0.449189 -0.130481 0.271994 -0.255055 -0.227063 0.078896 0.280830 
stochastic -0.177460 -0.312240 -0.248191 -0.198682 0.259220 -0.546069 0.049120 -0.143305 -0.070585 -0.143069 -0.106560 -0.172789 -0.057055 0.088336 0.704571 -0.239519 0.200114 0.088455 0.422678 0.124554 
respect 0.570675 0.244408 -0.055004 0.105559 -0.223077 0.155249 0.010466 -0.110823 -0.116385 -0.536282 -0.068830 -0.146183 0.524716 0.104885 0.542702 -0.492417 -0.186155 -0.285178 0.255350 0.113721 
chosen 0.408913 -0.408915 0.070311 -0.287468 -0.627729 -0.114642 0.030371 -0.244397 -0.385687 -0.178105 -0.096683 -0.108129 0.071081 -0.208806 0.003036 -0.017332 -0.461509 -0.451658 0.045404 0.040615 
binary 0.337309 0.015476 0.133897 -0.538068 -0.041561 -0.169406 -0.318830 -0.435325 -0.404699 0.481479 -0.239294 0.370748 0.322394 -0.007958 0.015583 0.020065 -0.386153 -0.182203 0.223592 0.410945 
conditions -0.023187 -0.460474 0.376995 0.614517 -0.193448 -0.206389 -0.059551 -0.059353 0.266617 -0.477395 -0.108428 0.187168 0.268844 -0.471282 -0.241275 -0.262339 -0.036380 -0.041615 0.044500 0.405028 
computed 0.532957 0.142765 0.049792 -0.315018 -0.117837 0.064573 0.201355 -0.234691 0.077420 -0.181923 -0.072350 0.032407 0.215380 0.125492 0.509988 -0.160496 -0.362331 -0.412408 0.045743 0.055548 
next -0.073556 0.093985 0.153212 -0.436111 -0.170481 -0.518564 0.162305 0.076313 0.135584 -0.445581 -0.154066 0.300285 0.051290 0.123752 -0.188580 -0.419437 -0.572281 -0.139105 0.115272 0.442812 
classes 0.098684 -0.284445 0.474319 -0.244236 -0.005255 0.093617 -0.216168 -0.325308 -0.442865 0.648033 0.255187 0.026246 0.581296 -0.025406 -0.250765 0.094296 -0.442560 -0.384550 -0.128697 0.402254 
connections 0.061396 0.040690 -0.311297 0.558159 0.023105 -0.173208 0.332782 -0.255293 -0.208527 0.139497 -0.183682 0.933737 0.487308 -0.004859 0.130271 1.073509 -0.486038 -0.168936 -0.031664 -0.317074 
signals -0.171498 0.053987 -0.335668 0.274029 0.522019 -0.210815 0.355624 -0.049814 0.525944 0.426450 -0.771062 -0.110711 0.078113 -0.132942 -0.006895 0.369687 0.162273 -0.392938 -0.213018 0.122927 
posterior 0.060973 -0.234735 0.108273 -0.681618 0.072007 0.433263 0.038562 0.199421 0.337384 -0.329008 0.080706 -0.302874 0.900725 -0.199232 0.314815 -0.136932 -0.379565 -0.585266 0.958015 -0.257597 
difference 0.346502 -0.029875 0.107926 0.669787 -0.336863 -0.089965 0.506058 -0.444415 0.324258 0.209515 0.177707 -0.102533 0.412574 0.090063 0.381005 -0.208734 -0.015491 -0.161759 0.093744 0.007174 
every 0.435576 -0.133862 -0.044907 -0.372447 -0.411662 -0.252012 -0.043674 0.012396 -0.127884 -0.446935 -0.364235 0.241910 0.000458 0.373341 -0.127706 0.058657 -0.350841 -0.264107 -0.044905 0.475574 
propagation -0.129114 -0.155310 -0.334929 -0.493590 0.761037 -0.178860 0.053222 0.003111 0.018213 -0.466602 0.428998 -0.408152 0.079424 -0.227061 1.157540 0.601686 -0.768167 0.180670 0.233121 -0.381790 
constraints -0.016756 0.245569 0.322060 0.481209 0.100388 0.030197 -0.267991 -0.074836 -0.401650 -0.340978 0.103393 -0.106081 0.513519 0.148555 0.094473 0.100605 0.106771 -0.429169 -0.189765 0.462984 
th 0.818214 -0.150899 -0.521411 -0.202745 0.528677 0.602852 0.076527 -0.130150 -0.464099 0.339959 -0.498512 -0.092453 0.015625 0.697062 -0.004517 -0.608603 -0.081832 0.514078 0.151624 0.339646 
further -0.164931 0.323585 0.237815 0.076628 -0.116297 -0.498913 0.041186 0.288890 0.024942 -0.288990 0.206877 -0.084546 0.205396 -0.374128 -0.132055 -0.015053 -0.061866 -0.127381 -0.007229 0.221631 
ij 0.409105 0.676130 -0.402646 0.298884 -0.265433 1.632789 0.260661 0.642511 -0.653080 -0.447736 -0.321720 -0.014436 0.443934 0.638605 0.721232 -0.167191 -0.332106 -0.674098 0.423633 0.914025 
framework -0.509011 0.322394 0.335374 -0.083520 0.703947 -0.432763 -0.076142 0.149975 -0.193198 0.009699 0.351940 -0.137523 0.221030 -0.077832 0.256565 -0.424618 0.019696 -0.415157 0.409326 -0.276331 
spatial 0.134923 -0.271903 0.064672 0.327685 0.232178 -0.108679 0.153352 0.368633 0.521597 0.460391 0.003037 0.213449 0.148427 -0.145514 0.106318 -0.039988 0.085624 -0.934786 -0.421780 -0.521241 
define 0.340856 0.107354 0.188561 -0.132812 -0.150960 0.284080 -0.227523 0.125999 -0.333879 -0.366042 -0.103840 0.200143 0.633999 0.272540 0.173977 -0.491723 0.019078 -0.378058 0.287839 0.477557 
change 0.334479 -0.029046 -0.311346 0.443685 -0.480867 -0.329278 0.282474 -0.073859 0.374799 -0.329653 -0.376341 -0.043489 0.355339 -0.018433 0.077448 0.054071 -0.131418 -0.327870 -0.118188 0.021999 
less 0.388821 0.170857 -0.327454 -0.248464 -0.704808 -0.541554 -0.070823 0.314657 0.313312 0.105839 0.432203 -0.591120 0.320143 -0.318155 -0.320923 0.568538 -0.058944 -0.145112 -0.121958 0.246403 
effect 0.053906 0.138148 -0.068506 0.358340 -0.237706 -0.346771 0.357294 0.047358 0.244253 0.051976 -0.067766 -0.012955 0.179085 -0.426194 -0.030070 0.276637 -0.009530 -0.267458 0.114831 -0.164116 
fact 0.080958 0.089587 0.206535 0.190795 -0.185534 -0.348855 -0.053541 -0.037085 -0.036372 -0.224189 0.239978 -0.119044 0.483340 -0.162894 0.077237 0.178289 0.133781 -0.292596 0.140819 0.275633 
resulting 0.230714 -0.006128 0.009054 -0.078142 -0.085883 -0.218661 0.032557 -0.210964 0.157751 -0.017634 0.037909 -0.017943 0.122408 -0.080166 0.215242 -0.002201 -0.140565 -0.297606 0.073550 0.178412 
part -0.369464 0.264092 -0.090298 0.365156 0.088614 0.105490 -0.204215 0.463783 0.041380 0.164857 -0.180327 -0.196524 0.204811 -0.148916 -0.152888 -0.221489 -0.357991 0.018904 -0.422030 0.138565 
selection 0.164760 0.312781 -0.051390 -0.325924 0.265306 -0.740188 0.058447 -0.098823 -0.430687 0.110859 0.311554 -0.044784 -0.143011 0.147438 0.032406 -0.540357 -0.136621 -0.364397 0.000765 -0.137395 
outputs 0.247012 0.207342 -0.206351 -0.160526 0.095534 0.036391 -0.051386 -0.488532 0.010534 0.320740 -0.470691 0.311225 0.410569 -0.293407 0.128470 0.326855 -0.579868 -0.204651 0.022751 0.083844 
objects -0.181927 -0.272114 0.002833 0.197558 0.495114 -0.061384 -0.382473 -0.126544 -0.147222 0.253701 0.074983 -0.221752 0.283608 -0.014765 -0.238732 0.087854 -0.403364 -0.812564 -0.664251 0.086240 
dynamic -0.187230 -0.251679 -0.300614 0.161852 0.607063 -0.615081 -0.263391 -0.330356 -0.237817 -0.106767 -0.263820 -0.162165 -0.401006 -0.050510 0.375502 0.108419 0.009808 -0.167191 0.079977 0.019230 
context -0.265365 0.330726 -0.186399 -0.210516 0.242371 -0.416416 0.022166 -0.056044 -0.109408 0.359493 -0.127139 -0.036268 0.378215 -0.129455 -0.153452 0.015343 -0.542602 -0.336772 -0.011371 -0.018454 
make -0.171764 0.188287 0.016967 0.287409 -0.055953 -0.478296 -0.245678 -0.052999 0.034359 -0.250572 0.140783 -0.340035 0.502927 -0.023322 -0.172232 0.167764 -0.048521 -0.345632 0.080291 0.038239 
being 0.082899 0.036473 -0.073773 -0.051807 -0.187165 -0.161569 -0.129563 -0.000124 -0.072139 -0.072203 -0.216053 -0.158251 0.224916 -0.136067 -0.113109 0.041969 -0.275314 -0.394601 -0.019159 0.167898 
word 0.017137 0.215917 0.063792 -0.446378 0.215205 -0.021083 0.299453 -0.153280 -0.006904 0.606184 -0.304737 -0.411866 0.306110 0.285131 -0.823871 0.079456 -0.770412 -0.134623 -0.227300 0.683176 
energy 0.484558 0.083105 -0.208499 0.492910 -0.026891 0.168879 -0.230559 0.065321 0.386798 -0.504384 -0.182030 -0.050057 0.344202 -0.244784 0.657897 0.029871 -0.157757 -0.216908 0.035657 -0.187268 
higher 0.285135 0.373467 -0.156559 -0.031004 -0.213746 -0.447233 -0.052809 0.248045 0.412386 0.303483 0.050102 -0.258567 0.695866 -0.260823 -0.108549 0.375532 0.099147 -0.232870 -0.155590 -0.132957 
representations -0.360607 -0.033567 -0.156354 -0.036677 0.366517 -0.464725 -0.096082 0.188040 -0.157243 0.458074 0.090308 -0.144941 0.478887 -0.090642 0.214273 -0.070500 -0.181166 -0.394260 -0.269000 -0.220127 
probabilities -0.283833 -0.207053 0.021297 -0.690563 0.016097 0.306706 -0.007584 -0.082560 0.042118 0.019903 -0.111429 -0.190008 0.892727 0.297777 0.112008 -0.089014 -0.535981 -0.233052 0.837585 0.282984 
rather 0.190077 0.163041 -0.314431 -0.296744 -0.416113 -0.510036 -0.358729 0.283774 0.243883 0.161476 0.440980 -0.393830 0.460119 -0.236824 -0.033726 0.302328 -0.023967 -0.259733 -0.007343 0.295658 
according 0.119723 -0.224519 0.044320 -0.270325 -0.381919 0.074153 0.256532 -0.061280 -0.265568 -0.155759 -0.177981 0.042088 0.338672 0.169366 0.048746 -0.389759 -0.552588 -0.489940 0.198504 0.144111 
dimension 0.831113 -0.049860 0.187882 -0.520722 -0.468541 -0.587568 -0.516578 0.334951 -0.090132 0.525931 0.166441 0.258871 0.490384 -0.280098 0.001731 -0.195481 0.462595 0.191605 -0.021721 0.117500 
words -0.186960 -0.191617 0.220367 -0.210895 -0.112090 0.091029 0.090980 -0.047275 -0.195112 0.604348 0.048314 -0.540377 0.539486 0.327356 -0.618165 0.314740 -0.557485 -0.309026 -0.161624 0.637355 
approximate 0.090705 0.049979 0.091235 -0.289226 0.108490 -0.324276 -0.391492 -0.129807 0.041983 -0.473190 0.414912 -0.351065 0.079716 0.094175 0.730883 0.007552 -0.061538 -0.148293 0.557337 0.021641 
activation 0.517646 0.159699 -0.317836 0.131121 -0.392913 -0.296642 -0.042504 -0.387574 -0.008351 0.108803 -0.655932 0.889008 0.359132 -0.131032 0.097142 0.345288 -0.491947 0.042959 0.230609 -0.116718 
factor 0.332352 0.050087 -0.008079 -0.149050 -0.279779 -0.347475 0.188316 0.090896 0.216062 0.145475 -0.018584 -0.312973 0.185666 -0.100593 0.521763 0.023464 0.060848 -0.165664 0.198187 0.202096 
region 0.563959 -0.414688 0.166390 0.156683 -0.291977 -0.151518 -0.324596 0.314180 0.395351 -0.088976 -0.013940 0.205999 0.041542 0.069504 -0.242864 0.178036 -0.130257 -0.532820 -0.203334 -0.028534 
length 0.503759 -0.343736 0.171440 -0.397098 -0.421076 -0.248201 0.110980 0.152232 0.159875 -0.115334 -0.166169 -0.056152 0.244991 0.041121 -0.068700 0.135732 -0.535337 -0.005512 -0.219665 0.341377 
ca 0.145451 -0.553699 1.164014 0.233880 0.784071 -0.166265 0.376771 1.292045 -0.182859 -0.321686 -0.967188 -0.112127 -0.261927 0.511860 -0.035023 0.114886 -0.088911 1.300182 0.272583 -0.766070 
represent 0.016240 -0.505038 0.079549 0.064851 -0.159713 -0.000360 -0.218849 -0.030451 -0.031037 0.321531 -0.176314 0.219464 0.565603 0.105115 0.199389 0.289417 -0.320687 -0.460650 -0.155333 0.134674 
negative 0.621174 -0.025223 0.082445 0.403971 -0.630628 0.082402 0.206697 -0.265766 -0.282181 -0.336043 -0.026703 -0.215690 0.523862 -0.108847 0.251818 0.193356 0.020240 -0.046594 -0.204122 0.484749 
sum 0.521353 0.082147 0.033124 0.028621 -0.449574 0.225605 0.113789 -0.217917 -0.174227 -0.115243 -0.201042 -0.029788 0.473818 0.243498 0.680640 0.162367 -0.415980 -0.160584 0.341401 0.042548 
total 0.664383 -0.072363 0.069057 -0.084578 -0.601022 0.033212 0.308991 -0.163270 0.025920 -0.070003 -0.269285 -0.165141 0.210114 -0.096665 -0.145018 0.249377 -0.684362 -0.088776 0.001999 -0.001275 
techniques -0.192446 0.250952 0.233181 -0.014268 0.428705 -0.562843 -0.170804 -0.127942 -0.136215 0.139276 0.438579 -0.523235 -0.318067 -0.335695 0.413963 0.044267 0.196460 -0.446460 0.065959 0.122955 
xt 0.214187 -0.017266 -0.802035 -0.271471 -0.505488 0.044478 0.110575 -0.024920 -0.159875 -0.369724 -0.973501 0.204586 0.049552 0.119030 0.528673 -0.752776 0.285037 -0.151658 0.770351 1.294645 
goal -0.192292 -0.005661 -0.051102 0.027672 0.038535 -0.575932 -0.208925 -0.073687 0.268385 -0.388577 0.040747 -0.313847 0.155113 0.361885 -0.281303 -0.437784 -0.368137 -0.404068 -0.004937 0.229692 
original 0.249941 0.212073 0.204053 -0.376811 -0.107501 -0.217883 -0.115880 0.003322 0.242918 0.146625 0.078202 -0.061540 0.042626 -0.039587 0.319529 -0.128570 -0.363971 -0.366723 -0.480495 0.476504 
times 0.237572 -0.313778 0.059642 -0.236261 -0.599188 -0.277133 0.480052 -0.027327 0.170428 -0.129384 -0.032287 -0.448575 -0.044527 -0.063160 -0.255581 0.448755 -0.350737 -0.077819 -0.022974 0.348999 
them -0.083333 -0.065695 0.200862 0.065460 -0.113604 -0.178884 -0.047273 -0.054588 -0.048024 -0.001360 0.155761 -0.382289 0.394816 0.076340 -0.007271 0.361283 -0.350051 -0.446987 -0.143945 0.211860 
need 0.086796 0.230630 0.012180 -0.028486 -0.210909 -0.260995 -0.269779 0.033569 -0.160692 -0.451926 0.125848 -0.279472 0.468101 0.052735 0.000174 0.185178 -0.174597 -0.337131 -0.056418 0.183219 
although -0.118038 0.081178 0.112976 0.165900 -0.063605 -0.392685 -0.031467 -0.045582 0.039239 -0.101034 0.321092 -0.075576 0.200000 -0.298272 0.013976 0.078960 0.030725 -0.337780 0.110235 0.146612 
pages 0.327580 -0.846361 0.022866 -0.110285 1.681300 0.001174 0.249464 0.432176 -0.979788 0.236495 -0.255317 -0.957955 -0.140930 0.681200 0.087051 -0.264827 0.342844 0.647805 -0.148934 -0.587611 
type -0.124321 0.200069 0.048643 -0.069934 0.153405 -0.213747 0.077597 -0.086500 -0.128130 0.055597 -0.019015 0.273840 0.279507 -0.036424 -0.044300 0.136204 -0.260186 -0.343419 0.133784 0.113454 
least 0.656335 -0.068225 0.171453 -0.126797 -0.284004 -0.229091 -0.275808 -0.134439 -0.051675 -0.317840 0.237221 -0.191315 0.062913 -0.045957 0.100889 0.016636 -0.147826 -0.327619 0.351341 0.087098 
required 0.127052 0.108870 -0.035126 -0.107501 -0.263139 -0.569155 -0.025115 -0.018118 0.071675 -0.338795 -0.033405 -0.251157 0.168576 -0.263496 -0.130910 0.409124 -0.295224 -0.065001 -0.169987 0.156071 
knowledge -0.430561 0.262208 0.034515 -0.068586 0.405358 -0.354033 -0.125167 0.066346 -0.164766 -0.172248 -0.306643 -0.676936 0.649282 -0.070627 -0.326289 -0.260525 -0.031838 -0.218072 -0.205003 0.126236 
finite -0.092882 -0.671033 0.009401 -0.527994 -0.410177 -0.517755 -0.425140 0.004247 -0.496134 -0.136249 -0.267655 0.146784 0.191266 -0.272411 0.042749 -0.229262 0.091958 0.386535 0.335923 0.615313 
circuit 0.198914 0.220487 0.125148 0.160190 0.285071 -0.392006 0.210237 0.011710 0.301661 -0.097370 -0.584842 0.924131 -0.595221 -0.367452 0.004389 0.800101 0.387724 -0.223773 -0.027580 0.425815 
regions 0.290094 -0.503066 0.135744 0.135430 -0.141222 -0.178524 -0.470219 0.156731 0.269564 0.152316 0.163300 0.004375 0.431311 0.048958 -0.309805 0.352131 -0.070717 -0.564990 -0.337743 0.057894 
adaptive -0.019488 0.171465 -0.480094 -0.066914 0.617523 -0.642162 0.029738 -0.016420 -0.127785 -0.065965 -0.024171 0.106652 -0.370036 -0.184025 0.569162 0.105340 -0.072378 0.313745 -0.035253 -0.076374 
four 0.093376 -0.557326 0.375103 -0.114645 0.076021 0.008860 0.158455 -0.247507 0.080170 0.329929 0.034645 0.235319 -0.053111 -0.285342 0.062453 0.273550 -0.791013 -0.261435 -0.326824 0.307799 
global 0.347183 0.229636 -0.044759 0.167938 0.069498 -0.522585 -0.193977 0.034361 0.180699 -0.124561 0.222804 0.010461 0.210446 0.130626 0.516970 -0.040632 -0.077209 -0.344902 -0.140829 -0.283377 
center 0.231792 -0.090356 0.428271 0.450785 -0.056214 0.129632 -0.331979 0.758563 0.429770 0.268469 -0.491165 0.244173 -0.327079 0.344918 -0.076150 -0.202251 -0.557176 -0.033096 -0.383753 -0.696947 
hence 0.501659 0.187038 -0.006341 0.121534 -0.451532 -0.001387 -0.085030 0.056187 -0.129171 -0.280071 -0.008862 -0.018593 0.433847 0.023064 -0.019336 0.066843 0.059259 -0.352135 0.140870 0.310364 
either 0.193550 0.000149 0.022370 0.057557 -0.352982 -0.211143 -0.048436 -0.063179 0.071988 -0.019094 -0.131021 -0.073859 0.281871 0.003080 0.084138 0.279340 -0.257855 -0.344448 -0.131273 0.182971 
applications -0.197116 -0.142144 0.141529 0.012158 0.715119 -0.562490 -0.490337 -0.045106 -0.442095 0.212475 -0.062780 -0.543116 -0.380796 -0.282879 -0.194199 0.039731 0.302205 -0.102646 -0.010469 -0.059236 
experimental -0.447950 -0.089047 0.764986 0.258977 0.307339 -0.365182 0.634620 0.171553 0.168455 -0.081965 0.371510 0.266174 -0.456775 -0.651081 -0.429857 -0.508858 -0.231252 -0.193382 0.139711 0.226418 
associated 0.148212 -0.249200 0.109014 -0.196516 -0.272501 -0.044791 -0.124798 -0.121416 -0.293185 0.132992 -0.223046 0.033610 0.430012 0.258512 0.051850 -0.084084 -0.239292 -0.519791 0.017569 0.025631 
minimum 0.981440 0.245429 0.111998 0.097068 -0.344710 -0.430712 -0.105770 -0.039591 0.191638 -0.673503 0.391323 -0.079063 0.415749 0.178248 0.356789 -0.049074 -0.212420 0.108824 -0.064983 -0.149063 
called 0.219960 0.037421 -0.135396 -0.084378 -0.038998 -0.214074 -0.199809 -0.029739 -0.310039 -0.130769 0.015989 0.197929 0.106648 0.125063 0.331403 -0.173481 -0.222315 -0.426529 0.011996 0.061548 
detection 0.320929 0.128344 0.035209 0.351556 0.904539 -0.277408 0.148656 -0.368265 0.483118 0.279877 -0.084490 -0.366661 -0.258787 -0.057107 -0.408697 -0.437649 -0.053737 -0.264671 -0.290499 -0.223441 
em -0.352272 0.311523 -0.092184 -0.660726 0.365906 0.072989 0.370633 0.228885 0.173580 -0.098204 0.812612 -0.636810 -0.166576 0.204723 1.065739 -0.102554 -0.451833 -0.298555 0.457334 0.057480 
potential 0.145780 -0.117628 0.219534 0.421133 -0.250986 -0.208848 0.259549 -0.198073 0.043158 -0.383091 -0.574788 0.177343 -0.177150 -0.003669 0.078097 0.363163 0.302231 -0.508048 0.435871 0.117998 
tasks -0.436468 0.138677 0.077023 0.426749 0.446117 -0.570063 -0.250726 -0.596167 -0.485587 0.279468 0.079491 -0.455130 -0.080174 -0.156080 -0.458312 0.104688 -0.246081 -0.254331 -0.146423 0.395936 
update 0.071011 0.416218 -0.471276 -0.213420 -0.217079 -0.149158 0.367112 -0.063540 -0.145086 -0.835500 -0.062797 -0.103684 0.006317 0.338904 0.649210 0.038361 -0.421167 -0.117180 0.311008 0.471030 
filter 0.426909 0.138507 -0.009476 -0.214419 0.136746 -0.087663 0.077319 -0.069575 0.570376 0.180917 -0.398512 0.031394 -0.442772 -0.335735 0.747239 0.167038 0.006866 -0.623912 -0.056485 0.160817 
related -0.230308 0.165975 0.274307 0.155353 -0.013660 -0.463503 0.145647 0.098801 0.011709 0.280564 0.048947 -0.061040 0.108557 -0.020918 0.140649 -0.184325 0.106712 -0.494623 0.105521 0.006232 
per 0.612565 0.037685 0.262723 -0.606570 -0.370182 -0.351634 0.483802 -0.028269 0.145903 0.153660 -0.384599 -0.144159 -0.083560 -0.057175 -0.290943 0.321699 -0.812222 -0.052909 -0.302870 0.075174 
another 0.114030 0.178588 0.101834 0.042893 -0.120702 -0.422544 -0.043777 -0.050836 0.049871 0.002711 0.012536 -0.073778 0.264237 0.038817 -0.186049 -0.029543 -0.240190 -0.346933 -0.151877 0.138241 
available -0.129590 0.045576 0.145413 -0.096786 0.004226 -0.312585 -0.055615 0.117460 -0.071228 -0.031514 -0.202088 -0.472783 -0.022539 -0.220290 -0.271850 0.049884 -0.197171 -0.220153 -0.206316 0.110595 
compared 0.208695 0.212545 0.154717 0.030116 -0.034133 -0.412907 0.369682 -0.439108 0.241429 0.272960 0.397843 -0.236877 -0.105255 -0.455399 0.027367 -0.048838 -0.445186 -0.140838 0.091561 0.066180 
correct 0.324670 0.051334 -0.033486 -0.047618 -0.076209 -0.141860 0.181749 -0.197963 0.321123 -0.005300 0.240986 -0.310344 0.403341 -0.074035 -0.576406 -0.137651 -0.717278 -0.161887 -0.009562 0.133997 
relative 0.520907 -0.005674 0.252493 0.342621 -0.250370 -0.177968 0.458063 -0.194066 0.361383 0.104477 -0.022221 -0.088491 0.371557 0.091972 -0.084504 -0.182237 -0.090405 -0.310812 0.011214 -0.180744 
respectively 0.411438 -0.214572 0.157175 -0.010921 -0.276965 0.274642 0.265111 -0.092668 -0.007969 0.139662 -0.211778 0.385169 0.188532 -0.197572 0.230281 -0.070240 -0.368185 -0.117245 0.192878 0.460201 
correlation 0.408290 0.023402 0.222374 0.320675 -0.153996 -0.025056 0.761124 -0.219621 0.175637 0.423926 -0.041038 -0.045432 0.401461 -0.122643 0.369603 0.003970 0.060073 -0.303493 -0.198886 -0.097042 
take -0.011779 0.205806 0.283236 -0.208413 -0.031360 -0.530150 -0.352384 0.174352 -0.121288 -0.466476 -0.354544 0.528411 0.416155 -0.162906 -0.030997 0.481943 -0.013453 -0.144567 -0.032412 0.317381 
long -0.166347 -0.043385 -0.128043 0.588916 -0.291301 -0.431527 0.526723 -0.092266 -0.065060 -0.153521 -0.284837 -0.201800 0.145473 0.006444 -0.114668 0.462040 -0.097138 -0.126083 -0.087585 0.036235 
inference -0.529264 -0.074491 0.158172 -0.423401 0.816318 -0.260926 -0.276253 0.119565 0.026638 -0.337631 0.315567 -0.565786 0.200824 -0.042420 0.497324 0.141986 -0.252808 -0.169418 0.602926 -0.258348 
often -0.047061 -0.066095 0.047427 0.126596 -0.050718 -0.440485 -0.275935 -0.160303 -0.067243 -0.087858 0.178443 -0.499163 0.185792 -0.194823 -0.144062 0.292225 -0.030629 -0.368193 0.154241 0.186761 
bounds 0.595093 0.203973 0.505233 -0.142761 -0.003100 -0.555598 -0.275157 0.042456 0.115905 0.007413 0.921523 0.203532 0.733839 -0.103661 -0.152742 -0.155996 0.274868 0.637540 0.868303 0.162855 
statistics 0.023864 -0.151867 0.329688 -0.186468 0.449767 -0.020383 -0.095738 0.392326 -0.058035 0.380349 -0.138564 -0.453384 -0.111939 -0.168434 0.379969 -0.513272 0.147880 -0.155753 0.393839 -0.584946 
accuracy 0.521800 0.318218 0.182675 0.014565 0.021524 -0.468882 0.323655 -0.377246 0.340792 0.254577 0.286766 -0.450854 0.088559 -0.477950 -0.529006 -0.146900 -0.378610 0.173149 -0.004435 0.104519 
errors 0.451948 -0.028418 0.076220 0.130194 -0.194694 -0.131779 0.495824 -0.501485 0.064886 0.074848 0.298114 -0.526893 0.258044 -0.471448 0.020104 0.106596 -0.566685 0.093345 0.062905 0.197168 
via 0.055985 0.083831 -0.027847 -0.124246 0.309904 -0.214861 0.031007 -0.022135 -0.023907 0.040777 0.060677 -0.127252 -0.145760 0.269140 0.705422 -0.103217 -0.213640 -0.168112 0.284305 -0.125805 
distributed -0.031002 -0.612192 -0.096567 -0.485534 -0.003550 -0.197392 0.207325 0.544659 -0.409941 0.157639 -0.687043 -0.114339 0.485903 -0.221562 0.381434 0.206221 -0.029880 -0.228385 -0.356594 -0.360721 
provide -0.127698 0.418865 0.306976 -0.024162 0.268589 -0.613967 -0.035174 0.056673 0.091425 -0.085525 0.164073 -0.060278 0.469672 -0.282933 -0.127619 0.004075 0.033222 -0.238156 -0.024018 -0.064054 
approaches -0.357313 0.141624 0.253555 0.007288 0.302058 -0.579227 -0.064258 -0.109608 -0.146451 0.120211 0.344323 -0.467105 0.039000 -0.404915 0.057543 -0.084463 -0.031889 -0.304191 0.193755 0.015544 
performed -0.094172 0.194386 0.179404 -0.226891 0.104904 -0.254639 0.269231 -0.177997 0.051724 -0.012374 0.132490 -0.292320 -0.398563 -0.477545 -0.035290 0.087045 -0.563487 -0.317841 -0.184593 0.279240 
rules -0.486827 0.347224 -0.045434 -0.077149 0.160364 -0.304528 0.256386 -0.042668 -0.472696 -0.171774 0.044753 0.024186 0.333309 0.194070 0.260464 0.154428 -0.314720 -0.126238 0.006410 0.141385 
elements 0.256332 -0.247898 0.270590 -0.130045 -0.104769 0.010224 0.016814 0.103729 -0.524213 -0.007402 -0.406959 0.079132 0.295409 0.122853 0.306259 0.309474 0.216645 -0.214394 -0.321541 0.297370 
gives 0.510170 0.380281 0.402422 -0.144508 -0.083804 0.019299 0.092021 0.136010 0.284663 -0.402952 0.159217 0.009230 0.371114 -0.200633 0.151011 -0.295793 -0.107336 -0.153871 0.312099 0.177030 
conditional -0.195822 -0.194710 0.341209 -0.578047 0.144134 0.390817 -0.128969 0.120797 0.067785 -0.088254 -0.221165 -0.149094 0.894242 0.043207 0.298858 -0.343292 -0.342550 -0.605459 1.008165 -0.089564 
whose 0.426101 -0.347390 0.106217 -0.214193 -0.355916 -0.111895 -0.163058 0.013799 -0.295318 0.135110 -0.339286 0.299398 0.397499 0.043665 0.292278 0.115286 -0.115281 -0.356794 -0.030870 0.173978 
sampling -0.289251 -0.264905 0.172480 -0.839289 -0.057475 -0.186738 0.071770 0.259836 0.245354 -0.247887 0.259582 -0.480980 -0.093728 -0.045871 0.614224 -0.005111 -0.373731 -0.540039 0.683010 0.022345 
cortex -0.185296 -0.487046 -0.647281 0.972608 0.720923 -0.198724 0.270342 0.701778 0.068296 0.526941 0.306629 0.971910 0.052629 0.302490 -0.554468 0.256627 0.251176 -1.078532 0.240727 -0.961053 
firing 0.442764 -0.119893 -0.178736 0.361563 -0.438304 -0.492898 1.285249 -0.035761 0.561484 0.199705 -0.631075 0.479893 0.366366 -0.118719 -0.150412 0.489893 0.392754 -0.200324 0.425760 -0.328328 
analog 0.291964 0.433858 -0.121076 -0.053535 0.854472 -0.660102 -0.164996 0.022627 0.107014 -0.094721 -0.908566 0.551079 -0.519766 -0.541865 -0.071920 0.898659 0.573936 0.292205 -0.270207 0.162668 
mapping 0.120804 0.167368 -0.416192 -0.069587 0.098342 -0.302961 -0.359869 -0.024134 -0.091692 0.277314 -0.286055 0.345165 0.229765 -0.002421 0.311451 -0.381360 -0.170929 -0.232338 -0.155393 0.229860 
probabilistic -0.674669 0.042635 0.112660 -0.252555 0.859450 -0.157983 -0.231996 0.264386 -0.284854 0.177828 0.108038 -0.273239 0.516813 0.094701 0.262075 -0.379093 -0.091393 -0.172494 0.337137 -0.191994 
multi 0.139519 0.323754 -0.029469 -0.310628 0.427543 -0.680184 -0.466594 -0.431729 -0.093151 0.494674 -0.303810 0.408003 -0.269510 -0.253473 -0.003733 -0.012544 -0.417100 0.082173 0.175036 0.197763 
changes 0.213186 -0.176451 -0.427199 0.551195 -0.257501 -0.427572 0.130088 0.012166 0.412960 -0.100102 -0.345754 -0.050662 0.175171 -0.137435 -0.011248 0.202759 0.014605 -0.492217 -0.135653 -0.127775 
rates 0.485258 0.207936 0.095335 0.130585 -0.218098 -0.465256 0.802929 -0.377908 0.306240 0.241743 -0.012685 -0.155648 0.166487 -0.500015 -0.289690 -0.019907 0.124905 0.160932 0.393737 0.055349 
covariance 0.269562 -0.158888 0.283449 -0.147044 -0.464569 0.524646 0.278416 0.238966 -0.461729 0.000400 -0.258862 -0.171345 0.600074 -0.534736 1.255043 -0.499469 0.307507 -0.305077 0.005354 0.413178 
efficient 0.028584 0.496515 -0.084773 -0.382128 0.392016 -0.779446 -0.318611 0.237938 -0.141434 -0.019547 0.557791 -0.411077 -0.176740 0.065004 0.249313 0.111979 0.230731 -0.175906 0.074588 -0.200878 
recurrent -0.329795 0.344302 -0.524942 -0.126004 0.711523 -0.512331 0.072732 -0.106237 -0.429522 0.000738 -0.063218 0.731902 0.246871 -0.623564 0.154574 0.710279 -0.460479 0.634638 0.129656 -0.124642 
equations -0.102739 0.048417 0.001608 0.222635 0.119870 0.115301 -0.039615 -0.001304 -0.182540 -0.858837 -0.193923 0.290550 -0.004896 -0.197123 0.841355 -0.055806 0.152033 -0.202037 0.384081 0.556256 
power 0.350959 0.162745 0.258170 0.149121 0.107899 -0.376420 -0.117125 -0.086286 0.459533 0.121200 -0.358555 -0.256586 -0.176893 -0.414960 -0.051283 0.298791 0.483712 0.012673 0.261888 0.149920 
proc 0.546486 -0.296971 -0.528991 -0.020154 1.915710 -0.096674 -0.407625 0.115332 -0.407405 0.575415 -0.432829 -0.431539 -0.018785 0.458128 -0.118093 -0.452370 0.508452 0.318422 0.101351 -0.135045 
made -0.067550 -0.014476 -0.043533 0.085546 -0.194905 -0.282518 -0.006239 -0.052603 -0.012182 -0.126649 0.042119 -0.219547 0.104923 -0.316439 -0.325295 0.064902 -0.312529 -0.279646 -0.066224 0.124970 
mit 0.281926 -0.919614 0.110638 0.295763 1.028266 0.278678 0.590703 0.609397 -1.707871 0.077708 0.074073 -1.125023 -0.775736 0.803211 0.372771 0.563398 0.371450 0.285544 0.185401 -1.532451 
estimates 0.287771 0.100589 0.049810 -0.167839 -0.003007 -0.197868 0.221363 -0.152709 0.317970 -0.360586 0.171190 -0.457787 0.449906 -0.255890 0.339407 -0.296249 -0.288706 -0.318500 0.312574 -0.150373 
contrast 0.253568 -0.129932 -0.048186 0.302412 -0.076048 -0.268781 0.282166 0.044202 0.673169 0.175936 0.234287 0.104910 0.157934 -0.344325 -0.092078 -0.017463 0.106166 -0.579133 0.084080 -0.370192 
proceedings 0.269073 -0.494920 -0.217970 0.390066 1.732789 -0.160111 -0.167879 -0.217306 -0.803318 0.346976 -0.406864 -0.825710 0.027687 0.421627 0.315967 -0.635633 -0.073319 0.855305 -0.077447 -0.019210 
what -0.124328 0.169319 -0.019159 0.220183 -0.096117 -0.465575 -0.126755 0.036613 -0.133029 -0.276443 0.093455 -0.067673 0.589622 0.074164 -0.324592 -0.121165 -0.124562 -0.321406 -0.064468 0.028207 
classifiers 0.473505 0.245103 0.178538 -0.289167 0.367512 -0.263623 0.078481 -0.788307 -0.620606 0.412117 0.625874 -0.248645 0.092884 -0.110237 -0.142850 -0.088385 -0.465968 0.038750 0.181329 0.047884 
active -0.004111 -0.214795 -0.086108 0.201749 -0.195427 -0.321571 0.227112 -0.125791 -0.200080 0.054403 -0.230175 0.161843 0.053665 0.119574 -0.185006 0.452013 -0.163259 -0.378246 -0.093660 -0.287914 
denote 0.495236 -0.386888 0.229078 -0.453887 -0.353010 0.405994 -0.121869 0.176229 -0.363299 -0.149639 -0.461586 0.391490 0.555060 0.315858 0.058186 -0.330342 -0.158573 -0.141769 0.141082 0.704191 
sequences -0.408203 -0.374053 -0.000985 -0.368413 0.080845 -0.201334 0.088851 -0.070727 -0.120980 0.131616 -0.288415 -0.218180 0.252603 0.020116 -0.279674 -0.022914 -0.454801 -0.365273 -0.111920 0.511219 
study -0.333395 0.218739 0.315859 0.319050 0.300906 -0.461338 0.221709 0.129996 -0.104249 0.050733 0.024758 0.200097 -0.154721 -0.329257 -0.315603 -0.304335 0.018263 -0.184557 0.167651 -0.164734 
reinforcement -0.733912 -0.413778 -0.951742 0.573968 0.186927 -0.914578 0.080837 -0.520311 -0.343741 -0.187929 -0.120794 -0.541757 -0.665470 0.481989 0.361139 -0.348429 -0.288359 0.470096 0.467118 0.118229 
application -0.146635 0.093061 0.162646 -0.062166 0.496955 -0.486210 -0.138192 -0.115577 -0.072526 0.044128 -0.018880 -0.272693 -0.150947 -0.089288 -0.111705 -0.391628 -0.032096 -0.041558 0.073741 0.118450 
specific -0.126913 0.064624 0.140613 0.102854 0.142865 -0.313874 -0.111929 -0.040681 -0.123479 0.184289 -0.036912 0.101376 0.378987 -0.044698 -0.231990 -0.147967 -0.076734 -0.599458 -0.185841 -0.057256 
computing 0.268244 0.054388 0.011160 -0.238852 0.287877 -0.259132 -0.333983 0.213172 -0.216196 -0.095451 -0.208625 -0.218198 -0.103657 0.214815 0.442031 -0.189258 0.006181 0.144208 0.186844 -0.354229 
instead 0.171394 0.293524 0.036767 -0.081633 -0.231808 -0.246590 -0.189090 -0.048755 -0.155183 -0.279375 -0.041935 -0.194398 0.346857 0.067551 0.348222 0.032307 -0.225754 -0.394335 0.033457 0.134095 
equal 0.629778 -0.160581 0.087199 -0.133581 -0.830434 0.204796 0.081164 0.173662 0.112778 -0.057847 -0.093436 -0.007660 0.502874 -0.081665 0.288791 0.266807 -0.089771 -0.266207 0.135307 0.268036 
represented 0.053809 -0.349297 0.100745 -0.140358 -0.071311 0.044589 -0.347820 0.034405 -0.069320 0.303963 -0.455380 0.312499 0.458048 0.032039 0.167062 -0.081397 -0.228248 -0.517493 -0.298911 0.201066 
location 0.308341 -0.228379 -0.256253 0.048491 0.028657 -0.158162 -0.008435 0.140340 0.601041 0.003233 -0.405675 0.164120 0.170911 0.196198 -0.410579 -0.328089 -0.474585 -0.823576 -0.473207 -0.228757 
experiment -0.207858 -0.117831 0.393468 0.179308 0.146233 -0.179956 0.691243 -0.106787 0.269124 0.037401 0.086762 0.062122 -0.223668 -0.448886 -0.398239 -0.204345 -0.737166 -0.252295 -0.203878 0.305865 
back 0.179631 0.275499 -0.773008 -0.224285 0.434593 -0.146551 -0.093759 0.081068 0.201500 -0.278354 0.033534 -0.173517 -0.151041 -0.259527 0.602358 0.470105 -0.966349 0.245976 -0.559389 0.052072 
joint 0.054919 -0.436452 0.024883 -0.437149 0.730676 0.322383 -0.199531 -0.103306 0.191394 -0.017039 -0.478945 -0.388761 0.786132 0.124551 0.483151 -0.498134 -0.254626 -0.263133 0.286502 -0.085694 
steps -0.060489 -0.265733 0.095490 -0.377250 -0.397173 -0.436545 0.295780 -0.011943 0.355551 -0.731403 -0.159234 -0.116776 -0.280467 0.096277 0.157795 0.328159 -0.595631 0.012869 0.014618 0.421819 
estimated 0.352477 -0.104571 0.108677 -0.307139 -0.094316 0.162279 0.242403 -0.222638 0.361583 -0.073881 -0.185361 -0.386890 0.343936 -0.355872 0.467586 -0.454535 -0.376961 -0.354167 0.193950 0.006773 
perform -0.059455 0.367726 -0.160159 -0.087911 0.222817 -0.578231 -0.087511 -0.323498 0.010310 -0.132364 0.232901 -0.348568 0.145572 -0.221973 0.164805 0.328440 -0.274452 -0.175853 -0.040162 0.158181 
uses -0.042016 0.391949 0.036646 -0.328324 0.230594 -0.499905 0.008463 -0.063811 0.069803 -0.070156 0.094818 0.089638 0.076666 0.042371 0.393069 -0.044810 -0.273219 -0.219579 -0.153183 0.188334 
parallel 0.057046 -0.206014 -0.220972 -0.176387 0.542348 -0.415761 0.106122 0.392630 -0.363043 -0.055481 -0.034915 0.029117 -0.113787 -0.003082 0.461784 0.445307 -0.099664 0.187000 -0.705703 -0.033015 
discrete -0.204370 -0.381075 0.007206 -0.546568 0.003864 -0.348020 -0.461121 -0.099107 -0.280096 0.122454 -0.457611 -0.034447 0.156152 -0.260155 0.454960 -0.056514 0.006185 -0.136629 0.372651 0.361560 
comparison 0.032466 0.011800 0.302822 0.025453 0.253418 -0.196869 0.556823 -0.313791 0.211253 0.272191 0.485093 -0.032850 -0.034385 -0.422716 0.116939 -0.183586 -0.408818 0.004762 0.245937 0.119835 
below 0.186355 0.201996 0.445433 -0.018356 -0.216089 -0.228194 0.419452 -0.050905 0.156497 -0.234183 0.048164 0.405891 -0.015566 -0.259201 -0.031308 0.061473 -0.121883 -0.160668 0.144908 0.405072 
allows -0.135115 0.410678 0.327863 -0.065690 0.123956 -0.507793 -0.338984 0.199743 0.099948 -0.137893 -0.273699 0.006541 0.515665 -0.025643 0.185296 -0.088663 0.003451 -0.420461 -0.012111 -0.022403 
responses 0.121131 -0.305335 -0.148439 0.528412 0.170557 -0.176291 0.606525 -0.003921 0.415873 0.551593 -0.132490 0.461076 -0.011464 -0.145277 -0.409261 0.134921 -0.018381 -0.773193 -0.007002 -0.420097 
version -0.022455 0.329633 0.048933 -0.222963 0.167875 -0.400827 -0.079767 0.190659 0.008897 -0.061352 0.297923 0.060959 -0.227257 -0.107694 0.359259 -0.260546 -0.207986 -0.042631 -0.050398 0.464518 
kernels 0.246852 -0.050406 0.405352 -0.200874 0.084045 -0.211368 -0.332294 -0.104348 -0.791803 0.322203 0.366912 -0.027074 -0.129385 -0.190543 0.476476 -0.259391 0.176929 -0.480862 -0.038375 0.291841 
larger 0.475458 0.069827 -0.082003 0.090923 -0.703230 -0.322402 0.002053 0.063959 0.211760 0.061623 0.394089 -0.374585 0.416195 -0.470989 -0.263478 0.529816 -0.011358 -0.176391 -0.069875 0.232242 
source 0.069273 0.260555 0.163424 -0.180957 0.370099 -0.116534 0.227526 0.186271 0.686891 0.503215 -0.667334 -0.048273 0.176583 0.152184 0.283578 0.272512 0.263963 -0.483409 -0.105429 0.347063 
fi 0.412359 -0.036293 -0.041081 0.098985 0.059447 0.478083 0.130374 0.144352 -0.260526 -0.084293 -0.095977 -0.089221 -0.006437 0.180707 0.083179 -0.531367 0.104913 -0.117799 0.505928 0.117940 
advances 0.472806 -0.634750 -0.389475 -1.243146 1.582161 -0.737909 1.095760 0.894696 -1.496147 -0.033138 0.082445 -0.847218 0.553096 0.190498 0.734973 0.313089 0.827759 0.946571 -0.949762 -0.517434 
conference 0.531452 -0.675181 -0.284555 0.496191 2.051898 -0.006577 -0.496461 -0.415498 -0.972977 0.526857 -0.831170 -0.872165 0.062642 0.544740 -0.031592 -0.582711 -0.099843 1.140974 -0.127730 -0.359298 
proof 0.348135 0.253375 0.403550 -0.231529 -0.116489 -0.152791 -0.307913 0.562766 -0.177702 -0.804844 0.509362 0.771842 0.275361 0.233589 -0.257012 -0.386267 0.485740 0.155346 0.346936 1.055107 
svm 0.825208 0.581929 0.312808 0.094971 -0.147103 -0.123670 0.081804 -0.643812 -0.503859 0.506027 0.955991 -0.242852 -0.476758 -0.468691 0.035938 -0.400074 -0.316582 -0.016923 -0.069154 0.681047 
modeling -0.555377 0.032004 0.027497 0.064373 0.829440 -0.276164 -0.105814 0.073972 -0.110170 0.287180 -0.279269 -0.279493 -0.005973 -0.400759 -0.035007 -0.177731 0.133705 -0.297997 0.245759 -0.241350 
along 0.408686 -0.656448 0.243689 0.112758 -0.362533 -0.124585 -0.023100 0.123046 0.484455 0.028268 -0.061560 0.066986 0.118373 -0.015400 0.505849 -0.036999 -0.376393 -0.312793 -0.511443 0.079894 
useful -0.293614 0.333279 0.010137 0.228391 0.076430 -0.497238 -0.353718 0.314033 -0.104393 0.185841 0.176171 -0.445994 0.432841 -0.343567 -0.225628 0.017850 0.151625 -0.183613 -0.116865 0.169511 
