739 20
article -0.078582 0.508590 0.324296 -0.080860 0.100762 0.080434 0.454424 0.039754 -0.751700 -0.288923 -0.026971 0.222273 -0.591528 -0.975025 -0.195853 0.467591 0.000373 -0.000464 0.357406 0.400394 
like -0.056032 -0.078069 -0.059335 -0.214181 0.246245 0.065665 0.090891 0.044714 0.187737 0.198637 0.032238 0.081862 -0.321579 -0.285834 -0.119969 0.613250 0.022878 0.167448 -0.067961 0.022320 
more -0.114478 0.168752 -0.077434 -0.020763 0.055394 0.160922 -0.064878 0.023296 0.423395 0.198623 -0.015354 0.126342 0.179605 -0.019580 -0.205934 0.430392 -0.017299 0.072525 0.040339 0.237110 
their -0.121206 -0.192225 0.076085 0.081087 -0.092868 0.165618 0.083964 0.052307 0.302485 0.088144 0.254860 0.046922 0.181348 -0.033081 -0.229486 0.552472 -0.167250 0.289787 -0.183168 -0.383730 
its -0.013309 0.053764 -0.065575 0.241293 0.063383 0.037152 0.174139 0.058981 0.261052 0.261982 -0.100143 0.150487 -0.123038 -0.256054 0.369537 0.295390 -0.048582 0.137199 -0.186696 -0.028314 
than 0.108728 0.173198 -0.155915 0.038189 0.036686 0.241309 0.006538 0.067817 0.708524 0.459061 -0.139997 0.127396 -0.095147 -0.233935 -0.105506 0.371533 -0.359354 0.265994 -0.208480 0.075806 
up -0.125475 0.120321 -0.130786 -0.075164 0.165390 0.170286 -0.011531 0.031860 0.383160 0.184294 0.102823 0.130230 -0.177408 -0.459063 -0.291421 0.120563 -0.069580 -0.182926 -0.355693 0.286293 
people 0.159031 -0.121753 -0.175327 0.352825 -0.313949 0.255617 -0.029278 0.147688 0.282424 0.454289 0.320341 0.098087 -0.225976 0.118294 0.276382 0.628186 -0.498279 -0.025287 -0.191862 -0.203423 
think -0.086465 0.180674 -0.131946 0.138854 0.040962 0.093422 0.031082 0.060391 0.121467 0.049073 -0.101905 -0.157755 -0.191698 -0.356635 0.211403 0.312282 -0.388093 -0.052622 -0.341663 -0.014880 
other -0.161535 -0.204576 -0.105701 -0.024210 -0.053411 0.227016 0.048573 0.213831 0.563321 0.103936 0.075854 0.325933 -0.132920 -0.120209 -0.121475 0.452919 -0.367929 0.400181 -0.116825 0.001913 
had -0.485134 -0.158596 -0.433796 0.002327 -0.048446 0.192448 -0.063791 0.013611 0.128063 0.114196 0.110708 0.220605 -0.380597 -0.141029 0.250676 0.101302 0.045691 -0.196917 -0.068469 0.282365 
been -0.267395 -0.204337 -0.163541 -0.111180 -0.120155 0.234632 0.088917 -0.102645 0.278935 -0.022023 0.151423 0.080302 -0.249422 -0.241974 0.007593 0.060423 0.098737 -0.182870 -0.109055 -0.027630 
time -0.081371 -0.477387 -0.019505 -0.178585 0.052908 -0.081390 -0.305135 0.054986 0.375317 -0.147121 -0.017999 0.195529 0.019643 -0.290095 -0.070063 -0.183960 -0.111217 -0.530346 -0.508225 -0.054965 
well 0.121673 0.168138 0.033795 -0.124936 0.017199 0.158514 -0.123996 0.105947 0.190326 0.170989 0.202700 0.262673 -0.093405 -0.429649 0.028977 0.294894 -0.280135 -0.061165 -0.222249 0.070730 
good 0.050677 0.108977 -0.252737 -0.056048 0.068816 0.162879 -0.008473 -0.288091 0.094856 0.094776 0.187238 0.370712 -0.400761 -0.394460 0.009979 -0.068390 -0.013248 0.028293 0.101001 0.019411 
im 0.047112 0.179128 -0.182560 0.108107 0.099930 0.061684 0.179390 -0.065090 0.018610 0.099180 0.036317 0.148066 -0.515634 -0.361526 -0.012286 0.437113 -0.428404 -0.323066 -0.253233 0.167957 
new -0.076507 0.004590 -0.350820 0.024577 0.236404 0.045095 0.452827 0.121961 0.032538 0.130578 0.245576 0.109409 -0.245328 -0.801100 0.193065 -0.002072 0.446510 0.115389 0.203703 0.155700 
these -0.050117 -0.037424 0.156436 -0.111395 -0.038727 0.106062 0.193369 0.040264 0.278730 0.135029 0.156377 0.057310 -0.094102 0.052779 0.156186 0.459940 -0.043420 0.186203 0.045721 0.046936 
because -0.019725 -0.101917 -0.181003 0.161449 -0.055055 0.151912 -0.147538 0.114169 0.401726 0.290910 0.393825 0.283001 -0.158935 -0.001939 0.043002 0.408424 -0.100397 -0.106833 -0.253432 -0.154241 
now -0.041923 -0.213971 -0.194186 -0.105066 -0.027182 -0.031143 -0.103583 -0.004452 -0.005226 -0.017596 0.006555 0.092228 -0.021212 -0.275586 0.052660 0.093776 -0.217108 -0.557858 -0.233482 0.139664 
even -0.001484 -0.101536 -0.167331 0.065410 0.065439 0.285278 0.212637 -0.006782 0.401781 0.172239 -0.109990 0.101070 -0.313272 -0.260110 0.298289 0.184656 -0.197594 0.014452 -0.113230 0.339863 
see 0.291633 -0.153794 -0.270915 -0.018081 0.178198 -0.097193 -0.061444 0.079984 0.278288 -0.017995 0.136831 0.170622 -0.150398 -0.271499 -0.037314 0.235723 -0.093222 0.145310 -0.096536 -0.185331 
use -0.219843 0.003334 -0.092931 -0.066218 0.334180 0.010591 0.029896 -0.124304 0.365712 0.236179 -0.222076 0.384124 -0.323195 -0.369536 -0.177318 0.359658 -0.037377 -0.211388 -0.239486 0.052266 
much 0.134923 0.170302 -0.342692 -0.183027 0.187056 0.101760 0.035002 0.135539 0.281591 0.376813 0.211094 0.149991 -0.201654 -0.157476 -0.000602 0.306448 -0.095467 -0.188793 -0.136340 0.184091 
could 0.105407 0.186357 0.010497 -0.023017 0.099500 0.139735 0.066606 0.102434 0.153811 0.375170 0.145390 0.109944 -0.185131 -0.420992 -0.001690 0.413541 -0.417983 -0.047847 -0.229644 0.200513 
many -0.074313 0.068788 -0.322963 -0.020713 -0.196910 0.102828 -0.077623 0.148805 0.250192 0.043266 0.178160 0.260849 0.098903 -0.057732 -0.187092 0.328594 -0.277820 0.069875 -0.097713 -0.090178 
may -0.055753 -0.004316 0.140718 0.079750 0.139169 0.169148 0.188323 -0.168892 0.160962 0.330395 0.222107 0.379954 -0.265835 -0.550429 -0.070850 0.289368 0.040601 -0.090680 -0.496437 0.107122 
should 0.158894 0.252532 -0.142482 0.208635 0.135161 0.099622 0.046132 0.020116 0.458752 0.162339 0.083046 0.261647 -0.264098 -0.190567 0.288373 0.223985 -0.194539 -0.082929 -0.362340 -0.050784 
make -0.067463 0.029871 0.166111 0.267693 -0.144009 0.166809 0.136414 -0.046712 0.336560 0.513856 0.257410 0.346928 -0.117388 -0.323653 0.313210 0.371399 -0.539235 -0.119845 -0.127979 -0.015539 
most 0.042801 -0.015591 0.071196 -0.147614 -0.061519 0.010050 -0.038074 0.202156 0.115507 0.124048 0.286349 0.234638 -0.059002 -0.065726 0.174246 0.249225 -0.362485 0.149426 -0.195819 0.076302 
those -0.076466 -0.140060 0.109056 -0.036188 -0.199392 0.082508 0.055505 -0.131612 0.336881 -0.081294 0.158637 0.152232 -0.129654 -0.179674 -0.139076 0.374589 -0.165755 0.246267 -0.363143 -0.070034 
way -0.074271 0.003252 -0.103858 -0.100215 -0.017583 -0.142841 0.098845 0.077463 0.096071 -0.015471 0.101335 0.141462 -0.107244 -0.510104 0.080031 0.101233 -0.219198 -0.159609 -0.199659 0.142816 
first -0.530643 -0.118577 -0.555587 -0.175980 0.308041 -0.185025 0.073045 0.303249 -0.190094 0.209795 0.880110 -0.494066 0.205894 -0.360933 0.364481 -0.300740 0.548797 0.303529 0.152432 -0.316164 
us -0.000945 -0.374276 0.072606 -0.041460 -0.144999 0.167870 0.127415 0.081181 0.324804 -0.041358 0.277506 0.062487 0.001803 -0.370908 -0.009914 0.362861 0.007525 0.268059 -0.085393 0.053169 
god 0.632732 -0.126771 -0.379753 0.308402 -0.306665 -0.390154 -0.402680 -0.081229 0.083186 0.103162 0.262803 1.013928 -0.108849 -0.368027 0.772749 -0.094365 -0.769047 1.048261 -0.332881 0.245952 
into -0.070938 0.056089 -0.209439 -0.197085 -0.156162 0.002017 0.117399 0.072967 0.113709 0.293720 -0.021315 0.021809 0.024399 -0.421406 -0.287824 0.039514 0.133265 -0.168643 -0.143679 0.269212 
windows -0.283535 0.234416 0.256053 -0.381023 0.526865 -0.430853 -0.466495 -0.166930 0.079769 -0.018269 -0.310046 0.683976 -0.395778 -1.032570 -0.245682 0.130522 0.339870 -0.271700 -0.111298 0.330696 
over -0.376088 -0.145630 0.088612 -0.194919 0.183388 -0.189209 -0.051916 0.056653 0.371404 0.220263 -0.021502 0.015695 -0.155563 -0.139514 0.141938 0.409034 -0.090611 -0.042557 -0.204833 -0.020149 
say 0.445628 0.277256 -0.337245 0.402112 -0.132011 0.241068 0.085005 0.039560 0.354837 -0.100999 0.307947 0.295155 -0.183006 -0.031137 0.579871 0.214173 -0.572752 0.322046 -0.071525 -0.007832 
right 0.124090 0.057663 -0.096622 0.282242 -0.180470 0.024568 0.036057 0.134653 0.184880 0.630762 0.279569 0.206351 -0.157668 0.044208 0.482654 0.433411 -0.440974 -0.183119 -0.339969 -0.035537 
go 0.342804 -0.158879 -0.273668 -0.490025 -0.063738 -0.276167 -0.058781 -0.212062 -0.092825 -0.004671 -0.189354 -0.725938 0.049070 -0.389725 0.014841 0.299736 -0.631013 -0.034535 -0.232362 -0.061048 
year -0.123639 -0.320942 -0.343824 -0.212007 -0.289077 0.131650 -0.220687 0.096614 0.245627 -0.109100 0.727292 -0.191354 0.184405 -0.308296 -0.293934 0.091118 0.048318 -0.391935 0.201659 0.160997 
same -0.193177 0.006475 0.194899 -0.207445 0.201676 0.066261 -0.192385 -0.185946 0.588445 0.440393 0.056723 0.223646 -0.113746 -0.207095 -0.127522 0.210745 -0.172394 -0.072995 -0.298192 0.365116 
being 0.009510 0.184406 -0.150332 0.055756 -0.279073 0.193003 0.086245 -0.004941 0.359061 0.025579 0.230203 0.386578 -0.009648 -0.399839 0.180373 0.151275 -0.442609 0.250984 -0.261773 -0.029120 
two -0.278081 -0.141694 -0.438502 -0.091890 -0.220044 -0.171825 0.054553 -0.063599 0.113040 -0.127234 0.041685 0.138771 0.081828 -0.239047 -0.057741 0.259449 0.012001 -0.233545 -0.013565 0.214903 
believe 0.395865 0.432429 -0.224422 0.219368 -0.160829 0.159751 -0.230116 0.105879 0.040097 0.061186 0.417159 0.533199 -0.199489 -0.337134 0.572448 0.260734 -0.604192 0.212598 -0.152714 0.129241 
gun -0.168431 -0.039411 0.540468 -0.278592 -0.416923 0.597944 0.306857 0.560517 -0.216678 0.518366 -0.134352 0.031045 -0.160503 -0.168250 -0.296223 0.828721 -0.781296 -0.018080 0.143046 -0.050750 
did -0.025685 0.077979 -0.167743 -0.079219 0.037552 -0.051611 -0.200196 0.012920 0.056016 0.022503 0.096724 0.010532 0.101426 -0.296157 0.161852 0.172446 -0.266764 -0.130551 -0.014688 -0.043628 
here 0.134077 0.267142 -0.100946 -0.227316 -0.049538 0.028979 0.251152 0.099422 0.239765 -0.135865 0.023672 0.299187 -0.114055 -0.185022 0.061465 0.188785 -0.002721 0.088293 -0.372983 0.014290 
really -0.005850 0.006443 0.180257 0.111015 -0.243456 0.047678 0.192776 0.097102 0.211587 -0.063913 0.000540 0.146640 -0.118865 -0.289851 0.165730 0.362048 -0.276595 0.057356 -0.051193 0.006926 
after -0.197650 -0.149131 -0.221060 0.049675 -0.222519 0.101879 -0.111479 0.219877 0.290377 -0.270132 0.513489 0.171213 0.059173 -0.452240 -0.088629 0.071823 -0.116677 -0.333968 -0.178531 -0.159265 
such 0.228624 -0.223186 -0.124732 0.061360 -0.327983 0.353145 0.036111 -0.091920 0.450734 0.351699 0.149996 0.387771 -0.108779 -0.429479 0.212585 0.505355 -0.270085 0.177396 -0.113068 0.046039 
better 0.019351 0.124804 -0.365197 0.061460 -0.146598 -0.170508 0.013214 0.103933 0.552576 0.270226 0.334628 -0.033640 0.092358 -0.011377 0.007229 0.320741 -0.261864 -0.077985 -0.259578 0.009679 
want 0.084084 -0.097769 0.177137 -0.202563 0.321015 -0.110948 -0.146311 -0.204104 0.496467 0.100794 -0.122392 0.297887 -0.171578 -0.438039 0.111140 0.254264 -0.219044 -0.068534 -0.195681 0.128571 
still -0.232437 -0.046052 -0.234646 0.067185 -0.070682 0.054485 0.235107 0.066820 0.018114 -0.121230 0.221060 -0.063382 -0.214363 -0.321079 0.247225 0.159848 -0.249162 -0.192610 -0.354996 -0.003720 
problem -0.297431 0.072606 -0.248126 0.130775 0.316089 0.285820 -0.149368 -0.081991 0.311047 0.305862 -0.273592 0.506871 -0.479336 -0.559717 0.011489 0.329024 0.162227 -0.256803 -0.171586 0.184064 
something -0.227075 -0.163465 -0.047041 -0.260107 0.257105 -0.118439 -0.087981 0.035007 0.288501 0.300250 -0.230896 0.210209 0.085335 -0.425033 0.140404 0.334244 -0.021135 0.076778 -0.236996 0.306179 
him -0.062392 -0.196621 -0.183283 -0.275606 -0.143238 -0.091842 -0.086982 -0.129331 0.174459 0.206446 0.216218 -0.163797 0.042535 -0.179553 0.173905 0.458140 -0.275417 -0.174086 -0.012993 0.064710 
last -0.305424 -0.151118 -0.196902 -0.491858 -0.029911 -0.267947 -0.187316 -0.062736 0.079995 -0.359038 0.445813 -0.258786 0.062602 -0.331216 -0.130848 0.169702 -0.090027 -0.366740 -0.060676 -0.273639 
said -0.090049 -0.115393 -0.219672 0.175083 -0.207547 -0.088433 -0.199571 -0.052593 0.398140 -0.189283 0.143904 0.339399 -0.052459 -0.367163 0.122876 -0.089524 -0.290497 0.086335 -0.407469 -0.039933 
going -0.403015 0.062629 -0.019603 -0.152347 0.118952 0.108548 -0.267650 -0.036669 0.044394 0.391224 0.278106 0.154636 -0.343748 -0.064963 0.038088 0.192519 -0.016803 -0.225605 -0.225283 0.122403 
never -0.270580 -0.262754 -0.069018 0.043868 0.078031 0.063223 0.603482 -0.055342 0.481462 -0.084247 -0.382849 0.170905 -0.425577 -0.252844 0.431860 -0.071176 -0.310742 -0.263696 -0.684778 -0.181296 
our -0.231834 -0.376136 -0.057403 0.175968 -0.060964 0.207292 0.011358 -0.189536 0.308901 -0.160791 -0.039186 0.183704 -0.212446 -0.182041 0.295636 0.414666 0.047481 0.183212 -0.022380 -0.275602 
work -0.276401 -0.185766 -0.143115 0.183331 0.095106 0.204579 0.229235 -0.264302 0.538323 0.304521 -0.234583 0.135724 -0.070684 -0.334056 -0.136794 0.069694 0.273398 -0.144557 -0.247117 -0.003300 
used -0.170641 -0.052578 0.148549 -0.198758 0.257027 0.046602 0.059161 -0.127413 0.264976 -0.055759 0.089018 0.365491 -0.078908 -0.375076 0.059681 -0.220343 -0.081455 -0.197453 -0.280640 0.235523 
car 0.081898 0.015441 -0.377508 -0.081964 -0.191679 0.157165 0.286758 -0.007525 0.256615 -0.326500 0.134443 0.412207 -0.377261 -0.386838 0.076498 -0.245585 0.114444 -0.327545 -0.154357 0.491100 
off -0.122139 -0.233682 -0.241823 -0.093123 -0.092840 -0.122812 0.173960 0.167409 0.314075 -0.243016 0.316510 0.053509 -0.002940 -0.086071 0.129003 0.020066 -0.022859 -0.085968 -0.232783 0.205476 
things 0.324261 -0.261561 -0.096228 -0.045452 0.049009 0.106659 0.003500 0.044269 0.394994 0.193519 0.033436 0.335769 -0.121578 -0.217766 0.122907 -0.086561 -0.161270 0.089974 0.053432 0.300935 
point 0.090799 0.066745 -0.156227 0.048012 -0.037196 -0.026974 0.065031 -0.051659 0.197298 0.085840 -0.018290 0.365943 0.053082 -0.233224 0.127374 0.193427 -0.346012 0.093176 -0.294358 -0.048599 
years -0.132874 -0.314933 -0.711922 -0.201644 -0.500491 -0.010474 -0.158479 0.084417 0.085359 -0.185373 0.586793 -0.124372 0.339733 -0.359854 -0.053860 -0.136554 -0.042305 -0.279207 0.030974 0.034350 
take -0.290338 -0.039011 -0.134677 0.084773 -0.489651 0.125638 0.019935 -0.092950 0.145612 0.196148 0.214998 0.173321 -0.160113 -0.228330 0.209801 0.319473 -0.380737 -0.048620 -0.167423 -0.040003 
back -0.102131 -0.148444 -0.280164 -0.241465 -0.041546 -0.096866 0.218857 0.187856 -0.013945 -0.112187 0.300861 -0.291212 -0.110559 -0.176263 0.009470 0.036541 -0.010008 -0.492045 -0.120343 0.008609 
space 0.004837 -0.373933 0.270718 -0.106371 0.116542 -0.370244 -0.117849 -0.257098 0.088406 -0.385245 -0.170884 -0.189103 0.478729 -0.487982 -0.490112 0.068594 0.548073 0.281842 -0.279027 -0.207301 
cant -0.019130 -0.043808 0.062448 0.057549 0.024390 0.053536 0.128995 -0.038979 0.023372 0.300036 -0.071578 -0.048619 0.000301 -0.215849 -0.058876 0.274845 -0.043762 -0.224224 -0.183336 0.247004 
might -0.224789 0.168590 0.138730 -0.033531 -0.161664 0.180378 0.339726 -0.072594 0.200318 0.106290 0.136638 -0.108601 -0.237723 -0.321091 -0.086111 0.344447 -0.047332 -0.016557 -0.091609 0.088757 
question 0.069071 0.091805 -0.046503 -0.154271 -0.015931 -0.046480 -0.058326 -0.043219 0.119665 -0.066568 0.067722 -0.146147 -0.053216 -0.569531 -0.095997 0.268722 -0.242063 0.061250 -0.341118 0.054005 
ive -0.506680 0.090700 -0.331897 -0.145526 0.281253 -0.100013 -0.248492 -0.283506 0.501295 0.072394 -0.226459 0.487883 -0.419890 -0.234807 -0.004804 -0.141205 -0.110593 -0.328204 -0.154614 0.308995 
while -0.227244 -0.093321 -0.349025 0.021994 -0.155731 0.033684 -0.052854 -0.038629 0.281604 0.048570 0.141608 0.128516 -0.145185 -0.109249 -0.040788 0.339622 -0.171216 -0.261571 -0.339288 0.089759 
own 0.172428 -0.243341 -0.109825 0.058729 0.100534 0.296768 0.077017 -0.062282 0.560345 0.278034 -0.042266 0.112343 -0.187202 -0.279900 -0.034926 0.317467 -0.219725 0.075122 -0.350016 0.031082 
system -0.011114 0.013755 -0.162209 0.194702 -0.091917 0.160281 0.028991 -0.092718 0.256199 0.355436 -0.211931 0.390870 -0.295699 -0.435015 0.074088 0.004373 0.156544 0.020466 -0.311162 0.230119 
both 0.135917 -0.248527 -0.258497 -0.213278 0.225230 -0.067763 -0.145492 -0.077249 0.346679 0.205559 0.009122 0.474635 -0.082625 -0.478576 -0.140453 0.142467 0.226545 0.161148 -0.123767 0.264479 
sure -0.225399 0.215056 0.160280 0.025643 0.275884 0.263247 0.020837 0.093502 0.147170 0.487878 -0.070302 -0.002748 -0.371822 -0.285086 0.257021 -0.021407 -0.069866 -0.358424 -0.244218 0.251176 
world -0.008428 -0.093394 -0.015845 0.121341 -0.128548 0.070458 -0.056673 0.048502 0.205043 -0.268710 0.267318 0.025982 -0.006312 -0.065839 -0.046053 0.621284 0.237092 -0.077786 -0.001003 -0.154398 
help 0.092455 -0.184161 0.233015 -0.248147 0.233660 -0.101593 0.154831 -0.093542 0.006155 0.080289 -0.240661 0.274888 -0.372636 -0.534789 0.088146 0.182739 -0.129808 -0.304872 -0.096587 0.294469 
using -0.029094 -0.062719 0.157324 -0.006699 0.526535 0.048577 -0.194932 0.032409 0.293218 0.471766 -0.046256 0.228901 -0.120974 -0.481111 -0.345597 0.245846 0.025501 -0.197787 0.129915 0.174463 
day -0.045855 -0.159845 -0.140376 0.204676 -0.002848 -0.002544 0.156543 -0.009948 0.045747 -0.078174 0.214818 -0.174974 -0.033116 -0.085715 0.346185 -0.195283 -0.216440 -0.441919 -0.581960 -0.269114 
john 0.124411 0.231932 -0.163518 -0.171914 -0.334049 0.096439 0.521256 0.173902 -0.135789 -0.287676 0.019822 0.004875 -0.235364 -0.556576 -0.085965 0.385910 0.048558 -0.130597 -0.013134 0.228421 
got -0.192906 -0.073409 -0.004307 -0.383731 0.031916 0.006740 0.010836 0.045393 0.237183 0.164721 0.015277 0.116837 0.044134 -0.397385 0.008227 -0.035075 0.057658 -0.097811 -0.501793 0.141462 
find 0.161820 0.071638 0.174775 -0.440600 0.271505 -0.097637 -0.088487 -0.233649 0.407654 0.392155 -0.371107 0.162734 -0.070319 -0.312510 0.227581 0.193629 -0.019265 -0.191223 -0.359493 0.322609 
doesnt -0.152390 0.028225 -0.123523 -0.088849 -0.153128 0.108937 -0.010925 -0.025536 0.275153 0.544626 -0.021594 0.209603 -0.124187 -0.190814 0.056901 0.303585 -0.289535 0.158530 -0.307777 0.174544 
thats 0.158274 0.130268 -0.195777 -0.032227 -0.095169 0.169780 -0.109033 0.047092 0.146534 0.214464 0.028829 -0.102975 0.018582 -0.005237 -0.134046 0.193715 -0.257102 0.128182 -0.069470 0.164362 
lot -0.165408 -0.001363 -0.059681 -0.240331 -0.011735 -0.091334 0.057431 -0.138356 0.197080 0.063066 0.108962 -0.061311 -0.096388 -0.286693 -0.166290 -0.177144 -0.127301 -0.382914 -0.234066 0.187229 
thing -0.114160 0.165116 -0.291534 -0.082675 -0.027643 0.172721 0.000816 0.047611 0.632027 0.194622 0.290215 -0.023545 -0.061555 -0.265256 0.275941 0.137806 -0.183300 -0.037028 -0.385775 0.175631 
mail 0.203500 -0.372559 0.524568 -0.500097 0.142718 -0.287595 0.484853 -0.318694 0.000834 0.071083 -0.520123 0.193552 0.005998 -0.437231 0.317420 0.145525 0.494890 0.041697 -0.359890 0.128902 
team -0.310647 0.129237 -0.174505 -0.524010 0.065978 -0.120881 -0.125981 -0.014055 0.248795 -0.512124 0.243067 -0.897843 0.056724 -0.242462 -0.033729 0.213239 -0.057786 0.193245 0.067117 -0.217067 
best -0.032105 0.076734 0.028483 -0.478025 0.179883 -0.120403 -0.279243 -0.258029 0.245614 0.080901 0.009632 -0.145320 -0.067744 -0.179710 0.080275 -0.088281 -0.027419 -0.123621 -0.178640 0.267082 
anything 0.087233 -0.094210 -0.108825 0.149729 0.155466 -0.037734 -0.007381 0.081627 0.424525 0.136179 -0.219019 0.111224 -0.196819 -0.154734 0.210409 0.302907 -0.286937 -0.035107 -0.099356 -0.029351 
name -0.014818 -0.104982 0.229120 -0.371717 0.389736 -0.242790 0.397441 -0.271362 0.207298 0.105708 -0.076927 -0.027364 -0.120207 -0.612067 0.167130 0.108151 0.189521 -0.161596 -0.393333 0.146552 
long -0.041616 -0.076633 -0.113815 0.003575 -0.185332 -0.111930 -0.113321 0.063178 0.104924 -0.297814 0.168013 0.337895 -0.160735 -0.531759 0.042798 -0.119522 -0.218713 0.072255 -0.370807 0.120330 
every -0.408665 -0.505454 -0.216503 -0.005422 -0.222843 -0.372904 0.106977 0.051861 0.207248 -0.118204 0.276479 0.153858 0.187247 -0.308906 0.081426 -0.021712 -0.021751 -0.562062 -0.728762 -0.091400 
before -0.454932 -0.123759 -0.226419 -0.111174 -0.018339 0.068738 0.189676 -0.011066 0.354616 -0.154498 0.124975 0.184679 -0.187590 -0.468682 0.029868 0.009773 -0.039146 -0.128088 -0.512018 0.068648 
few -0.298439 -0.229010 -0.245055 -0.305404 -0.144118 -0.009538 -0.163237 0.108802 0.202695 0.056836 0.116973 0.103455 0.064540 -0.389670 -0.100587 0.146576 -0.218521 -0.179300 -0.026621 0.129542 
made -0.016884 -0.086931 -0.174195 -0.156659 -0.137031 0.057495 0.059054 -0.019976 0.233487 0.002554 0.339218 -0.204104 -0.031658 -0.286548 -0.064456 0.340352 -0.288768 -0.003463 -0.331490 -0.025700 
another -0.059424 0.026097 -0.177349 -0.069059 0.079076 -0.195120 -0.043363 -0.013810 0.238532 -0.104611 0.195971 0.106589 -0.161810 -0.388128 0.018453 0.235142 -0.265565 -0.402582 -0.345510 0.226732 
without -0.048255 0.114287 -0.114929 0.256831 -0.145506 0.074922 0.066048 -0.134772 0.397520 0.152674 0.152522 0.185002 -0.164076 -0.212914 0.188467 0.023793 -0.214041 0.048310 -0.494434 -0.090216 
didnt -0.096205 0.046284 -0.311032 -0.021166 -0.090945 -0.088390 0.038893 -0.096489 0.360447 -0.027652 0.229277 -0.007341 0.030983 -0.234242 0.081860 0.064492 -0.151121 -0.404045 -0.357496 -0.027977 
real 0.099724 -0.035602 0.137278 0.209764 0.170483 0.276869 -0.127232 -0.089556 0.249941 -0.201718 -0.116090 0.334903 -0.249197 -0.485260 -0.072850 0.262668 0.272826 -0.049009 0.298189 0.303446 
david -0.154746 0.158447 0.136238 -0.297264 -0.021097 -0.048302 0.179627 -0.171944 -0.062850 -0.178999 -0.198259 -0.089177 -0.205607 -0.319161 0.043493 0.173168 -0.019033 -0.026727 -0.247825 -0.010478 
drive -0.107566 -0.559369 0.201018 -0.599944 0.185980 0.012174 0.473450 0.194662 0.530505 0.738433 -0.171710 0.217513 -0.169533 -0.180148 -0.192936 -0.329493 0.575279 -0.295339 -0.793178 0.428730 
through -0.055897 -0.710777 -0.233326 0.017399 -0.292041 -0.129742 0.392131 0.039211 0.413708 -0.236880 0.105709 0.209296 0.043007 -0.076783 0.151129 0.080642 -0.083705 -0.067352 -0.407892 -0.175143 
little 0.174676 -0.212197 -0.318111 -0.070567 0.086211 0.087084 0.020118 0.049078 0.164279 -0.021580 0.142961 0.224198 -0.040362 -0.228649 0.119598 0.023278 0.126928 -0.141967 -0.094191 0.055853 
again 0.051453 -0.030532 -0.159045 -0.474744 0.060297 -0.113691 -0.119573 -0.009116 0.378346 0.019642 0.244416 -0.244557 0.016600 -0.104193 0.285270 0.223187 -0.242472 0.023189 -0.199946 0.059836 
old -0.432208 -0.338118 -0.006504 -0.470309 -0.193964 -0.095374 -0.093736 -0.056191 -0.025718 -0.000093 0.139577 0.244090 -0.003477 -0.430637 0.053039 -0.223510 -0.086100 -0.690201 -0.198054 0.276897 
etc -0.017992 -0.643731 0.391116 -0.346181 0.005023 0.063219 0.053332 -0.176432 0.456716 0.043371 -0.240549 0.265450 -0.036358 -0.575659 0.004481 0.212943 0.080694 0.138923 -0.099392 0.268967 
down -0.007944 -0.640451 -0.252495 -0.109382 0.011163 -0.144413 0.292745 0.160484 0.197629 0.054748 0.392044 0.006229 -0.111018 -0.036839 0.156021 -0.022957 -0.128836 -0.666413 -0.301994 -0.097087 
against -0.049928 -0.208718 -0.347492 -0.062826 -0.123819 0.069651 0.064047 0.130328 0.251213 -0.080468 0.401783 -0.150856 -0.132522 -0.095006 0.142220 0.661205 -0.280453 0.098844 -0.236960 -0.135094 
around -0.081128 -0.145340 0.023408 -0.027707 0.036231 -0.031854 -0.073894 -0.093288 0.129642 0.040506 0.134863 0.127440 -0.100373 -0.407763 -0.033462 -0.049396 -0.031984 -0.383691 -0.397137 0.215885 
bit -0.170976 -0.160967 -0.216804 -0.146282 0.505985 0.201297 -0.233106 0.074094 0.479297 0.652071 -0.362670 0.367745 -0.165647 -0.166912 0.056842 0.151352 0.485737 -0.118631 -0.107410 0.412969 
seems -0.187636 -0.021345 -0.170466 -0.062216 -0.166393 0.075036 -0.067339 -0.044849 0.105575 0.058743 -0.001780 0.278372 -0.186832 -0.246836 0.012375 0.166995 -0.394501 -0.068433 -0.268469 -0.027051 
play -0.814543 -0.283289 -0.671487 -0.806336 0.512725 -0.299720 -0.068223 0.384159 -0.391056 0.379406 1.087068 -0.983468 0.408986 -0.460401 0.472177 -0.456477 0.697144 0.302164 0.577116 -0.379829 
probably 0.143302 -0.103567 -0.201196 -0.040077 0.087549 0.104262 -0.169614 -0.004401 0.426642 0.325270 0.036115 -0.145349 -0.076450 -0.176147 -0.107913 0.242671 -0.105153 -0.173416 -0.005646 0.167885 
power -0.936134 -0.671994 -0.770014 -0.606542 0.704170 -0.149246 0.190668 0.657391 -0.289614 0.938080 1.430863 -0.909109 0.251194 -0.456100 0.460373 -0.461341 0.771197 0.295022 0.344168 -0.439926 
least 0.088909 -0.045226 -0.374881 -0.058229 0.119243 -0.074236 -0.256550 -0.050879 0.403170 0.096757 -0.010059 0.266520 -0.223938 -0.375066 0.022342 0.179886 -0.046351 -0.181282 -0.367582 0.139909 
great -0.105538 -0.118800 -0.207486 -0.229997 0.014850 -0.077674 0.151258 -0.128268 0.242697 0.146623 -0.115104 -0.140892 0.105021 -0.490239 -0.093375 0.076264 0.228830 -0.277714 0.012048 0.109010 
file -0.208781 -0.161367 0.147550 -0.371381 0.839489 -0.681874 -0.699271 -0.203628 0.487928 0.312304 -0.728296 0.233453 0.065901 -0.652499 -0.090250 -0.153993 -0.195064 -0.382919 -0.356024 0.276642 
mean 0.041500 0.199410 0.000998 0.135108 -0.216833 0.046060 0.070507 -0.013624 0.204419 -0.112514 0.281718 0.459227 -0.133965 -0.310647 0.381134 0.358583 -0.625131 0.125064 -0.288401 0.026308 
between 0.123069 -0.196670 -0.450581 -0.045037 0.052180 -0.084311 -0.035621 -0.061033 0.136572 0.035045 0.300763 0.224654 0.021575 -0.117431 -0.042615 0.255935 -0.096102 0.187954 -0.150487 -0.006717 
enough -0.032026 -0.080526 -0.278765 -0.008576 0.086502 0.156470 0.060167 0.013021 0.179981 0.294381 0.129227 0.103918 -0.273305 -0.259828 0.042699 0.191805 -0.111531 -0.296249 -0.318400 0.135696 
game -0.248774 -0.102817 -0.502697 -0.488580 0.005519 -0.166663 -0.407569 -0.107342 0.159631 -0.471460 0.279415 -0.303495 0.341830 -0.365764 -0.077222 0.138165 0.037229 -0.236782 0.043048 0.118358 
tell 0.204394 -0.006354 -0.060174 -0.053070 0.182941 -0.243376 0.120784 -0.043763 0.095768 0.126524 0.091421 0.026528 -0.218562 -0.394549 0.106861 0.389053 -0.391958 -0.264208 -0.143241 0.251241 
information 0.084529 -0.152819 0.148892 -0.251798 0.113568 -0.131666 0.334240 -0.143019 0.006412 -0.096448 -0.320841 0.048024 -0.172383 -0.408566 0.090363 0.304342 0.187122 -0.127850 -0.271126 0.220405 
course 0.068555 -0.099775 -0.024644 -0.052619 -0.078649 0.012498 -0.160473 -0.128400 0.270882 0.005486 0.107150 0.009156 0.064813 -0.349113 0.022281 0.343138 -0.249799 -0.237326 -0.203718 0.072569 
hard 0.073496 -0.651870 -0.092486 -0.486006 0.359138 -0.018973 0.049346 0.124318 0.556518 0.647049 -0.023749 0.484764 -0.276875 -0.085212 -0.070729 -0.446102 0.476520 -0.585353 -0.501449 0.518816 
state 0.272638 0.052221 0.329280 0.107150 -0.252638 0.371692 0.657126 0.296314 0.376958 0.357362 0.225206 0.115423 -0.196593 -0.051055 0.686257 0.810682 -0.576365 0.229766 -0.149961 -0.297525 
post -0.059329 -0.082111 0.125360 -0.033579 0.008675 -0.212801 0.094611 0.004158 0.030334 -0.051697 0.034810 0.073119 -0.139889 -0.259550 0.230932 0.239912 0.031791 -0.308846 -0.184696 0.123406 
put -0.084454 -0.084848 -0.291965 -0.247613 0.090843 0.071972 0.358610 0.117236 0.408094 0.062788 0.248205 -0.055908 -0.049424 -0.264424 -0.141772 0.033072 0.222230 -0.102387 -0.522442 0.145443 
control -0.317779 0.416517 0.503409 0.005347 -0.169917 0.505362 0.326273 0.587028 -0.285612 0.636040 -0.045041 0.113342 -0.100217 -0.258072 -0.213630 0.688181 -0.951728 0.122675 -0.140680 -0.083904 
give 0.134290 -0.067065 -0.086685 -0.066266 -0.188268 0.168333 0.107307 -0.050569 0.263458 -0.125066 0.120817 0.054750 -0.112369 -0.033461 0.248280 0.103001 -0.162093 0.077043 0.041334 -0.040098 
university -0.055060 -0.169135 0.454638 -0.312346 0.239898 -0.180543 0.664789 -0.250082 -0.167080 -0.088488 -0.388973 -0.491182 -0.114832 -0.806184 0.441520 0.322386 0.050271 0.461424 -0.181167 -0.067107 
read 0.113017 0.069582 -0.104326 -0.213048 0.104080 -0.082005 -0.257691 -0.230190 -0.235998 0.144404 -0.081701 0.007088 -0.202250 -0.468477 -0.008695 0.109036 -0.225955 -0.492284 -0.276688 0.111573 
look 0.185558 -0.057360 0.056874 -0.145200 0.123888 -0.188818 0.184241 0.043077 0.024959 0.076851 -0.127369 0.014929 0.095013 -0.261323 0.010433 0.106561 -0.140743 -0.079758 -0.043392 -0.032715 
nothing 0.201080 -0.066318 -0.129575 0.205575 -0.065059 0.129870 -0.121744 0.119197 0.266959 0.042746 0.330458 0.043584 0.025375 -0.096984 0.317491 0.205611 -0.478376 0.079930 -0.343036 -0.049598 
players -0.262562 0.025266 -0.130462 -0.280780 -0.179935 -0.113634 -0.132473 0.108770 0.349689 -0.390991 0.417710 -0.461488 0.259317 -0.092837 -0.271106 0.579044 -0.264990 -0.067401 0.202607 -0.302344 
card -0.652100 -0.195614 0.098423 -0.191666 0.537785 0.254523 -0.261650 0.223237 0.223384 0.671824 -0.522880 0.198324 -0.176987 -0.433543 -0.421169 0.447317 0.416027 -0.186606 0.215070 0.651106 
id -0.133236 0.011190 -0.307945 -0.117681 0.039793 0.335864 0.062521 0.053346 0.207027 0.226475 0.010996 0.030950 -0.272469 -0.159628 -0.023184 -0.016562 0.015420 -0.160290 -0.067389 0.148290 
though -0.096195 -0.023589 -0.268390 -0.093909 0.157339 0.161852 -0.194704 0.006572 0.395044 -0.048713 0.041593 0.087166 -0.197011 -0.145344 0.097198 0.076224 -0.067708 -0.334546 -0.029594 0.139868 
youre 0.233816 -0.034195 -0.386704 -0.161046 -0.034994 -0.028897 0.035310 0.008002 0.288997 0.005911 0.172273 -0.189133 0.101870 -0.325571 0.000179 0.283182 -0.390063 -0.033040 -0.340716 -0.082393 
fact -0.150802 -0.147298 -0.055001 -0.028807 -0.247835 0.028007 0.147398 0.123265 0.255351 -0.126500 0.226386 0.198164 0.036740 -0.330353 0.230491 0.299789 -0.149476 -0.051645 -0.155817 -0.247794 
case 0.069701 0.131952 0.074859 -0.097544 -0.010139 0.260985 0.124273 0.153484 0.250522 0.131049 0.231507 0.078426 -0.198113 -0.166708 0.312809 0.073165 -0.181623 -0.183151 -0.107178 0.064411 
rather 0.165210 0.183147 -0.198917 0.035907 -0.018619 0.165757 -0.051942 0.059315 0.199273 0.488124 0.047742 0.192738 -0.069199 -0.152032 0.073857 0.272766 -0.269242 0.140058 -0.238736 0.071293 
actually -0.126851 0.175573 -0.124682 0.005633 -0.201120 0.323964 -0.037215 0.102851 0.317799 0.163285 0.223964 0.213008 -0.195980 -0.213484 0.016622 0.445557 -0.462325 0.122978 -0.202682 -0.018661 
second -0.608720 -0.141613 -0.159023 -0.168642 0.151770 0.019671 -0.023897 0.356884 0.087798 0.157490 1.121675 -0.239118 -0.172179 -0.490907 0.377925 -0.223266 0.318013 0.267622 0.134958 -0.326256 
computer -0.069919 -0.520263 0.358004 -0.611497 0.172979 -0.210343 0.382621 0.163003 -0.156645 -0.226113 -0.342377 0.008317 -0.306669 -1.194828 -0.070210 -0.203104 -0.087718 0.143298 -0.371936 0.406333 
sale -0.159034 -0.335400 0.483644 -0.743773 0.363865 -0.267039 -0.063803 -0.167030 -0.329076 -0.245020 -0.088149 0.035280 -0.208671 -0.526826 -0.456073 -0.100350 0.202495 -0.496217 -0.301608 0.305746 
number -0.184386 -0.204351 0.017474 -0.026697 0.078700 -0.003423 0.040261 -0.223432 0.159329 0.195769 -0.074396 -0.072038 0.062518 -0.349492 0.096278 0.377364 -0.026290 0.101238 0.174570 0.058337 
true 0.022257 0.173222 -0.027129 0.163774 0.123310 0.179324 -0.287491 -0.041697 0.197364 0.276491 -0.021481 0.079189 -0.111166 -0.258758 0.258138 0.391519 -0.023828 0.474118 0.088145 -0.032659 
come -0.054488 0.036771 -0.341693 -0.095073 -0.142957 0.143906 0.187947 -0.060788 0.344206 0.300811 0.428044 -0.039302 -0.193298 -0.278485 0.129888 0.175372 -0.155879 -0.299718 -0.342558 -0.046378 
yes 0.062027 0.034739 -0.149547 -0.049354 0.104988 0.222842 0.104180 -0.006754 0.150956 0.107181 -0.651490 0.083564 -0.079802 -0.476922 0.275020 0.095542 0.062520 0.202250 -0.227743 0.125071 
called 0.222449 -0.283299 -0.093217 0.053292 0.016955 -0.119766 0.014710 -0.064268 0.243243 -0.188448 0.067916 0.154444 -0.220955 -0.431130 -0.119056 0.040112 0.311765 0.027365 -0.169267 0.239452 
far 0.268622 0.084684 -0.205943 -0.142109 -0.111684 0.153655 0.131557 0.090261 0.451224 0.132927 0.164330 0.218497 0.011585 -0.137312 0.107591 0.167805 -0.203920 0.158334 -0.180795 -0.045461 
research -0.108101 -0.564912 0.532595 -0.100070 -0.156591 -0.325091 0.872263 -0.010595 0.396803 -0.654842 0.003189 -0.528423 0.468981 -0.780683 0.049156 1.038541 0.532522 0.336251 -0.672980 -0.483785 
different -0.116185 0.093140 -0.052287 0.017119 -0.131246 0.014498 -0.280718 0.139228 0.239858 0.319135 -0.103816 0.290010 -0.010035 -0.369489 -0.055276 0.581742 -0.269170 0.313719 -0.005543 0.012016 
hell -0.076763 0.372882 0.364589 -0.070287 -0.248236 0.367776 0.378368 0.207453 -0.348510 0.267558 0.281548 -0.006115 -0.176867 -0.317240 0.099413 0.475476 -0.479229 -0.024089 0.136727 -0.083892 
end -0.073812 -0.011104 -0.333163 -0.214182 0.165244 0.028410 0.140432 0.056937 0.131647 -0.093670 0.075559 -0.091174 -0.232556 -0.354384 0.015768 0.247449 0.042085 -0.020669 -0.134204 -0.018270 
bad -0.110067 0.041188 -0.305124 0.059079 -0.298819 0.075449 0.068058 -0.017866 0.094301 -0.044568 0.279312 -0.190161 -0.122601 -0.127788 0.258084 0.173830 -0.325385 0.108825 -0.132509 -0.019124 
always 0.076510 0.071610 -0.410213 0.054482 -0.009687 -0.008533 0.127228 -0.114640 0.058791 0.109304 0.290500 0.053370 -0.312734 -0.216399 0.292579 -0.000032 -0.185056 -0.081881 -0.472184 0.045979 
ill 0.046515 -0.247531 -0.153552 -0.435934 -0.048890 -0.217267 0.025009 -0.015628 0.099835 0.056318 -0.047019 -0.059326 -0.025771 -0.237189 0.061063 0.114058 -0.226583 -0.285859 -0.247577 0.191585 
software 0.030016 -0.366734 0.423704 -0.445898 0.592139 -0.272285 -0.138104 -0.270918 0.343649 0.298893 -0.621640 -0.190618 0.024309 -0.381298 -0.337933 0.194658 0.250384 -0.335884 -0.110023 0.241490 
wrong 0.270373 -0.011812 -0.228399 -0.009674 0.153659 -0.095019 0.067230 -0.076393 0.251506 -0.086171 0.259941 -0.037154 -0.224114 -0.095227 0.252589 0.190560 -0.321780 -0.093305 -0.321085 -0.193208 
less -0.034376 -0.075169 -0.107094 0.001640 -0.001625 0.116914 -0.135409 0.050105 0.584528 0.426183 0.204761 0.097873 0.085493 0.095811 0.003001 0.109918 -0.108212 -0.040631 -0.392010 0.055700 
group 0.047754 -0.097369 0.004988 -0.298983 0.134002 -0.006458 0.149595 -0.059494 0.087296 0.151160 -0.098611 -0.178868 -0.106502 -0.366865 0.000192 0.348252 -0.179354 -0.091984 -0.123440 0.307828 
dos 0.152460 0.098846 0.421336 -0.435727 0.817802 -0.327925 -0.792244 -0.358357 -0.008717 0.427486 -0.502011 0.227786 -0.152426 -0.942673 -0.665165 0.068465 0.337548 -0.211445 -0.167477 0.482213 
jesus 1.056297 -0.166523 -0.495528 -0.119678 0.245459 -0.054202 -0.356502 -0.003241 0.449327 -0.184000 0.441178 0.740573 -0.239928 -0.201719 0.533611 -0.329842 -0.305038 1.193729 -0.263198 0.215382 
run -0.160924 -0.183499 0.092162 -0.139453 0.318020 -0.109351 -0.370648 -0.225966 0.187003 0.357938 -0.439233 0.073163 -0.051188 -0.503231 -0.290758 0.152444 0.388052 -0.107378 -0.064149 0.294989 
program -0.042660 -0.219788 0.072880 -0.531388 0.406035 -0.416289 -0.227988 -0.210511 0.310613 -0.126066 -0.434411 0.278062 -0.174310 -0.695422 -0.265488 0.050968 0.260380 -0.067727 -0.338906 0.275679 
high 0.050251 -0.287700 -0.102153 -0.091592 0.158349 -0.153103 -0.035807 -0.111363 0.229220 0.115284 0.052324 0.019983 -0.121937 -0.517318 -0.021606 0.131106 0.233375 0.005157 -0.091814 0.233944 
isnt 0.050923 0.189825 -0.205911 -0.059257 -0.065027 0.237400 -0.141351 -0.020214 0.370613 0.125939 0.287948 0.119778 -0.182933 -0.159874 0.068241 0.156000 -0.356709 0.177876 -0.191708 0.112788 
support -0.037962 -0.247384 0.097779 -0.130543 0.325692 0.157728 -0.162889 -0.027416 0.622842 0.187659 -0.243107 0.417934 -0.284339 -0.078948 -0.134695 0.400116 0.125142 -0.091678 0.191341 0.180979 
games -0.774668 -0.246526 -0.391045 -0.732576 -0.076810 -0.140234 -0.472521 -0.381662 0.112356 -0.886961 0.445200 -0.683020 0.554453 -0.591550 -0.172668 0.279815 -0.029812 -1.198839 0.445120 0.134852 
her -0.560706 -0.849661 -0.979669 0.055099 -0.655415 -0.043190 0.295109 -0.107217 0.092684 -1.083902 0.471938 0.187380 -0.136015 0.317237 0.139754 0.248431 -0.174319 -0.550366 -0.127272 -0.115866 
part -0.043738 -0.349595 0.228910 0.020709 -0.007002 -0.277535 0.088319 0.199063 0.125472 -0.027338 0.060979 0.241822 -0.011762 -0.143216 0.323255 0.364979 -0.088537 -0.077281 -0.291268 -0.227799 
let 0.242238 -0.009597 -0.169038 -0.138018 0.117951 -0.085269 -0.184607 -0.083117 0.296160 0.212619 0.096478 -0.146091 -0.037151 -0.186378 0.038489 0.226824 -0.168568 -0.028765 -0.273866 -0.005739 
life 0.119769 -0.246787 -0.350375 0.093923 -0.202297 -0.232054 0.153111 -0.030336 0.246528 -0.097660 0.065629 0.216618 -0.196955 -0.210327 0.347031 0.560321 -0.256399 -0.091702 -0.308623 -0.106954 
available 0.078865 -0.259863 0.167486 -0.247870 0.374893 -0.304096 -0.103721 -0.034900 0.189112 0.175665 -0.097274 0.164278 0.181833 -0.335168 -0.232494 0.200708 0.217151 -0.008191 0.073480 0.117450 
getting -0.156020 -0.010338 -0.149779 0.019791 -0.119418 0.013484 0.227369 -0.024745 0.144688 0.153947 0.089722 -0.014166 -0.257276 -0.287852 -0.037920 0.314707 0.084567 -0.250623 -0.231350 -0.020135 
government 0.222410 -0.544828 0.140496 0.340267 -0.593859 0.287442 0.472715 0.471226 0.321791 0.028157 0.525196 0.100246 0.010658 0.013935 0.194324 0.741248 -0.256265 0.262473 -0.059660 -0.352905 
try -0.038010 0.154546 -0.070809 -0.177855 0.209644 0.170176 -0.064049 0.050557 0.323573 0.285887 -0.014976 0.459346 -0.336843 -0.258709 0.151530 -0.180510 -0.062409 -0.095053 -0.061219 0.270011 
person -0.132699 0.068895 -0.261926 0.476040 -0.292265 0.181212 0.312567 -0.055873 0.197200 -0.050308 0.316300 0.016029 -0.153416 -0.438650 0.335959 0.312874 -0.304785 -0.133039 -0.241867 -0.018890 
man 0.099018 -0.177201 -0.178276 -0.103195 -0.049353 -0.012945 0.110509 0.053018 0.067387 -0.162499 0.383802 0.060287 -0.214966 -0.308983 0.343087 0.094193 -0.279455 0.224377 -0.235662 0.020676 
keep 0.318339 0.203289 -0.151479 0.290449 -0.017964 -0.046314 0.127439 0.062897 0.050422 0.138455 0.152782 -0.128910 0.050371 -0.081516 0.171464 0.421648 -0.378331 -0.292411 -0.339546 -0.193732 
win -0.407941 -0.016341 0.198801 -0.426351 0.496598 -0.310135 -0.297431 -0.172921 0.104217 -0.144572 -0.605074 -0.009781 -0.225342 -0.269690 0.112089 0.133080 0.468616 0.007787 0.266695 0.121479 
seen -0.430027 0.335990 -0.145578 -0.118997 0.288976 0.112064 -0.358131 -0.019436 0.139467 0.107713 -0.450247 0.229775 -0.383443 -0.316539 0.195750 -0.215004 0.089051 -0.302812 -0.015585 0.160243 
thought 0.023963 0.134769 -0.218930 -0.097290 -0.010060 0.316279 0.020389 0.075559 0.461706 0.005302 0.185342 -0.225952 -0.184852 -0.141082 0.192807 0.073658 -0.279749 0.097653 -0.118988 0.069069 
each -0.037470 -0.389893 -0.127357 -0.296002 -0.154634 0.038477 0.127435 0.068892 0.366854 -0.022599 0.065031 -0.102408 -0.111739 -0.269547 -0.070311 0.224820 -0.142179 -0.202342 -0.563984 -0.006437 
trying -0.103588 -0.153749 -0.185413 0.108791 -0.146050 0.067721 0.026040 -0.130928 0.224189 0.163069 0.176572 0.104182 -0.251077 -0.122195 0.163790 0.214362 -0.265942 -0.135766 -0.281394 0.035204 
she -0.462471 -0.546976 -0.709028 -0.053960 -0.533823 -0.318917 0.157793 -0.022961 0.127066 -0.894058 0.565649 0.002844 -0.000076 -0.002127 0.235163 -0.118991 -0.061175 -0.709857 -0.295896 -0.170458 
maybe 0.047028 -0.106024 -0.016654 0.010714 -0.029664 -0.050411 0.074146 -0.065789 0.085738 0.001318 0.123880 -0.019508 0.043397 -0.289819 -0.054585 0.195308 -0.219187 -0.131082 -0.093402 0.025073 
guns -0.167749 -0.057702 -0.081443 0.156577 -0.242898 0.434146 0.139667 0.073176 0.390371 0.611325 0.154093 0.040650 -0.204812 -0.282242 -0.278612 0.615381 -0.424136 0.038536 0.036146 0.003381 
data -0.120400 -0.422874 0.162244 -0.459923 0.434019 -0.239900 0.152009 -0.140732 0.492138 0.030636 -0.351721 0.160800 0.030409 -0.698663 -0.252460 -0.102323 0.721988 -0.055458 -0.605276 0.383857 
either 0.027256 -0.047351 -0.115723 -0.033874 -0.105166 0.038504 0.129730 0.082766 0.290370 0.166307 0.088102 0.297302 -0.230247 -0.149141 0.183659 0.201374 -0.245823 0.105485 -0.189116 0.149270 
numbers -0.307991 -0.054195 -0.229454 -0.203760 -0.039181 0.083021 -0.135550 -0.203647 0.443817 -0.107717 0.222162 -0.079580 -0.178903 -0.166987 0.009613 0.184976 -0.041078 -0.133461 -0.174867 -0.091661 
non -0.164245 0.015023 -0.184564 0.069973 -0.126637 0.296577 0.229301 0.007839 0.330101 0.187244 -0.057348 0.272376 -0.318971 -0.336240 0.017510 0.605017 0.014348 0.229364 0.021112 0.246406 
possible 0.135195 0.047221 -0.120042 -0.000243 0.024308 0.046398 -0.224492 -0.008843 0.453954 0.172989 0.063455 0.496446 -0.152279 -0.391474 0.048215 0.189560 -0.321904 0.333717 -0.312198 0.136410 
line 0.022647 -0.166974 -0.170154 -0.060274 -0.056656 -0.219974 0.066962 -0.101106 0.171709 0.277569 -0.138357 0.145760 -0.107186 -0.404816 -0.170902 0.300600 -0.051121 -0.154330 -0.346755 0.301044 
having 0.098858 -0.431062 -0.142417 -0.060085 -0.076290 -0.049725 0.021503 0.031701 0.301726 0.209060 -0.039194 0.248071 -0.154633 0.046135 0.254635 0.109241 -0.219292 0.050519 -0.418710 0.042500 
says 0.186826 0.053753 0.110430 0.025716 -0.031914 -0.462829 -0.013940 0.143427 -0.171805 -0.260012 0.135097 0.327933 -0.165284 -0.426885 0.261966 0.014029 -0.404243 -0.147134 -0.348412 0.085059 
league -0.568394 -0.070541 -0.182361 -0.492038 0.009042 -0.178788 -0.308045 -0.056601 0.435281 -0.077144 0.529284 -0.732852 0.391850 -0.262484 -0.188354 0.343195 0.026142 -0.219729 -0.134019 -0.128539 
big -0.010713 -0.042231 -0.161992 -0.129716 0.051468 0.005241 -0.089536 0.003609 0.052590 0.144461 0.244294 0.012358 -0.044915 -0.320352 0.097147 -0.102580 -0.320838 -0.221985 -0.237958 0.125646 
quite -0.085504 0.116898 -0.241307 -0.055317 0.019452 0.039803 -0.253744 -0.109399 0.090663 0.078505 -0.053137 -0.024796 -0.219127 -0.384731 0.140560 0.043792 -0.132526 -0.027260 0.012537 0.003285 
call -0.172809 -0.183999 0.309937 -0.172941 0.021861 -0.035567 0.256032 -0.126344 0.043217 -0.009410 -0.175380 0.059809 -0.143754 -0.297550 0.133756 0.141605 0.088370 -0.016867 -0.360155 0.198523 
wrote 0.040515 0.551346 0.201705 -0.126184 0.263430 -0.005048 0.213528 -0.191255 -0.254445 0.000929 -0.354756 0.447853 -0.470246 -0.844169 -0.120022 0.214297 0.076059 -0.158418 0.005928 0.279839 
else 0.003889 0.047613 -0.226533 0.074118 0.249990 0.355090 0.035015 0.146030 0.250752 0.298722 0.127925 -0.048675 -0.404630 -0.181370 0.198179 0.312283 -0.184375 0.012741 -0.033341 0.112739 
mark 0.039098 0.249795 -0.028655 -0.070450 -0.067400 -0.129676 0.198931 -0.041273 -0.075094 -0.426762 0.125368 -0.025308 -0.090985 -0.384135 -0.121398 0.087465 0.071087 -0.240529 -0.037691 0.104726 
during -0.357419 -0.203175 -0.258672 -0.135023 -0.246976 -0.099912 -0.058531 0.139273 0.016402 -0.318982 0.432025 -0.004982 0.023014 -0.061799 0.038983 0.181817 0.145755 0.077792 -0.192673 -0.114921 
found -0.257006 -0.130112 -0.111049 0.038167 0.143235 0.104461 -0.275639 -0.110416 0.309659 -0.046689 -0.033498 0.283331 -0.069467 -0.294515 0.218445 -0.008280 0.129758 -0.335970 0.044653 0.073079 
next -0.211640 -0.023678 -0.139743 -0.158764 0.201977 -0.168306 -0.401725 0.008154 0.059997 0.234648 0.176631 -0.195356 0.246078 -0.382576 -0.186239 0.165301 0.066254 -0.308567 -0.158489 0.045422 
list 0.007746 -0.227416 0.300439 -0.430301 0.137971 -0.203617 0.035876 -0.185760 0.042177 -0.327548 -0.070769 -0.090419 0.040555 -0.771996 -0.220408 0.293930 0.256866 -0.353851 -0.312377 0.069573 
free 0.063136 0.098020 0.017024 0.310808 -0.230066 0.188974 -0.137388 -0.121981 0.189489 0.188956 0.093925 0.660773 -0.095836 -0.301495 0.335696 -0.080457 -0.248240 0.334986 -0.092734 0.329818 
done 0.027643 -0.284558 -0.084469 -0.093754 -0.114279 -0.006025 0.306167 0.005736 0.302041 0.220071 0.230028 0.182619 -0.147139 -0.395542 0.225584 0.164284 -0.128578 -0.126119 -0.267369 0.100607 
looking 0.080668 0.195644 0.213009 -0.395140 0.233269 -0.085157 0.183798 -0.166786 -0.029329 -0.075007 -0.242602 0.337155 -0.238712 -0.600199 0.029112 -0.020352 0.102950 0.021247 -0.432024 0.423447 
away 0.098635 -0.155839 -0.388187 -0.112133 -0.237336 0.013198 0.071773 -0.005484 0.153419 -0.248297 0.231629 -0.128894 -0.024123 0.060675 0.203902 0.254248 -0.132564 0.146509 -0.122755 -0.043360 
times -0.503458 -0.106533 -0.159471 -0.043802 -0.096955 -0.037098 0.114485 0.193514 0.199194 0.039852 0.007416 0.176499 0.084653 -0.538265 0.153485 0.199801 0.097722 0.365953 0.165051 0.085755 
season -0.510525 -0.073640 -0.340263 -0.583068 -0.050528 -0.009009 -0.261855 -0.038252 0.048506 -0.253728 0.403642 -0.524314 0.156295 -0.254242 -0.289198 -0.061528 -0.094427 -0.213827 -0.094571 0.023600 
based 0.003214 -0.183658 -0.038443 -0.064419 -0.070751 -0.014441 -0.171298 -0.000586 0.200509 0.006980 0.216797 0.175691 -0.089574 -0.394110 0.177365 0.528945 -0.246984 0.073433 -0.025379 -0.082395 
steve -0.270047 0.626288 0.110435 -0.399178 -0.051056 0.197380 0.233205 0.154862 -0.290884 0.154489 -0.087384 0.124316 -0.217640 -0.444251 -0.279348 0.340402 -0.263914 -0.183135 -0.063699 0.277706 
ever -0.089266 -0.101438 -0.126592 -0.280754 -0.085945 -0.086604 0.013699 -0.121675 0.345986 -0.149187 0.118141 0.009835 -0.159113 -0.198171 0.295056 -0.177441 -0.406949 -0.101538 -0.204624 -0.045002 
problems 0.013490 -0.051435 -0.160556 -0.277260 0.218923 -0.222249 0.128097 -0.246870 0.364004 0.044467 -0.129576 0.313511 -0.330820 -0.491302 -0.129157 -0.007075 0.275390 -0.313856 -0.138025 0.326676 
until -0.185540 -0.118235 -0.332841 -0.166668 0.008763 0.043605 0.179469 -0.054988 0.286728 -0.203340 0.019940 -0.379379 -0.017351 -0.203227 0.194371 0.181426 0.051927 0.020140 -0.303999 -0.046658 
able -0.254704 0.010155 -0.056239 -0.035867 0.162957 0.150263 -0.152241 -0.138368 0.268328 0.115027 0.067976 0.234918 -0.251499 -0.480870 0.019255 0.162590 -0.017638 -0.145499 -0.018235 0.234545 
remember 0.016907 -0.122934 -0.162682 0.032305 0.056218 -0.089412 -0.048322 -0.060337 0.162803 -0.095147 0.201282 -0.179304 -0.085455 -0.237696 0.067602 0.423473 -0.054593 -0.206602 -0.091401 -0.037403 
following -0.027013 -0.190207 0.262774 -0.231502 0.210338 -0.219650 -0.173669 -0.222344 0.168944 -0.133654 -0.127891 -0.045552 -0.024567 -0.731114 -0.249323 0.150151 0.148034 -0.146417 -0.245899 0.255437 
idea -0.073575 0.029243 -0.104775 -0.014736 -0.067995 0.052250 0.093450 0.056112 0.166066 -0.077416 -0.060481 0.020335 0.059177 -0.194348 0.166453 0.276999 -0.015396 0.022529 -0.111417 -0.052281 
reason 0.038965 -0.122816 -0.305426 0.093756 -0.060548 0.135627 -0.029952 0.002140 0.422243 -0.134910 0.453985 0.089115 -0.055809 -0.134711 0.201190 0.380405 -0.071689 0.078154 -0.162373 -0.050382 
perhaps -0.161656 0.091341 -0.073752 -0.032141 0.052646 0.155432 -0.086764 -0.014924 0.199515 -0.071274 0.035708 -0.026609 -0.050509 -0.238096 0.029181 0.170684 -0.097830 0.117747 -0.104165 0.010119 
under -0.139824 0.068100 -0.033382 -0.065546 0.000163 0.018701 -0.117222 -0.029195 -0.110810 -0.138380 -0.065105 -0.006644 0.065820 -0.347664 -0.169933 -0.009484 0.156419 0.177736 -0.138467 0.148569 
period -1.473123 -0.317799 -0.444355 -0.651641 0.650599 -0.075863 0.025050 0.536996 -0.475229 -0.099527 1.721868 -0.726768 -0.085935 -0.775974 0.765113 -0.917275 1.017441 1.037483 0.087366 -0.081482 
heard -0.092773 -0.012705 -0.134332 0.026194 -0.004064 -0.025399 0.025207 -0.075210 0.202349 -0.110311 -0.129460 0.110212 -0.187530 -0.259784 0.152884 0.054127 -0.093177 0.056839 -0.284514 0.029371 
hockey -0.382873 0.082596 -0.206358 -0.294741 -0.011852 -0.238572 -0.119909 -0.069596 0.410375 -0.397561 0.364043 -0.561042 0.290196 -0.148245 -0.060258 0.420641 0.039073 -0.051508 -0.057317 -0.304727 
local -0.395178 -0.161541 -0.195944 0.091798 0.018367 0.167013 0.164489 -0.136021 0.311613 0.361968 -0.692409 0.105305 -0.027532 -0.348930 -0.008501 0.405463 0.682355 -0.191094 -0.118550 0.326345 
others 0.067023 0.190708 -0.048590 0.220809 -0.140890 0.158686 0.177601 -0.004244 0.138171 0.056927 0.235855 0.121401 -0.220151 -0.047670 0.090154 0.314842 -0.034514 0.004269 -0.284035 -0.010257 
yet 0.121900 -0.290540 -0.179896 -0.110618 0.150500 -0.044758 -0.092407 -0.109294 0.298125 -0.095568 0.141704 0.186788 -0.148699 -0.441857 -0.017714 0.176354 0.055343 -0.024393 -0.210532 0.096646 
change -0.272219 0.195159 0.159555 -0.235021 0.410342 -0.198238 0.013861 -0.051637 0.346465 0.180600 -0.291558 0.266776 -0.207383 -0.445858 0.107706 -0.223915 -0.052785 -0.333743 -0.588176 0.340838 
left 0.048266 -0.242495 -0.190205 -0.065517 -0.007965 -0.304050 0.090414 0.009534 0.031599 0.095816 0.328318 -0.099013 0.050921 -0.138920 0.161323 0.109726 0.043600 -0.283602 -0.516713 -0.053194 
today -0.120355 -0.137946 0.079098 0.133815 -0.271886 0.081955 0.485773 -0.104175 0.085176 -0.077743 0.163111 0.129134 -0.212181 -0.333253 0.114433 0.348117 0.016917 -0.065317 -0.146006 -0.057958 
doing 0.231437 0.042926 -0.184875 -0.097558 0.039925 0.239788 0.098777 -0.042143 0.413862 0.343670 0.312315 0.063070 -0.291149 -0.372823 0.285824 -0.129046 -0.279157 0.099790 -0.423524 0.094680 
money 0.169737 0.041278 -0.165338 -0.032991 -0.139365 0.215214 0.163250 0.070532 0.415958 -0.147919 0.319760 -0.265217 -0.096328 -0.259008 -0.018550 0.095238 -0.039777 0.011042 -0.291032 -0.005690 
cars -0.041057 -0.263205 -0.214007 0.272193 -0.090444 -0.053565 0.229681 0.042827 0.263410 0.028249 0.101783 0.037267 -0.078647 -0.108143 0.276682 0.163677 0.205353 -0.012172 -0.190495 0.042464 
word 0.289080 0.118493 -0.157218 -0.147727 0.010925 -0.303205 -0.178812 -0.010366 0.086758 -0.006059 0.262211 0.295690 -0.121912 -0.317048 0.251458 0.007984 -0.444045 0.090791 -0.225493 0.056165 
public 0.068109 -0.085870 0.056693 0.110507 -0.144918 -0.004958 0.141183 0.101551 0.125106 -0.140184 0.170262 0.035021 -0.135263 -0.293537 0.088735 0.410736 -0.091076 0.388916 -0.182120 -0.049381 
killed -0.093483 -0.322892 -0.191537 0.571717 -0.397864 0.059496 -0.300204 0.062705 0.623049 -0.058355 0.605541 0.264412 0.224788 0.096755 0.251035 1.081257 -0.431627 0.085043 0.181855 -0.308029 
place -0.105274 -0.309360 -0.184735 0.075546 -0.231446 -0.074683 -0.040968 -0.013267 0.400935 0.044678 0.268177 0.204087 0.016500 -0.481396 0.336568 0.299338 -0.013770 -0.017165 -0.182259 0.138651 
email 0.082666 -0.379329 0.551856 -0.652335 0.373352 -0.371368 0.629574 -0.269019 -0.231087 -0.057872 -0.396672 -0.034750 -0.181551 -0.700272 0.093802 0.348090 0.482036 -0.124431 -0.320402 0.165781 
address 0.431534 -0.345225 0.495659 -0.726771 0.406371 -0.399083 0.475808 -0.517830 -0.154528 0.146593 -0.346255 0.094475 0.040011 -0.627523 0.218289 0.161197 0.372140 0.263201 -0.436736 0.282655 
general -0.040036 -0.271329 0.175993 0.000426 0.047167 -0.037954 0.344485 -0.042083 0.080858 0.190664 -0.026168 0.001734 -0.200190 -0.617194 0.348614 0.273587 0.108718 0.199635 -0.140489 0.248408 
given 0.133217 -0.068600 -0.309752 -0.003971 -0.049835 -0.104511 0.092155 -0.040109 0.186808 0.088594 0.088896 0.145322 0.017071 -0.326806 0.045654 0.124926 -0.052692 -0.089636 -0.345811 0.107300 
love -0.165367 0.384945 -0.092864 0.166615 0.051232 0.096278 -0.143240 0.112071 0.392373 0.047205 0.493294 0.140484 -0.200119 -0.078026 0.409437 0.212336 -0.139051 -0.022592 -0.270211 -0.228649 
side -0.140822 -0.127676 -0.186186 0.172407 0.101314 -0.098755 0.184999 0.039236 0.178471 0.354230 0.175671 -0.151148 -0.250888 0.089457 0.497223 0.111859 -0.212554 -0.169359 -0.313557 -0.098524 
gordon 0.858947 -0.027732 -0.539112 0.333338 0.291225 -0.388340 0.945014 -0.133303 -0.714004 0.257198 0.379563 0.173392 -0.342642 -0.906900 -0.041263 0.699506 0.547427 -0.952768 0.227503 0.238081 
banks 0.972205 0.079575 -0.427660 0.466734 0.427905 -0.355551 1.013419 -0.115221 -0.935907 0.129649 0.178741 0.240955 -0.461244 -0.881185 -0.219747 0.775283 0.747700 -0.885246 0.337877 0.275079 
home -0.325115 -0.203787 -0.059739 -0.071238 -0.071113 0.041076 0.036074 0.005172 0.087120 -0.139838 0.191253 -0.290320 0.147848 -0.240135 -0.106779 0.169528 0.056293 -0.131396 -0.171729 -0.034428 
internet 0.195240 -0.468974 0.199604 -0.503181 0.176000 -0.266412 0.480657 -0.380240 -0.141777 0.066251 -0.272306 -0.206749 -0.076063 -0.763582 0.191867 0.333141 0.318235 0.112225 -0.264234 -0.006948 
info 0.196236 -0.296319 0.230340 -0.418174 0.334320 -0.213350 0.434757 -0.125293 0.168949 0.091387 -0.266227 -0.000039 -0.147569 -0.692089 -0.133234 0.304604 0.260989 -0.040287 -0.208458 0.315142 
american -0.472814 -0.142320 0.074106 -0.092086 -0.362045 0.441804 0.208010 0.259673 0.030495 0.264103 0.189879 -0.394880 0.367796 -0.355145 -0.065513 0.828042 -0.315949 0.309578 0.080056 -0.216145 
makes 0.175127 -0.021166 -0.286253 0.245717 -0.144234 0.086951 0.052903 -0.049773 0.284221 0.140613 0.396239 -0.040225 -0.034617 -0.009779 0.368139 0.097783 -0.115000 0.052292 -0.135307 -0.214529 
send 0.073268 -0.207839 0.358567 -0.280764 0.163387 -0.248945 0.186266 -0.187814 0.021947 -0.014853 -0.210570 -0.115536 0.022295 -0.477463 0.060723 0.469111 0.220587 -0.347007 -0.225576 0.179780 
above -0.094629 -0.293007 0.096945 -0.061417 0.012630 -0.034713 0.047912 0.017244 0.030704 0.327213 0.184239 -0.095875 -0.064201 -0.451591 0.149449 0.123239 0.108663 -0.102945 -0.272365 0.190265 
israeli -0.338043 -0.428607 0.483239 0.459323 -0.797416 -0.269405 0.534083 0.385883 -0.133436 -0.676622 0.316226 0.053690 0.126819 -0.507325 0.464924 1.189859 -0.369623 -0.000508 -0.104116 -0.331670 
agree 0.248532 0.115026 -0.226866 0.149916 -0.105517 0.114808 0.073352 0.060736 0.350603 0.018015 -0.008786 0.216331 -0.050919 -0.040802 0.233450 0.229720 -0.301884 0.270451 -0.165562 -0.118207 
example 0.117938 -0.095708 -0.434852 -0.015377 -0.000702 -0.150955 -0.103671 0.037689 0.218328 0.103678 0.162989 0.063021 0.001281 -0.187904 0.058398 0.110650 -0.325334 -0.083307 -0.373114 -0.074354 
michael 0.216985 -0.004702 0.281423 -0.181764 0.107326 -0.199131 0.362871 -0.204485 -0.163072 -0.062884 -0.370398 -0.081835 -0.127295 -0.674492 -0.114516 0.230083 0.183121 0.003521 -0.195018 0.096736 
pretty -0.017389 -0.037523 -0.198161 -0.193862 0.203158 -0.044206 -0.152881 -0.000819 0.422347 0.235547 0.029616 0.291654 -0.242738 -0.178665 0.096527 -0.095255 -0.074617 -0.261815 -0.281718 0.194107 
full -0.221633 -0.407373 -0.042909 -0.081241 0.019502 -0.073934 0.105060 -0.007662 0.241556 -0.016684 -0.179807 0.211948 -0.105874 -0.388480 -0.044547 0.070109 0.146294 -0.203112 -0.168540 0.092250 
science -0.245461 -0.322488 0.312673 -0.399012 0.119363 -0.286091 0.583688 -0.028674 -0.370226 -0.494427 -0.193242 -0.398108 0.080547 -0.933539 0.029572 0.085892 0.207228 0.219738 -0.600390 -0.051800 
keith 0.154984 0.117871 0.010036 -0.170398 -0.021366 -0.173740 0.054199 0.044031 -0.024781 -0.142563 0.063117 0.184082 -0.101372 -0.431621 0.085858 0.327580 -0.523335 0.311791 -0.315025 0.094466 
wouldnt 0.109205 0.093301 -0.284793 0.340439 -0.138532 0.198938 -0.122785 -0.150612 0.452286 0.017649 0.153764 0.311953 -0.136793 -0.225940 0.083822 0.487031 -0.498700 0.082825 -0.043887 -0.061928 
graphics -0.098577 -0.386510 0.515579 -0.148947 0.370260 0.058419 0.100682 -0.166979 -0.030927 0.234671 -0.664863 0.433945 -0.302598 -0.939472 -0.379606 0.113106 0.537932 -0.115968 0.130799 0.595016 
police -0.052110 -0.191852 -0.032833 0.274526 -0.283769 0.170512 0.011480 0.217926 0.442316 0.233560 0.156582 -0.085604 0.040910 -0.306524 -0.015888 0.643654 -0.423808 0.308715 0.095877 -0.125589 
pc 0.075673 -0.268634 0.202840 -0.277959 0.639876 -0.218330 -0.272760 -0.053518 0.313699 0.357484 -0.499970 0.375533 -0.153474 -0.554571 -0.283271 0.062447 0.343532 -0.290490 -0.132898 0.493387 
wont 0.109789 -0.062469 -0.157900 -0.082280 0.270937 -0.176438 -0.209325 0.007732 0.160333 0.292193 -0.093195 -0.025397 -0.034856 -0.408993 -0.081526 0.317373 -0.065030 -0.176638 -0.143610 0.002610 
water -0.454296 -0.196084 -0.152895 0.084296 -0.493195 0.591226 0.524705 -0.004242 0.235242 0.109573 0.347940 -0.512266 -0.033395 -1.499783 0.226680 0.594947 0.156776 0.380681 0.149064 0.387296 
turkish 0.075312 -0.438376 0.189217 0.262748 -0.629205 0.320038 0.835684 0.091914 0.188278 -0.322952 0.472272 0.021026 -0.326783 -0.241198 0.153243 0.734115 0.007874 0.405097 -0.226464 -0.159802 
cannot 0.071467 0.059186 -0.185199 0.102068 -0.170261 0.239817 -0.009109 -0.028304 0.539015 0.170245 0.057509 0.330200 -0.143786 -0.138809 0.460399 0.295072 -0.455885 0.326680 -0.179891 0.095082 
teams -0.432102 0.139543 -0.277744 -0.358882 0.001759 -0.032767 -0.305005 -0.154822 0.479122 -0.342921 0.151930 -0.439677 0.179619 -0.319664 -0.159455 0.397920 0.059746 -0.067491 0.107587 -0.102735 
kind -0.136827 -0.208705 -0.032545 0.043244 -0.112041 0.083667 0.061691 0.189416 0.174688 0.160552 -0.001722 0.177634 -0.113264 -0.181710 0.254900 0.174564 -0.247495 -0.110040 -0.191926 0.118834 
hand -0.140470 -0.057259 -0.208803 0.011042 -0.086613 0.172045 0.290078 0.222354 0.083534 -0.068601 -0.025062 -0.155547 -0.053180 -0.082559 0.020537 0.215135 -0.311172 0.201226 0.139336 -0.128896 
speed -0.443492 -0.107499 -0.032030 -0.138369 0.240457 0.000270 0.031908 0.061670 0.387506 0.418672 -0.276193 0.000505 -0.222331 -0.208989 -0.159977 0.368409 0.181678 -0.117267 -0.137239 0.258785 
israel 0.263796 -0.240177 0.318501 0.340913 -0.212755 0.097927 0.417515 0.222805 0.237585 -0.595399 0.460439 0.055981 -0.135125 -0.286594 0.500406 0.965889 -0.210455 0.156307 -0.228893 -0.390498 
seem -0.012456 0.252279 -0.181953 -0.045135 -0.056413 0.245848 0.025984 0.093386 0.329235 0.066655 0.347571 0.234719 -0.220476 -0.168928 0.111768 0.198218 -0.282431 0.200072 -0.196715 0.023435 
robert 0.042911 0.379952 0.293590 -0.320226 0.242888 0.028859 0.144982 0.009503 -0.005525 -0.008007 -0.322235 0.278290 -0.332270 -0.681260 -0.048673 0.115228 -0.193072 0.145445 -0.220483 0.327762 
means -0.038223 0.147362 -0.166880 0.195126 -0.036158 0.165875 -0.258928 -0.023852 0.376499 -0.012638 0.163770 0.134973 0.013194 -0.234340 0.075538 0.322991 -0.372412 0.320656 -0.023475 -0.029667 
questions 0.065605 -0.320654 -0.056194 -0.189317 0.152494 -0.203823 0.391531 -0.139661 -0.039358 -0.149673 0.072975 -0.112445 -0.046469 -0.358163 -0.013404 0.024858 0.267510 -0.274770 -0.211145 0.236320 
set 0.286054 -0.222802 -0.216647 -0.041802 0.053533 -0.154729 -0.093459 -0.152527 0.189607 0.075948 0.089344 0.363078 -0.186462 -0.514772 0.035392 0.020423 -0.242118 0.371758 -0.147141 0.172920 
whether 0.223965 0.006253 -0.073635 0.095540 -0.049470 -0.035142 0.214836 -0.170930 0.102711 -0.078611 0.167369 -0.015641 -0.048535 -0.129992 0.142091 0.382155 0.013575 0.028835 -0.227651 -0.094324 
baseball -0.342353 0.229391 -0.044206 -0.325666 -0.120741 0.095255 -0.300195 0.105707 0.513571 -0.098114 0.302505 -0.312742 0.117043 -0.097786 -0.196758 0.464777 -0.637892 0.164930 -0.064878 -0.151585 
certainly 0.009458 0.036024 -0.116665 0.032039 -0.007009 0.109275 0.035838 -0.039250 0.179368 -0.105624 0.179054 -0.116152 -0.017269 -0.322239 0.132153 0.198055 -0.170528 0.129114 -0.153864 0.005009 
self -0.280334 -0.073567 0.141121 0.068004 -0.019477 0.347775 -0.374157 -0.034849 0.426436 0.210089 0.188542 0.185815 0.029289 0.028035 0.023403 0.433843 -0.242969 0.428211 -0.053940 -0.228120 
nhl -0.585188 -0.036739 -0.438192 -0.354082 -0.081257 -0.141571 -0.310359 0.015352 0.202559 -0.324442 0.677391 -0.439413 0.284107 -0.315628 -0.060645 0.457611 0.078063 -0.300337 0.191412 -0.150873 
driver -0.659859 -0.011336 0.266777 -0.064648 0.839343 -0.145901 -0.450449 0.039983 0.007335 0.501366 -0.482992 0.372491 -0.519734 -0.678036 0.220172 -0.140419 0.556298 -0.196193 0.260289 0.400045 
disk -0.042003 -0.468772 0.316129 -0.892820 0.337923 -0.118193 -0.193849 -0.196001 0.506204 0.491373 -0.521962 0.114074 -0.170324 -0.169035 -0.086799 -0.418447 -0.003900 -0.409694 -0.500198 0.512061 
anyway 0.021588 0.100808 -0.036633 -0.222207 0.441061 -0.010691 -0.395433 -0.048319 0.302492 0.366203 -0.097938 0.125458 -0.219484 -0.359679 -0.096438 0.174480 -0.075009 0.035251 -0.231071 0.189824 
live -0.116406 0.116505 -0.017973 0.109008 -0.085629 0.229140 -0.027135 0.043326 0.382627 0.048954 0.236311 0.020174 0.036795 -0.079989 0.194020 0.419024 -0.266358 0.360042 -0.051604 -0.054536 
christians 0.282610 0.221502 -0.264438 0.101897 -0.049006 0.126587 -0.106419 -0.064030 0.290713 -0.201124 0.080989 0.326070 -0.159670 -0.097546 0.373211 0.117262 -0.373713 0.416367 -0.131251 -0.084108 
version -0.202128 -0.091466 0.174102 -0.420660 0.707597 -0.156761 -0.270547 -0.164311 -0.056245 0.388933 -0.237412 0.174704 -0.377400 -0.797546 -0.056240 -0.089889 0.229301 -0.193620 -0.106242 0.340988 
matter -0.095265 0.105307 -0.020616 0.065940 -0.150564 0.261475 0.133458 0.068831 0.368712 0.116680 0.228300 0.009347 -0.110090 -0.322725 0.190637 0.285596 -0.212430 0.231282 -0.036007 -0.020856 
opinions 0.264789 0.025708 -0.083086 -0.005358 0.196163 0.002275 0.189186 -0.115351 0.226915 -0.095821 0.152838 -0.212640 -0.146619 -0.267210 0.176486 0.225216 0.129061 0.060491 -0.247515 -0.006844 
jim -0.033838 0.342259 0.075121 -0.325479 -0.086929 0.135373 0.287883 -0.002049 -0.298583 -0.319217 0.176497 0.206015 -0.271209 -0.397112 -0.040943 0.256765 -0.106884 -0.088636 0.050428 0.330458 
came -0.195891 -0.291319 -0.145436 -0.323427 0.089302 -0.123292 -0.152836 0.014958 0.143084 -0.018737 0.277499 0.065823 -0.109228 -0.328575 0.095558 -0.021856 -0.109770 -0.201442 -0.222380 0.057913 
show 0.034654 0.061193 -0.203632 0.013721 -0.177143 0.174076 0.117206 -0.031062 0.328174 -0.043913 0.210912 0.088549 -0.033299 -0.153402 0.157993 0.166661 -0.141945 0.109241 -0.171369 0.062093 
everything 0.116509 0.011748 -0.191705 0.009251 -0.018556 0.134420 -0.116619 0.039405 0.295980 0.039657 0.204281 0.229197 -0.162892 -0.413466 0.038130 0.108270 -0.104254 0.059015 0.144169 0.322858 
works 0.409344 -0.266556 -0.060981 -0.008162 0.348009 -0.270515 -0.104674 -0.114117 -0.052041 0.378637 -0.210948 0.231581 -0.038411 -0.553600 0.075609 0.023143 0.091642 -0.044713 -0.024893 0.445371 
systems 0.018549 -0.590375 0.122763 -0.135157 0.174371 -0.117483 0.351364 -0.128469 0.439036 -0.033571 -0.372694 0.020180 0.072024 -0.889207 -0.152849 0.427881 0.615073 0.303494 -0.004825 0.168519 
cost -0.163797 -0.370423 -0.426224 -0.431453 0.201172 -0.016171 -0.036673 0.045215 0.515005 0.415858 0.072943 -0.099561 -0.078241 -0.207426 -0.039116 0.251388 0.210090 -0.083556 -0.244855 0.219494 
gets -0.120425 -0.016140 -0.245608 -0.207335 -0.074205 0.171172 0.112430 0.116417 0.419971 0.136976 0.230346 -0.369073 -0.073442 -0.394555 0.079835 0.061552 0.147847 0.101426 -0.173660 0.091449 
interested 0.071934 -0.109168 0.206741 -0.098410 0.102025 -0.199206 0.107368 -0.016453 0.159508 0.186362 0.003538 0.235818 -0.036432 -0.404761 0.060540 0.286223 0.073068 -0.182559 -0.402733 0.306167 
law 0.256272 0.070511 -0.095815 0.181979 -0.151515 0.231456 0.053421 0.000168 0.180866 0.184703 0.368184 -0.044842 -0.149090 -0.225959 0.165867 0.732012 -0.427795 0.182667 0.067642 -0.117399 
ask 0.052682 -0.014692 -0.135194 -0.143148 -0.016143 -0.052245 0.172566 -0.042951 0.078478 -0.269073 0.226428 0.003500 -0.251940 -0.274040 0.399515 0.115406 -0.287991 -0.167784 -0.205652 0.101388 
mike -0.003796 0.039906 0.078887 -0.251961 0.093361 -0.192143 0.068648 -0.188715 -0.074623 0.092681 -0.541868 -0.304430 -0.047304 -0.416660 -0.052134 0.220836 -0.091760 -0.027524 -0.130464 0.142499 
stuff 0.104818 -0.064672 0.241551 -0.321041 0.347394 -0.010559 0.156607 -0.140725 0.417906 0.111652 -0.337191 0.117622 -0.161708 -0.588872 -0.032563 0.006569 0.071628 -0.178476 -0.323660 0.292334 
level 0.241091 -0.329500 -0.250589 -0.342395 0.024744 0.076985 0.045875 0.091763 0.259389 0.208691 0.160027 0.042751 -0.038337 -0.220885 -0.013729 0.089901 -0.140009 0.146817 -0.101660 0.177536 
armenian 0.074314 -0.310090 -0.034814 0.248655 -0.569506 0.153965 0.547827 0.167462 0.067765 -0.486928 0.770877 -0.284283 0.058267 0.133605 0.230991 0.604221 -0.040284 0.302673 -0.065902 -0.348216 
price -0.095123 -0.261029 -0.010353 -0.320473 0.121676 -0.200656 0.090843 -0.126534 0.239473 -0.181452 -0.176608 0.179478 -0.129063 -0.388901 -0.075740 -0.067273 0.365986 -0.211916 -0.368788 0.263791 
national -0.105092 -0.220315 -0.026376 -0.161610 -0.158348 0.143626 0.227852 -0.039801 0.323136 -0.253125 0.232473 -0.310062 0.274117 -0.472147 -0.153464 0.637370 0.107444 0.393116 -0.113743 -0.204833 
memory -0.162117 -0.246192 0.168505 -0.207961 0.388046 -0.126647 -0.254726 -0.145050 0.263129 0.236252 -0.370588 0.358863 -0.181928 -0.643439 -0.075881 0.126598 0.328826 -0.003981 -0.181118 0.331745 
phone 0.088219 -0.337130 0.391704 -0.412430 0.197422 -0.458061 0.425822 -0.475726 -0.250396 0.346347 -0.424643 -0.222327 0.233448 -0.852913 0.090325 0.117736 0.432499 -0.014409 -0.421206 0.095521 
dead 0.030153 -0.173335 -0.227797 0.233493 -0.180126 0.096110 0.036655 -0.040592 0.313650 -0.250408 0.404687 0.144977 -0.031684 0.056708 0.396205 0.440329 -0.073566 0.220128 0.032417 -0.313829 
sort -0.036294 0.068675 -0.244128 -0.098204 0.258441 -0.077932 -0.211882 -0.031529 0.159964 0.273135 0.207844 -0.086856 -0.028330 -0.402895 0.159814 0.159155 0.045986 -0.061902 -0.225317 0.010443 
death 0.131309 0.049991 -0.251022 0.226738 -0.082306 0.215140 0.072472 0.066880 0.299522 0.222058 0.387954 0.047214 -0.113014 -0.079940 0.333489 0.563543 -0.380553 0.193639 -0.125817 -0.228864 
war -0.142066 -0.063592 -0.069141 0.276581 -0.285206 0.192334 0.054655 0.085852 0.146128 -0.573471 0.507233 -0.064905 -0.093779 -0.257958 0.210925 0.749820 -0.167676 0.054823 -0.034150 -0.403926 
technology -0.068979 -0.540148 0.322122 -0.410932 0.050867 -0.294136 0.336886 -0.120944 0.193611 -0.423248 -0.369533 -0.494683 0.284346 -0.778090 -0.056812 0.418205 0.455590 0.674980 -0.561323 -0.126690 
april -0.291148 -0.436687 0.130014 -0.461738 0.210641 -0.390805 0.047074 0.025967 0.296832 -0.397147 0.288335 -0.259944 0.097173 -0.348798 -0.103583 0.118848 0.460299 0.174617 -0.470687 -0.499098 
type -0.088250 -0.051826 0.039942 -0.271366 0.186437 -0.246990 -0.070467 -0.065510 -0.041228 0.189386 -0.127720 0.313891 -0.092022 -0.496456 -0.023572 -0.038250 0.068480 -0.085319 -0.220368 0.375671 
al -0.137062 -0.211597 0.229070 -0.111589 0.131646 0.031015 0.269794 -0.006341 -0.055376 0.012296 0.119839 -0.263927 -0.042475 -0.375306 0.238077 0.253898 0.209143 0.017654 0.146559 -0.153610 
small -0.162953 0.000657 -0.118103 -0.126615 0.107031 -0.075580 -0.029661 -0.100834 0.232844 0.159562 -0.220925 0.085400 -0.165758 -0.504850 -0.087567 0.260300 0.043399 -0.193047 -0.142395 0.051522 
book 0.269986 -0.270628 0.085600 -0.524339 0.210937 -0.109892 0.271809 0.093703 0.142867 -0.056425 -0.077379 -0.057089 -0.172795 -0.421269 0.120419 0.206721 -0.151455 0.224253 -0.339664 0.077646 
buy -0.189491 -0.224301 -0.018262 -0.266014 -0.025788 0.021258 0.216842 0.046438 0.247243 0.144532 -0.039475 -0.110076 -0.039285 -0.139842 0.074299 0.219557 0.000003 0.033243 -0.332310 0.089099 
drivers -0.452935 -0.005749 0.097582 0.048211 0.591297 0.122039 -0.377389 -0.038963 0.119115 0.439290 -0.385525 0.521224 -0.463488 -0.692812 -0.013115 0.422571 0.518100 -0.332544 0.260821 0.636682 
york -0.500426 -0.066989 -0.118048 -0.044379 0.000444 0.116254 0.539641 0.127466 -0.314722 0.023217 0.305439 -0.333231 -0.250424 -0.730483 0.500108 0.011825 0.661520 0.181061 0.354975 0.251787 
instead -0.080980 -0.126841 -0.080433 -0.211710 0.184810 -0.186376 -0.192526 -0.073946 0.345163 -0.028963 -0.086497 0.112761 0.087609 -0.511757 -0.073634 0.281608 -0.018329 -0.257062 0.033348 0.090351 
soon 0.712951 -0.052452 -0.186406 0.426605 0.561076 -0.577728 0.724592 -0.076312 -0.838096 0.402906 0.106154 0.260984 -0.373608 -1.112817 0.080606 0.676787 0.687516 -1.043334 0.053668 0.168893 
note -0.030539 0.073941 -0.008144 0.006748 -0.014479 0.113719 -0.028909 0.076949 0.105089 0.007335 0.173704 0.296599 -0.132781 -0.313598 0.148434 -0.034097 -0.179557 0.020057 0.023244 0.232572 
couple 0.093554 0.006768 -0.236661 -0.244271 -0.040103 -0.083083 0.019146 -0.075731 0.152740 -0.135436 0.321840 -0.175081 0.051399 -0.220211 -0.133943 -0.153374 0.155802 -0.060735 -0.244377 0.107528 
weapons 0.036899 -0.167807 0.000471 -0.070165 -0.261551 0.261251 0.181332 0.205573 0.397496 0.364628 0.264709 -0.180530 0.159973 -0.272126 0.047395 0.534654 -0.321852 0.289766 0.035103 0.013949 
fax 0.098350 -0.725988 0.628821 -0.486031 0.185302 -0.445760 0.626717 -0.401949 -0.203659 -0.051477 -0.287568 -0.171496 -0.001739 -0.923911 0.273000 0.399556 0.626609 0.261609 -0.309481 0.023126 
center -0.117768 -0.262582 0.289299 -0.104815 -0.361037 0.037344 0.766653 0.070443 0.247830 -0.559881 0.042921 -0.528377 0.285058 -0.771403 0.019790 0.988400 0.253608 0.458164 -0.425583 -0.203067 
order 0.149797 0.128629 -0.032411 -0.205945 -0.075575 0.199075 0.310876 -0.049777 0.285151 -0.016795 0.075534 0.144952 -0.206350 -0.156321 0.128138 0.128455 0.077626 -0.037268 -0.372672 0.219000 
th -0.163054 -0.344573 0.214441 -0.653560 0.188363 -0.131624 0.079186 0.068707 0.192916 0.205081 0.296011 -0.708613 0.224963 -0.373942 0.170381 0.140554 0.132846 0.420457 -0.286937 -0.060427 
guy -0.055812 0.016907 -0.467494 -0.190584 0.046187 -0.276082 0.031416 -0.164090 0.244918 0.161932 -0.132840 -0.396985 0.070238 0.019514 0.112307 0.176084 -0.157789 -0.228174 -0.359856 0.071664 
faith 0.533861 0.434360 -0.523582 0.204986 -0.440960 0.298786 -0.043176 -0.077880 0.225059 -0.132252 0.186352 0.252007 0.085773 -0.155288 0.556078 -0.046155 -0.553668 0.535394 -0.188667 0.069803 
dx -0.394372 0.100074 -0.215569 0.083305 0.195174 -0.140926 -0.102887 -0.243998 0.426192 0.365876 -0.885107 0.240933 0.046925 -0.393711 -0.007409 0.056041 0.151768 -0.126965 -0.415904 0.216030 
bill 0.039561 -0.052297 0.008891 -0.220793 0.052048 -0.148897 0.148521 -0.124159 -0.053091 -0.087906 0.135645 -0.089103 -0.070568 -0.242877 -0.216858 0.172832 -0.059614 -0.066941 -0.200529 0.055009 
files -0.077898 -0.329040 0.215038 -0.358109 0.293488 -0.348377 0.097921 -0.114120 0.427142 0.475906 -0.566203 0.214748 -0.009942 -0.745605 -0.061083 -0.029471 -0.059296 -0.339464 -0.291509 0.308540 
programs 0.009486 -0.504417 0.213615 -0.413146 0.356107 -0.491178 -0.241607 -0.289586 0.194391 -0.040225 -0.521469 0.071705 0.072040 -0.558270 -0.267458 0.009127 0.453842 0.025549 -0.226361 0.237227 
three -0.416483 -0.396894 -0.266302 -0.122687 -0.419069 -0.087454 0.055728 0.062174 0.130741 -0.249514 0.529643 -0.136406 0.243899 -0.187080 0.119767 0.080719 -0.011931 -0.010197 -0.336023 -0.215347 
area -0.256993 -0.049349 -0.248825 -0.190788 -0.035698 0.138120 0.228708 0.056680 0.080358 0.068021 0.191578 -0.173373 -0.107872 -0.251990 0.005691 0.197317 0.133758 0.123879 -0.063117 0.016330 
once 0.115925 0.023641 -0.198619 -0.002844 -0.099922 0.142420 0.043714 -0.032365 0.260636 0.070875 0.044920 0.037526 0.030228 -0.295383 0.296683 0.069447 0.052545 0.031381 -0.091900 0.051849 
paul 0.104383 0.078591 -0.033087 -0.212177 0.134994 -0.083866 0.126336 -0.011605 0.001345 -0.321397 -0.001435 -0.124292 -0.212543 -0.146845 0.225934 -0.016204 0.067936 0.065902 -0.070634 -0.080823 
theres 0.049844 0.187609 -0.046550 -0.299516 0.323106 -0.191725 -0.091465 -0.150181 0.224810 0.032513 -0.038742 -0.041828 -0.014906 -0.423846 -0.152633 0.051136 -0.188238 -0.002105 -0.321050 0.271777 
saying 0.104116 0.081225 -0.238117 -0.066212 -0.101662 0.052303 0.043981 -0.014094 0.225026 -0.052975 0.335879 0.281121 -0.245511 -0.311809 0.366459 -0.087330 -0.334438 0.168687 -0.226555 0.241930 
large -0.305139 -0.246955 0.047276 -0.227285 0.049257 -0.000090 0.183603 -0.042240 0.345542 -0.058669 0.016460 -0.069207 -0.043327 -0.246083 0.048150 0.088803 0.163883 -0.015038 -0.278611 0.141048 
therefore 0.640716 0.000040 -0.372556 0.265888 -0.180414 0.095483 -0.104007 -0.081519 0.409977 -0.050344 0.429943 0.624053 -0.171803 -0.239850 0.518810 -0.057787 -0.431821 0.874991 -0.053554 0.186476 
several -0.252902 -0.208330 -0.233228 -0.173317 -0.125074 0.043843 0.033194 0.099930 0.216470 -0.128221 0.179279 -0.014952 -0.034454 -0.378836 -0.079854 0.272801 -0.079975 -0.264327 -0.214018 0.060816 
station -0.255366 -0.384178 0.182407 -0.528842 -0.050606 -0.394506 0.080412 -0.104112 0.019002 -0.606502 0.134970 -0.420371 0.300719 -0.579110 -0.231407 0.149490 0.339402 -0.021515 -0.265577 -0.135716 
answer -0.163438 0.105011 -0.255233 -0.261831 -0.109196 0.047059 0.289407 0.014723 0.191886 -0.104925 0.063348 -0.137097 -0.177128 -0.389046 0.194498 0.165407 -0.182199 0.148568 -0.291020 0.234375 
lets -0.023033 -0.070601 -0.257913 -0.146249 -0.188743 -0.171308 -0.176951 0.167424 0.147391 -0.008196 0.393552 -0.405349 0.237690 -0.169676 -0.206273 0.073375 -0.447801 -0.212897 -0.189611 -0.192271 
check -0.136378 0.002769 -0.136844 -0.206985 -0.046133 -0.050854 0.060900 -0.038370 0.268507 0.031097 -0.008700 -0.037966 -0.028904 -0.410187 -0.065016 0.192720 0.036437 -0.082949 -0.260985 0.059060 
especially 0.180344 -0.008155 -0.264066 0.097336 -0.152626 0.143048 0.161733 0.008086 0.188724 0.127419 0.147766 0.016969 0.039419 -0.398728 0.068749 0.247341 0.086900 0.115305 -0.032839 0.175890 
ago -0.050300 -0.314117 -0.427372 -0.162377 -0.297673 -0.165378 -0.152209 0.090582 0.098242 -0.210806 0.559270 -0.108204 0.196674 -0.570039 -0.167787 -0.019095 -0.077172 -0.528246 -0.074445 0.176606 
took -0.297478 -0.289185 -0.180547 -0.265509 0.386309 -0.363158 0.048277 -0.099075 0.245417 0.059437 0.095997 0.042773 -0.080262 -0.494701 -0.114215 0.048298 0.302376 -0.385087 -0.325635 0.051837 
ie -0.144598 -0.064988 0.145737 -0.193527 0.364286 -0.162970 -0.227226 -0.013618 0.320116 0.406714 -0.268389 0.277874 -0.063599 -0.423127 -0.087636 0.247386 0.022677 0.014545 -0.245417 0.344050 
simply -0.073086 0.074193 -0.303820 0.103037 -0.100943 0.163807 0.119764 0.095610 0.250541 -0.005179 0.328666 0.216362 -0.164467 -0.065640 0.310387 0.039647 -0.158243 0.269091 -0.176374 -0.058458 
earth -0.085879 -0.058687 0.111682 -0.468307 0.244500 -0.234522 0.105041 -0.295052 0.483623 0.143613 -0.028888 -0.186143 0.152738 -0.530842 0.294613 -0.129415 0.115380 0.388091 -0.414161 -0.200784 
anybody -0.321960 0.035996 0.184138 -0.332084 0.428123 -0.153719 0.036832 -0.097732 -0.166206 0.097839 -0.472116 0.095078 -0.399382 -0.582105 -0.080286 0.304149 0.053271 -0.084113 0.099138 0.400082 
top -0.343326 -0.116706 -0.042948 -0.307190 0.227017 -0.185565 -0.209035 -0.162510 -0.042349 -0.112884 0.039680 -0.186480 -0.038414 -0.388818 -0.189930 -0.027419 0.387787 0.006643 -0.067650 0.166995 
offer 0.091240 -0.209122 0.133433 -0.497363 0.420110 -0.031768 -0.092136 -0.108863 0.112717 0.106226 -0.169578 -0.223604 -0.116358 -0.397198 -0.178043 -0.117467 0.094666 0.003212 -0.280893 0.212330 
hope 0.096501 -0.089663 -0.055488 0.062308 0.062068 0.038937 0.155343 -0.030871 -0.002373 0.123802 -0.063925 0.091616 -0.211376 -0.372902 0.120934 0.384835 -0.099985 -0.003061 -0.005304 0.016018 
history 0.014786 -0.119932 0.072483 -0.006512 -0.159459 0.150038 0.487173 -0.017685 -0.002079 -0.340309 -0.001148 0.091267 -0.224812 -0.307933 0.340012 0.388610 -0.255295 0.122196 -0.129245 -0.231917 
days -0.174815 -0.216495 -0.129878 -0.090567 -0.209582 -0.194209 -0.110135 -0.093704 0.109530 -0.145297 0.480595 -0.191305 0.190754 -0.196504 -0.111030 0.180353 -0.001042 -0.225904 -0.152594 -0.114153 
important -0.092680 -0.109373 -0.099574 -0.162772 -0.040190 0.179515 -0.019967 0.091002 0.457886 0.111882 0.118552 0.046178 -0.111215 -0.375205 0.167062 0.187950 -0.199804 0.146269 -0.174973 0.005016 
claim -0.149034 -0.104710 -0.118583 -0.059871 -0.097255 0.143447 0.135301 0.123958 0.251289 -0.135074 0.185145 -0.041694 -0.109800 -0.131253 0.369211 0.479898 -0.225908 0.298614 -0.034814 -0.137166 
player -0.232622 0.041676 -0.245095 -0.426636 -0.049904 -0.139060 -0.102703 -0.032458 0.125104 -0.132326 0.133940 -0.471803 0.219302 0.001387 -0.044370 0.018705 -0.008019 0.172587 -0.071848 -0.156923 
atheists 0.383716 0.453207 -0.273649 -0.302354 -0.050990 0.177000 -0.141404 0.126623 0.136000 -0.061484 0.052671 0.542048 -0.400847 -0.222084 0.316202 0.192971 -0.723215 0.549252 -0.267584 0.364498 
talking -0.078914 0.003426 -0.083048 0.076375 -0.203292 0.193800 0.149623 -0.000638 0.175121 0.201566 0.303132 -0.059651 -0.101051 -0.268405 0.078392 0.102210 -0.221013 -0.190969 -0.262936 -0.021467 
start -0.077450 0.025005 -0.000251 0.079160 -0.037189 0.163871 0.053763 -0.088780 0.318613 0.079908 0.065955 -0.092194 0.048615 -0.431019 0.004591 0.256520 -0.254867 0.005375 -0.009989 -0.001744 
feel -0.084998 0.023635 -0.009810 0.059109 -0.171766 0.183315 0.050499 0.045616 0.269275 0.169644 0.137045 0.051517 -0.037243 -0.117486 0.230937 0.116924 -0.237277 0.049454 -0.031489 0.065719 
gods 0.218531 0.329828 -0.317799 0.253585 -0.376228 0.178876 -0.105301 -0.038517 0.360915 -0.208169 -0.032203 0.488931 -0.057890 -0.355792 0.709076 0.212643 -0.638151 0.470456 -0.231363 0.060950 
standard 0.049521 -0.065459 0.165081 -0.096168 0.289478 0.019493 0.157905 -0.014418 0.114479 0.201984 -0.198037 -0.029197 -0.055531 -0.420905 0.025263 0.194279 0.275078 0.114869 0.156667 0.156514 
news -0.136611 0.217634 0.014741 -0.213054 -0.155011 0.173477 0.079471 0.045580 -0.267852 0.130245 0.055621 -0.080321 -0.141141 -0.299472 -0.099970 0.453535 -0.233895 0.278553 -0.037076 0.026113 
similar -0.246662 -0.001628 -0.215648 -0.070328 -0.043840 0.067104 -0.006041 -0.016092 0.281138 -0.061714 0.083557 -0.017712 0.083576 -0.251357 -0.022851 0.072613 -0.049351 -0.135952 -0.011252 0.040173 
os 0.024488 0.141042 0.069975 -0.119541 0.492685 -0.050285 -0.548461 -0.055900 0.285759 0.502537 -0.339123 -0.125480 0.030348 -0.548488 -0.171071 -0.104114 0.263718 -0.009100 0.153624 0.251159 
already 0.099361 0.028332 -0.167393 -0.082211 0.007770 0.106741 0.125464 -0.065547 0.127971 -0.035560 0.175151 0.189053 -0.176863 -0.242284 0.095992 0.176642 -0.015182 0.047607 -0.198008 0.137729 
crime -0.203010 -0.136141 0.100503 0.226844 -0.461823 0.598933 0.283672 0.239991 0.045115 0.110998 0.345635 -0.184187 0.105109 -0.227609 -0.131208 0.782059 -0.290692 0.385354 0.077266 -0.146707 
almost -0.237571 -0.136678 -0.103489 -0.132306 -0.175426 0.179734 0.052643 0.030559 0.054728 -0.103035 0.289306 -0.064132 -0.028530 -0.556158 0.050595 0.131950 0.025858 0.086028 0.072612 0.127606 
road -0.031899 -0.109575 -0.088522 -0.152699 0.019154 -0.016843 0.292579 -0.007288 0.069231 -0.008703 0.152503 -0.063309 -0.101824 -0.308189 0.058957 0.271156 0.073917 -0.008174 -0.290622 0.059876 
nasa -0.346829 -0.464404 0.338996 -0.251519 -0.070003 -0.358313 0.234360 -0.099612 0.403356 -0.610826 0.147401 -0.490568 0.530909 -0.913640 -0.281594 0.683281 0.522311 0.501857 -0.485240 -0.171871 
children -0.202615 -0.229558 -0.122288 0.335480 -0.632483 0.141531 0.089873 0.200814 0.333871 -0.197719 0.678678 -0.101946 0.244147 0.171052 0.121931 0.904204 -0.101323 0.479949 0.135275 -0.351074 
rate -0.587921 0.005880 -0.117990 0.277871 -0.408352 0.574753 -0.003161 0.003780 0.324846 0.507799 0.264120 0.011299 0.049250 -0.320650 -0.222464 0.544785 0.085968 0.323131 0.341554 0.237079 
mine -0.088385 -0.108014 -0.220302 -0.369636 -0.072080 -0.140162 0.174395 -0.213200 0.191205 -0.460012 0.061781 0.015773 -0.270756 -0.241690 -0.108762 -0.037109 0.076632 -0.297780 -0.214528 0.096720 
argument 0.102321 0.012586 -0.211082 -0.058302 -0.254431 0.205882 0.095262 0.115543 0.236018 -0.018269 0.185891 0.117205 -0.322558 -0.065009 0.239410 0.229865 -0.380608 0.320642 -0.047064 -0.019970 
christ 0.260533 -0.222707 -0.311795 -0.004604 -0.058260 -0.208795 -0.041090 -0.076037 0.179594 -0.385635 0.431169 0.103801 0.040454 0.017971 0.405008 0.032404 -0.160388 0.392958 -0.266603 -0.214349 
de -0.031614 0.495630 -0.029087 -0.246395 -0.098871 0.079954 0.069111 0.078564 0.211032 -0.589472 0.320451 0.506043 -0.270124 0.135297 0.503493 0.008149 -0.320739 1.038858 -0.665036 0.012569 
understand 0.069283 0.055545 -0.064611 -0.034771 0.125698 -0.090172 -0.012596 -0.032252 0.242403 0.048398 -0.031206 0.235536 -0.059910 -0.372827 0.192201 0.163934 -0.250614 -0.029264 -0.168404 0.066246 
wanted 0.132831 0.159788 -0.066864 -0.132605 -0.055130 0.088729 0.117384 -0.068040 0.081571 -0.015462 0.034267 0.162125 -0.163133 -0.339952 0.006053 0.298496 -0.210312 -0.028426 0.006206 0.117130 
hit -0.365530 -0.123828 -0.306573 -0.136528 -0.129164 0.127008 -0.100504 -0.047324 0.233872 -0.052562 0.397030 -0.057736 0.144755 -0.161353 -0.102448 -0.030637 -0.018530 -0.181697 -0.116144 0.140556 
likely -0.030605 -0.065076 -0.259425 0.160237 -0.271020 0.100384 -0.048863 0.122164 0.354068 0.238072 0.472571 0.206687 0.037158 -0.210249 0.050486 0.380706 -0.379415 0.006602 -0.146667 0.093219 
defense -0.133013 -0.087462 0.081350 -0.156684 0.169785 0.217157 -0.254631 0.085460 0.418804 0.083179 0.323950 -0.143207 -0.050828 -0.081561 0.194136 0.466790 -0.214957 -0.052693 -0.022603 -0.357450 
truth 0.154855 -0.157420 -0.330723 0.247155 -0.261017 0.094887 -0.172841 -0.201897 0.164911 0.071063 0.211066 0.154254 -0.037995 -0.289680 0.389776 0.291677 -0.239874 0.424626 -0.107474 0.026489 
running -0.330011 0.065418 0.132794 -0.333888 0.511155 -0.087015 -0.412960 -0.168562 0.108894 0.425509 -0.563151 0.056059 -0.174360 -0.400672 -0.209136 -0.082979 0.262030 -0.062144 0.014440 0.362593 
certain 0.010027 -0.075874 -0.110647 0.122249 -0.264472 0.166744 0.106080 0.052799 0.192503 0.083558 0.398709 0.004470 -0.072150 -0.101549 0.129604 0.363690 -0.164162 0.178061 -0.101580 -0.149526 
usually -0.006131 0.118676 -0.233983 0.084291 0.060008 0.054870 0.006403 0.065015 0.260195 0.020410 0.051241 0.039359 -0.125334 -0.123494 -0.068344 0.352221 0.008610 0.140656 0.036952 0.094607 
st -0.783736 -0.270928 -0.259405 -0.595652 0.535587 -0.189084 -0.024591 0.273932 -0.368830 0.236606 1.202860 -0.668972 -0.075182 -0.920034 0.414565 0.088674 0.834287 0.870177 0.201105 -0.254498 
cause 0.018109 -0.040520 -0.073527 0.023242 -0.194843 0.221577 0.052112 0.170860 0.201011 0.260439 0.478765 0.093282 -0.194916 -0.176095 0.223518 0.271795 -0.342067 0.212789 -0.230835 0.114053 
making -0.150507 -0.022414 -0.178713 -0.146212 -0.178175 0.095170 0.156185 0.029068 0.246596 -0.046663 0.335175 0.103787 -0.028628 -0.103011 0.255324 0.052103 -0.312162 0.047998 -0.264435 0.087451 
firearms -0.058317 -0.031315 -0.230696 0.085362 -0.108019 0.180456 -0.054009 0.060849 0.209830 0.351483 0.291366 0.044487 -0.083728 -0.341179 -0.113978 0.348586 -0.132070 0.105582 -0.062897 -0.139403 
jon 0.001274 0.121317 0.104206 -0.118975 -0.092734 -0.057522 0.172659 0.057280 -0.152198 -0.368257 0.182978 0.151905 -0.180369 -0.623120 -0.048284 0.122507 -0.322996 -0.055119 -0.567413 0.074175 
hi -0.089147 -0.078384 0.305975 -0.425114 0.372135 -0.137624 0.014225 -0.272170 0.175592 0.027804 -0.606495 0.331889 -0.360264 -0.705367 -0.002241 -0.023825 0.122974 -0.093697 -0.020199 0.492289 
current -0.019237 -0.223695 -0.215856 -0.044789 0.013007 -0.193057 -0.180393 -0.092956 0.196582 0.002067 -0.023706 -0.154717 0.095185 -0.344050 0.253302 0.230371 -0.049276 0.166185 -0.148728 -0.067950 
jews -0.024990 -0.065867 0.150568 0.437889 -0.292882 0.223048 0.167254 0.168386 0.049972 -0.328006 0.314709 0.132983 -0.268043 -0.037082 0.152951 0.385870 -0.385800 -0.030726 -0.244613 -0.179819 
head -0.146158 -0.182668 -0.301082 -0.208350 0.074537 -0.110416 0.016466 -0.004013 0.209254 -0.133143 0.203264 -0.205426 -0.076182 -0.213826 0.015741 0.047325 0.043344 -0.002135 -0.274537 -0.003322 
comes -0.126163 -0.199986 -0.009009 -0.234448 0.396380 -0.142179 0.082066 -0.127630 0.126786 0.130637 -0.211366 0.085276 -0.250263 -0.328068 -0.184425 -0.018641 0.379103 -0.329309 -0.181451 0.255654 
havent -0.278813 0.128165 -0.250974 -0.269308 -0.057624 -0.093646 -0.060271 -0.004071 0.125884 -0.149864 0.139618 -0.238628 -0.067413 -0.007362 0.046884 -0.122331 -0.234999 -0.011514 -0.281927 0.044075 
single -0.049831 -0.114727 0.124539 -0.005259 -0.320820 0.180147 0.527158 -0.053331 0.168437 0.034475 0.103999 -0.014371 -0.035272 -0.367654 -0.055306 0.280867 0.128823 -0.064194 -0.229082 0.030227 
bible 0.044542 0.072608 -0.348976 0.047860 -0.132529 0.199885 -0.065738 -0.091315 0.201166 0.021505 0.423523 0.155610 -0.159455 -0.022365 0.426461 -0.001736 -0.289184 0.234730 -0.165821 -0.056284 
pp -1.332396 -0.307655 -0.433184 -0.442035 1.015274 -0.458531 -0.058563 0.580856 -0.634269 0.276114 1.494699 -0.368924 -0.357755 -0.823403 0.755846 -0.499025 0.925198 0.718937 0.323041 -0.362889 
machine -0.347035 -0.144499 -0.108937 -0.080023 0.393378 -0.084427 -0.440042 0.061092 0.382143 0.481181 -0.287431 0.447371 -0.288103 -0.466588 -0.158024 0.340892 0.080307 -0.007983 -0.087982 0.326570 
average -0.232036 -0.055362 -0.134702 0.351211 -0.431251 0.421607 0.087199 0.067372 0.468401 0.032380 0.564021 -0.055822 0.146296 -0.392313 -0.016552 0.544869 -0.232656 0.127547 -0.078218 0.027237 
consider -0.184155 0.185063 0.075728 -0.000394 -0.093487 0.213479 0.175792 0.154627 -0.021282 0.060653 0.131180 0.186826 -0.175289 -0.138631 0.024195 0.448476 -0.278698 0.101728 -0.015488 0.035078 
told -0.168207 -0.257040 -0.185247 -0.171596 -0.032877 -0.028110 -0.153390 -0.025117 0.378983 -0.103583 0.070901 -0.089976 -0.060091 -0.335320 0.034602 0.213274 -0.067248 0.028466 -0.225526 0.107432 
although -0.109933 -0.011623 -0.358479 -0.201280 -0.059095 -0.055585 0.110804 -0.103539 0.093285 0.097637 0.214910 -0.131111 0.033886 -0.243283 0.246863 -0.001065 -0.148793 -0.203014 -0.249846 0.093692 
force 0.100426 -0.203328 -0.157326 -0.276184 -0.064522 0.161767 0.143399 0.018807 0.226073 0.059027 0.183260 0.081015 -0.045547 -0.345339 0.082435 0.407547 -0.141296 0.145029 -0.086610 0.009626 
within 0.039017 -0.118481 0.008412 0.028993 -0.095967 0.044178 0.310005 0.055751 0.067101 -0.231883 0.296623 0.075681 -0.072144 -0.423404 0.216045 0.427490 0.012512 0.060428 -0.189900 -0.128228 
men 0.025139 -0.002710 -0.308937 0.368322 -0.261638 -0.047776 0.201140 0.147952 0.274249 -0.116257 0.733728 -0.047985 -0.040027 0.480386 0.639816 0.470601 -0.217013 0.417051 -0.250270 -0.587032 
bus -0.748049 0.027785 0.083721 -0.078694 0.104223 0.215904 0.084291 -0.131698 0.754807 0.454949 -0.870550 0.300600 -0.303860 -0.317912 0.066043 0.510012 0.481851 -0.272855 0.017381 0.360442 
evidence 0.264095 0.117225 -0.219126 0.110397 -0.202240 0.252968 -0.158174 -0.027705 0.200842 0.049667 0.157382 0.146610 -0.117474 -0.005291 0.390482 0.074065 -0.418650 0.459708 -0.131064 0.028292 
dc -0.246780 -0.394726 -0.039450 -0.301235 -0.362390 0.251127 0.440641 0.084707 0.305769 -0.142327 -0.107471 -0.358111 0.289934 -0.655238 -0.095997 0.497174 0.145947 0.298227 -0.075223 -0.051530 
mb -0.379118 -0.284573 0.140582 -0.263623 0.563153 -0.020936 -0.053676 -0.137413 0.501585 0.636238 -0.921941 0.213066 -0.023488 -0.410272 -0.206398 0.006602 0.788363 -0.046917 -0.321655 0.490992 
experience 0.022999 -0.127829 -0.151905 -0.070952 0.032206 -0.005070 0.199894 -0.009921 0.411458 0.115395 0.168813 0.109617 -0.094178 -0.321604 0.277420 0.144833 -0.043885 0.172433 -0.377836 -0.022273 
ones 0.010059 0.054781 -0.268362 -0.037772 -0.016754 0.121789 -0.072980 0.026166 0.275012 0.073341 0.174185 0.032111 -0.127258 -0.060397 -0.019966 0.290428 0.018827 0.054338 0.055909 0.014149 
ca -0.273786 -0.424185 0.072263 -0.281970 0.323014 -0.207481 0.406807 -0.302601 0.116614 -0.012521 -0.213865 -0.341909 0.137101 -1.019794 -0.007031 0.329944 1.214440 1.230207 0.292249 0.139610 
color -0.259952 -0.329562 -0.051538 -0.225390 0.347723 -0.351302 -0.116106 -0.210855 0.098407 0.138493 -0.355020 0.099342 0.306929 -0.638407 -0.324467 0.453058 0.531875 -0.120064 0.253856 0.284187 
dod -0.199741 -0.110694 -0.059320 -0.213329 0.140509 0.001167 -0.168569 -0.172648 0.091124 0.012757 -0.016377 -0.221732 -0.048889 -0.312329 -0.080559 -0.122701 0.141827 0.129040 -0.098951 0.249127 
source 0.066027 0.043257 -0.025891 -0.030834 -0.145508 -0.129465 -0.058252 0.001873 0.202311 0.118978 0.076288 0.233786 0.091192 -0.170382 0.163105 0.231852 -0.244618 0.108993 -0.247548 0.057436 
shot -0.244372 -0.231831 -0.411561 -0.009124 -0.345643 0.066629 -0.114071 0.320802 0.151068 -0.265366 0.699668 -0.326821 0.323609 0.257055 -0.017584 0.223803 -0.044222 0.312083 0.065060 -0.291512 
toronto -0.473096 -0.186102 -0.328359 -0.280179 0.077767 -0.033073 0.140186 0.088775 0.031947 -0.116936 0.492154 -0.542656 0.138326 -0.412066 0.181224 -0.013041 0.496172 0.450870 0.221280 -0.256718 
often -0.025225 -0.022664 -0.157165 0.063058 -0.106154 0.238247 -0.119373 0.078288 0.313976 0.328582 0.051021 0.133536 -0.019834 -0.161888 0.102706 0.255989 -0.304691 0.324174 0.064542 0.051393 
original -0.069362 -0.060078 -0.042335 -0.231503 0.285851 -0.106403 0.112162 -0.128449 0.352624 0.137793 -0.121336 0.179828 -0.275304 -0.531860 -0.110612 0.194637 0.203203 -0.398471 -0.288635 0.242932 
thinking -0.125004 -0.083029 -0.185151 -0.193553 0.113057 -0.092635 -0.018405 0.022960 0.213477 0.011257 0.189912 0.052625 -0.108925 -0.530833 0.156577 0.172219 -0.012500 0.179501 -0.278294 0.139570 
deal -0.022403 -0.104433 -0.035395 -0.145155 -0.117568 0.104792 0.112516 -0.022953 0.048875 0.092285 -0.020754 0.099951 -0.095573 -0.185875 0.163537 -0.035565 -0.009088 0.035227 -0.150482 0.112700 
tom -0.195146 0.087044 0.056158 -0.221984 0.064786 -0.208700 0.060367 -0.096657 -0.090412 -0.141350 -0.032469 0.174617 -0.232337 -0.351818 -0.161335 0.111528 0.130262 -0.091840 -0.113839 0.208823 
country 0.023015 -0.070226 -0.120187 0.242023 -0.121809 0.187795 0.106646 0.111192 0.377090 -0.131110 0.403142 -0.082344 -0.007133 -0.066268 0.145668 0.524755 -0.309380 0.137048 -0.242943 -0.309906 
oh -0.258361 -0.025150 -0.238059 -0.102010 -0.091234 -0.041427 0.026783 -0.063248 0.253658 -0.215205 0.298847 -0.155596 0.109986 -0.150884 0.170037 0.051536 -0.062068 0.147898 -0.439121 -0.066270 
total -0.888071 -0.214732 -0.445710 -0.261565 0.087486 -0.008048 -0.203673 0.214516 0.093393 0.471337 0.770550 -0.399449 0.303477 -0.687778 0.044599 -0.051477 0.393822 0.071882 0.084505 -0.036384 
sorry -0.206344 -0.009580 0.032550 -0.160322 0.284179 0.009424 -0.177111 0.060320 0.202766 0.210062 -0.056509 0.028675 -0.370701 -0.467705 0.257266 0.076877 -0.066524 -0.068915 -0.115307 0.207100 
unless -0.101770 -0.059569 -0.123558 -0.253719 0.106123 0.124984 0.048548 -0.025808 0.317237 -0.046518 0.121244 0.031731 -0.129909 -0.288095 0.110971 -0.055276 0.120077 -0.005444 -0.055647 0.183199 
ram -0.403800 -0.158592 0.019508 -0.277428 0.537364 -0.105462 -0.213758 -0.205532 0.499429 0.620221 -0.998539 0.433954 -0.145863 -0.629914 -0.141240 0.173458 0.380392 -0.116077 -0.387841 0.616812 
face -0.018335 0.113772 -0.364218 -0.004074 -0.224368 0.196505 0.211880 0.064365 0.197739 0.138376 0.330136 0.154070 -0.152840 -0.309809 -0.044677 0.250156 -0.360494 0.010705 -0.186435 0.119995 
contact 0.007362 -0.414955 0.170865 -0.520127 0.086983 -0.205284 0.207025 -0.097973 0.111951 0.099873 0.072677 -0.228155 0.123110 -0.526785 0.121076 0.159614 0.168624 0.187120 -0.350785 0.148108 
issue -0.269498 0.015449 -0.101857 0.213207 -0.098884 0.312660 0.111745 0.176728 0.235925 0.194260 0.189068 0.111991 -0.203067 -0.052161 0.061721 0.464212 -0.212192 0.094363 -0.121852 -0.034548 
engine -0.240256 -0.080041 -0.281850 -0.141126 0.052199 -0.019777 0.034527 -0.027138 0.511745 0.287320 0.255217 0.083240 -0.079279 -0.393847 0.041520 0.117046 0.015944 -0.065776 -0.359942 0.108796 
james 0.306292 -0.043967 -0.075260 -0.177908 0.156973 -0.141078 0.015150 -0.105348 0.104176 0.007113 0.008313 0.054850 -0.097038 -0.042307 0.025258 -0.004664 -0.137298 0.061589 -0.302884 0.084250 
opinion -0.088628 0.170163 -0.121449 -0.085839 -0.059066 -0.105813 0.015867 0.103579 -0.013567 -0.216063 0.400559 0.040686 -0.386494 -0.284274 -0.021300 0.278041 -0.138164 0.348707 -0.026464 -0.001758 
net -0.357709 -0.166597 -0.204841 -0.368712 -0.004914 0.044125 0.012629 0.032517 0.262684 0.092224 -0.009032 -0.149420 0.039572 -0.332136 -0.141766 0.262571 -0.088739 -0.135885 -0.165453 0.190237 
nice 0.028164 0.021725 0.001640 -0.292181 0.127533 -0.150386 0.084673 -0.064846 0.181204 0.041186 -0.005008 -0.025683 -0.075081 -0.436496 0.117365 0.217624 -0.121879 0.122821 -0.223554 0.015625 
dave 0.122221 0.033050 0.107180 -0.175380 0.211656 -0.117487 0.138126 -0.033038 -0.297524 -0.064140 0.054549 -0.090899 -0.211471 -0.294798 -0.071494 0.073251 0.195411 -0.162908 0.034585 0.116107 
week -0.205018 -0.206298 -0.140414 -0.362805 0.118194 -0.186031 -0.219248 -0.076912 0.137769 -0.344820 0.301028 -0.305740 -0.007125 -0.336673 -0.212400 -0.010741 0.302951 -0.111651 -0.152742 -0.034450 
posting -0.032915 0.071565 -0.249487 -0.161012 0.029826 0.072833 0.297078 -0.075579 -0.001316 -0.017350 -0.135350 -0.116168 -0.030154 -0.339303 -0.091898 0.002490 0.033547 0.046293 -0.237791 0.082843 
biggest -0.079027 0.366484 -0.415526 -0.503760 0.171930 -0.193438 -0.228912 -0.091358 -0.223664 -0.707376 0.181877 -0.732602 -0.244628 -0.084268 -0.225325 -0.166965 -0.062602 -0.083192 0.006156 -0.149029 
friend -0.139097 -0.065816 -0.222140 -0.243810 0.188317 -0.146119 -0.017546 -0.219432 -0.108804 -0.191230 -0.047693 0.218951 -0.144723 -0.636372 -0.326318 0.179644 0.423926 -0.332465 -0.013031 0.490448 
low 0.103432 -0.170445 0.003152 -0.251590 0.163636 0.153186 0.152272 0.052286 0.330120 0.035947 0.109229 -0.114217 -0.128647 -0.338376 -0.159692 0.181498 0.140184 0.211357 -0.161433 0.038926 
everyone -0.245476 0.058608 -0.181431 0.080346 -0.095804 0.118644 0.038382 0.006997 0.090204 -0.010557 0.125459 -0.010254 -0.105226 -0.255865 0.089578 0.140874 -0.187788 -0.018414 -0.230578 0.117388 
fast -0.171483 -0.193953 -0.261625 -0.336747 0.345049 0.043415 -0.042268 -0.003050 0.389831 0.476809 -0.125955 0.222223 -0.233353 -0.363906 -0.084022 0.209398 0.152011 -0.180120 -0.164931 0.378518 
per -0.210563 -0.337989 -0.159107 -0.221279 0.263208 -0.033334 -0.025216 0.053648 0.441582 0.055665 0.168841 0.082567 -0.030316 -0.533398 -0.308769 0.369643 0.401983 -0.166328 0.043958 0.103650 
san -0.778399 -0.306786 -0.306995 -0.364401 0.253650 -0.017319 0.324210 0.124104 -0.132412 0.218184 0.596766 -0.710648 0.135222 -1.303659 0.392153 0.017342 1.109200 1.222372 0.506576 -0.010361 
chicago -0.686743 -0.018592 -0.189874 -0.357768 0.637267 -0.186552 -0.228213 0.261102 -0.097759 0.472828 0.862778 -0.822252 0.049324 -0.819427 0.598271 -0.015458 0.779924 0.664194 0.254361 -0.337637 
million -0.137849 -0.290895 0.070362 -0.030722 0.103330 -0.083602 0.005555 0.089649 0.310763 0.154155 0.013462 -0.136865 0.079709 -0.138924 -0.014811 0.571547 0.170695 0.060043 -0.084754 -0.126061 
red -0.051104 -0.100111 -0.348018 -0.202597 -0.112995 -0.093078 0.107363 -0.125545 0.056604 0.036359 0.164446 -0.136412 0.034237 -0.252609 0.133872 0.137176 -0.099344 -0.048940 -0.094343 -0.024413 
armenians -0.102959 -0.153893 -0.021522 0.154540 -0.347217 0.043614 0.204913 0.068317 0.134178 -0.302535 0.425707 -0.155354 0.066688 0.026011 0.079767 0.490043 -0.009772 0.289772 -0.089905 -0.372557 
office 0.062164 -0.323644 0.273728 -0.286219 0.162154 -0.176085 0.222032 -0.084312 0.034309 -0.024091 -0.191957 -0.255502 0.084459 -0.470055 -0.128435 0.156013 0.222860 0.191619 -0.261969 -0.111702 
anti -0.079953 -0.188724 0.103521 0.286745 -0.393867 0.422613 0.433979 0.138294 0.078458 -0.188598 0.328744 0.131875 -0.059230 -0.412773 -0.038478 0.831504 -0.213729 -0.104788 -0.033182 -0.114405 
white -0.079805 -0.357405 -0.064921 -0.320095 0.063613 -0.227950 0.009983 -0.085765 0.274731 -0.478430 0.209265 -0.483560 0.275919 -0.441436 -0.075857 0.329955 0.434154 -0.019309 -0.092209 -0.087803 
arent -0.043319 0.001975 -0.174282 -0.071851 -0.142976 0.142057 0.080816 0.064096 0.220407 0.286573 0.380795 -0.119523 -0.129617 -0.297235 0.194270 0.370126 -0.270428 -0.223494 -0.305643 0.078632 
rights -0.045889 -0.003967 -0.043372 0.133160 -0.208226 0.154096 0.340309 0.063928 0.304651 -0.055686 0.252512 0.109034 -0.181785 -0.096688 0.247038 0.653309 -0.263797 0.325787 -0.071572 -0.197684 
copy -0.250223 -0.244045 0.169858 -0.389512 0.314984 -0.269975 -0.072423 -0.060944 0.069120 0.275560 -0.264333 0.163725 -0.237075 -0.512912 -0.182960 0.098883 0.315514 -0.163733 -0.314731 0.236965 
religious -0.008357 -0.129225 -0.180903 0.105419 -0.199914 0.114398 0.126706 0.066002 0.001598 -0.201183 0.206537 0.060553 -0.057838 -0.201167 0.350661 0.152579 -0.273161 0.007981 -0.047962 -0.161238 
richard 0.026485 0.081738 -0.241800 -0.181741 0.054040 -0.015235 0.135693 -0.083539 0.038699 -0.271745 -0.079539 -0.002023 -0.070978 -0.520343 -0.011134 0.304001 0.034007 0.067716 -0.047360 0.212682 
city -0.294651 -0.080573 -0.281430 0.033312 -0.274368 0.369392 0.365162 0.029115 -0.034556 -0.087183 0.439711 -0.340680 -0.055384 -0.719882 0.222759 0.078472 0.300215 0.274118 0.272221 0.202925 
early -0.149854 -0.211597 -0.040647 -0.208799 -0.006370 0.021733 0.137064 0.071594 0.128167 -0.256890 0.227585 -0.157578 -0.043799 -0.242972 0.201630 0.324822 -0.060819 0.066391 -0.041793 -0.142299 
dealer -0.072775 -0.099493 -0.150292 -0.017317 -0.053667 -0.048447 -0.026586 -0.038197 0.220299 0.019161 0.150034 0.015374 -0.034194 -0.179783 0.070926 0.015573 -0.018908 -0.157372 -0.217748 0.028320 
murder 0.090648 -0.117800 -0.171693 0.276682 -0.157494 0.226727 0.172058 -0.170000 0.387426 -0.400725 0.416333 -0.008533 -0.227477 -0.243297 0.405308 0.652219 -0.351130 0.165795 -0.148902 -0.097978 
asking -0.020077 -0.327484 0.103163 -0.426897 0.029079 -0.134363 0.376805 -0.129069 0.100187 -0.284780 -0.050649 0.303198 -0.367642 -0.687094 0.102394 -0.343033 0.083229 -0.378917 -0.267952 0.472570 
scott -0.090069 0.218610 0.184782 -0.245849 0.395270 -0.369269 -0.025429 -0.141665 -0.240915 -0.395503 -0.125812 0.089200 -0.333632 -0.362324 0.002918 0.149749 0.117545 -0.304113 -0.071047 0.236432 
eric -0.178926 0.018624 0.045214 -0.365596 -0.012420 -0.139392 0.281942 -0.023964 -0.451893 -0.260482 0.102575 -0.310426 -0.055073 -0.444522 -0.169509 0.218363 0.083016 -0.522352 0.105142 0.124168 
situation -0.158866 0.074333 -0.100922 0.092372 -0.124518 0.224632 0.076346 0.158812 0.343899 -0.101836 0.430916 0.089517 -0.114113 -0.118644 0.148166 0.315498 -0.276488 -0.086419 -0.137184 -0.101473 
upon 0.196075 -0.118364 -0.110727 0.116959 -0.277561 0.009906 -0.011343 0.024957 0.205425 -0.204144 0.273272 0.115372 0.135806 -0.459395 0.128467 0.402817 -0.459089 0.221325 -0.194422 -0.043880 
hes -0.055528 -0.035555 -0.261201 -0.262472 -0.090452 -0.157887 -0.093955 -0.099216 0.224228 -0.047593 0.231353 -0.342729 0.120815 0.054185 -0.075295 0.034781 -0.172046 -0.176864 -0.347623 -0.010663 
black -0.020645 -0.359512 -0.126100 -0.188176 -0.021805 -0.215229 -0.050497 -0.089198 0.177031 -0.368442 0.187497 -0.367850 0.137199 -0.241596 -0.339310 0.388267 0.284314 0.181915 -0.069784 -0.129856 
access -0.073677 -0.362078 0.018399 -0.369194 0.360730 -0.333198 -0.105966 -0.031772 0.431038 0.114903 -0.348130 0.375734 0.002833 -0.468424 -0.074157 0.011625 0.053185 -0.109202 -0.255554 0.264631 
deleted 0.058308 -0.035016 0.043149 -0.239234 0.202400 -0.004855 0.074699 -0.023397 0.186569 0.194267 -0.239069 0.284544 -0.171623 -0.502669 -0.227079 0.162736 0.179758 -0.158454 -0.170655 0.284006 
shipping 0.039758 -0.338054 0.047129 -0.432587 -0.101155 -0.127413 0.456442 -0.002129 0.233989 -0.117306 -0.195369 0.260144 -0.257422 -0.452908 -0.097713 -0.016938 0.267749 -0.507924 -0.348736 0.338601 
went -0.238351 -0.381521 -0.330684 -0.129142 -0.195827 -0.100058 0.112752 -0.044306 0.176648 -0.239541 0.424627 -0.257489 0.093150 -0.041972 0.036836 -0.000524 -0.072956 -0.227673 -0.346278 -0.119428 
living 0.083216 -0.031258 -0.096704 0.034195 0.055193 0.163226 0.242828 0.005891 0.133900 0.129226 0.289499 -0.054011 -0.089396 -0.118564 0.057171 0.195202 0.071610 -0.042888 -0.048330 -0.041223 
division -0.479512 -0.279201 -0.128101 -0.481913 0.037123 0.081564 0.153624 -0.119284 0.205361 -0.309809 0.076592 -0.612298 0.030781 -0.745544 0.271685 -0.012745 0.191265 0.319987 0.172843 0.187484 
young -0.579996 -0.416456 -0.351445 -0.584491 0.075545 -0.017327 0.083045 0.019488 0.034179 -0.253346 0.729417 -0.642340 0.025544 -0.441484 0.278445 0.007802 0.227357 -0.156593 0.020556 -0.076093 
video -0.259008 -0.255302 -0.044450 -0.268630 0.329760 0.007153 -0.156114 -0.054997 0.410952 0.447327 -0.541252 0.074712 0.023278 -0.590648 -0.204772 0.354706 0.450662 0.067460 -0.058947 0.501476 
sometimes -0.245560 -0.096328 -0.245821 -0.045187 0.051204 0.058743 0.003711 -0.022547 0.294841 0.219462 0.031133 0.110096 -0.160556 -0.392724 0.052570 0.157338 0.074887 -0.038743 -0.107325 0.195357 
major -0.292203 -0.067895 0.050795 -0.359535 -0.020436 -0.062333 0.016854 -0.127701 0.210862 -0.117774 0.095941 -0.205478 0.038017 -0.626638 -0.271384 0.306064 -0.063235 0.015210 -0.149506 0.154078 
simple -0.119188 0.060778 -0.295321 0.095494 -0.262799 0.222862 -0.010012 0.039477 0.398073 0.240099 0.096437 0.181653 -0.058519 -0.264617 -0.104639 0.365638 -0.201380 -0.014587 -0.109275 0.138516 
