990 20 
learning -0.309249 -0.093721 0.229155 0.037175 -0.121430 -0.184983 -0.093842 -0.384703 -0.050400 0.449569 0.186406 -0.587642 -0.205447 0.136718 0.167145 0.226463 -0.292883 -0.451788 -0.174388 0.155960 
model 0.095210 -0.212838 -0.251574 0.240241 0.022579 0.166282 -0.277793 0.166038 0.111641 -0.300012 0.205887 -0.294440 -0.345788 -0.010753 0.119540 0.050413 -0.057255 -0.109243 -0.011933 0.208227 
data 0.129422 -0.276096 -0.412998 0.186434 -0.243012 -0.099874 -0.308887 0.268974 -0.010774 0.028279 0.198088 0.162834 -0.022071 0.476980 0.045227 -0.132404 0.266010 -0.149353 0.032287 0.288347 
network -0.066684 0.089369 0.406702 0.154511 0.315400 0.086830 0.053990 0.132717 0.367871 0.166940 -0.007265 -0.089541 -0.523204 0.009138 -0.034026 -0.325660 0.297817 -0.432392 -0.266967 -0.605313 
algorithm -0.348589 -0.634512 0.193548 -0.046347 -0.019513 -0.172841 -0.224782 0.033721 -0.096538 0.195200 -0.110555 -0.322670 -0.349806 0.003870 0.093918 0.274651 0.084527 0.038801 -0.053024 0.325333 
neural -0.236784 0.061084 0.430553 0.015567 0.344528 0.174326 -0.099390 -0.069512 0.505812 -0.013460 0.325634 -0.170841 -0.432220 -0.209904 -0.391639 -0.181777 0.218762 -0.705509 -0.306394 -0.449809 
using -0.037507 -0.029968 -0.085120 0.213668 -0.094831 0.011913 -0.151163 0.177567 0.116746 0.083063 0.088416 -0.294253 -0.287043 0.044999 0.114781 -0.223724 0.108662 -0.175560 -0.073361 0.110025 
based -0.064208 -0.077274 0.087181 -0.090229 -0.071035 -0.002503 -0.011685 0.116590 -0.023064 0.176219 -0.092197 -0.324633 -0.119606 0.195859 0.083084 0.284587 0.058055 -0.365098 -0.106214 0.191691 
networks -0.206252 -0.070273 0.574659 0.157443 0.367094 0.317872 -0.257145 0.345973 0.303241 0.414526 0.119701 -0.000541 -0.336067 -0.186701 -0.116941 0.127300 0.367999 -0.327376 -0.011611 -0.506839 
our -0.201488 -0.283867 0.018158 -0.118537 -0.367473 -0.156930 0.066860 0.136726 0.305820 0.248286 0.051385 -0.082892 0.042584 0.345714 0.441203 0.095199 0.065713 -0.313730 -0.049428 0.506280 
these -0.151069 0.093385 0.059784 -0.034744 0.045950 -0.195024 -0.057756 0.069963 0.065901 0.267417 0.016983 -0.110012 -0.085930 0.066082 0.081538 -0.125290 -0.034247 -0.080719 -0.111385 0.333777 
problem -0.102530 0.095862 0.177832 0.005764 -0.027122 -0.219677 -0.223577 0.162561 -0.101060 0.145931 -0.115428 -0.481754 -0.391947 0.213031 0.004605 0.489154 0.221299 -0.129188 -0.117234 0.184872 
time -0.216864 0.108743 -0.223389 0.074171 -0.388142 -0.064466 -0.252951 -0.118674 0.089056 0.393881 0.091200 -0.000994 -0.330359 -0.200851 0.088492 -0.050031 0.174895 -0.029369 -0.425601 -0.223245 
models -0.236470 -0.311956 -0.147108 0.229694 0.176746 0.107296 -0.031450 0.355884 -0.065913 0.220054 0.123274 -0.341346 -0.373033 0.032841 -0.142360 0.263910 -0.031610 -0.282519 -0.270845 0.247388 
function -0.007368 0.053224 -0.074038 -0.383390 0.020570 0.005647 0.279744 -0.203058 -0.151618 0.427233 -0.260373 -0.092819 -0.675471 0.291821 -0.034821 0.088118 0.023175 0.131360 0.207270 -0.100579 
two -0.152988 0.029919 -0.010119 -0.073038 -0.083091 0.031725 -0.192452 0.152195 0.130936 0.282727 -0.178041 -0.166912 -0.200023 0.180978 -0.216036 -0.034695 0.099391 -0.097281 -0.293344 -0.112680 
have -0.072183 0.233548 0.287683 0.146983 0.358569 -0.157728 -0.023576 0.181595 -0.124668 0.208053 0.211886 0.019343 -0.133123 -0.414995 -0.332169 -0.236268 -0.123272 -0.177740 -0.159458 0.296561 
method -0.045624 -0.279796 0.146158 0.009462 -0.065454 0.048484 -0.054192 0.224357 0.039579 0.343396 0.032347 -0.151619 -0.202767 0.204494 0.012475 0.492746 0.007806 -0.088047 0.133525 0.290646 
results -0.111003 -0.259234 0.257394 -0.230427 -0.304672 -0.181588 -0.068718 0.401360 0.000599 0.405476 0.456564 -0.300103 0.136830 0.270751 0.270182 -0.389869 -0.034203 -0.291454 -0.018632 0.339660 
show -0.154012 -0.159083 -0.130653 -0.238813 -0.176394 -0.171417 -0.094191 0.108873 0.321231 0.375473 0.051918 -0.163101 0.047852 0.074823 0.057516 0.024276 -0.015833 -0.230689 0.134376 0.139332 
paper -0.195047 -0.002211 0.416757 0.074112 0.034455 -0.194430 -0.386452 0.255907 0.010498 -0.003998 0.131317 -0.424848 -0.073857 0.029192 0.134465 0.427452 -0.048163 -0.293241 -0.104793 0.289233 
used -0.158695 -0.004763 -0.092994 0.158252 -0.035495 -0.085497 -0.193211 -0.106683 -0.041937 0.250325 0.068241 -0.068221 -0.282089 0.107476 0.057231 -0.064122 -0.038446 -0.059717 -0.112685 0.125793 
information 0.155157 0.331281 -0.350924 -0.076041 0.098243 -0.118797 0.018941 -0.119767 0.191810 0.056294 -0.109959 0.241335 -0.325735 -0.471896 -0.025354 -0.084644 -0.143683 -0.332951 -0.025299 0.028677 
such -0.061655 0.100470 -0.007303 -0.080903 0.187172 -0.141936 -0.255211 0.282638 0.100049 0.077189 -0.145621 -0.117213 -0.259564 0.173457 0.087924 0.181548 0.048204 -0.205243 0.058696 0.269960 
system -0.202810 0.019190 0.200551 0.253708 -0.072538 -0.212821 -0.591379 -0.129153 0.180555 -0.172009 0.325155 -0.023625 -0.435275 -0.298103 -0.073491 -0.259633 0.044555 -0.585639 -0.510962 -0.101200 
training 0.130891 -0.244706 0.009155 0.218843 -0.256661 -0.114868 -0.025190 0.132501 -0.114418 0.290845 0.009794 0.361844 -0.295291 0.791116 -0.093292 0.044714 0.095635 -0.369814 0.311399 -0.056366 
has -0.007159 0.273515 0.355416 0.274032 0.542900 -0.211005 0.059567 -0.097598 -0.139317 0.084403 -0.117470 -0.125145 -0.216335 -0.625916 -0.412585 -0.377807 0.061847 -0.038526 -0.161519 0.630628 
input 0.209414 0.406691 -0.564338 -0.153239 0.297105 0.261239 -0.061806 0.089403 0.135069 -0.309537 -0.126988 0.191756 -0.392888 0.122001 0.066899 -0.370814 0.258079 -0.381913 -0.386955 -0.242770 
each 0.102002 0.022321 -0.331610 0.222295 0.031916 0.074471 0.029245 -0.095342 -0.136968 0.213497 -0.230706 0.206102 -0.423013 0.024327 -0.222000 -0.145796 0.181876 0.221626 -0.262120 0.168021 
set 0.203343 0.086858 -0.426598 0.090367 -0.382746 0.093466 -0.165848 0.306516 -0.208711 -0.066691 -0.200493 0.432044 -0.378643 0.427575 0.131823 -0.078851 0.174300 -0.118806 -0.075324 0.050550 
between 0.330536 0.171146 -0.306385 -0.087089 -0.017980 0.058608 0.064284 -0.054954 0.444524 -0.101093 -0.256975 -0.038362 -0.303825 0.122953 -0.185823 -0.402752 0.065816 -0.120067 -0.194063 0.133695 
new -0.162897 -0.362510 0.104891 -0.028365 0.057069 -0.089550 -0.017217 -0.037133 0.045806 -0.017722 -0.016909 -0.255640 -0.053348 0.191755 0.146183 0.337161 0.122460 -0.215840 -0.136056 0.435567 
approach -0.343478 -0.324763 0.210136 -0.020711 -0.226447 -0.344442 -0.154577 0.348419 0.172890 0.090275 0.107690 -0.411728 0.005443 0.041856 0.034191 0.230433 -0.006420 -0.173688 -0.034392 0.391039 
algorithms -0.391919 -0.343713 0.217421 -0.193962 0.116868 -0.360967 -0.099370 -0.003945 0.014082 0.626554 0.037719 -0.541623 -0.140043 -0.037606 -0.033971 0.490617 -0.045013 -0.068087 0.203584 0.401711 
state -0.363557 -0.148258 -0.254587 0.077655 -0.255363 0.020238 0.129353 0.163795 -0.291508 -0.039950 0.025587 0.064362 -0.948642 -0.394482 -0.154326 0.031430 -0.102800 0.458039 -0.580876 -0.325652 
performance -0.308641 -0.251116 0.223529 0.027312 -0.311133 -0.035085 -0.384106 -0.099060 0.051920 0.491303 0.376774 0.157822 -0.079490 -0.135302 0.037477 -0.166001 0.026015 -0.341564 0.019930 0.289583 
linear -0.286047 -0.014439 0.361130 -0.344477 0.351728 0.307466 -0.039928 0.061067 0.059752 0.235638 -0.086760 -0.206406 -0.546195 0.304334 0.093281 0.414945 -0.115098 -0.115078 0.261603 0.240802 
number 0.214824 0.009408 -0.142351 0.089273 -0.000622 -0.025155 -0.221217 0.269527 0.096593 0.170626 -0.018969 0.194789 -0.409392 0.581794 0.022161 -0.228247 0.351873 0.180909 0.359366 -0.105733 
present -0.056968 -0.128119 0.213935 0.046571 -0.157298 -0.077313 -0.046135 0.116806 0.249232 0.125156 0.058393 -0.572937 -0.073068 0.128554 0.276692 0.330260 0.082110 -0.303704 -0.085596 0.159851 
than -0.777831 0.165200 0.039478 0.032745 0.026021 0.081351 -0.496203 0.154668 0.047268 0.803642 -0.041270 -0.044654 0.285748 -0.136089 0.115368 -0.715981 -0.619313 0.351813 0.463077 0.148523 
error 0.352889 -0.577613 0.013022 0.023379 -0.801224 -0.189437 0.130028 -0.099140 -0.026833 0.648949 0.018391 0.332777 -0.345012 0.264376 -0.058825 -0.438422 -0.330301 -0.339970 0.648626 -0.176490 
methods -0.418990 -0.457937 0.458329 -0.039415 -0.013372 -0.162699 -0.125511 0.303690 -0.048080 0.576722 0.154130 -0.236711 0.062685 0.029754 0.000405 0.285154 -0.106197 -0.022846 -0.018325 0.446161 
its 0.122635 0.094329 -0.188676 0.064738 0.018339 -0.015770 -0.152904 -0.097573 -0.066618 0.024027 0.034976 0.143531 -0.420415 -0.076833 0.019361 -0.142381 -0.147513 0.008083 -0.038209 0.085322 
use -0.091757 -0.275412 -0.107980 -0.004815 -0.036088 0.063790 -0.279869 0.090647 -0.018622 0.145706 0.022129 -0.144167 -0.116149 -0.087668 0.026263 0.065408 0.016986 -0.135590 -0.059237 0.296638 
been -0.648661 0.021321 0.241686 0.796932 0.900325 -0.476066 0.032424 -0.038007 -0.559944 0.057027 0.200164 0.308364 -0.186478 -0.210824 0.236718 -0.206837 -0.013636 -0.437354 -0.790740 0.693920 
both -0.140709 -0.192444 -0.152226 -0.088501 -0.087791 -0.163479 0.040583 -0.090510 0.267724 0.294973 0.073147 -0.126953 -0.162412 0.113409 0.275127 -0.002032 -0.043974 -0.182793 -0.057012 0.133639 
more -0.286058 0.074040 0.183197 0.136126 0.286633 0.038474 -0.343826 0.036438 0.068755 0.629869 -0.215839 0.238271 0.234007 0.086848 0.113384 -0.183294 -0.271263 -0.092878 0.091172 0.196198 
space -0.079252 0.004594 -0.276483 -0.386914 -0.031205 0.447430 -0.413078 0.197231 -0.404611 -0.003836 -0.121224 -0.093546 -0.359861 0.103323 -0.201026 0.143887 0.471552 0.230120 0.034572 0.329937 
analysis 0.253733 -0.119704 0.101267 -0.074599 0.142489 0.377745 -0.292334 -0.110239 0.178912 0.026722 -0.056565 -0.074538 0.102386 0.272991 0.421345 -0.003248 0.045101 0.037772 -0.047219 0.681797 
over 0.026279 -0.247997 -0.177144 0.077215 -0.190514 -0.145878 -0.171210 0.307487 0.015306 0.143171 -0.134394 -0.015889 -0.266107 0.038067 0.082315 -0.233903 0.155617 0.138272 -0.008316 0.102538 
problems -0.231897 -0.282853 0.258905 -0.178798 -0.100244 -0.514305 -0.328445 0.166037 -0.065540 0.535192 0.155326 -0.228551 -0.074340 0.216764 -0.023138 0.514598 0.173493 -0.129283 -0.057749 0.295721 
neurons 0.069122 0.519939 -0.360469 -0.357508 0.587736 -0.100975 -0.061241 -0.225660 0.437238 -0.229351 0.286507 -0.032437 -0.554483 -0.047337 0.026335 -0.626540 -0.324183 -0.148605 -0.320897 -0.186903 
but -0.030279 0.147152 -0.190597 -0.043696 0.329753 -0.011587 -0.092563 0.069759 0.099040 0.193017 -0.040896 0.051503 -0.322021 -0.030290 0.170909 -0.180352 -0.317014 0.043296 -0.052330 0.064374 
classification 0.120738 -0.118062 0.525519 -0.255823 -0.319213 -0.477120 -0.317486 0.268865 -0.204332 0.405284 -0.055220 -0.189578 0.073172 0.419794 -0.275976 0.110472 0.373712 -0.771256 -0.022594 0.322370 
functions -0.304311 -0.043944 0.263490 -0.540913 0.100957 0.525463 0.277535 0.170974 -0.049628 0.352274 -0.226936 -0.071029 -0.628527 0.315709 0.198233 0.174648 0.026964 -0.043080 0.146943 0.194232 
other -0.201147 0.126993 -0.036334 0.015775 -0.200555 -0.091544 -0.113331 -0.031063 0.085593 0.371212 -0.046463 0.209045 -0.104585 -0.046004 -0.059478 -0.008597 -0.148129 -0.051645 -0.044306 0.242185 
given 0.084940 -0.113274 -0.361631 0.011683 -0.129972 -0.070712 -0.098330 0.168617 -0.209006 -0.033537 -0.306494 0.246849 -0.639603 0.146485 -0.143496 -0.084370 0.134032 0.135034 0.129283 -0.155783 
distribution -0.013305 -0.440011 -0.480592 0.301817 -0.146912 0.258567 0.103585 0.445040 -0.198762 -0.318900 -0.494021 0.155946 -0.531310 -0.209167 -0.141050 0.020734 -0.006934 0.188816 0.153402 0.114983 
different 0.082135 0.267602 -0.118565 -0.020289 -0.153015 -0.041264 -0.054529 0.156031 0.117332 0.195521 0.181010 -0.045170 -0.147045 0.266461 0.043269 -0.181508 -0.030890 -0.362297 -0.256671 0.208670 
parameters 0.228734 -0.172391 -0.429071 0.007994 0.032648 0.145198 -0.002237 0.148911 -0.054462 0.148745 0.103374 -0.112646 -0.527122 0.229136 0.002925 -0.050989 0.114386 0.236352 0.320143 0.077155 
recognition 0.081470 -0.483378 0.371569 0.335075 -0.073569 -0.565271 -0.955702 -0.172190 0.244075 0.225638 0.180672 0.158730 0.286869 0.166339 -0.048515 -0.147370 0.392770 -0.790545 -0.502322 0.127705 
into 0.090778 0.268590 -0.075908 -0.132037 0.205416 0.186006 -0.279807 0.237418 0.117503 -0.071647 -0.015272 -0.007544 -0.442108 0.287823 -0.047094 0.038995 0.245013 -0.227483 -0.280514 0.072655 
simple -0.142050 0.044347 0.103057 -0.011288 0.153458 -0.100633 -0.061596 0.126516 -0.023928 -0.126329 0.053139 -0.188808 -0.271335 0.102886 0.157966 0.050281 -0.025049 -0.221340 0.041639 0.208063 
large 0.031072 -0.241840 0.306271 0.239649 -0.075481 -0.091772 -0.216904 0.397695 0.061838 0.191851 0.165258 0.182452 -0.302435 0.206039 -0.078731 0.069575 0.140015 -0.258061 0.235511 0.147954 
well -0.115106 -0.106889 -0.158876 -0.128167 -0.182793 0.033235 -0.145358 0.211568 0.257995 0.114289 0.148268 -0.050327 -0.012078 0.047596 0.017874 0.049804 0.175726 -0.368842 -0.196989 0.422740 
noise 0.524655 -0.398677 -0.551274 0.036911 0.151453 0.282071 -0.388687 0.127474 0.087943 -0.139416 0.203045 0.135445 -0.253891 -0.126214 0.545916 -0.059054 -0.189638 -0.182949 -0.153660 0.176247 
local 0.190640 -0.196518 -0.089694 -0.156258 0.286995 0.280459 -0.057392 0.035996 -0.032289 0.349853 -0.128653 -0.109454 -0.282789 -0.036683 0.032165 -0.216077 0.176429 0.310325 0.232156 0.545121 
order 0.122517 0.332751 -0.299592 0.210147 0.287119 0.280413 -0.436409 0.138333 0.323724 0.533984 -0.150270 -0.091149 -0.033058 0.000851 0.053141 0.031359 -0.083846 0.157846 -0.098610 -0.141354 
their 0.016466 0.297862 -0.200970 -0.029477 0.086189 -0.032493 -0.164583 0.261250 0.164637 -0.016124 0.185005 0.100241 -0.311210 -0.167850 -0.126205 -0.162198 -0.004821 -0.046992 -0.272011 0.199216 
image 0.568213 0.284617 -0.204378 0.381130 -0.108546 -0.001804 -0.532298 0.153383 0.189053 -0.124822 0.107824 -0.243198 0.121500 -0.005559 0.026140 -0.030818 0.467190 -0.184835 -0.080667 0.736052 
first 0.003190 0.090415 -0.375879 -0.015952 0.100886 0.085329 -0.119081 0.051118 -0.155678 0.373739 0.174034 -0.281160 -0.255553 -0.158332 -0.180023 0.014374 -0.030049 0.027195 -0.208087 -0.093170 
images 0.380541 0.383938 -0.234827 0.360423 -0.150820 0.063948 -0.629908 0.174482 0.191414 -0.102151 0.050935 -0.033113 0.270910 0.046705 -0.097896 -0.074653 0.710638 -0.386331 -0.099075 0.777150 
probability 0.177379 -0.453088 -0.465231 0.137358 -0.151230 0.034718 0.120389 0.414487 -0.103420 -0.132977 -0.602482 -0.033675 -0.635451 -0.338882 -0.104220 -0.247728 0.270917 0.466353 0.289970 -0.000228 
visual 0.288672 0.662194 0.216654 0.082361 0.371972 -0.109291 -0.395810 -0.325235 0.434180 -0.763529 0.346996 -0.020627 -0.329745 -0.181684 0.176692 -0.190543 -0.209604 -0.813128 -0.527139 0.611888 
optimal -0.353909 -0.324349 -0.034243 -0.403968 -0.299844 -0.012308 -0.074047 0.168483 -0.232652 0.355963 -0.185408 0.032805 -0.543939 0.057211 0.066314 0.198573 -0.474877 0.121095 0.039410 -0.014224 
vector 0.129258 0.319046 0.249474 -0.885797 -0.425969 -0.091745 -0.727674 0.076732 -0.630437 -0.230670 -1.342884 -0.108108 -0.388041 0.053636 0.301750 0.233096 0.490143 -0.641324 0.213037 0.016220 
class 0.297565 -0.027975 0.058437 -0.258719 -0.090983 -0.220335 -0.213361 0.365495 -0.071437 0.132594 -0.300026 -0.184948 -0.406153 0.531284 -0.245494 0.324384 0.260703 -0.247274 0.242949 0.087646 
structure 0.130302 0.263699 0.001604 0.011181 0.155863 0.147672 -0.074378 0.169535 0.279024 -0.007098 0.049708 -0.166123 -0.306828 -0.107581 -0.024264 0.099491 0.145015 -0.448024 -0.047802 0.361453 
single -0.141173 0.069366 -0.377364 -0.008670 0.186875 -0.007750 0.036837 -0.030828 0.054328 0.176137 -0.123338 -0.006815 -0.351925 0.284322 0.023226 -0.043376 -0.066233 -0.034455 -0.096984 -0.115773 
non 0.192612 0.133262 -0.213791 0.039144 0.435055 0.329235 -0.074530 0.166449 0.119267 0.171408 -0.071968 -0.129499 -0.249996 0.262791 0.114415 0.087503 -0.097906 0.219951 0.131092 0.453595 
output 0.165593 0.208789 -0.505945 -0.066683 0.243782 0.111571 0.063519 0.150324 0.196045 -0.330849 -0.326449 0.390132 -0.711817 -0.005738 -0.156327 -0.541842 0.497789 -0.306888 -0.081920 -0.540794 
hidden -0.130173 -0.138623 -0.232539 0.703721 0.436465 0.097015 0.337353 0.742863 0.120370 0.163004 -0.027694 -0.599622 -0.527613 0.143741 -0.487424 -0.169846 0.304733 0.066507 -0.059852 -0.811392 
gaussian 0.032364 -0.457052 -0.419160 0.125778 0.072573 0.441567 0.396902 0.428195 0.100841 0.092631 -0.203708 -0.075171 -0.251687 0.027657 0.137814 0.328075 0.010352 -0.081441 0.059619 0.399451 
feature 0.076218 0.246885 0.116931 -0.392066 -0.256142 0.525134 -0.597184 0.308220 -0.050577 -0.160297 -0.212837 0.080155 -0.058131 0.171716 -0.285177 0.302303 0.657666 -0.273881 -0.304670 0.524144 
many -0.199711 0.111191 0.212533 0.059642 0.244392 -0.279335 -0.214979 0.019137 0.018275 0.381802 -0.072497 -0.102864 0.059306 0.038851 0.241334 0.014454 -0.152724 -0.144720 -0.240171 0.236256 
shown -0.106424 0.058535 0.096998 0.037417 0.186815 -0.445996 -0.153190 0.005296 -0.181297 0.167715 -0.159267 0.237421 -0.260680 -0.124787 -0.185085 -0.273955 -0.050325 -0.029423 -0.217024 0.300770 
systems -0.013904 -0.011295 0.445475 -0.068268 0.185648 -0.117550 -0.478184 -0.106473 0.385739 0.065612 0.308509 -0.077947 -0.051771 -0.213598 -0.067919 -0.091274 -0.354327 -0.442049 -0.440002 -0.058670 
features 0.433017 0.386687 -0.193688 -0.081468 0.227926 0.083942 -0.317237 0.341605 0.250178 -0.122065 -0.139140 -0.080282 0.007063 0.222540 -0.187589 -0.159688 0.150089 -0.486248 -0.049546 0.593743 
experiments -0.138390 -0.108673 0.162005 -0.002125 -0.287245 -0.095677 -0.346208 0.156630 0.032018 0.111426 0.419885 -0.067922 0.122864 0.223110 0.120435 -0.099941 0.054858 -0.339619 -0.175835 0.421099 
rate 0.194656 -0.112132 -0.052449 0.103178 -0.565897 -0.437623 -0.215897 -0.406629 0.236219 0.546777 -0.140392 0.404860 -0.168083 -0.353733 0.229953 -0.238576 -0.482372 -0.059654 0.241783 -0.338492 
task -0.064173 -0.038248 0.158218 0.263768 -0.054881 -0.291070 -0.237908 -0.015189 0.303459 -0.071286 0.149683 -0.200473 -0.096727 0.129652 -0.160235 -0.015452 0.045467 -0.409811 -0.109351 0.327198 
real 0.422688 0.241187 0.246039 0.162995 -0.581357 -0.465602 -0.289563 0.076937 0.095896 0.239102 0.893109 0.036151 -0.164742 0.125421 0.348290 0.093921 0.286121 -0.366013 -0.402589 0.007374 
generalization 0.282204 -0.405977 0.386544 0.001767 -0.681172 -0.065759 -0.128481 0.218208 -0.077692 0.571743 0.301729 0.234145 -0.318416 0.223614 0.063458 -0.184105 -0.063418 -0.334425 0.346614 -0.061771 
control -0.403095 -0.036535 0.005691 -0.032038 -0.382569 -0.229647 -0.267807 -0.099828 0.035705 0.136466 0.316060 -0.143737 -0.638437 -0.271487 0.017489 0.297128 -0.163418 -0.091254 -0.379181 -0.331310 
may -0.259791 0.179304 -0.141020 -0.200606 -0.151585 -0.025108 -0.201062 0.335662 -0.014684 0.018006 0.174973 0.156606 -0.233956 -0.068659 0.180006 -0.204694 -0.037393 -0.258213 -0.146092 -0.043582 
process -0.209521 -0.076156 -0.218694 0.308238 -0.006155 0.292829 0.106953 0.152091 -0.151268 -0.012263 0.050846 -0.179445 -0.377717 0.231537 -0.128172 -0.151775 -0.241270 -0.163033 -0.110050 -0.125978 
case -0.216221 -0.278008 -0.204143 0.217801 0.062743 0.070509 0.106589 0.068996 -0.112951 0.183927 -0.179229 0.153813 -0.503927 -0.014823 -0.020036 0.129672 -0.283405 0.130731 0.082724 0.146748 
proposed -0.303230 -0.204173 0.093273 -0.020922 -0.174334 -0.270441 -0.091290 -0.111728 0.085998 0.190234 -0.081977 -0.466552 0.135312 0.015536 0.119116 -0.068812 0.088782 -0.301333 -0.073181 0.496762 
value -0.576335 0.120170 0.004729 -0.245532 -0.484855 -0.189248 0.165383 -0.473360 -0.458636 0.565471 -0.265355 -0.255246 -0.963921 -0.120509 -0.171764 0.163097 -0.513266 0.556350 -0.080173 -0.080694 
propose -0.068775 0.087187 0.047913 -0.092768 -0.041789 -0.038863 -0.141357 0.188534 0.248261 0.075278 -0.011102 -0.475452 -0.198342 0.102693 0.046860 0.270027 0.248180 -0.378165 0.032641 0.276770 
high 0.600792 -0.016801 -0.257066 -0.114958 -0.012839 0.331932 -1.049528 0.088745 -0.110106 -0.047298 0.288826 0.238796 0.118035 -0.210207 0.338877 -0.133875 0.297152 0.082772 -0.395422 0.429881 
bayesian -0.118077 -0.572660 0.094066 0.247476 -0.035036 0.076522 -0.134309 0.384889 0.191337 0.100129 -0.093029 -0.267804 -0.171477 0.123233 0.184720 0.351068 0.047925 -0.043916 0.040315 0.585705 
examples 0.067700 -0.254752 -0.021571 0.314731 -0.397452 -0.074904 0.048429 0.353410 -0.110788 0.149203 -0.051256 0.026721 -0.359118 0.442025 -0.172028 0.035440 0.298900 -0.247293 0.245411 0.100622 
units -0.017380 0.075113 -0.172077 0.166922 0.510844 0.173766 0.259017 0.103868 0.278532 0.161189 -0.149167 -0.094155 -0.729676 0.193207 -0.558217 -0.553489 0.340374 -0.197540 -0.128611 -0.555803 
weights -0.066848 0.092700 -0.182574 0.115225 0.047272 0.295424 0.072863 0.130101 -0.043915 0.424865 -0.233933 0.434141 -0.642200 0.326424 -0.139625 -0.235297 0.337309 0.034441 0.218992 -0.639859 
speech -0.084004 -0.390793 -0.008883 0.651740 -0.236589 -0.371823 -0.980742 -0.281142 0.362518 -0.171184 0.321523 0.036253 0.052405 -0.003693 -0.013844 0.107808 0.274918 -0.857363 -0.586474 0.135793 
framework 0.002687 -0.279247 0.037550 0.229011 0.182718 -0.160512 -0.007333 0.308178 0.122650 0.124407 0.018735 -0.496968 -0.238715 0.257903 0.021368 0.597516 -0.008241 -0.296514 0.233555 0.479908 
signal 0.306683 0.273134 -0.093806 0.072504 0.203875 0.040645 -0.410992 0.021754 0.269830 -0.207072 0.252301 0.201758 -0.213707 -0.440945 0.513375 -0.189745 -0.323615 -0.225460 -0.499029 0.036590 
patterns 0.067703 0.345279 -0.248521 -0.025595 0.271690 -0.222501 -0.081836 0.050317 0.389726 -0.240271 0.079684 0.172507 -0.409489 -0.177052 0.178206 -0.252666 0.020950 -0.515265 -0.118704 -0.208428 
processing 0.078402 0.480154 0.234068 0.139461 0.240976 -0.133954 -0.405116 -0.260007 0.329304 -0.464701 0.276254 0.004138 -0.054919 -0.367955 0.198565 -0.321943 -0.351085 -0.807759 -0.502288 0.123666 
same 0.031507 0.082130 -0.242171 0.150820 0.127305 -0.036418 -0.051438 0.124629 0.091886 0.241257 -0.153666 0.255620 -0.307642 0.141725 -0.116520 -0.265874 -0.174245 0.001014 0.175286 -0.047624 
while 0.186424 0.005353 0.020450 -0.025074 -0.140108 0.033828 -0.254390 0.017116 0.119582 0.183917 -0.056996 0.006718 -0.168654 -0.012508 -0.039665 -0.331928 0.040033 0.011732 0.069468 0.135682 
form -0.250371 0.047139 0.067945 0.088441 0.087395 0.096301 -0.043042 -0.124150 -0.065525 0.211085 -0.280394 -0.133850 -0.357259 0.106763 0.038075 0.148174 -0.046314 0.064668 0.049619 0.107427 
representation 0.085860 0.175605 -0.033150 0.011223 -0.061293 0.426286 -0.284721 -0.052240 -0.126794 -0.012178 -0.096471 0.029999 -0.290377 -0.058267 -0.041414 0.029627 0.154890 -0.081294 -0.250601 0.214315 
general -0.400531 -0.072491 0.259066 -0.175001 0.105237 -0.102367 -0.162606 0.120946 -0.036674 0.355721 -0.190360 -0.232206 -0.170254 0.252424 -0.023997 0.268939 -0.054065 -0.085200 0.068699 0.193860 
demonstrate -0.141983 -0.110252 0.191137 0.013673 -0.324897 -0.098680 -0.225721 0.122444 -0.022469 0.384898 0.407575 -0.377451 -0.003104 0.232465 0.412682 -0.065635 0.160181 -0.391556 -0.191950 0.224773 
kernel 0.073706 -0.130889 0.114018 -0.358394 -0.312097 0.293761 0.185354 0.366873 -0.046928 0.181466 -0.620456 -0.146564 -0.031241 0.582179 -0.052775 0.340859 0.369309 -0.272207 0.253368 0.774709 
sets 0.369538 0.155016 -0.316713 0.027888 -0.357426 0.057612 -0.087953 0.232964 0.007140 0.176153 0.044454 0.365320 -0.262204 0.551606 0.232744 -0.122410 0.334446 -0.182818 0.015332 0.426117 
nonlinear -0.140132 -0.008422 -0.087659 -0.282412 0.286196 0.211395 -0.214408 0.084824 0.309719 0.130528 0.019738 -0.370089 -0.259336 0.105425 0.035242 0.105328 -0.029622 0.044567 -0.081464 0.089004 
here -0.221777 0.115373 -0.294859 -0.223568 0.033792 -0.130641 -0.266267 0.060275 0.079030 -0.014256 0.183205 0.066077 -0.152975 0.021829 0.129582 -0.117058 -0.189573 -0.077973 -0.151978 0.223051 
several -0.144712 0.082239 0.204642 0.119257 -0.138856 -0.141893 -0.221153 0.100580 0.059754 0.299744 0.122461 0.018539 0.004709 0.046171 0.093232 -0.113571 0.151329 -0.321657 -0.170555 0.214007 
markov -0.485885 -0.368083 -0.162407 0.838367 0.445490 0.059297 0.338507 0.691967 0.063100 0.236592 0.242144 -0.707745 -0.676621 0.060276 -0.402706 0.445678 0.065496 -0.075217 -0.267609 -0.359721 
statistical 0.039527 -0.165582 -0.023551 -0.120485 0.055521 -0.044010 -0.211015 0.291454 0.202590 0.033196 0.115349 -0.177275 -0.045776 0.149055 0.231392 0.486713 -0.052390 -0.128377 0.043501 0.503917 
they -0.111935 0.360400 -0.019367 -0.036471 0.308373 -0.267009 -0.194011 0.181465 -0.052465 0.136900 0.176973 0.060586 -0.246646 -0.108882 0.046687 -0.035850 -0.270807 -0.225812 -0.079777 0.360463 
neuron 0.050709 0.783489 -0.707911 -0.033736 0.500894 -0.206754 0.126093 -0.198997 0.273794 -0.311391 -0.279565 0.117362 -0.562993 -0.280714 -0.134492 -0.652640 -0.132952 0.086686 -0.018387 -0.219996 
about 0.068518 0.362869 -0.234414 0.046932 -0.151788 -0.210313 -0.176925 0.218212 0.274433 0.026225 -0.141314 -0.013248 -0.125870 -0.434647 0.233270 -0.202829 -0.233030 -0.053095 -0.031287 -0.069153 
estimation 0.065528 -0.569015 -0.192912 0.075976 0.002340 -0.066501 -0.079781 0.160002 -0.188070 0.245963 0.024311 -0.446466 -0.187621 0.037119 0.440639 0.519561 0.211270 0.031576 0.215251 0.399403 
approximation -0.202099 -0.475850 0.183047 -0.043784 -0.185481 0.142663 0.033870 -0.037124 -0.092555 0.520861 -0.329740 -0.204062 -0.546501 -0.010880 0.171567 0.184565 -0.184640 0.214513 0.333700 0.113854 
theory -0.148252 -0.168171 0.168538 0.010417 -0.102097 -0.118887 0.002419 0.022245 0.291776 0.272180 -0.063614 -0.108464 -0.021001 -0.326564 0.328661 0.148788 -0.392073 -0.215808 -0.032990 0.319505 
second 0.335465 0.178347 -0.337890 -0.091140 -0.043668 0.232478 -0.167521 -0.007582 0.106662 0.257317 -0.094727 -0.037871 -0.200530 -0.119961 0.037191 -0.197075 -0.025359 0.338365 -0.003130 0.069885 
presented 0.008738 0.020388 0.184358 -0.089793 -0.217552 -0.064905 -0.029717 -0.014498 0.132829 0.100651 0.083988 -0.404645 -0.104094 0.164630 0.093215 0.070250 0.127879 -0.411965 -0.278572 0.226489 
possible -0.136401 -0.095691 -0.179163 -0.098625 -0.060363 -0.156077 -0.233438 -0.007203 -0.012938 0.034834 -0.266083 0.160395 -0.451842 0.008189 -0.034975 -0.353252 0.058057 0.144207 0.041904 -0.017133 
natural 0.258908 0.137713 0.000407 0.210776 -0.000134 -0.167697 -0.348586 0.224101 0.270136 0.004145 -0.017048 -0.075832 0.038568 -0.017090 0.058491 0.109507 -0.104320 -0.337738 0.050083 0.582834 
propagation -0.410367 -0.692991 0.725055 0.791798 0.280666 0.723955 -0.104181 -0.118166 0.438955 0.676284 -0.297161 -0.171006 -0.405345 -0.499807 -0.204304 -0.519842 0.025144 -0.161223 -0.162422 -0.323549 
trained -0.169468 -0.109372 0.191711 0.270714 0.061973 0.019329 -0.139625 0.269666 0.030465 0.275488 0.181515 -0.016869 -0.231866 0.095259 -0.415746 -0.115976 0.214868 -0.497383 -0.255031 -0.264306 
dimensional 0.310806 0.157082 -0.304962 -0.285491 0.190745 0.493887 -0.899902 -0.034140 -0.324176 -0.023509 0.031626 0.134483 -0.164436 0.107313 0.239547 0.545352 0.424410 0.065781 -0.020791 0.626777 
applied -0.204851 0.123707 0.077219 -0.045966 0.093065 -0.196965 -0.213164 -0.080296 0.012355 0.044683 -0.034699 -0.197332 0.019132 0.077357 0.083357 0.006859 0.338027 -0.297073 -0.204709 0.170654 
work -0.028559 -0.020622 0.106672 0.026960 0.096534 -0.214263 -0.053231 0.117122 0.117780 0.200102 0.033950 0.083484 0.039743 -0.017567 0.039972 0.037921 -0.297964 -0.314241 -0.291555 0.662994 
known -0.120039 -0.279809 -0.133708 -0.213503 -0.141893 -0.070969 -0.239652 0.219559 -0.002938 0.291900 -0.007386 0.025631 -0.138033 0.241523 0.137501 0.221290 -0.210910 -0.130301 0.044546 0.300175 
point -0.042760 -0.130898 -0.202346 -0.061695 -0.220923 0.035718 0.006375 -0.043861 0.238285 0.226683 -0.475372 0.257660 -0.298324 0.116465 -0.169646 -0.102110 -0.134628 0.116494 0.086173 0.277088 
techniques -0.085078 -0.117333 0.333957 0.070185 0.105206 -0.204352 -0.097570 0.161992 0.074507 0.358574 0.117448 -0.289055 -0.028267 -0.037018 0.091910 0.268493 0.152544 -0.317042 0.071636 0.499752 
particular -0.028521 -0.012539 0.071127 -0.023559 -0.024938 -0.064200 -0.150198 0.145050 -0.081848 0.228811 -0.095377 0.012387 -0.175343 0.187367 0.026200 -0.071792 -0.112551 -0.093531 0.008615 0.317738 
prediction -0.132640 -0.103072 -0.048200 0.167976 -0.472230 -0.219017 -0.254085 0.046464 0.040037 0.305765 0.037716 0.176313 -0.317725 0.313333 -0.049109 0.085263 -0.177590 0.051577 -0.226122 -0.193407 
small 0.249880 0.094208 -0.032702 0.335424 0.136048 0.125596 0.004897 0.202431 0.178789 0.205606 0.278896 0.332778 -0.401877 0.267042 0.049549 -0.292497 0.056292 -0.042822 0.023193 0.075149 
computational 0.044906 -0.043839 0.263571 -0.166384 0.218417 -0.111955 -0.232365 0.004977 -0.058774 -0.007436 0.353005 -0.057619 -0.082366 -0.004937 0.136651 -0.062487 -0.061301 -0.125138 -0.215533 0.314021 
figure 0.344390 0.079792 -0.359464 0.353069 -0.041122 -0.108254 -0.241161 -0.021605 -0.163286 0.476485 -0.034540 0.299955 -0.292680 0.231205 -0.594752 -0.851937 -0.348852 0.443137 -0.040092 0.276691 
so 0.184603 0.011421 -0.368969 0.131034 0.109572 -0.079737 -0.058727 -0.107830 -0.103402 0.077716 -0.198195 0.170527 -0.703175 0.088830 0.079047 -0.342712 -0.009498 0.226369 -0.060334 0.162087 
complexity 0.277513 -0.034691 0.385406 -0.043828 0.024616 -0.038055 -0.272707 0.069009 -0.067952 0.349542 0.142549 0.119083 -0.229512 0.141407 -0.101657 -0.158959 -0.119892 -0.038909 0.295528 0.309146 
gradient -0.381511 -0.590155 0.445087 -0.176865 -0.104176 0.012006 -0.281773 -0.386652 0.038806 0.935499 0.055871 -0.547143 -0.463270 0.129394 0.373388 0.164045 -0.122743 0.648205 0.303611 -0.217647 
most -0.133495 -0.004556 -0.167796 0.121865 -0.019552 -0.046912 -0.216862 0.147987 -0.012720 0.221950 -0.084229 -0.034438 -0.200650 0.164628 0.138853 0.102042 0.018974 0.065690 -0.060888 0.354841 
regression 0.248697 -0.495975 -0.163665 -0.338569 0.001978 0.040030 -0.175769 0.084890 -0.308413 0.270175 -0.383406 -0.228823 -0.132965 0.722850 0.008096 0.179977 0.334304 -0.134371 0.222698 0.528400 
estimate 0.115401 -0.336418 -0.255097 -0.025048 -0.010370 -0.086939 -0.357430 0.064888 -0.108529 0.241972 -0.001241 0.123503 -0.483958 0.098042 0.210745 -0.460411 -0.230886 0.498544 0.294544 0.134139 
points 0.018443 -0.238771 -0.474281 -0.022287 -0.157379 0.293655 -0.176833 0.382693 -0.021787 -0.014380 -0.325930 0.500271 -0.504166 0.361387 -0.121458 0.173868 0.213718 0.115281 0.125976 0.332707 
policy -0.678013 -0.092599 -0.113037 -0.264770 -0.372607 -0.275169 0.031902 -0.328034 -0.505660 0.850682 -0.104675 -0.229041 -1.197529 -0.137054 0.057342 0.396268 -0.549491 0.837975 -0.044136 -0.102062 
inputs 0.068026 0.226528 -0.261068 -0.237392 0.347985 0.041186 -0.267062 -0.132397 0.193103 -0.135813 0.178046 0.166955 -0.338044 0.072460 -0.009339 -0.647156 -0.106564 -0.064846 -0.184865 -0.315074 
reinforcement -0.411962 0.099509 0.362433 -0.143218 -0.004197 -0.234108 0.210244 -0.291467 -0.184179 0.271750 0.210137 -0.679473 -0.293679 -0.108681 -0.000493 0.571779 -0.558113 -0.005608 -0.289475 0.317812 
pattern 0.320688 0.131191 0.076943 0.281406 0.013624 -0.334489 -0.367545 -0.174050 0.061750 -0.248293 0.060107 -0.016208 -0.167612 0.174197 0.104508 -0.178246 0.523407 -0.717836 -0.270163 0.300459 
properties -0.020066 0.270028 0.089795 -0.113107 0.437630 -0.126887 -0.315461 0.021743 0.356933 -0.189952 0.129801 -0.050097 -0.227063 -0.044150 0.202245 -0.113217 -0.233634 -0.373948 -0.017287 0.208714 
through -0.014089 0.125811 0.004089 -0.065919 0.144819 0.105182 -0.152895 -0.112006 0.092202 0.206130 0.264208 -0.151807 -0.237237 -0.124286 0.231803 -0.313444 0.069347 -0.164150 -0.223279 0.071138 
matrix 0.235587 0.128612 -0.293044 -0.188616 0.124068 0.778171 0.121150 -0.103864 -0.128102 0.284846 -0.744839 0.192367 -0.740273 0.335817 -0.187587 -0.314135 0.058452 0.420335 -0.123264 -0.050476 
layer -0.207766 0.482747 -0.071537 0.281509 0.736064 0.145531 0.238626 0.173104 0.199188 0.179787 -0.025770 -0.283133 -0.724827 0.381023 -0.461901 -0.257415 0.738664 -0.534302 -0.383777 -1.011055 
states -0.232453 0.028512 -0.269719 -0.064901 -0.280802 -0.006842 -0.053215 0.086129 -0.060469 0.191199 -0.224461 0.104546 -0.755352 -0.155339 -0.219850 -0.216618 -0.167673 0.420784 -0.210551 -0.480839 
independent 0.138385 -0.184190 -0.340900 -0.099773 0.004696 -0.008217 -0.399963 -0.216883 0.226464 -0.100719 -0.178547 0.123364 -0.102604 0.097808 0.009109 -0.132059 -0.184181 -0.104492 0.101978 0.467351 
convergence -0.395205 -0.355229 0.212127 -0.285785 -0.316290 -0.328301 -0.022992 -0.138316 0.115791 0.809845 0.108962 -0.114523 -0.146830 -0.106665 0.260102 -0.264111 -0.760927 0.369923 0.251569 0.095994 
standard -0.290899 -0.444341 0.155704 0.081908 -0.226397 0.028133 -0.111840 0.111180 0.146770 0.417511 0.054499 -0.210930 -0.159137 0.141935 -0.091582 -0.049026 0.064485 -0.084206 0.082676 0.006769 
tasks 0.102806 0.133567 0.248700 -0.058928 -0.097916 -0.510990 -0.622011 -0.082450 0.068154 -0.083180 0.457390 -0.318286 -0.106660 0.006603 0.069164 0.034787 -0.011605 -0.553571 -0.152253 0.268668 
dynamics -0.195942 0.033564 0.047002 -0.183679 0.055447 0.312234 -0.109731 -0.048657 0.228325 -0.028960 0.263986 -0.211219 -0.475271 -0.225760 0.149092 -0.204514 -0.108821 -0.080198 -0.314940 -0.331595 
temporal 0.197050 0.658171 -0.086934 -0.059656 0.216067 -0.134252 -0.163318 -0.166917 0.397874 -0.300739 0.139821 -0.125598 -0.198481 -0.188454 0.259144 -0.132570 -0.277409 -0.355773 -0.499398 0.059899 
architecture -0.048035 0.131444 0.304220 0.225240 0.145927 0.162897 -0.097267 -0.016678 0.221170 0.005059 0.160695 -0.202947 -0.400107 0.099995 -0.005788 -0.146876 0.393521 -0.581541 -0.470076 -0.204350 
weight 0.056208 0.022985 0.042721 -0.369123 -0.378333 0.239458 -0.075717 -0.046529 -0.058855 0.507574 -0.377586 0.410665 -0.540819 -0.120003 -0.001293 -0.498076 -0.052818 0.256420 0.210636 -0.293051 
novel -0.092359 -0.152940 0.438433 0.075252 0.039829 0.091199 -0.332886 0.113782 0.204481 0.041819 0.072322 -0.465075 0.093665 0.274199 0.009841 0.164771 0.147113 -0.449165 -0.171944 0.322901 
allows -0.063603 0.080986 0.018094 0.059090 -0.023931 0.185862 -0.014226 -0.085348 0.023466 0.177636 -0.054905 -0.392733 -0.272122 -0.138460 0.037659 0.019782 -0.067956 -0.036583 0.069329 0.450506 
provide -0.070445 -0.119873 0.016534 -0.241661 -0.318333 -0.044972 0.023904 0.140641 0.066104 0.387746 0.029039 0.026905 0.048996 -0.038464 0.277710 -0.014551 -0.143680 -0.327424 0.095896 0.383539 
learn -0.221439 0.030683 -0.016511 -0.089814 0.085456 -0.004740 -0.275924 -0.043270 -0.099027 -0.055124 0.057081 -0.118589 -0.346662 0.120297 0.032336 0.063835 -0.074879 -0.027331 0.091494 0.133498 
random 0.108016 -0.171520 -0.193955 0.425367 0.196411 0.184226 0.096625 0.518995 0.214170 0.148874 0.129893 -0.132309 -0.386597 -0.087507 -0.198434 -0.214104 0.057409 0.119056 -0.039298 0.025352 
under -0.345177 -0.042281 -0.122607 -0.301981 -0.228298 -0.152269 -0.175069 -0.052276 -0.133690 0.270713 -0.258218 0.024659 -0.551951 -0.249358 0.208828 0.191897 -0.256319 0.146049 0.143625 0.082529 
multi -0.157230 0.168518 0.225012 -0.090069 0.104243 -0.415199 -0.176149 0.288673 -0.086073 0.005489 -0.090617 -0.397809 -0.317111 0.366282 -0.325499 0.013195 0.427783 -0.373371 0.041628 -0.288158 
spike 0.361015 0.623455 -0.588516 -0.157383 0.438027 -0.342471 -0.053779 -0.255149 0.829534 -0.292667 -0.097599 0.025750 -0.260365 -0.192172 0.442131 -0.741687 -0.504985 -0.068897 -0.071413 -0.056188 
similar -0.095993 -0.019669 0.039691 0.151549 0.307108 -0.016556 -0.150258 0.023213 0.113595 0.093281 0.050370 0.008497 -0.136229 0.030605 -0.000069 -0.230927 -0.175894 -0.030148 -0.170363 0.280369 
step -0.167420 -0.261564 -0.427947 0.032896 -0.207209 -0.217284 -0.013562 -0.126509 -0.116956 0.495580 -0.174290 -0.185414 -0.684357 0.141709 0.065313 0.049657 -0.118538 0.578729 -0.085004 -0.066864 
multiple -0.040387 0.180235 -0.011594 0.065167 0.020997 -0.158089 -0.121654 0.113663 0.061821 -0.027208 0.109485 -0.149355 -0.372452 0.217211 -0.032191 -0.011286 0.203184 -0.287693 -0.216662 0.026749 
human 0.089207 0.075543 -0.009451 0.282550 -0.038004 -0.275632 -0.353808 0.116013 0.208508 -0.030959 0.116794 -0.194302 0.065543 -0.266884 0.091833 0.033780 -0.064959 -0.377089 -0.041381 0.572704 
variables -0.290447 -0.249005 -0.603262 0.461128 0.352216 0.057101 0.274766 0.340797 0.029212 -0.021194 -0.125120 -0.206318 -0.651124 0.125353 -0.222311 -0.055289 0.410857 0.052584 -0.180363 -0.303717 
example -0.068112 0.059665 0.021378 0.071992 0.052296 -0.150808 -0.173247 0.025832 -0.053351 0.146118 0.040750 0.072569 -0.262207 0.045726 -0.138628 -0.102410 -0.022049 -0.063683 -0.042539 0.104226 
activity 0.009408 0.535301 -0.414904 -0.151057 0.210237 0.018660 -0.053523 -0.168350 0.416340 -0.300023 -0.160818 -0.015262 -0.423269 -0.441049 0.044435 -0.611819 -0.125609 -0.186813 -0.261870 -0.155785 
three -0.176457 0.069399 -0.003834 0.195884 -0.159902 -0.001266 -0.231076 0.150891 0.155376 0.221324 0.080249 0.065655 -0.078878 0.134398 0.013097 -0.098294 0.146898 -0.154664 -0.196092 0.006988 
describe -0.252544 -0.046919 0.148993 -0.067270 -0.091843 -0.186890 -0.161853 0.121060 -0.024882 -0.091073 0.181093 -0.390308 -0.222810 0.077509 -0.163955 0.167789 0.112987 -0.420436 -0.081152 0.164505 
memory 0.046993 0.121585 0.202558 -0.195910 0.093116 0.296433 -0.086160 -0.047888 0.277016 0.025243 0.187205 0.109410 -0.213985 0.003254 0.032761 -0.110621 -0.010580 -0.363177 -0.591209 0.049714 
technique -0.087350 -0.165153 0.078423 -0.245370 -0.182019 0.007327 -0.201654 0.194467 -0.008280 0.227223 0.101843 -0.343497 -0.046163 0.190644 0.143430 0.100739 0.077329 -0.229865 -0.188051 0.482599 
field -0.000924 0.309784 0.009242 -0.003363 0.469305 0.099272 0.098109 0.216172 0.563687 0.201123 0.024750 -0.450263 -0.335939 -0.331894 0.272273 -0.068562 -0.343900 -0.067301 0.262947 0.015863 
parameter -0.109758 -0.342498 -0.205129 -0.231469 -0.228798 0.132924 0.000346 0.140572 -0.113681 0.259681 -0.193135 -0.012106 -0.393683 0.036471 0.009402 0.156868 -0.176080 0.417331 0.250501 0.166083 
mean 0.134039 -0.163779 -0.246615 0.079678 -0.005280 0.142549 0.042026 0.072885 0.305572 0.681531 -0.275828 0.073700 -0.506497 -0.079453 0.206292 -0.245805 -0.241733 0.093050 0.105172 -0.218638 
efficient -0.141257 -0.336194 0.210194 0.022683 -0.067732 -0.001697 -0.426375 0.073122 0.246413 0.155929 -0.135759 -0.209035 -0.008447 0.147166 0.230106 0.278768 -0.229457 -0.003564 0.217579 0.306835 
basis -0.338104 0.288500 0.510169 -0.317205 0.180438 0.843173 0.459366 0.304481 0.111589 0.154736 -0.539694 -0.212523 -0.471638 0.231740 -0.067299 0.232862 0.133767 -0.131807 -0.195459 0.222777 
low 0.419598 -0.139646 -0.229078 -0.126624 0.092128 0.384407 -0.625539 0.052948 -0.225024 0.105362 0.267478 0.251838 -0.050768 -0.125909 0.381658 -0.176599 0.078792 0.169414 -0.061736 0.347227 
level 0.382674 0.325153 -0.012043 0.502144 0.040540 0.436139 -0.281174 -0.018481 0.085923 0.359530 0.175166 0.174141 -0.156304 -0.437343 0.244513 0.126588 -0.141389 -0.064108 -0.313522 0.300996 
study -0.007593 0.010789 0.026134 0.007201 0.223981 -0.187570 -0.219169 0.139278 0.225136 -0.078901 0.182839 -0.047620 -0.255456 0.032824 0.017466 0.083614 -0.047202 -0.435337 -0.106461 0.160768 
important -0.010339 0.301348 0.202964 -0.017137 0.297754 -0.184202 -0.440977 0.023746 0.030699 0.094790 0.129602 -0.227606 -0.063395 0.238338 0.151806 -0.051367 -0.030028 -0.366833 -0.126699 0.316486 
experimental -0.139202 -0.172379 0.200035 0.046408 -0.299326 -0.079246 0.063734 0.130826 0.270961 0.325122 0.467626 -0.260162 0.149609 0.274009 0.426175 -0.161117 0.169081 -0.468293 -0.006964 0.399794 
those -0.062360 0.165086 0.044798 0.057300 0.068486 -0.064069 -0.253523 -0.031916 0.262306 0.349443 -0.108464 0.139109 -0.153976 0.157918 -0.053458 -0.194456 -0.319997 -0.156558 0.227151 0.065970 
stochastic -0.293922 -0.229687 0.033127 -0.157361 -0.024561 -0.186123 -0.173531 -0.060247 0.133898 0.250541 0.032521 -0.229113 -0.511225 0.009763 0.251101 0.161968 -0.151730 0.030346 -0.083880 -0.044626 
inference -0.207574 -0.665186 -0.090200 0.451249 -0.014028 -0.067770 -0.178493 0.278829 0.064768 0.173730 0.051732 -0.483448 -0.444726 -0.277126 0.173918 0.177260 0.256103 0.240134 0.097290 0.217572 
machine -0.058155 -0.010513 0.477803 -0.170753 0.019626 -0.318106 -0.230744 0.283941 -0.186851 -0.019300 -0.184851 -0.113536 -0.049328 0.054763 -0.063043 0.213593 0.059293 -0.437928 0.285825 0.120552 
object 0.261209 0.166319 -0.021611 0.316042 0.040660 -0.006604 -0.621767 0.198843 0.263275 -0.262788 -0.130763 -0.177450 -0.065789 0.078822 -0.162461 0.152574 0.380918 -0.438227 -0.177432 0.647616 
cells -0.026401 1.021384 -0.339798 -0.032631 0.641396 -0.265744 -0.331995 -0.257363 0.510481 -0.645910 0.169155 -0.131383 -0.424166 -0.149077 0.160288 -0.816503 -0.436986 -0.367975 -0.251392 0.224739 
size 0.189779 0.009899 0.041503 -0.025629 -0.105490 -0.077861 -0.027949 0.031349 0.153439 0.434474 -0.050638 0.511265 -0.479133 0.306267 -0.101414 -0.133059 -0.192538 -0.015627 0.195029 -0.065254 
clustering -0.147771 -0.082213 -0.089318 0.037749 -0.216184 0.095341 -0.026390 0.286708 0.219574 0.309757 -0.016990 -0.197576 0.085431 0.347675 0.223467 0.472871 0.019394 -0.132126 -0.036890 0.785455 
rule -0.132622 0.055592 0.018505 0.021425 -0.055617 -0.131901 0.240921 -0.161395 -0.009613 0.203026 -0.020398 -0.226001 -0.472224 -0.122493 0.029922 0.085487 -0.113851 0.038822 -0.047977 0.195481 
complex 0.015480 0.343133 -0.132015 -0.005335 0.188733 -0.133531 -0.325816 0.102845 0.245990 -0.004387 0.228207 -0.110020 -0.195360 -0.092620 0.163907 -0.172730 -0.008807 -0.241778 -0.072194 0.263235 
find -0.053195 0.066685 -0.198125 -0.237263 -0.055376 -0.095670 -0.145700 0.183238 0.037760 0.148856 -0.081764 -0.006293 -0.117304 0.021843 -0.020149 -0.169877 -0.209367 -0.028290 0.269149 0.316883 
obtained -0.167534 -0.256320 -0.086008 -0.039208 -0.239347 0.053847 -0.354068 0.183871 0.031879 0.559028 -0.040467 0.054279 -0.072897 0.028731 0.102016 -0.065943 -0.077778 0.036228 0.138947 0.147697 
representations -0.206301 0.071687 0.037098 -0.169352 0.001296 0.211398 -0.290434 0.075652 0.016241 -0.062009 0.072162 -0.172164 -0.316395 -0.245156 -0.053919 -0.109216 0.005989 -0.285276 -0.337482 0.169077 
consider -0.324852 0.160262 -0.093626 -0.253853 0.019688 -0.049348 -0.121695 0.147599 -0.065530 0.170316 -0.194149 -0.059265 -0.402437 0.253507 -0.064932 0.302266 -0.075516 -0.072639 -0.093232 -0.000313 
way 0.005194 0.127442 0.000608 -0.106546 0.011617 0.082045 -0.225635 0.117195 0.111234 0.110835 -0.118371 -0.016714 -0.243858 0.050039 -0.034374 0.054386 0.154413 -0.027990 -0.040162 0.125449 
solution -0.264615 -0.120245 0.067370 -0.389709 -0.263189 -0.188263 -0.224176 0.124747 0.014882 0.185732 -0.301075 -0.234389 -0.279413 0.144145 0.041837 0.417978 -0.161492 -0.002980 0.012798 0.102089 
thus 0.031945 0.181049 -0.293286 -0.176116 0.019215 0.103190 -0.063427 0.050964 0.133880 0.258510 -0.116872 -0.029576 -0.434104 0.060188 0.067978 -0.260404 -0.019097 0.097820 -0.197957 0.145899 
support 0.158631 0.573310 0.493597 -0.908425 -0.508835 -0.220558 -0.590728 0.222472 -0.273610 -0.078207 -0.656557 0.074772 -0.100138 -0.032601 -0.033561 0.620101 0.223382 -0.691502 0.571872 0.470502 
conditions -0.543086 0.302566 -0.149294 -0.113076 -0.196154 0.105154 -0.013530 0.239324 0.101801 0.436800 0.013305 0.202200 -0.566844 -0.011282 0.393965 0.194234 -0.484865 -0.026905 -0.143699 -0.209968 
approaches -0.271020 -0.078954 0.133096 -0.188247 -0.026820 -0.201269 -0.306373 0.062164 0.110175 0.443828 -0.066546 -0.232768 0.038251 0.206451 0.025153 0.153138 -0.245787 -0.315679 -0.041178 0.427978 
better -0.282475 -0.281506 0.184969 0.227329 -0.075032 -0.138548 -0.184353 0.066049 0.000633 0.510390 0.045109 0.265400 0.032278 -0.109035 0.107332 -0.167385 -0.452579 0.090851 0.213996 0.229933 
objects 0.300880 0.203572 0.002455 0.180351 -0.101347 0.114975 -0.546203 0.318558 0.131340 -0.269030 -0.035227 -0.107633 -0.073105 0.307119 -0.225821 0.085079 0.407370 -0.434369 0.050939 0.550229 
ie 0.426326 0.009967 -0.182528 0.178714 -0.043052 -0.052128 -0.096074 0.191302 0.027890 0.136987 -0.210314 0.132141 -0.369988 0.145779 -0.125640 -0.254599 -0.136821 0.140311 0.179516 -0.012689 
response 0.143401 0.530508 -0.308022 -0.179429 0.397190 -0.272912 -0.143540 -0.258821 0.538011 -0.314793 0.151603 0.173773 -0.241627 -0.255434 0.212899 -0.421662 -0.453356 -0.224063 -0.383677 0.027111 
maximum 0.069131 -0.549082 -0.432896 -0.210647 -0.248866 -0.150500 -0.236438 0.182641 -0.258718 0.407887 -0.130511 0.033903 -0.322748 -0.425571 0.081789 0.051033 -0.070381 0.098874 0.811901 0.403543 
classifier 0.038624 -0.274994 0.093910 -0.170112 -0.118828 -0.044907 -0.126295 0.108482 -0.014965 0.040573 -0.128742 0.062765 -0.307682 0.409266 -0.189058 0.097943 0.141402 -0.390188 0.239319 0.294864 
continuous -0.214930 -0.187213 0.171384 0.149241 0.014852 0.038058 -0.329797 0.144401 0.130167 0.470204 0.278189 0.023989 -0.274271 -0.122244 -0.063804 -0.195757 0.343107 -0.270746 -0.341859 -0.227502 
likelihood 0.115295 -0.324526 -0.458705 -0.077977 -0.288539 -0.107728 -0.107338 0.343991 -0.168912 0.413282 -0.260692 0.247516 -0.483273 -0.147133 0.173268 0.062329 -0.060310 0.383119 0.924708 0.305140 
probabilistic -0.130512 -0.258775 0.056224 0.205272 -0.047021 0.024331 -0.154670 0.374497 0.224888 -0.050397 -0.031285 -0.453967 -0.083262 0.182403 0.055450 0.490525 0.260309 -0.183868 -0.299027 0.353377 
bound 0.339569 -0.225384 0.092867 -0.002247 -0.478330 -0.120432 0.276567 0.179972 0.103181 0.575925 -0.411838 0.229020 -0.330666 -0.076383 0.097325 0.108577 -0.313398 0.147144 0.660846 0.279331 
during 0.085437 0.019908 -0.003792 0.348360 -0.076773 -0.171379 0.042780 -0.234207 0.008406 0.029616 0.107156 0.300710 -0.407663 -0.069410 0.011129 -0.464078 -0.057594 -0.269081 -0.012203 0.040925 
terms 0.279952 0.103029 0.050541 -0.087852 -0.024925 -0.055253 -0.181468 0.114397 0.024637 0.175082 -0.150518 0.140687 -0.169811 0.026641 0.082024 -0.218388 -0.003178 -0.162795 0.021005 0.061122 
mixture -0.066037 -0.290303 -0.441050 0.264883 -0.013881 0.284807 0.033976 0.383752 0.170936 0.219514 -0.035519 -0.358641 -0.124985 0.406160 0.047802 0.590185 0.086546 0.147242 0.091275 0.530801 
test 0.097664 -0.294437 -0.160287 0.261570 -0.315346 -0.088664 0.022486 0.192144 0.080856 0.272109 0.083074 0.255489 -0.174642 0.347026 0.088159 -0.281805 0.096972 -0.246330 0.065536 0.194206 
even -0.119370 0.076921 -0.233496 -0.044383 -0.016984 0.014852 -0.276255 0.175864 -0.111789 0.287061 0.005378 0.072740 -0.316159 0.034999 0.097950 -0.153375 -0.058671 0.019921 0.145929 0.106300 
decision -0.466837 -0.018499 0.223827 0.076719 0.259973 -0.014651 0.459383 0.589451 -0.204858 0.430224 0.002824 -0.527344 -0.531092 -0.128184 -0.412441 0.522589 -0.030301 -0.096453 -0.266771 0.251027 
behavior -0.167069 0.277136 -0.037060 0.060026 0.175591 -0.119924 -0.164600 0.004920 0.269959 -0.181900 0.361780 -0.123843 -0.372988 -0.176781 0.052079 -0.147753 -0.114707 -0.275090 -0.401249 0.061329 
line -0.120118 -0.345479 -0.080159 0.276316 0.031137 -0.136750 -0.217084 0.007514 0.068900 0.232079 -0.068531 0.245240 -0.215222 0.215536 -0.039221 -0.092029 -0.497105 0.151653 0.060070 0.012517 
perform -0.204076 -0.140060 0.277227 0.019901 -0.058007 -0.211862 -0.491461 0.031458 0.029139 0.238853 0.263443 -0.079677 -0.163108 -0.033395 0.050276 -0.199163 0.001539 -0.197716 -0.142885 0.186643 
motion 0.149654 0.505457 -0.051081 0.100224 0.154238 0.104421 -0.459711 0.004029 0.187707 -0.217985 0.328008 -0.182322 -0.252183 -0.300161 0.157747 -0.238659 0.002722 -0.348233 -0.412621 0.352021 
uses -0.199555 -0.140834 0.122980 0.001831 0.125319 0.129858 -0.072145 -0.087114 0.122406 0.210524 0.112047 -0.274251 -0.306966 0.044842 0.003649 0.032487 0.109279 -0.262690 -0.379093 -0.019203 
analog -0.049943 0.399340 0.409359 0.253182 0.499205 0.398761 -0.323087 0.378453 0.023379 0.217628 0.598816 0.025242 -0.106259 -0.176074 0.082577 -0.516824 0.349570 -0.577946 -0.889184 -0.243955 
tree -0.189036 -0.120633 -0.062250 0.469667 0.151014 0.128009 0.361570 0.281679 -0.335975 0.560056 -0.409147 0.040193 -0.508039 -0.292743 -0.143353 0.171546 0.209578 0.428826 -0.045597 0.363963 
context -0.017257 0.052683 -0.099727 -0.011575 -0.057389 -0.116035 -0.138324 0.216935 0.025610 -0.106359 -0.000058 0.025762 -0.212562 -0.176367 0.143303 -0.009048 0.057077 -0.327548 -0.034304 0.445171 
signals 0.102504 0.010256 -0.199246 0.174582 0.150983 -0.089138 -0.410836 -0.044856 0.236821 -0.355781 0.183160 -0.004099 -0.118091 -0.358535 0.178174 -0.174939 0.059719 -0.325155 -0.329593 0.250280 
dynamic -0.354821 -0.170320 -0.028177 0.165984 -0.233948 -0.026374 -0.063505 0.285644 0.055494 0.228229 0.115638 -0.334916 -0.504099 -0.124795 0.087257 0.298310 -0.097984 -0.336181 -0.425924 -0.141981 
learned -0.190424 -0.064653 -0.127793 0.259022 0.170237 0.033228 -0.054241 0.051873 -0.157599 0.036017 -0.145086 -0.220309 -0.608729 0.235450 -0.003409 0.163537 0.157280 0.159421 0.057202 -0.064899 
synaptic 0.002987 0.746468 -0.095946 -0.325314 0.280137 0.155032 0.054400 -0.292630 0.280911 0.073979 -0.153593 -0.043725 -0.452306 -0.147392 0.167248 -0.652190 -0.086928 -0.109753 -0.313912 -0.160534 
within 0.154295 0.059808 -0.237274 0.087075 -0.023289 -0.087566 -0.041256 0.122608 0.059513 0.201953 -0.143101 -0.079674 -0.360836 -0.060626 -0.090785 -0.080939 0.068892 -0.169557 -0.103657 0.340615 
observed -0.132798 -0.030304 -0.219995 0.286034 0.220889 -0.138237 -0.095424 0.052598 0.123179 -0.177437 -0.079013 -0.044303 -0.291831 -0.039265 0.035041 -0.200902 -0.151696 0.036405 -0.122328 0.222138 
resulting -0.039396 -0.034284 -0.201177 0.027848 0.088695 -0.062652 -0.160899 0.100600 0.059871 0.166157 0.015700 -0.009953 -0.328391 -0.086772 -0.009939 -0.259422 -0.121329 0.073403 -0.042080 -0.012692 
previous -0.445187 0.021255 -0.131701 -0.037155 -0.050187 -0.030095 -0.241048 0.043680 0.035328 0.162788 -0.156423 -0.019697 -0.057116 -0.105054 0.070870 -0.000212 -0.130652 -0.034432 -0.242553 0.301384 
auditory 0.219271 0.414072 0.025367 -0.011670 0.257306 -0.245342 -0.753825 -0.220423 0.600898 -0.662422 0.147827 0.217180 0.071161 -0.268614 0.343876 -0.471979 -0.512236 -0.481402 -0.453974 0.389403 
components 0.153377 -0.019583 -0.483627 -0.100395 -0.080426 0.322939 -0.137804 0.019562 0.101324 0.081167 -0.333708 0.060297 -0.323830 0.267572 0.258327 -0.077039 0.094343 0.120878 -0.092637 0.518284 
selection 0.205293 -0.112785 -0.271791 -0.214008 -0.211970 -0.077681 -0.278429 0.158338 -0.098509 0.079412 -0.045541 0.034734 -0.059518 0.488459 0.021166 0.125704 0.038110 -0.152134 0.082190 0.481379 
shows 0.164604 -0.099707 -0.244103 0.227176 -0.068909 -0.121988 -0.161591 -0.034610 0.224674 0.284081 -0.133902 0.372559 -0.207812 -0.155056 0.000244 -0.582893 -0.305200 0.458860 -0.136908 0.142962 
found 0.062888 -0.083138 0.066872 0.209635 0.052758 -0.097340 -0.077216 0.023858 0.154506 0.243053 -0.023090 0.035960 -0.153030 0.002220 0.075114 -0.130882 -0.067472 -0.197855 -0.085724 0.393097 
result 0.049678 -0.194146 -0.119763 -0.008853 -0.311545 -0.184190 -0.129392 0.275292 0.040589 0.335147 -0.146954 0.169054 -0.219705 0.243921 0.111777 0.052138 -0.243365 0.129301 0.139361 0.106687 
called -0.133910 0.173998 0.049739 -0.250562 0.138329 -0.132163 -0.168454 -0.053632 0.163664 -0.074452 -0.179733 -0.106849 -0.323609 0.118167 -0.086054 -0.028357 0.144461 -0.221304 -0.033776 -0.220819 
approximate -0.186963 -0.679998 -0.041541 0.116175 -0.121732 0.168574 -0.161199 0.102101 0.016294 0.272342 -0.325120 -0.146468 -0.535341 -0.017331 0.172692 0.079195 0.141884 0.375478 0.226073 0.168782 
values 0.019732 -0.113557 -0.364664 -0.014080 -0.138044 -0.003548 -0.040029 0.059769 -0.146797 0.489352 -0.329945 0.194336 -0.559197 0.159275 -0.091760 -0.178039 -0.136833 0.482332 0.179884 0.032462 
optimization -0.210783 -0.092145 0.354041 -0.302433 0.011849 -0.190349 -0.124217 0.040221 -0.006440 0.426382 0.142093 -0.508214 -0.433431 0.350714 0.021092 0.475763 0.238284 -0.094095 -0.127909 0.096995 
phase 0.035670 0.195689 -0.221272 -0.147233 0.119030 0.187182 -0.317889 -0.315875 0.371567 0.227975 -0.116204 -0.111798 -0.259692 -0.322638 0.086035 -0.387759 -0.079117 -0.073383 -0.374370 0.421995 
provides 0.016360 0.041794 0.044829 -0.032234 -0.136436 -0.047467 -0.153176 0.032865 0.217543 0.285451 -0.028596 -0.046617 -0.177400 0.030798 0.232041 -0.120977 -0.094391 -0.240253 0.019143 0.159098 
distributions -0.039746 -0.236808 -0.479539 0.036306 -0.002057 0.177799 -0.093163 0.497644 -0.013981 -0.103968 -0.437768 -0.143240 -0.520735 -0.198804 -0.063864 -0.063275 -0.044511 0.272492 0.265544 0.146671 
search -0.398073 -0.077208 0.007852 -0.225281 -0.197232 -0.116647 -0.250950 -0.325750 -0.421662 0.332275 0.160281 -0.322615 -0.482895 -0.081701 -0.011033 0.078987 -0.040497 0.138039 -0.091857 0.339682 
up -0.117255 0.154295 -0.043241 0.302490 -0.193752 0.011413 -0.090385 -0.009449 0.172219 0.415145 -0.292608 0.053189 -0.181273 -0.083171 -0.047169 -0.291677 -0.218299 -0.004480 -0.144565 0.148445 
em -0.186371 -0.920869 -0.433906 0.034196 -0.308566 -0.157331 0.040682 0.036932 -0.035714 0.161737 -0.179165 -0.536772 -0.388954 0.183566 0.109202 0.399712 -0.170579 0.317315 0.495385 0.423098 
density -0.038701 -0.204783 -0.521943 0.080816 -0.015104 0.233651 0.120675 0.314942 -0.175790 0.125938 -0.122862 -0.134862 -0.155716 0.086070 0.163024 0.081068 0.019260 0.123748 0.282010 0.405431 
bounds 0.174311 -0.383665 0.277997 -0.135598 -0.585465 -0.266148 0.155198 0.290069 -0.052633 0.779437 -0.174099 0.078760 -0.240677 0.012567 0.134342 0.426978 -0.424261 0.051247 0.559400 0.158697 
feedback 0.213632 0.515208 0.232841 0.087718 0.185734 0.170012 -0.292491 -0.232681 0.036240 0.099851 0.136297 -0.227596 -0.222041 -0.416388 -0.367158 -0.413529 0.342210 -0.358130 -0.549615 0.237643 
do -0.257309 0.058162 -0.096195 0.063792 0.047603 -0.106021 -0.228731 0.121722 0.006614 0.355806 -0.161982 0.211166 -0.202623 -0.033004 0.083863 -0.037404 -0.133284 -0.130406 -0.174494 0.048673 
out -0.035117 0.131126 -0.249928 -0.101089 0.049583 -0.131017 -0.240218 0.010327 0.005900 -0.032741 -0.028104 0.033821 -0.368966 -0.031161 0.164447 -0.360873 -0.038041 0.072544 -0.012667 0.005850 
without -0.029933 0.109267 -0.063535 0.181033 -0.123983 -0.007454 -0.087001 0.001486 -0.094429 0.254558 0.104829 0.076879 -0.382513 -0.025472 0.042054 -0.199725 -0.005573 -0.089752 0.000193 0.105250 
classifiers -0.132584 -0.211652 0.447208 0.010927 -0.293947 -0.104700 -0.061464 0.320545 -0.131052 0.323920 -0.102738 0.081750 -0.226666 0.166597 -0.142936 0.221481 0.073008 -0.554886 0.457639 0.502389 
map -0.020087 0.293075 -0.106968 0.056066 0.391783 0.176885 -0.199757 0.298773 0.161293 -0.273567 -0.345104 0.082392 -0.579213 0.050751 -0.113907 -0.170576 0.339937 -0.567703 -0.018206 -0.018578 
compared -0.066536 -0.110561 0.042504 0.105105 -0.188817 -0.116564 -0.261836 0.093928 0.029658 0.401602 0.176456 0.024818 -0.037352 0.025024 -0.132446 -0.322078 -0.032065 -0.088903 -0.054781 0.395853 
because 0.100533 0.141034 0.013058 -0.113571 0.035989 0.011692 -0.503496 0.138402 -0.070519 0.266429 -0.083967 0.155083 -0.108398 -0.017773 0.042832 -0.185627 -0.067567 0.104363 0.023396 0.282589 
measure 0.281858 0.049248 -0.108802 -0.006315 -0.273112 -0.079712 -0.018482 0.152738 0.003746 0.204068 -0.360238 0.238731 -0.151040 0.117462 -0.123304 -0.111056 0.095713 -0.054184 0.169682 0.247133 
derive -0.055509 -0.263484 -0.130064 -0.036357 -0.079605 -0.090712 0.047986 0.105777 -0.029083 0.355648 -0.158692 -0.329130 -0.467318 0.191430 0.090243 0.332319 -0.094130 -0.016770 0.273518 0.375494 
procedure -0.051094 -0.386400 -0.157961 -0.057136 -0.085060 -0.019759 -0.319387 0.090995 -0.056126 0.238771 -0.145662 -0.087329 -0.412589 0.327331 0.068024 0.154435 -0.057029 0.124853 0.244488 0.306745 
best -0.151152 -0.283328 -0.155576 0.036551 -0.263879 -0.068896 -0.160876 0.207818 0.028300 0.352461 0.150300 -0.073377 -0.206661 0.031813 0.033798 -0.126255 -0.036740 -0.040513 0.208196 0.031192 
much -0.180225 0.075122 0.032586 0.141735 0.174159 -0.172571 -0.178118 -0.073991 0.165536 0.408414 -0.211367 0.168521 0.157091 -0.220463 0.061951 -0.360200 -0.407981 0.102188 0.130996 0.500656 
component 0.247265 0.057463 -0.505295 -0.519593 -0.054259 0.370465 -0.330085 -0.142212 0.233830 -0.155279 -0.626569 -0.304579 -0.094660 0.065579 0.065776 -0.176261 0.304399 0.316578 0.021284 0.819008 
stimuli 0.124488 0.707882 -0.349831 -0.222011 0.438182 -0.242253 -0.150173 -0.279413 0.301719 -0.408061 -0.073592 0.018149 -0.067159 -0.208632 0.101148 -0.258696 -0.638672 -0.129199 -0.153139 0.416190 
recurrent -0.181734 0.073853 0.498735 0.266996 0.457285 0.337316 -0.221332 0.005484 0.288490 0.066847 0.420223 -0.087027 -0.302475 -0.071336 -0.282641 -0.223446 0.149142 -0.489282 -0.497771 -0.364455 
does -0.201222 -0.159710 -0.078485 -0.087656 0.039068 -0.137884 -0.161708 -0.031327 -0.149057 0.330037 -0.172370 0.304621 -0.421803 0.106513 0.018155 -0.099754 -0.412432 0.370413 -0.063584 -0.028776 
after 0.166214 0.121019 -0.302675 0.090170 0.078648 -0.118945 -0.032614 -0.331054 -0.194314 0.375701 -0.197620 0.304509 -0.475357 -0.173957 -0.266857 -0.575779 -0.139487 0.349802 -0.124072 -0.126426 
eg 0.146036 0.038402 -0.176840 0.057163 -0.039674 -0.090345 -0.174219 0.197455 0.008712 0.204277 -0.224309 0.152372 -0.254910 0.231910 -0.024418 -0.108912 -0.019169 0.016478 0.182166 0.135068 
rules 0.096369 0.001867 0.007576 0.049995 0.029443 0.131765 0.306067 -0.109180 0.108090 0.352173 -0.049742 -0.165175 -0.331888 -0.002839 0.220286 -0.083786 -0.070749 0.166252 0.084163 0.278217 
sample 0.035644 -0.402796 -0.113663 -0.007808 -0.282315 -0.384509 -0.160605 0.215252 0.128994 0.254225 -0.004313 0.206194 -0.277551 0.241171 0.167714 -0.119610 -0.215172 0.129104 0.369670 0.128592 
corresponding 0.471785 0.079646 -0.125570 -0.048010 0.068660 0.256466 0.168009 0.024127 -0.106267 0.319577 -0.554842 0.510521 -0.398435 0.134977 -0.342039 -0.348213 -0.064901 0.244682 0.018311 0.296112 
detection 0.126530 0.267592 -0.030546 0.141158 -0.032560 -0.157233 -0.492454 0.211516 0.369771 -0.132795 0.190571 -0.201671 0.139688 -0.068480 0.229461 0.129358 -0.013382 -0.535353 -0.324379 0.340834 
accuracy -0.264983 -0.266885 0.088377 0.061234 0.019926 -0.118888 -0.348800 -0.146080 -0.119620 0.344681 0.268780 0.070606 0.022445 0.205745 -0.020461 -0.169308 0.003588 0.004255 -0.035976 0.148243 
simulations -0.166149 -0.129700 0.054536 0.006392 -0.034052 -0.169726 -0.237774 0.202177 0.324352 -0.003675 0.364245 -0.175237 -0.120784 -0.234070 0.201747 -0.172088 -0.115897 -0.199964 -0.307260 -0.106175 
average 0.353863 -0.067080 -0.427208 -0.088208 -0.356248 -0.045898 0.045364 0.050096 -0.048952 0.448467 -0.061151 0.291940 -0.551137 -0.001022 -0.066239 -0.509194 0.010811 0.297621 0.186633 -0.266529 
cell 0.132317 0.686208 -0.299294 -0.027608 0.539114 -0.089257 -0.071584 -0.003145 0.344864 -0.150657 0.028290 0.078904 -0.241234 -0.137617 -0.077464 -0.675044 -0.227599 -0.107342 -0.164259 0.154736 
knowledge -0.085660 0.289499 0.152704 0.287555 -0.090051 0.122977 -0.283915 0.259835 0.183219 0.190480 -0.115579 0.096217 -0.131870 -0.077639 0.069457 0.038953 0.097601 -0.353596 0.000301 0.021355 
chip -0.045440 0.457640 0.139060 0.147351 0.465640 0.198638 -0.047571 0.203063 -0.142154 0.074577 0.397035 0.013419 -0.133641 -0.171806 0.151078 -0.530421 0.256673 -0.535609 -0.612314 -0.074867 
often -0.017268 0.126961 -0.035869 0.040046 -0.082420 -0.101499 -0.205580 0.139220 0.097978 0.200478 -0.037719 -0.125853 -0.271883 0.190118 0.158119 0.059943 0.041560 -0.158173 0.119399 0.273723 
current -0.181874 0.198767 -0.271142 -0.021698 -0.049626 -0.185004 0.004898 -0.047141 -0.165347 0.149424 -0.143939 0.259481 -0.623931 -0.208590 0.049800 -0.341241 -0.343454 0.121548 -0.064081 -0.247302 
sequences -0.059132 0.099551 -0.147418 0.008582 -0.082266 -0.007829 -0.221145 0.281610 0.143856 -0.071460 -0.009644 0.102680 -0.503140 -0.114694 -0.060570 -0.161012 0.084820 -0.179661 -0.146678 -0.157172 
nodes 0.229462 0.066074 -0.211214 0.401691 0.319100 0.490645 0.144735 0.254533 0.003928 0.292416 -0.328714 0.272375 -0.439402 0.071694 -0.298148 -0.447904 0.327281 0.260307 -0.140819 -0.082938 
give -0.078607 -0.295316 0.041157 0.025349 -0.239258 -0.123384 0.052677 0.040593 0.151703 0.434431 -0.188853 -0.029863 -0.217017 -0.001014 0.172919 -0.108476 -0.239043 0.143502 0.338277 0.195560 
described -0.058232 0.035991 0.150133 0.046568 -0.029890 -0.023390 -0.302186 -0.030562 0.031009 0.023471 -0.017789 -0.283494 -0.035574 0.035694 0.037176 -0.065592 0.089008 -0.370776 -0.333888 0.163045 
belief -0.331954 -0.800074 -0.065838 0.414601 0.205216 0.113131 -0.247136 -0.020420 0.097942 0.162773 -0.135034 -0.291236 -0.248062 -0.612405 -0.352325 -0.276729 0.129122 0.561162 0.131980 -0.301243 
applications 0.004312 0.017667 0.243354 0.129424 0.175681 -0.117609 -0.377711 0.131277 0.080226 0.244856 0.072475 -0.027985 -0.045889 0.079875 0.218366 0.086315 -0.170022 -0.221298 -0.168517 0.366496 
sequence -0.035727 0.020627 -0.049512 0.194007 -0.086847 -0.053943 -0.207767 0.096431 -0.180849 0.369246 -0.049915 0.074387 -0.580916 0.071996 -0.072545 -0.112746 0.176052 0.193098 -0.075985 -0.148625 
theoretical -0.206328 -0.123130 0.221721 -0.184364 -0.234722 -0.103494 -0.180852 0.174506 0.103872 0.266319 0.026677 -0.247182 0.079742 0.143247 0.123359 0.162674 -0.279054 -0.218418 0.051373 0.450215 
cases -0.224880 -0.117592 -0.003292 0.193211 -0.044015 -0.034033 -0.094661 0.198283 -0.187374 0.469889 -0.010259 -0.030809 -0.159174 0.224031 -0.059414 0.027511 -0.108059 -0.047778 0.093529 0.633724 
introduce -0.065959 -0.272257 -0.011712 0.044180 -0.229021 0.008852 0.014579 0.140206 0.388079 0.069331 -0.177502 -0.305545 -0.108040 0.057986 0.144657 0.344675 0.120571 -0.224319 0.042356 0.300724 
scale 0.047311 0.218113 -0.200671 0.057116 -0.164714 0.060905 -0.410202 0.261439 0.192921 0.009561 0.179137 0.030722 -0.157400 -0.096296 0.166619 -0.139299 0.257543 -0.238288 -0.063801 0.305015 
prior -0.012580 -0.049311 -0.211362 0.303391 -0.222350 0.087079 0.044642 0.531786 -0.007920 -0.036854 -0.310483 0.211306 -0.286885 -0.142857 -0.026801 0.089788 0.069401 -0.012658 0.194739 0.200757 
processes -0.443901 -0.292562 0.092477 0.365010 0.169708 0.155278 0.127009 0.462490 0.118835 0.257186 -0.038943 -0.479371 -0.612262 0.065473 -0.239000 0.332765 -0.362356 -0.287882 -0.197449 0.097303 
et 0.520178 0.068284 0.059049 -0.306137 0.096738 0.271780 0.340185 0.021944 0.898395 0.205296 -0.862944 0.472674 0.295720 -0.537955 -0.515367 0.051066 -0.698344 -0.313713 -0.216091 0.813002 
world -0.011655 -0.292311 -0.183347 0.043027 -0.521476 -0.715316 -0.376686 -0.274039 0.217189 0.212930 0.492672 -0.464588 0.013801 0.127544 0.182696 -0.090180 0.304303 -0.225509 -0.208934 0.286274 
finite -0.097903 -0.165570 -0.068204 -0.096249 -0.075580 0.008922 -0.133440 0.175901 -0.198247 0.178762 -0.091876 0.030851 -0.479279 0.303358 -0.198867 0.077420 -0.137050 0.203517 0.148560 0.014152 
application -0.015923 -0.012667 0.299199 0.174679 -0.079903 -0.284628 -0.220249 0.054585 0.200939 0.058220 0.069645 -0.216008 -0.056512 0.132193 0.126398 0.033930 0.118950 -0.383832 -0.120177 0.087731 
target -0.002406 0.116834 -0.338328 0.089266 -0.059183 -0.196267 -0.407294 -0.007807 0.322402 -0.113146 -0.236025 0.083630 -0.176819 -0.133201 -0.050732 -0.207308 -0.247330 -0.086067 0.024957 0.275673 
including 0.035542 0.058614 0.026773 0.208708 0.114122 -0.040424 -0.166944 0.281410 0.072716 0.271777 0.062876 -0.100131 -0.067625 0.011440 -0.008973 0.019348 0.201982 -0.201751 -0.068620 0.215599 
positive 0.051781 0.147278 -0.189447 -0.067577 -0.041782 0.359786 0.166133 0.037763 -0.232083 0.612009 -0.562894 0.411274 -0.685318 0.221884 -0.113860 -0.296355 0.018864 0.391762 -0.043104 0.294390 
higher 0.330307 0.305783 0.012997 0.170860 0.063177 0.276515 -0.499062 0.097826 -0.057080 0.737257 0.169638 0.252369 -0.066550 -0.171760 0.149375 -0.372253 -0.383648 -0.008900 -0.091167 0.276465 
modeling -0.019429 0.011776 0.090952 0.320184 -0.059460 0.000084 -0.234036 0.166115 0.087625 0.144365 0.360198 -0.154810 -0.009483 -0.092730 0.113126 0.153195 0.111724 -0.279503 -0.283924 0.431381 
predictions -0.311082 -0.010169 -0.154288 0.058583 -0.208832 0.126435 -0.093018 0.249058 0.212124 0.438042 0.077900 -0.020197 -0.461149 0.029708 -0.204278 -0.259008 -0.292093 0.036751 -0.169755 0.033930 
vectors 0.218349 0.078546 -0.130183 -0.292539 -0.175832 0.279066 -0.338053 0.141745 -0.149507 0.019294 -0.716477 0.311420 -0.297686 0.214066 -0.116710 -0.127741 0.455029 -0.240723 0.146182 0.196577 
like 0.061555 0.400481 -0.232083 -0.028914 0.246132 -0.051914 -0.471691 0.131462 0.223624 0.032118 -0.132147 -0.024999 -0.256070 -0.005114 0.160237 -0.163621 -0.275618 -0.028311 0.000152 0.171294 
actions -0.166619 0.068043 -0.220937 0.057732 -0.064359 -0.079538 0.094646 -0.157291 -0.152141 0.268742 0.074661 0.055278 -0.462300 -0.124885 -0.239928 0.001577 -0.115161 0.233255 -0.196136 -0.058679 
spatial 0.049574 0.602037 -0.089997 -0.019303 0.115917 0.032093 -0.360293 0.155525 0.308621 -0.390703 0.135943 0.133331 -0.091727 -0.280346 0.172511 -0.185434 -0.257165 -0.529016 -0.102311 0.411772 
hand -0.066866 0.229701 -0.256726 0.225682 -0.224744 -0.073652 -0.280666 0.055348 0.363396 0.065218 -0.186392 0.111440 -0.179458 -0.159611 0.000883 -0.305267 -0.102443 -0.129069 -0.206409 0.392999 
cost -0.023359 -0.144968 0.166430 -0.100341 -0.198183 -0.008901 -0.096669 0.060778 -0.122368 0.270686 -0.327686 -0.067791 -0.498219 0.210986 0.012334 0.041070 -0.232342 0.222707 0.326131 0.135806 
developed -0.207273 0.203285 0.382189 0.134832 0.478463 0.126139 -0.051120 0.140229 0.085408 0.078510 0.057346 -0.291881 0.055268 -0.063052 0.112287 0.146176 0.130534 -0.507951 -0.282200 0.335907 
compare -0.185624 -0.275766 -0.013764 0.009197 -0.392552 -0.244916 -0.113035 0.062825 0.160207 0.254855 0.277443 -0.251161 0.024087 -0.015892 0.143843 0.037608 -0.074554 -0.365574 -0.056220 0.311270 
action -0.178921 -0.080857 -0.356113 0.047637 -0.186782 0.077691 0.212453 -0.092801 -0.142985 0.235395 -0.075361 0.028538 -0.807463 -0.221320 -0.174723 -0.096542 -0.096154 0.341344 -0.505143 -0.144866 
generated 0.194556 -0.042895 -0.368073 0.191140 -0.030419 0.035094 -0.089779 0.026861 -0.161124 0.182334 -0.108303 0.354336 -0.357579 0.319618 -0.256606 -0.313990 0.016598 0.075321 -0.064223 0.140351 
frequency 0.270210 0.428751 -0.419218 -0.081586 0.277783 -0.064738 -0.493339 -0.319445 0.469588 -0.041708 0.095832 0.237624 -0.188669 -0.378769 0.133941 -0.556199 -0.286910 -0.032327 -0.414040 0.205476 
range 0.162370 0.476046 0.118539 0.002011 0.065887 0.056599 -0.225585 -0.073814 0.206786 0.152866 0.049303 -0.031986 -0.150442 -0.195088 0.042940 -0.216085 -0.179917 -0.140050 -0.323032 0.402075 
al 0.825730 0.158644 0.295676 -0.052488 -0.058051 0.223090 0.471298 0.388366 1.120237 0.432503 -0.931483 0.423159 0.321328 -0.619359 0.036833 0.302707 -0.801324 -0.610481 -0.221944 0.564173 
fixed 0.070624 -0.228116 -0.306754 -0.062536 -0.010642 0.113649 -0.169206 0.199089 0.219774 0.246694 -0.234205 0.408086 -0.427550 0.111407 -0.094544 -0.031016 -0.064854 0.405644 0.070381 -0.060369 
good -0.027494 -0.233650 0.107001 -0.067106 -0.326131 -0.122921 -0.231677 0.205782 -0.122269 0.471413 0.039630 -0.109977 -0.204711 0.118584 -0.082909 -0.080648 -0.039258 -0.002927 0.128255 0.154916 
cortex -0.146844 0.696846 0.038192 0.111712 0.559397 -0.106808 -0.402591 -0.320436 0.292469 -0.665615 0.171140 -0.114092 -0.427963 -0.162523 0.134105 -0.428492 -0.357671 -0.730877 -0.658793 0.277172 
constraints 0.057623 0.138773 -0.070366 -0.164870 0.043666 0.103921 -0.131692 0.229484 0.049742 0.189525 0.060000 -0.017104 -0.330809 0.220636 0.017583 -0.047110 0.093295 -0.160399 -0.087987 -0.019341 
node 0.315805 0.141024 -0.302522 0.421182 0.496478 0.353244 0.073588 0.078655 -0.005379 0.277469 -0.519251 0.518126 -0.493198 0.030841 -0.322852 -0.680413 0.290577 0.393239 -0.222759 0.116310 
computation -0.001402 0.082207 0.140815 -0.031149 0.079642 -0.040666 -0.372570 -0.102400 0.129079 0.242701 0.079454 -0.018523 -0.173609 -0.006042 0.124479 -0.066195 -0.056510 -0.235355 -0.203349 0.011029 
global 0.079462 0.035736 -0.108563 -0.128544 0.080923 0.070947 -0.030698 0.118755 0.000914 0.273087 -0.170390 -0.078874 -0.290632 -0.095112 0.142142 0.011803 -0.059833 0.137847 0.005766 0.546907 
classes 0.069801 0.034784 -0.112672 -0.058877 -0.157295 -0.023493 -0.195799 0.345851 0.045603 0.095953 -0.355388 0.179271 -0.432064 0.306604 -0.150110 0.076772 0.042502 -0.117076 0.092710 0.319124 
distance 0.207605 -0.051275 -0.220394 -0.207452 -0.194832 0.335044 0.145764 -0.012630 -0.025419 0.327516 -0.602072 -0.160443 -0.426928 0.311769 -0.150930 0.052922 0.112419 0.117376 0.130235 0.495245 
related -0.024699 0.216535 -0.274549 0.012334 -0.070434 -0.045724 -0.015436 0.261693 0.247840 0.097655 -0.161458 -0.153216 -0.121881 -0.013056 -0.006525 0.010074 -0.035999 -0.145171 -0.019024 0.373175 
term 0.182901 0.009962 0.184104 -0.302286 0.072547 -0.019123 -0.080587 -0.392339 -0.102255 0.213925 -0.280320 0.095357 -0.292382 -0.095026 -0.056506 -0.392862 0.060577 -0.183254 -0.418391 0.130732 
specific 0.107888 0.147442 -0.058420 0.163152 0.043741 -0.019306 -0.339430 0.123939 0.184318 0.118222 -0.017191 -0.018834 -0.067232 0.050750 -0.008374 -0.207476 0.148482 -0.300774 -0.028937 0.157664 
binary 0.028539 -0.102324 0.020611 0.069665 0.062522 -0.219534 0.025016 0.225680 -0.133005 0.135799 -0.079342 -0.163446 -0.433132 0.201426 -0.267276 -0.000038 0.386889 -0.140599 0.184629 -0.136744 
outputs 0.382419 0.168004 -0.306000 -0.162650 0.305558 0.117145 -0.316133 -0.154527 -0.024086 -0.196734 -0.099615 0.331191 -0.658838 0.181223 -0.193311 -0.735622 -0.017233 -0.099835 -0.270744 -0.205788 
recent -0.232496 0.045484 0.017295 -0.052175 0.071678 -0.072253 -0.227480 -0.001584 0.275453 0.013517 -0.086638 -0.092774 0.154614 -0.187467 0.053161 -0.116557 -0.160720 -0.156969 -0.152351 0.437219 
variable -0.067095 0.069183 -0.307063 0.104868 0.089629 0.011404 0.115300 0.320254 0.006193 -0.053703 -0.166189 -0.012769 -0.398394 -0.074030 -0.212611 -0.012955 0.014529 -0.069193 -0.124707 0.048305 
estimates 0.076045 -0.416584 -0.153327 0.020178 -0.189925 -0.175531 -0.292387 0.087358 -0.136678 0.287322 -0.175545 -0.026125 -0.557722 0.007743 0.008007 -0.229422 0.043002 0.150178 0.256213 0.018034 
kernels -0.156743 0.079414 0.181453 -0.271228 -0.157028 0.128562 0.028668 0.294483 -0.005870 0.061404 -0.294156 -0.261366 -0.010739 0.106681 -0.087464 0.341742 0.134568 -0.256196 0.069731 0.577335 
threshold 0.094957 0.314516 -0.147244 -0.077151 0.430618 0.104934 0.132264 0.134233 0.232011 0.223432 -0.299789 0.341314 -0.404580 0.165068 -0.055868 -0.339120 -0.236541 0.056244 0.160003 -0.224756 
relevant 0.312794 0.579254 -0.254423 0.009776 0.059323 -0.164302 -0.170182 0.111058 -0.004246 -0.050929 -0.218342 -0.291376 0.028404 0.031361 -0.050103 -0.180738 0.232838 -0.215859 0.041717 1.217512 
us -0.053745 0.202884 -0.273269 -0.104964 -0.035975 -0.000234 -0.223040 0.107199 0.090388 0.185969 -0.503632 0.085660 -0.330529 0.162785 -0.168647 -0.057177 0.044596 -0.150170 -0.025335 0.551748 
derived -0.012960 -0.223750 0.100791 -0.070950 0.077715 0.008171 -0.130526 0.160510 0.166911 0.342928 -0.228791 -0.070679 -0.336699 0.059342 0.191177 0.112357 -0.192719 -0.075264 0.177296 0.253030 
supervised -0.221308 -0.171690 0.327595 -0.010017 -0.245561 -0.014476 0.054660 0.153474 -0.161134 0.267869 0.180240 -0.527047 0.053556 0.299908 0.194761 0.344688 0.270654 -0.401113 -0.086601 0.466375 
lower 0.417559 -0.115509 -0.059413 0.282907 -0.196304 0.085907 0.099269 0.137883 -0.054761 0.732365 -0.133167 0.430608 -0.222431 -0.197077 0.026299 -0.053058 -0.433491 0.137390 0.301059 0.357063 
connections 0.078538 0.443906 -0.146712 0.069567 0.269757 0.266001 0.056162 -0.094491 0.098426 0.081016 0.055884 -0.028803 -0.338010 -0.184948 -0.029345 -0.492590 0.142153 -0.112510 -0.429025 0.001948 
adaptive -0.242485 -0.222650 0.197250 0.116707 -0.059201 -0.003286 0.002163 -0.025928 0.033624 0.387113 0.111253 -0.180836 -0.208227 -0.207808 0.049906 0.031978 0.117280 -0.220191 -0.173169 0.135799 
rather -0.047764 -0.082837 0.246844 0.150514 0.155491 -0.147275 -0.199837 -0.088116 0.110817 0.537342 -0.342715 0.407379 -0.049574 -0.003182 0.128030 -0.299310 -0.507565 0.335132 0.078471 0.010640 
able -0.086667 -0.015198 0.031801 -0.047361 -0.075541 0.000247 -0.155198 0.122477 0.015812 0.227549 0.032573 -0.168567 -0.194655 0.049515 0.134042 0.080142 -0.040902 -0.126876 -0.011409 0.228994 
should 0.153825 0.099983 -0.185180 0.186223 -0.029090 0.007650 -0.202033 0.044954 -0.023504 0.207825 -0.204412 0.208890 -0.244010 0.109147 0.043566 -0.176203 -0.052728 0.029676 0.062409 0.290447 
zero 0.260630 0.105074 -0.623132 0.052109 0.076067 0.129067 0.102430 0.054651 0.192216 0.409386 -0.482945 0.469022 -0.549112 0.124848 0.091556 -0.301678 -0.071738 0.410928 0.259697 -0.125103 
significant 0.078426 -0.218452 -0.076568 -0.061532 -0.090458 -0.359837 -0.223953 -0.176660 0.034807 0.312576 0.210271 -0.077209 -0.180208 0.143152 0.042280 -0.287332 -0.031865 -0.090259 0.027906 0.244251 
noisy -0.106694 -0.019274 -0.023141 0.116001 0.080798 -0.098392 -0.167515 0.267111 0.038920 0.157895 0.280992 -0.021227 -0.459116 0.161834 0.127124 -0.046672 0.134356 -0.288024 -0.276597 -0.048949 
sparse 0.172818 -0.049311 -0.170443 0.123648 -0.032866 0.116344 -0.236728 0.265438 0.269268 0.026584 -0.067949 -0.016614 -0.078324 0.163822 0.124908 0.085139 0.105828 -0.124817 -0.091118 0.275441 
unit -0.069086 0.154185 -0.530115 0.132720 0.340445 0.279766 0.084519 -0.059406 0.097939 0.036812 -0.213386 0.231962 -0.791948 0.256139 -0.168111 -0.534800 0.142191 0.101624 -0.274481 -0.604719 
difficult -0.083832 -0.032701 0.050899 0.120478 0.046575 -0.192595 -0.453392 0.200587 -0.016707 0.336883 0.125566 -0.045730 -0.092300 0.265439 0.058040 0.201388 -0.258912 0.014828 0.058316 0.357283 
graph 0.035187 -0.187501 0.121495 0.299044 0.168634 0.186527 -0.111311 0.328578 -0.039257 0.308501 -0.112631 -0.275615 -0.189001 0.208753 -0.095171 0.059403 0.463916 0.009784 -0.044428 0.247448 
due 0.129161 -0.072452 -0.167671 -0.027029 -0.073524 -0.029155 -0.301985 0.062888 0.025480 0.332581 -0.021721 0.184862 -0.208032 0.005462 0.041718 -0.278762 -0.088504 0.214211 -0.066996 0.277970 
power 0.100624 -0.097502 -0.065658 0.027255 0.102822 0.126529 -0.306416 0.136007 0.116383 -0.016976 0.154599 -0.035404 -0.094794 -0.259811 0.244847 -0.368088 0.255308 -0.196361 -0.180047 0.259449 
posterior 0.056648 -0.792385 -0.551308 0.223122 -0.232219 0.116287 -0.031486 0.413759 -0.073141 0.142827 -0.385102 0.074660 -0.552603 -0.047564 -0.074862 -0.162173 0.017639 0.552288 0.305917 0.258246 
conditional -0.125780 -0.457356 -0.205291 0.049384 0.016529 -0.025668 -0.019502 0.440880 -0.028144 0.046953 -0.254710 -0.226361 -0.641124 -0.120720 -0.078363 -0.083615 0.101148 0.154837 0.181541 0.090038 
would 0.142703 0.140112 -0.159771 0.055098 0.129107 -0.096663 -0.312760 0.085826 0.065759 0.097115 -0.244086 0.312914 -0.323970 -0.058299 0.048224 -0.433440 -0.259546 0.131039 0.112335 0.002595 
eye 0.052363 0.357914 -0.410913 0.408622 -0.112087 -0.317151 -0.595783 -0.082271 0.493996 -0.365599 -0.059551 -0.019882 -0.150465 -0.541847 0.003242 -0.403366 -0.038607 -0.401359 -0.183826 0.301581 
margin 0.033375 -0.262025 0.215468 -0.292362 -0.383897 -0.421139 -0.117723 0.093076 -0.025093 0.330281 -0.501933 -0.037084 -0.218548 0.353923 0.016404 0.317868 -0.010751 -0.278526 0.668354 0.342243 
firing 0.329488 0.540552 -0.485037 -0.057097 0.379635 -0.418302 -0.187416 -0.503331 0.751216 -0.139701 -0.026485 0.214800 -0.177184 -0.557034 0.487410 -0.795333 -0.841427 -0.017004 0.052533 -0.037243 
discrete -0.071657 -0.079751 0.022215 0.227235 -0.185021 -0.022334 -0.030895 0.289559 -0.013856 0.238225 0.092389 -0.094237 -0.408459 0.050131 -0.108014 0.108669 0.092919 -0.141559 0.002886 -0.142268 
compute -0.167262 -0.010891 0.000570 -0.094998 0.069035 -0.012439 -0.149774 0.260480 -0.199885 0.302257 -0.298700 -0.003118 -0.497930 0.088070 -0.194872 0.003296 -0.120810 0.208411 0.168675 0.242278 
distributed 0.047799 0.003545 -0.148890 0.136018 0.103437 0.323835 -0.168572 0.148179 0.203548 -0.004621 -0.145795 -0.054199 -0.391962 -0.085449 0.051970 -0.196509 -0.078534 -0.176823 -0.173341 0.021783 
probabilities -0.107363 -0.497080 -0.394617 0.015982 -0.145555 -0.014550 0.034618 0.452390 -0.246897 0.030088 -0.161809 -0.157737 -0.781642 -0.101850 -0.360755 -0.241785 0.091270 0.546660 0.095772 -0.185735 
stimulus 0.121353 0.450136 -0.473720 -0.245213 0.368532 -0.295244 -0.181542 -0.157819 0.465925 -0.224383 -0.164595 0.141501 -0.249710 -0.225220 0.239578 -0.249486 -0.593988 -0.040983 -0.110954 0.403450 
dependent 0.119059 0.110384 -0.287115 -0.015604 0.089226 -0.027726 -0.175777 -0.028953 0.296045 0.051921 0.117889 -0.023190 -0.273039 -0.179638 0.031785 -0.324215 -0.025181 -0.108596 -0.037487 0.052044 
suggest -0.184301 0.096105 -0.140991 -0.033064 -0.049519 -0.126670 -0.195174 0.007038 0.173343 0.011361 0.149394 -0.235265 -0.014814 -0.101305 0.324673 -0.283718 -0.041382 -0.337407 -0.093140 0.290258 
obtain 0.051794 -0.139070 -0.022299 0.095640 -0.145843 -0.096363 -0.071377 0.091379 -0.187417 0.298212 0.009176 0.110356 -0.274679 0.039411 0.032689 -0.189309 -0.157877 -0.033920 0.187658 0.213135 
them 0.152715 -0.055218 -0.104226 -0.092040 -0.090539 -0.179205 -0.180152 0.160376 -0.020412 -0.039405 -0.028784 0.024044 -0.354428 0.158550 -0.019103 0.044236 0.099593 -0.203995 -0.031472 0.363400 
goal -0.132578 0.120246 -0.166031 0.077457 -0.047126 -0.211197 -0.074435 0.018391 -0.116596 0.063303 -0.115584 0.090807 -0.329481 -0.014169 -0.105288 -0.161046 0.043734 -0.024064 -0.244268 0.034562 
variance 0.195039 -0.257929 -0.388878 0.202998 0.084891 0.078348 0.002875 0.065183 -0.016142 0.362379 -0.199600 0.462075 -0.344449 0.190585 0.084693 -0.352223 -0.166678 0.413622 0.210314 0.054022 
mapping 0.066111 0.147177 -0.239625 0.042521 -0.006471 -0.009951 -0.230586 0.073927 0.138382 -0.002320 -0.106798 0.010773 -0.428467 0.093647 -0.071089 -0.103352 0.300616 -0.219421 -0.144141 0.028388 
position 0.237750 0.503226 -0.562896 -0.043797 0.094100 -0.220156 -0.423634 0.038910 0.252842 -0.320631 -0.309892 0.205562 -0.514195 -0.427043 -0.173900 -0.482202 0.042453 -0.172343 -0.067803 0.043401 
cortical -0.030769 0.640373 -0.101822 -0.279610 0.486885 -0.169389 -0.271082 -0.153255 0.253215 -0.401199 0.164819 -0.064303 -0.360410 -0.234319 0.307072 -0.381038 -0.384096 -0.417532 -0.434234 0.264891 
following -0.104057 -0.066815 -0.231400 -0.126950 -0.037868 0.080937 0.015437 0.031042 -0.045505 0.475613 -0.323886 0.082997 -0.661513 0.277428 -0.085855 -0.176389 -0.253541 0.349887 -0.049265 0.013697 
part 0.135435 -0.101107 0.041718 0.114435 -0.178461 -0.298958 -0.412472 0.020123 0.172897 0.036829 -0.148886 0.105521 -0.203457 0.118818 -0.065229 -0.194337 0.059599 -0.337818 -0.184395 0.017233 
machines 0.133275 0.341930 0.495896 -0.766276 -0.457563 -0.137174 -0.524999 0.339104 -0.321781 -0.083274 -0.876963 -0.113658 -0.133429 -0.092373 -0.096715 0.331456 0.382474 -0.808852 0.630684 0.560535 
certain -0.210031 0.126582 -0.271971 -0.229133 0.014312 -0.018574 -0.066510 0.201403 0.138276 0.187291 -0.251097 0.083572 -0.490023 -0.023149 0.065714 -0.018484 -0.336205 0.004802 -0.036046 -0.009707 
iteration -0.308174 -0.067904 -0.121831 -0.002394 -0.144799 -0.173254 -0.029397 -0.561433 -0.483665 0.777798 -0.176530 -0.131686 -0.606622 -0.206303 -0.135312 -0.137317 -0.387162 0.921324 0.011025 -0.051510 
series -0.115742 0.061263 -0.092745 0.136436 -0.036029 0.041269 -0.247292 0.097291 0.143694 0.227713 -0.006559 -0.076028 -0.270516 0.183368 0.055645 0.242328 -0.030106 -0.029884 -0.417931 -0.138112 
long -0.041150 0.203185 0.176895 -0.145212 0.315067 -0.108477 -0.144149 -0.191658 0.162772 0.191913 -0.177506 0.009553 -0.043419 -0.120268 -0.099812 -0.385161 -0.061163 -0.114975 -0.441013 0.407864 
empirical 0.275398 -0.291569 0.087077 -0.097564 -0.447641 -0.253727 0.113027 0.233590 0.082164 0.379700 -0.217144 -0.014242 -0.250481 0.196152 -0.012252 -0.012597 -0.005044 -0.212851 0.304171 0.271901 
demonstrated -0.037199 -0.079425 0.164661 0.143793 -0.006902 -0.238429 -0.248141 0.025175 0.012662 0.125444 0.217523 -0.159422 0.010873 -0.045734 0.077902 -0.210094 0.325706 -0.346224 -0.173210 0.326308 
sensory -0.013093 0.330624 -0.139921 -0.000539 0.208965 -0.136383 -0.285063 -0.474031 0.228130 -0.239037 0.187085 -0.047743 -0.353360 -0.169246 0.199942 -0.384624 -0.207784 -0.406630 -0.606390 -0.030292 
true 0.002561 -0.338514 -0.261951 0.264197 -0.073985 -0.061493 -0.008768 0.293842 -0.148357 0.419060 -0.322083 0.187384 -0.514758 0.044028 -0.012365 -0.255405 -0.095845 0.482453 0.274187 0.098840 
regions 0.128039 0.336658 -0.044055 0.080388 0.054828 0.172689 -0.231119 0.317285 -0.278994 0.105206 -0.104968 0.213885 -0.296721 0.178651 -0.008269 -0.150396 0.178470 -0.172878 -0.018574 0.404809 
individual 0.543063 0.188072 -0.228911 0.122881 -0.091559 -0.021236 -0.089234 -0.024491 0.085149 0.254777 0.127637 0.445429 -0.448610 0.103301 -0.141243 -0.575800 -0.093806 -0.063336 -0.085819 -0.236741 
parallel 0.045437 0.173941 0.312418 0.134657 0.100759 0.166927 -0.028894 0.133836 0.280057 0.195246 0.044284 -0.051389 -0.282262 -0.270173 -0.008304 0.010183 -0.036589 -0.342315 -0.338876 0.086513 
recently -0.117825 0.018930 0.156483 0.175800 0.326350 -0.247594 -0.197514 -0.011663 -0.110544 0.030177 -0.158801 0.039616 -0.127468 -0.220362 -0.001224 -0.069627 0.021858 -0.379163 -0.077465 0.677931 
expected 0.101048 -0.368656 -0.119367 0.019449 -0.450890 -0.400841 -0.044143 0.041991 -0.104747 0.470467 -0.092005 0.274722 -0.624551 0.189519 0.023594 -0.207920 -0.351105 0.409854 0.416131 -0.094097 
domain -0.142856 0.107665 0.040479 0.059107 -0.045943 0.044561 -0.399822 0.239640 0.146977 0.185323 -0.153576 -0.014846 -0.248924 0.213272 -0.101140 -0.106789 0.138788 -0.237010 -0.270628 0.263078 
statistics 0.295585 0.220939 -0.151233 0.010287 0.062856 0.093362 -0.373125 0.231775 0.172623 0.185162 -0.147239 -0.097391 0.002517 -0.152962 0.043083 -0.060860 -0.064679 0.007143 -0.062086 0.547578 
minimum 0.491677 -0.062267 0.037499 -0.231090 -0.343248 0.286201 0.024254 0.123311 -0.132737 0.590372 -0.287639 0.145788 -0.521967 0.246993 -0.147682 -0.255729 -0.113116 0.016693 0.289614 0.300953 
train 0.044348 0.370524 -0.460725 -0.020060 0.376256 -0.193799 -0.083736 0.056041 0.605404 0.001263 -0.226756 0.115279 -0.384206 0.005867 0.061961 -0.193525 -0.189425 -0.051011 -0.155222 -0.178992 
rates -0.141344 -0.116758 -0.129984 -0.063657 -0.329603 -0.464780 -0.361232 -0.006227 0.492091 0.420472 -0.229574 0.235383 -0.408182 -0.457877 0.142306 -0.227524 -0.811181 0.012591 0.070351 0.028289 
dynamical -0.129184 -0.155844 0.077092 0.100192 0.148557 0.233373 -0.198833 0.075460 0.232306 0.092036 0.237106 -0.086793 -0.191038 -0.116948 -0.314271 -0.154987 -0.156399 -0.244548 -0.390630 -0.112212 
significantly -0.137194 -0.053954 0.314217 -0.022247 -0.250500 -0.280606 -0.336610 -0.118746 0.032312 0.538030 -0.014664 0.044755 0.025717 -0.010427 0.149038 -0.302563 -0.312937 -0.021741 0.131571 0.268151 
responses 0.123978 0.606098 -0.269581 0.029013 0.559413 -0.180396 -0.414922 -0.268545 0.416840 -0.298974 0.010267 0.142292 -0.036584 -0.091282 0.105967 -0.528653 -0.328457 -0.144613 -0.332565 0.266771 
required 0.011274 0.038131 -0.063303 0.050747 0.080123 -0.013012 -0.076549 0.056252 0.133647 0.212350 0.051537 0.157636 -0.384961 0.227585 0.022468 -0.309171 -0.052710 -0.050489 -0.130858 -0.196755 
computer -0.043055 0.187495 0.100728 0.268780 0.144527 -0.059540 -0.167545 0.175853 0.130742 0.000622 0.377926 -0.297122 -0.087135 -0.048013 -0.041128 0.031991 0.176814 -0.495250 -0.349826 0.062456 
environment -0.126257 0.135213 -0.224494 0.166446 -0.013521 -0.108978 -0.090774 0.153335 -0.061018 0.039910 0.261627 -0.144570 -0.506878 -0.115514 -0.003451 -0.100341 -0.045458 -0.017978 -0.279883 0.146162 
equation -0.328531 -0.042924 -0.156815 -0.377769 0.109572 0.078068 -0.050154 -0.143457 -0.282683 0.318891 -0.325281 -0.270998 -0.528926 -0.039112 -0.253141 -0.135368 -0.221187 0.454682 -0.188398 -0.204901 
scheme 0.008249 -0.079393 0.045369 0.013618 0.013249 0.029279 -0.087711 0.037712 0.091883 0.068296 0.004772 -0.178416 -0.078224 -0.134059 -0.045717 0.016553 0.050070 -0.207491 -0.083974 0.351618 
achieved 0.099288 0.019194 -0.099030 0.153511 -0.204446 0.061132 -0.245242 0.080341 -0.017060 0.283143 0.057626 0.017930 -0.140090 -0.026531 -0.110147 -0.241313 0.205180 -0.144578 0.033202 0.253049 
log 0.077681 -0.249836 -0.721459 0.045724 -0.368311 -0.094260 -0.193109 0.455996 -0.127802 0.832042 -0.865976 0.793459 -0.973341 -0.023369 0.258367 -0.621806 -0.238610 0.572143 0.985871 0.512156 
arbitrary -0.259056 0.143476 -0.208407 -0.162978 0.136439 0.143998 0.018417 0.077857 -0.034907 0.249230 -0.216244 -0.043216 -0.608526 0.110319 -0.082563 -0.049049 0.178565 0.115721 -0.094707 -0.205561 
contrast -0.004311 0.308118 -0.060482 -0.045246 0.293301 -0.094294 -0.093907 0.018666 0.258830 0.084653 -0.088667 -0.167201 -0.181052 -0.112108 0.164743 -0.037251 -0.181604 -0.221639 -0.059234 0.293399 
design -0.271563 0.063994 0.344961 -0.044930 -0.032093 0.071406 -0.126611 0.189954 -0.005048 0.325896 0.121699 -0.137016 -0.154282 0.098336 0.200901 -0.048702 0.116452 -0.333500 -0.143071 0.301380 
account 0.075667 0.017711 -0.088722 0.124315 0.203069 0.094526 -0.284046 0.033614 0.295606 0.015380 -0.044933 0.020256 -0.212186 0.060912 0.124453 -0.039250 -0.071656 -0.259977 -0.174777 0.217147 
requires 0.176203 0.066323 -0.222189 -0.038001 -0.074081 -0.012625 -0.212583 0.052364 0.118687 0.157110 -0.073705 0.155984 -0.307147 0.052417 0.079964 -0.095649 0.004853 0.010202 0.101689 -0.032689 
underlying 0.020677 0.017393 -0.177233 0.108637 -0.030960 0.017796 -0.168406 0.202429 0.032365 0.008929 0.058951 -0.114532 -0.362282 -0.068337 0.121829 -0.064529 0.002612 -0.070464 -0.097012 0.253788 
self -0.202666 0.323424 0.149310 0.042960 0.207862 0.080797 -0.047784 0.038495 -0.091556 -0.060112 0.179337 -0.156364 -0.164901 -0.103894 0.014236 -0.095680 0.153520 -0.338237 -0.448191 0.156305 
net -0.031524 0.111402 0.443785 0.445011 0.162603 0.061720 -0.129682 0.149414 0.119984 0.228908 -0.071542 0.174423 -0.389074 0.023774 -0.157487 -0.073414 0.325164 -0.478232 -0.284831 -0.418204 
hierarchical -0.218247 0.059378 0.002096 0.289165 0.160661 0.108442 -0.190692 0.366694 0.150016 -0.056142 0.213849 -0.423347 -0.241238 0.069739 0.037773 0.295044 0.112581 -0.398896 -0.111249 0.490831 
defined 0.083035 0.016611 -0.035975 -0.132131 -0.130524 0.047873 -0.220304 0.204251 -0.039312 0.329516 -0.287352 0.137872 -0.597405 0.241541 -0.227931 -0.147627 0.066756 0.028215 0.122195 -0.141322 
coding 0.128824 0.343785 -0.232390 -0.029880 0.333248 -0.141346 -0.366313 0.015035 0.502634 -0.154566 -0.101411 0.023308 -0.132838 -0.089923 0.092241 -0.248580 -0.196241 -0.375191 -0.037289 0.123322 
various -0.085775 0.050148 0.027365 -0.042357 -0.014442 0.068478 -0.153841 0.228212 0.249180 0.354153 0.005083 0.055970 -0.044746 0.040867 -0.140792 -0.097749 -0.136749 -0.140323 -0.067285 0.111940 
call -0.172893 -0.477846 -0.161325 0.047619 -0.622693 -0.264698 -0.010815 0.330523 0.327579 0.581411 -0.385321 -0.061544 -0.683846 0.110759 -0.239873 -0.068812 -0.425324 -0.041561 -0.113967 -0.268374 
make -0.030445 -0.094034 -0.173493 0.065997 -0.110398 -0.173752 -0.148319 0.200370 0.147254 0.275792 -0.024376 -0.054185 -0.248973 -0.000990 -0.112594 -0.015400 -0.175805 -0.184119 -0.090566 0.092021 
programming -0.278388 -0.002862 0.152364 -0.121817 -0.278926 -0.181010 0.054665 0.137164 -0.179015 0.333859 -0.002657 -0.302734 -0.580116 0.069170 0.354173 0.607780 0.084220 -0.052910 0.051408 0.068042 
artificial -0.150656 0.001316 0.281731 0.222102 0.271984 -0.021081 -0.233722 0.028380 0.260635 0.058212 0.338200 -0.288531 -0.180371 -0.035349 -0.110736 0.024552 0.284397 -0.482265 -0.446357 -0.361139 
online -0.281955 -0.357366 0.131940 0.053886 -0.352682 -0.134107 0.034213 0.020701 -0.048669 0.485079 -0.103232 -0.333441 -0.161189 0.078232 0.117036 0.290955 -0.129393 -0.037713 0.231753 0.276781 
respect 0.064815 0.034845 -0.246588 -0.210661 -0.270907 -0.055332 -0.215758 -0.007160 -0.132237 0.372306 -0.141452 -0.038617 -0.483719 0.141599 -0.024119 -0.076812 -0.076418 0.250631 0.079017 -0.015941 
loss -0.111372 -0.034459 0.265138 -0.158103 -0.374745 -0.302998 -0.015240 0.099724 -0.101718 0.696915 -0.310400 -0.170383 -0.585689 0.271631 -0.242800 0.356318 -0.112586 -0.168641 0.565742 0.264549 
learns -0.169798 -0.015783 -0.161726 0.009729 0.153488 -0.110086 -0.112039 -0.104101 0.016415 0.116611 0.146566 -0.195395 -0.411580 0.083904 0.015114 -0.039226 0.103344 -0.202319 -0.133907 -0.082644 
improve -0.103501 -0.049420 0.165639 0.183928 -0.292581 -0.175422 -0.180945 0.027381 -0.275657 0.619703 0.236351 -0.100504 0.035285 -0.007069 -0.244115 -0.224357 0.074576 -0.094651 0.084328 0.080622 
motor -0.022523 0.183757 -0.050386 0.044158 0.153055 -0.160345 -0.203194 -0.158230 0.085258 -0.315810 0.370396 -0.103352 -0.295874 -0.308623 -0.007038 -0.368479 0.050052 -0.384744 -0.465243 0.013856 
leads 0.029758 -0.282173 -0.066394 -0.156353 -0.145701 -0.082997 0.006238 0.008541 -0.014919 0.408328 -0.022978 -0.016497 -0.305402 0.333868 0.076618 -0.067853 -0.146203 -0.011234 0.227009 0.206840 
further -0.157070 -0.040033 -0.198589 0.064463 -0.019698 -0.131233 -0.241357 0.025827 -0.022515 0.226954 -0.054860 0.113002 -0.213608 -0.049631 -0.021484 -0.165584 -0.157312 -0.082888 -0.069504 0.192179 
back -0.273875 -0.524603 -0.027665 0.482461 0.450892 0.045239 -0.306056 0.069602 0.390887 0.132162 0.129356 -0.041079 -0.241524 -0.604868 -0.378489 -0.566983 0.275247 0.114405 -0.090282 -0.781052 
unsupervised 0.021710 -0.060461 0.026778 0.043870 -0.091069 -0.143779 -0.074276 0.005281 -0.085302 0.083910 0.139159 -0.495727 0.058913 0.173938 0.050364 0.194173 0.237790 -0.329428 0.020828 0.546494 
relative 0.169107 0.042202 -0.273303 -0.231946 -0.281679 0.052035 0.084818 -0.119208 0.007463 0.437436 -0.215029 0.195860 -0.636198 -0.152432 0.093031 -0.217108 -0.277946 0.306770 0.045529 0.138034 
robust -0.085104 -0.256523 -0.125776 0.117760 -0.134903 -0.093358 -0.393200 0.095269 0.101958 0.336247 0.043936 -0.158425 -0.180052 -0.091415 0.293245 -0.058201 -0.059984 -0.036861 0.031122 0.330602 
exact -0.201757 -0.439095 -0.120911 0.101675 -0.070006 0.048246 -0.004260 0.146061 0.040577 0.649468 -0.326472 -0.229687 -0.516969 -0.209688 0.013545 -0.009195 -0.162434 0.356784 0.253182 0.297126 
type 0.110268 0.157883 0.070153 -0.022141 -0.034152 -0.011390 -0.219182 0.098008 -0.024528 0.110009 -0.023365 -0.214246 -0.117841 0.143251 -0.118430 0.040945 0.188431 -0.143320 -0.112877 0.283875 
means 0.073860 -0.198360 -0.121766 0.060927 -0.148519 0.025078 -0.064937 0.048335 -0.097486 0.294037 -0.189722 0.185357 -0.437361 0.013499 -0.046916 -0.157185 -0.134777 0.039302 0.065144 0.145166 
functional 0.186787 0.323868 -0.176682 -0.092193 -0.006654 -0.061601 -0.239288 0.063431 0.060004 0.208457 -0.090157 0.117372 -0.376934 0.090799 -0.054575 -0.108669 -0.116262 -0.074376 -0.106780 0.209624 
factor 0.157692 -0.265566 -0.391270 -0.144858 -0.078608 0.170448 -0.235742 0.044396 0.091721 0.327278 -0.279731 0.088484 -0.282972 0.078218 0.181114 -0.142431 0.169817 0.499573 0.178149 0.473086 
existing -0.162114 -0.053195 0.165716 -0.137348 -0.256424 -0.079195 -0.092135 0.090066 0.013952 0.615475 0.052410 -0.242139 0.072492 0.164023 0.062115 0.317382 -0.027322 -0.168173 -0.161317 0.399522 
could 0.038498 0.030255 -0.248060 0.110746 -0.029905 -0.067684 -0.131108 0.076868 0.161070 0.035561 -0.066675 0.187753 -0.344034 -0.340068 0.177746 -0.326455 -0.147545 0.189746 0.068781 -0.088171 
similarity 0.332491 0.239572 -0.133339 -0.215217 -0.030163 0.200986 -0.303606 0.360040 -0.015857 -0.085035 -0.413673 -0.027179 -0.048908 0.144396 -0.184186 -0.015273 0.300268 -0.313300 0.038868 0.663854 
filter 0.187965 0.282870 -0.443415 0.066212 0.264937 0.055442 -0.210360 -0.023989 0.206233 0.186924 -0.092610 -0.058658 -0.214951 -0.161208 0.135491 -0.358323 -0.244364 0.127374 -0.129131 0.201119 
effective -0.118995 -0.193292 0.100071 0.027023 -0.100821 0.026067 -0.233800 -0.009001 0.109741 0.319337 -0.001877 -0.078403 -0.122605 -0.088666 0.001038 0.003287 -0.215699 -0.064864 -0.112962 0.232089 
apply -0.042338 -0.157660 -0.038215 0.044139 -0.100542 -0.101466 -0.203453 0.093583 0.148260 0.177414 -0.027820 -0.130486 0.009330 0.129441 0.132343 0.154890 0.082434 -0.116307 0.071965 0.188578 
alternative -0.100340 0.004429 -0.113279 -0.132689 -0.079811 -0.209975 -0.291368 0.194352 0.031675 0.362898 -0.030095 -0.137808 -0.120638 0.120610 0.161503 0.000536 0.072689 -0.065588 -0.019639 0.295005 
circuit -0.019774 0.589628 -0.095738 0.138645 0.427675 0.120294 -0.147677 0.214393 0.132392 0.255059 0.340140 -0.152241 -0.216744 -0.304698 0.000859 -0.326089 0.160390 -0.362862 -0.587134 -0.048930 
face 0.172839 0.249373 0.030853 0.075104 -0.008108 -0.260251 -0.490603 0.122031 0.205040 -0.006493 0.082784 -0.159317 0.010374 0.117161 0.038263 0.120414 0.376272 -0.556107 -0.102273 0.342639 
computed -0.110133 -0.000197 -0.129685 0.079179 -0.234065 0.105696 -0.194109 0.099086 0.051922 0.591191 -0.403746 -0.041723 -0.521770 0.109260 -0.295466 -0.229343 0.093218 0.330558 -0.000688 -0.022897 
validation 0.731475 -0.599723 -0.257359 0.113625 -0.816517 -0.547332 -0.200454 -0.018585 0.070147 0.126942 -0.155553 0.585307 -0.602664 0.732095 0.122038 -0.198645 0.340033 -0.349498 0.380612 -0.013457 
update -0.137746 -0.386829 -0.429016 0.078298 -0.097844 -0.189332 -0.002228 -0.357460 0.069666 0.810656 -0.155496 -0.013963 -0.434967 0.093953 0.266733 -0.128472 -0.447798 0.839097 0.321221 0.022917 
active -0.127816 0.103198 -0.308128 0.023364 0.206424 0.022632 0.044562 -0.048963 0.004413 0.042232 0.042076 -0.092918 -0.348679 -0.048852 0.078662 -0.205129 -0.094608 0.184572 0.079068 0.116240 
per -0.066152 0.121654 -0.408283 0.038657 0.154816 -0.133218 0.018177 -0.200429 0.083853 0.377857 -0.444841 0.102072 -0.525463 -0.172259 0.103654 -0.357919 -0.191292 0.289701 0.066723 -0.341867 
correlations 0.126801 0.302815 -0.335579 0.099364 0.254453 -0.111558 -0.421403 0.171160 0.589173 -0.136168 -0.023104 0.215558 -0.345034 -0.073729 0.107084 -0.436532 -0.183293 -0.338142 -0.055535 0.172082 
highly -0.073388 0.155610 -0.087592 -0.068330 0.236585 0.048154 -0.305758 -0.095884 0.212519 -0.019605 -0.042378 -0.059200 -0.340578 -0.008194 0.029910 -0.293583 -0.018831 -0.116286 -0.164607 0.048171 
effect 0.089069 -0.002066 -0.151113 0.062259 0.094419 0.109010 -0.224008 0.066593 0.029925 -0.066759 -0.105919 0.129077 -0.240646 -0.007291 -0.022850 -0.383040 0.035656 -0.039445 -0.112218 0.281181 
descent -0.248210 -0.461302 0.415084 -0.467445 0.190752 -0.306059 -0.279717 -0.370074 -0.204407 0.897061 0.253831 -0.198674 -0.349792 0.388610 0.248772 0.190935 -0.288985 0.696240 0.136281 -0.002608 
fields -0.039889 0.601094 -0.099051 -0.007246 0.541973 -0.168174 -0.286398 0.310264 0.276000 -0.066404 0.192090 -0.266811 -0.342365 -0.225592 -0.021944 -0.100842 -0.200482 -0.160626 -0.123668 0.172263 
simulation -0.123806 0.035416 0.031369 -0.040954 -0.016442 -0.007892 -0.161113 0.022592 0.171878 0.306859 0.261211 -0.021175 -0.183350 -0.078947 0.176878 -0.246555 -0.031757 -0.210004 -0.353011 0.116251 
correlation 0.046948 0.013737 -0.311176 -0.090311 0.030033 0.205306 -0.195323 -0.032133 0.130130 0.129836 -0.072506 -0.049503 -0.377187 0.169624 0.070432 -0.276602 -0.137101 0.024917 -0.293754 0.144394 
initial -0.063229 0.066534 -0.202380 0.087225 -0.175355 0.009488 0.006690 0.133601 -0.054617 0.166166 -0.154536 0.182087 -0.625225 -0.144669 -0.094944 -0.350057 -0.025729 0.023088 -0.091358 -0.146570 
less -0.096791 -0.071284 -0.093349 0.124565 0.113293 0.101358 -0.199608 -0.105923 0.160093 0.385669 -0.117225 0.325690 0.008577 -0.049740 0.089857 -0.462108 -0.389019 0.190828 0.010556 -0.006165 
previously -0.316567 0.041806 0.201710 0.212149 0.136673 -0.120828 -0.272300 -0.065443 0.209319 0.299716 -0.064645 -0.210605 0.106727 -0.235398 0.098305 -0.136457 -0.113985 -0.199413 -0.130234 0.404553 
word -0.014191 -0.484781 0.068585 0.484844 -0.347575 -0.131869 -0.339214 -0.016041 0.059895 0.172218 0.232088 0.018412 -0.182607 0.143552 -0.016565 -0.088991 0.236596 -0.459471 -0.141418 -0.001988 
brain -0.146729 0.246659 -0.108728 -0.002932 0.154625 0.009453 -0.137194 0.100427 0.231562 -0.087320 0.077320 -0.035764 -0.186778 -0.063744 0.108236 -0.018613 -0.023449 -0.334311 -0.292299 0.228691 
entropy 0.244001 -0.063006 -0.483376 -0.137710 -0.036647 -0.088117 0.032095 0.109805 0.165071 0.195545 -0.465713 0.066150 -0.491776 0.013050 0.041202 0.009639 -0.350589 0.222163 0.476062 0.360111 
dimension 0.273061 -0.242128 -0.049373 -0.319086 -0.194829 0.276146 -0.147304 0.353654 -0.181523 0.229930 -0.188390 0.247049 -0.411270 0.244574 0.005058 0.060276 0.241768 0.076384 0.417176 0.295911 
fast 0.034096 -0.093200 -0.001101 0.043500 -0.017696 -0.070570 -0.071923 -0.172417 0.040518 0.308087 0.052583 -0.121457 -0.169530 -0.025037 0.164756 0.020433 -0.050437 -0.011059 0.033605 0.177909 
performed -0.033047 -0.031544 -0.017678 0.091400 -0.156874 -0.032880 -0.304624 0.128312 -0.000212 0.228115 0.008442 -0.263701 -0.213877 0.039285 0.049396 -0.031278 0.055479 0.019375 -0.046444 0.220845 
implementation 0.035840 0.072903 0.377352 0.056257 0.272307 0.248984 -0.124649 0.073056 0.132252 0.231306 0.294132 0.009515 -0.270642 -0.122848 -0.016597 -0.349632 0.116361 -0.259937 -0.440150 -0.025754 
either -0.155120 -0.008176 -0.054099 -0.012322 0.191053 0.125738 -0.009223 -0.104661 -0.049546 0.268283 -0.184325 -0.045735 -0.363659 -0.071501 -0.161653 -0.039899 0.064877 0.052844 -0.146592 0.185100 
forward -0.305042 -0.089752 0.200537 0.142230 0.189695 0.332122 0.027453 0.037781 0.231408 0.147012 0.020705 -0.156311 -0.324686 -0.126202 -0.157640 -0.059949 0.107608 -0.138965 -0.438638 -0.329516 
common 0.023977 0.140219 -0.002197 -0.081320 0.087391 -0.070223 -0.238794 0.113972 0.076770 0.229439 -0.074963 0.061065 -0.306715 0.177324 -0.019609 0.044916 0.021469 -0.173897 -0.187317 0.262675 
capacity 0.188006 0.072937 -0.155946 -0.189296 -0.004134 0.062580 -0.202396 0.258481 0.160619 0.297792 -0.008015 0.235076 -0.335019 0.009619 0.119007 -0.291336 -0.223487 0.000334 0.203794 -0.103212 
represent 0.072624 0.303725 -0.226321 0.157382 0.286633 0.148667 -0.177968 0.170679 0.109218 0.150976 -0.355985 -0.135416 -0.371907 0.066444 -0.349203 -0.177249 0.345163 -0.073096 -0.195434 0.068161 
available -0.018325 0.178231 -0.126769 0.108664 -0.160774 -0.103833 -0.204548 0.137329 0.060853 0.264855 -0.260283 0.068594 -0.141723 0.056344 -0.155659 -0.252808 0.094791 -0.178297 0.004050 0.147307 
solutions -0.200582 0.136070 0.026777 -0.230577 -0.056891 -0.037878 -0.309607 0.115732 -0.008957 0.250711 -0.029169 -0.062756 -0.353145 0.042825 0.129400 0.105436 -0.270778 0.042773 -0.079947 0.298062 
take -0.222107 0.106715 -0.130271 0.016503 0.279966 0.099067 -0.086494 0.164675 0.127289 0.165635 -0.207557 -0.153029 -0.347953 0.185403 -0.136671 -0.127159 0.166060 -0.116157 -0.174239 0.023182 
times -0.071067 -0.127812 -0.211582 0.076619 -0.270756 -0.093444 0.023234 -0.036061 0.345715 0.503330 -0.370183 0.215024 -0.428423 -0.115643 0.009118 -0.414136 -0.529481 0.098632 0.118154 -0.230704 
dimensionality 0.277328 0.004832 -0.246436 -0.364395 0.073498 0.072076 -0.371473 0.179475 -0.276401 0.136288 0.082699 0.055334 -0.285401 0.178528 0.180020 0.164689 0.257467 0.012353 0.251338 0.559315 
free -0.029334 -0.230438 -0.247570 0.041969 -0.018690 -0.256039 -0.169949 0.027884 0.001663 0.246984 -0.101833 -0.143805 -0.615245 -0.081058 0.016330 -0.197380 0.211950 0.219596 0.079646 0.065559 
implemented -0.092410 0.379922 0.278278 0.193721 0.478308 0.100962 -0.251903 0.128918 0.092593 0.210854 0.102699 -0.029248 -0.184785 -0.187482 -0.074375 -0.245447 0.023761 -0.328645 -0.444288 -0.068299 
