2048 20 
you 0.336123 0.036631 0.213693 -0.195396 -0.203430 -0.037580 0.100735 -0.059089 -0.106870 -0.250648 -0.224313 0.038472 0.248288 -0.417832 0.044486 -0.226866 0.420296 0.124573 -0.267031 -0.046576 
have -0.036660 0.094469 -0.079926 0.275472 0.078332 -0.042866 0.232798 -0.021057 -0.234266 0.095303 -0.395031 -0.264597 0.093258 -0.108682 0.154857 -0.064048 0.237483 0.081356 -0.252999 -0.087294 
writes -0.185725 -0.359256 0.312692 -0.567003 0.327761 -0.197451 0.379819 0.389486 0.154864 -0.043260 0.395642 0.475688 -0.283401 -0.071285 0.847373 0.072075 -0.546417 -0.546037 0.096008 0.170593 
but 0.233779 0.065301 0.161599 0.179168 -0.187332 -0.099101 0.217247 0.163801 -0.346290 -0.224163 -0.521352 -0.198764 0.219807 -0.190255 0.033753 -0.085472 0.206549 0.015250 -0.364275 0.016660 
article -0.133015 -0.360076 0.163009 -0.455039 0.397989 -0.108826 0.283626 0.595265 0.316505 0.049765 0.525380 0.527668 -0.222738 -0.114870 0.836778 0.215141 -0.591955 -0.582436 0.203319 0.186746 
my 0.236195 -0.192155 0.078812 0.300214 -0.485457 -0.006202 0.023551 0.213554 -0.494115 0.099744 -0.096170 -0.121755 -0.027213 0.252524 0.215321 -0.534899 0.154090 -0.270668 0.078061 0.018615 
would -0.075794 -0.141362 0.041417 -0.232523 -0.170159 -0.145836 0.033802 -0.110260 -0.223687 -0.211249 -0.098975 0.155779 0.044025 -0.160376 0.003081 -0.163977 0.430442 0.309946 -0.347399 -0.240384 
they 0.222976 0.215068 0.023079 0.163340 -0.071751 0.289099 0.060002 0.115369 -0.225411 -0.104087 -0.260321 -0.158143 0.323118 -0.372773 0.229113 0.086424 0.336638 0.120945 -0.201438 0.037850 
what 0.234439 0.074258 0.125180 -0.217071 -0.000699 -0.058979 0.251509 -0.145814 -0.360439 -0.179098 -0.319347 0.005222 0.187398 -0.321874 0.148141 0.003370 0.065223 -0.071316 -0.245158 -0.019899 
about -0.071181 -0.045523 0.114068 -0.198475 -0.060288 0.088460 0.317804 -0.074958 -0.400707 -0.209050 -0.213021 -0.132359 0.108382 -0.006848 0.248433 -0.098802 0.040197 -0.134797 -0.501676 0.083007 
do 0.331340 0.231774 0.308298 -0.141299 -0.156800 -0.137883 0.277288 0.063170 -0.256560 -0.232039 -0.119197 0.002221 0.276326 -0.426755 0.104559 -0.270190 0.230220 0.060857 -0.237852 -0.203759 
me 0.415369 -0.193014 0.292791 -0.376153 0.157662 0.004672 -0.234037 -0.050745 0.152606 -0.184037 -0.063063 0.008546 -0.072820 -0.268129 0.134215 -0.814265 0.573944 0.112349 -0.595103 -0.149785 
has -0.146149 -0.136084 0.116760 0.353071 0.182216 0.085238 0.224005 0.205096 -0.378722 0.258615 -0.480896 -0.382392 -0.047678 0.053661 0.346250 -0.212852 -0.046483 0.037479 -0.387485 -0.042043 
so 0.151031 -0.129643 0.273032 -0.008602 -0.191886 0.159494 0.122473 0.113975 -0.267728 -0.191047 -0.299021 -0.074884 0.098368 -0.099198 0.088639 -0.014768 0.348388 0.025122 -0.207622 0.011377 
know 0.097772 0.182370 0.206575 -0.331469 0.338112 -0.370303 0.091345 -0.391598 -0.371533 -0.033638 0.020612 -0.161973 -0.030436 -0.501901 0.028465 -0.125483 0.314765 -0.203984 -0.535856 0.114954 
like -0.066715 -0.005165 0.216367 -0.119905 -0.161596 -0.061114 0.030432 0.006998 -0.427098 -0.156379 -0.140149 0.147421 0.031684 -0.323252 -0.236775 0.037067 0.324243 -0.131648 -0.333363 0.063618 
out 0.263975 0.176429 0.277899 -0.144735 0.232115 0.067075 0.157765 0.027691 -0.234633 -0.057939 -0.284990 -0.253332 -0.247397 -0.022199 0.249357 -0.049655 0.303741 -0.045635 -0.143730 0.094025 
your 0.338261 -0.314439 -0.042255 -0.326098 -0.423814 -0.014465 -0.052418 0.240872 -0.137288 -0.252345 -0.267663 0.195841 0.220772 -0.020103 0.138410 -0.190190 0.519554 0.425738 -0.095812 -0.059030 
dont 0.380220 0.343155 0.379500 -0.083609 0.076218 0.171598 0.055436 -0.099911 -0.187621 -0.151584 -0.102792 -0.033115 0.413845 -0.605680 0.174714 -0.054636 0.194972 0.056200 -0.344090 0.082471 
get 0.453351 0.004147 0.227543 -0.042160 -0.051498 -0.014784 -0.073096 0.051030 -0.178665 -0.048017 -0.300102 0.033020 0.028601 -0.258480 -0.180391 -0.133131 0.326349 0.101181 -0.218877 0.199776 
its 0.008841 -0.074126 0.187365 0.229663 -0.115389 -0.076743 0.151738 0.237699 -0.395486 -0.216274 -0.190809 0.016951 0.130566 -0.031107 0.008056 0.082201 0.176052 -0.038994 -0.197301 0.109433 
does -0.153537 0.087411 0.310230 -0.406993 0.660766 -0.393890 0.272072 -0.148595 -0.559352 0.191564 0.028517 -0.049504 -0.342200 -0.495976 -0.193715 -0.167220 -0.006712 -0.073437 -0.274459 -0.028441 
up 0.255694 -0.090686 -0.035046 0.187544 -0.130464 0.070966 -0.040730 0.208524 -0.253597 -0.018947 -0.359886 0.060870 -0.121530 -0.055206 -0.123261 0.008504 0.466979 0.169620 0.021053 0.184064 
anyone 0.169163 -0.070305 0.356163 0.031899 0.735659 -0.436807 0.363705 -0.639674 -0.368148 0.034601 0.099436 -0.193359 -0.291141 -0.240489 -0.139356 -0.539485 0.179454 -0.247076 -0.387476 0.082594 
im -0.074873 0.100700 0.438517 0.022975 -0.269294 -0.456363 0.022840 -0.183200 -0.130155 -0.108892 -0.448085 0.021246 -0.139137 0.033670 0.380968 -0.037996 -0.208227 -0.369490 -0.387297 -0.058041 
more -0.066627 -0.143567 0.053982 0.180732 -0.228944 0.334795 0.124978 0.100458 -0.170909 -0.753988 0.132122 0.312615 0.244215 -0.244465 0.096232 0.280332 0.398690 -0.120368 -0.833275 -0.032292 
thanks 0.117486 -0.119986 0.004862 -0.000608 0.130337 -0.481291 -0.229839 -0.287909 0.348041 -0.262786 0.127278 0.301645 0.084292 0.272266 0.250849 -1.081029 0.432262 0.103596 -0.402521 -0.238783 
who 0.050955 0.259869 0.158605 -0.130085 0.226576 0.427062 0.186352 0.099639 -0.395548 0.080389 -0.219939 -0.303558 -0.235319 -0.018124 0.389741 -0.074644 0.227593 0.050300 -0.077821 -0.185056 
am -0.202518 -0.003321 0.313814 0.176189 -0.356639 -0.639344 -0.077466 0.051747 -0.002453 -0.152892 -0.268443 0.064245 -0.322065 0.213727 0.232431 -0.108655 -0.199676 -0.316420 -0.342499 -0.116267 
he 0.305144 -0.659480 0.269208 -0.163550 0.131161 0.409865 -0.157718 0.171050 -0.386881 0.035753 -0.900541 -0.365473 0.069529 0.337498 0.211881 0.059291 0.024803 -0.094324 -0.367104 0.126093 
use 0.142871 0.087825 0.159616 0.278395 -0.215413 -0.266343 0.305325 0.163038 -0.352721 -0.091895 0.013699 0.087016 -0.020285 -0.512120 -0.194839 0.052525 0.274628 0.225581 0.147271 -0.040380 
think 0.184559 -0.041272 0.244979 -0.098029 -0.192246 0.012881 0.178165 -0.188607 -0.363363 -0.239325 -0.299909 -0.083058 0.144039 -0.302843 0.220298 0.152782 0.116898 -0.059995 -0.346629 0.126200 
them 0.470735 0.347373 0.006183 0.081148 -0.180574 -0.012856 0.071635 0.216725 -0.347791 -0.198625 -0.318764 -0.290610 0.157123 -0.256548 0.020960 -0.063211 0.593994 0.127613 -0.197489 -0.109541 
please 0.392167 -0.117530 0.071785 -0.432667 0.463295 -0.386848 -0.514713 -0.228408 0.379078 -0.101259 -0.027094 0.315280 -0.114061 -0.124323 0.045603 -1.174188 0.610777 0.429762 -0.480644 -0.342783 
been -0.160207 -0.258450 -0.148749 0.585851 -0.023222 0.189016 0.588358 0.045580 -0.499595 0.169224 -0.540533 -0.499981 -0.095130 0.281239 0.117136 -0.179893 -0.162757 -0.118702 -0.461619 0.073675 
other -0.159173 0.136259 -0.039849 0.290468 -0.290250 -0.040155 0.222992 0.137795 -0.306132 0.030491 -0.087628 0.002950 -0.061846 -0.268463 0.074922 0.022236 0.540196 -0.053100 -0.290106 -0.221070 
people 0.175609 0.230081 0.021754 -0.019491 -0.222346 0.293512 0.189112 0.230416 -0.370254 -0.291310 -0.160914 -0.265805 0.255983 -0.136264 0.476498 0.267111 0.188874 0.036449 -0.280274 -0.115344 
could 0.245202 -0.095052 0.063241 -0.162714 0.197985 -0.103067 0.033300 -0.045479 -0.310824 -0.157627 -0.149992 -0.167987 -0.103189 -0.250736 0.042376 -0.231890 0.439293 0.189260 -0.361859 -0.253485 
new -0.455832 0.086035 0.090511 0.498851 0.027391 0.030618 -0.066315 0.242922 -0.064749 -0.221566 0.072933 -0.286689 -0.412805 0.222409 0.351657 -0.129078 0.108673 -0.137075 -0.051233 0.136416 
had -0.013472 -0.341076 0.027639 0.331617 0.028396 0.188361 0.108757 0.174084 -0.363528 0.213515 -0.622495 -0.370956 -0.074237 0.177337 -0.021116 0.045388 -0.077478 -0.205044 -0.466509 0.217645 
than -0.127603 0.077985 -0.148261 0.001484 -0.739492 0.162375 0.071521 0.494555 -0.127940 -0.935303 0.366344 0.097874 0.035035 -0.208528 0.032209 0.409125 0.488284 -0.154829 -0.529476 -0.084331 
windows -0.227188 -0.140801 0.523055 0.254559 -0.198652 -1.222611 0.265642 0.397949 0.116247 0.003441 0.211173 0.152171 -0.574803 -0.124907 -0.596444 -0.122265 0.274735 -0.448401 -0.026709 0.065883 
good -0.261732 -0.380659 0.209920 0.059768 0.007381 0.063492 -0.016610 0.064003 -0.068518 -0.359466 -0.050619 0.094653 -0.049431 -0.138948 0.035265 0.157636 0.132225 -0.069285 -0.522361 0.126554 
time 0.211954 -0.125092 0.039677 0.147252 -0.228942 0.103530 0.116193 0.208587 -0.203148 0.051397 -0.571481 0.128705 -0.037451 0.314070 -0.087564 -0.045948 0.270460 0.145246 -0.269840 0.217964 
mail -0.020003 0.189401 0.064824 -0.093307 0.101151 -0.362105 -0.938748 -0.363897 0.419919 -0.046932 0.156152 0.107040 0.180627 0.331793 0.213634 -1.109813 0.469628 0.921440 -0.325004 0.029114 
their 0.318250 0.388899 0.122624 0.130391 -0.065002 0.437392 0.082610 0.216518 -0.431173 -0.036940 -0.312849 -0.236593 -0.009591 -0.102974 0.319866 0.268707 0.536218 0.288966 0.028429 -0.124684 
should 0.200276 0.056387 0.197298 0.015085 0.106792 -0.076287 0.104031 0.058104 -0.196601 -0.155129 -0.299347 -0.056503 0.084437 -0.297925 0.040115 0.032882 0.239053 0.253499 -0.075257 -0.034990 
need 0.108775 -0.019743 0.269151 -0.073548 -0.090940 -0.608651 -0.096147 -0.111215 -0.119747 -0.284867 0.002329 0.089564 -0.136125 -0.363798 -0.057329 -0.031139 0.364087 0.076632 -0.127610 0.090719 
these -0.114179 0.104691 0.057127 0.038260 -0.083063 -0.177508 0.096728 0.159091 -0.100731 -0.015412 0.035249 -0.184234 0.257843 -0.284148 0.216761 -0.205946 0.415285 -0.039753 -0.299983 -0.156264 
now 0.045776 0.216260 0.124857 0.039626 -0.259258 0.108572 0.242353 0.179066 -0.346868 0.080195 -0.427357 -0.229836 -0.030951 0.093368 0.242971 0.063942 0.096426 -0.114244 -0.277623 0.124231 
his 0.320144 -0.621415 0.123010 -0.119373 -0.008839 0.396554 -0.088441 0.355236 -0.347290 0.158480 -0.598168 -0.332735 -0.003517 0.452810 0.300312 -0.124923 0.076560 0.040786 -0.265804 0.288959 
why 0.419647 -0.086754 0.304285 -0.330490 -0.021999 0.072933 0.220221 -0.035514 -0.423369 -0.181851 -0.164229 0.023425 0.188814 -0.185624 0.315764 0.086606 0.168837 -0.223686 0.071648 0.052132 
help -0.106367 -0.277258 0.017555 -0.391286 -0.272882 -0.668253 0.015296 -0.424497 0.143608 -0.225632 -0.123549 0.258218 -0.207268 0.141572 0.076182 -0.741712 0.350950 0.101057 -0.303884 -0.317944 
way 0.246218 -0.021598 0.245829 0.031943 -0.247756 -0.057376 0.193580 0.226381 -0.485568 0.016790 -0.148280 -0.082818 0.033801 -0.183416 -0.088364 -0.075814 0.258863 0.037727 -0.097448 -0.062157 
well 0.061218 -0.131841 0.152878 0.220197 0.014434 -0.002612 0.089143 0.145062 -0.217480 -0.055994 -0.350146 -0.053631 0.091356 -0.132658 0.065735 0.027427 0.150472 -0.098014 -0.132097 0.077649 
much 0.192305 -0.370449 -0.253249 -0.017429 -0.318327 0.134481 0.040101 -0.099179 -0.123128 -0.527222 -0.090019 0.188661 0.219307 -0.102622 0.059993 -0.037756 0.403726 0.033764 -0.669140 -0.165057 
ive -0.442646 -0.048474 0.047448 0.639712 0.075213 -0.320403 0.251019 0.190692 -0.208789 -0.039848 -0.490618 -0.457938 0.023581 -0.119922 0.091550 -0.225957 0.054113 -0.434623 -0.555403 -0.021230 
want 0.338079 0.169275 0.276182 -0.086071 -0.048588 -0.264010 0.080179 -0.148107 -0.297426 -0.176959 -0.081383 0.012411 0.234208 -0.527469 0.050451 0.037336 0.539133 0.099835 -0.039084 -0.025662 
make 0.155331 0.064138 0.028297 0.151412 -0.202052 -0.158181 0.151632 0.109803 -0.337992 -0.123681 -0.113972 0.043879 0.193587 -0.473258 -0.005005 0.019433 0.368621 0.265134 -0.147975 -0.165500 
work 0.500966 -0.020149 -0.207072 0.333422 0.110616 -0.368913 -0.125079 0.180125 -0.510112 0.010615 0.106858 0.306155 0.228640 -0.489833 -0.140501 -0.304044 0.146906 -0.044601 -0.062895 -0.130845 
into 0.342841 0.018749 0.030641 0.033981 -0.206474 -0.081217 -0.038758 0.292296 -0.290362 0.204027 -0.229436 -0.047830 -0.070408 -0.034653 -0.022548 0.094314 0.296939 0.214556 0.002277 0.031744 
problem -0.016891 -0.032889 0.078010 0.225083 -0.168231 -0.515766 0.261751 -0.176241 -0.385477 -0.059937 -0.362068 0.045304 -0.216469 0.033783 -0.262164 -0.156333 0.082217 -0.234951 -0.197871 -0.125126 
david 0.031198 -0.639384 0.181623 -0.064720 0.872285 -0.046235 0.115453 0.236432 -0.029620 -0.185228 0.333379 0.216838 0.048260 -0.158830 0.675086 -0.202280 -0.756153 0.283886 0.019477 0.040086 
system -0.187382 -0.236730 0.145014 0.356617 -0.194607 -0.526935 -0.046194 0.225813 -0.393258 -0.118682 0.098571 0.068025 0.032312 -0.316312 -0.200369 0.134916 0.179766 0.279255 0.261328 0.176726 
us 0.247670 0.199867 -0.010663 0.157471 -0.045256 0.285587 0.168199 0.158528 -0.343213 -0.071337 -0.271078 -0.116364 0.228042 0.056051 0.551309 -0.010534 0.310065 0.226695 -0.203630 -0.239046 
may -0.113916 0.107179 0.230337 0.013952 -0.211550 -0.052057 0.135851 0.206247 -0.353585 0.027437 -0.124723 0.010027 0.242335 -0.322951 0.034681 -0.012944 0.083143 0.349870 -0.264512 0.068900 
used -0.057860 0.087849 -0.074977 0.521953 -0.097337 -0.005686 0.074534 0.205131 -0.437261 0.108896 -0.264022 -0.103301 -0.054698 -0.232509 -0.004775 0.036460 0.121684 -0.095122 -0.169537 -0.001102 
two 0.027874 0.009263 -0.286250 0.227420 -0.088428 0.113697 -0.015964 0.534252 -0.376071 0.161167 -0.181127 0.088781 -0.181074 -0.196099 0.159202 -0.039489 0.164541 -0.209372 -0.127327 0.063007 
university -0.229239 0.637036 -0.239323 0.300298 -0.141111 0.031418 -0.649800 -0.301383 -0.043767 -0.525362 0.826403 0.485283 -0.016745 0.684114 0.695949 -0.279137 -0.260247 0.777141 -0.348001 1.025342 
here 0.157633 0.104484 0.192736 0.098693 -0.280211 0.038748 0.024129 -0.086378 -0.399439 0.122374 -0.258789 0.008032 0.093480 0.057200 0.331569 -0.107528 0.110488 0.077074 -0.338508 -0.081933 
first 0.348035 -0.163820 0.101052 0.230400 -0.147141 0.347780 -0.040750 0.193745 -0.248944 0.387124 -0.450503 0.160927 -0.147534 0.215692 0.008100 -0.134045 0.196486 -0.150832 -0.163395 0.432038 
using -0.115273 -0.240817 0.242438 0.429585 -0.368272 -0.788484 0.236792 0.146112 -0.335192 0.024174 -0.255477 0.043924 -0.281167 -0.029808 -0.402370 -0.097254 0.117063 -0.157525 -0.033747 -0.116817 
right 0.490841 -0.245392 0.277676 -0.253749 -0.272270 0.148612 0.166833 0.129570 -0.340057 -0.217917 -0.442503 -0.148688 0.032828 0.020976 0.053958 0.090766 0.266963 -0.038899 0.034346 0.045886 
even 0.174336 -0.016930 0.179224 0.118038 -0.105640 0.048171 0.241530 0.143348 -0.248091 -0.065721 -0.326033 -0.060935 0.299636 -0.180805 -0.043710 0.219271 0.319070 0.068218 -0.240802 -0.014470 
find 0.244047 0.087223 0.338140 -0.025155 0.190384 -0.285128 0.260066 -0.138182 0.018886 -0.095250 -0.299970 -0.230344 -0.338451 -0.390268 0.031119 -0.340561 0.299533 0.259217 -0.290589 -0.023558 
go 0.343239 -0.078692 0.387862 -0.083017 -0.113124 0.335795 -0.271597 -0.075145 -0.131646 0.203471 -0.536731 0.165584 0.103063 0.085666 0.221702 -0.098634 0.575897 -0.222618 -0.058936 0.241052 
those 0.207236 0.426341 0.193736 0.077988 -0.237561 0.070107 -0.150286 0.072703 -0.394280 -0.011792 -0.059812 -0.271139 0.333755 -0.160383 0.529983 -0.241708 0.237127 -0.154518 0.045358 -0.399666 
see 0.348704 0.059799 0.340568 -0.072403 -0.138836 0.116397 0.070023 0.109552 -0.205853 -0.148957 -0.276727 -0.072350 0.108866 -0.008935 0.133203 0.027675 0.309954 0.020186 -0.283624 0.034575 
something 0.159344 0.067963 0.233199 0.025506 -0.148832 -0.119155 0.348344 -0.137702 -0.347957 -0.071162 -0.408476 -0.008726 -0.097421 -0.090154 -0.028605 -0.106478 0.154329 0.001122 -0.238216 -0.091618 
such 0.108462 0.212931 0.153045 0.157112 -0.081241 0.138555 0.336079 0.138892 -0.428352 -0.151044 -0.068969 -0.040946 0.107548 -0.155166 0.072660 -0.054780 0.262978 0.246538 -0.271996 -0.107981 
many -0.240738 0.192800 -0.130412 -0.064339 -0.107790 0.164654 0.395118 0.291279 -0.054602 0.049831 -0.153518 -0.039315 -0.128684 -0.134824 0.325156 -0.018556 0.226032 -0.124676 -0.175502 -0.278275 
after 0.195839 -0.202268 -0.181091 0.089323 -0.116426 0.297851 -0.011913 0.372620 -0.354520 0.392539 -0.391832 -0.056043 -0.082057 0.343354 0.120391 0.241901 0.126743 0.058254 -0.332210 0.235663 
question 0.084464 -0.141423 0.205878 -0.258953 0.069084 -0.222421 0.204538 0.031463 -0.168655 -0.104579 -0.319686 0.015403 -0.108479 -0.073861 0.120340 -0.121025 -0.054444 -0.308946 -0.162468 0.195080 
really 0.172203 -0.010362 0.216457 0.018291 -0.171017 0.065599 0.165638 -0.149502 -0.304757 -0.284664 -0.502411 0.146500 -0.035496 -0.292103 -0.059355 0.067787 0.104644 0.036806 -0.407837 0.156234 
say 0.233384 -0.112260 0.204879 -0.098337 -0.279060 0.145079 0.256386 0.012997 -0.351324 -0.179693 -0.405229 -0.149137 0.384991 -0.374002 0.390417 0.061962 0.228399 -0.115654 -0.143089 0.158809 
because 0.518134 -0.159759 0.166079 0.196645 -0.249945 0.248136 0.225834 0.177388 -0.354777 -0.120693 -0.628022 0.028681 0.059556 -0.034771 0.094874 0.203468 0.274102 -0.045700 -0.154722 -0.030533 
information -0.244705 -0.024463 -0.187909 0.132942 0.031170 -0.430407 -0.025460 -0.377764 0.015318 -0.241975 0.332347 -0.083284 -0.411775 0.140683 0.378660 -0.551880 0.038488 0.438028 -0.565730 -0.129657 
did 0.273380 -0.105935 0.268218 -0.096594 -0.069097 0.184273 0.178172 0.101578 -0.246702 -0.024627 -0.564906 0.005895 -0.035317 -0.073729 0.113303 0.017564 0.128674 0.038360 -0.100685 0.078100 
someone 0.258371 -0.248126 0.290878 -0.328508 0.330132 -0.093257 -0.171444 -0.271232 -0.051231 -0.149610 -0.183649 -0.189169 -0.076137 -0.174585 0.181458 -0.498844 0.147179 0.072027 -0.369931 -0.371118 
file 0.157399 0.022703 0.420620 0.053096 -0.442328 -1.280350 0.023816 0.282436 0.031288 0.110349 0.045007 -0.048740 -0.478892 -0.031511 -0.503205 -0.248971 0.282429 -0.153682 -0.041062 0.058475 
looking -0.375516 -0.264089 0.304494 0.002073 -0.240101 -0.941993 -0.030272 0.100324 0.028437 -0.119024 -0.222097 -0.114156 -0.682458 0.220715 0.053883 -0.148030 -0.344970 -0.074164 -0.383041 -0.055676 
same -0.030332 0.088285 0.128490 0.307477 0.065333 -0.038373 0.228503 0.152528 -0.450877 0.072961 -0.289631 0.021496 0.095184 -0.196387 -0.134515 -0.092512 0.343523 -0.051548 -0.141886 -0.008675 
program -0.050695 -0.025286 0.512040 0.318818 0.007589 -1.050895 0.255445 -0.044216 -0.123243 0.125629 0.118279 0.016862 -0.331216 -0.097585 -0.263707 -0.083383 0.074437 0.133857 -0.296002 -0.012968 
most -0.086743 0.207800 0.099193 0.200474 -0.303414 0.165027 0.198430 0.101107 -0.151870 -0.101585 -0.123513 0.141893 -0.010785 -0.282096 0.073121 0.137224 0.347557 -0.119665 -0.405564 0.093404 
email -0.092186 -0.008472 -0.030812 -0.122217 0.140063 -0.497858 -1.091314 -0.428997 0.468617 -0.225783 0.121912 0.034656 0.144007 0.341069 0.364621 -0.977495 0.414859 0.809835 -0.460654 -0.110271 
read 0.216268 -0.113956 0.002371 0.034878 0.106443 -0.409387 0.201004 0.013862 0.024354 -0.110744 -0.080034 -0.083384 0.000115 -0.241928 0.030765 -0.356026 -0.049118 -0.049508 -0.293042 0.070348 
back 0.263305 -0.288663 0.027332 -0.078739 -0.245688 0.159786 -0.175494 0.337438 -0.299934 0.196977 -0.386680 -0.155382 -0.060220 0.064521 -0.019270 -0.045886 0.541676 0.172577 -0.188950 0.323945 
john -0.316970 -0.160008 0.285875 -0.382734 0.117583 -0.194625 -0.093436 0.199963 0.248558 -0.202617 0.182966 0.026724 -0.127637 0.175408 0.662633 -0.240068 0.048492 -0.225346 0.138568 0.037516 
cant 0.337730 -0.115451 0.524363 -0.046013 -0.184331 -0.223068 0.145736 0.033461 -0.243631 -0.235222 -0.185970 -0.144110 0.156063 -0.336758 -0.174275 -0.164233 0.292720 -0.083874 -0.047506 -0.059077 
being 0.189633 0.133810 0.017465 -0.026338 -0.304720 0.207224 0.184951 0.063360 -0.539348 -0.036388 -0.386211 0.055166 0.090210 -0.004676 0.226118 0.180939 0.115529 0.204839 -0.248293 -0.007230 
id -0.165866 -0.211946 0.090557 0.016206 -0.242972 -0.123720 0.040003 0.045179 -0.027887 -0.209499 -0.095708 -0.112131 -0.197565 -0.137821 -0.087102 -0.102006 0.527180 0.065423 -0.318724 -0.148803 
got -0.096385 -0.090521 -0.029511 0.217029 -0.068595 -0.145252 -0.158516 0.233756 -0.347048 -0.027172 -0.302367 -0.186765 -0.000052 0.111804 -0.092757 -0.294381 0.037036 -0.194602 -0.351054 0.332644 
still -0.065256 -0.004101 0.187743 0.250447 -0.186684 -0.017107 0.133837 0.250463 -0.318276 -0.012480 -0.326104 -0.101784 0.096084 0.049346 -0.007021 0.074302 0.072643 -0.105412 -0.243977 0.062010 
drive 0.121409 -0.125241 -0.282477 0.405152 -0.189095 -0.590991 -0.692477 0.380833 -0.374436 -0.734811 -0.200510 -0.004554 -0.564504 0.018162 -0.363423 -0.116915 -0.017930 -0.229197 0.695359 0.318741 
computer -0.303258 0.405856 -0.275089 0.437162 -0.286742 -0.426580 -0.473010 0.282621 -0.222531 -0.199824 0.218495 0.226733 -0.080832 0.257108 -0.060263 -0.314354 -0.191860 0.539005 -0.306869 0.465927 
off 0.265344 -0.156000 -0.064226 0.077148 -0.256309 0.291813 -0.203167 0.188839 -0.445065 -0.018922 -0.351969 0.115639 0.095360 0.060102 -0.143313 0.219503 0.451542 0.084119 -0.112218 0.210899 
sure 0.077968 -0.090009 0.384884 0.012477 -0.523157 -0.170353 0.273311 -0.010462 -0.274099 -0.186551 -0.561148 -0.078751 0.134839 0.025695 0.017229 -0.235549 -0.076875 -0.315577 -0.501404 -0.015500 
might 0.277443 0.153953 0.205209 0.040533 0.008805 -0.035031 0.106012 -0.124017 -0.329328 -0.062492 -0.319917 -0.006857 0.175106 -0.341630 0.072355 -0.008320 0.321867 -0.053797 -0.391244 -0.237645 
believe 0.188515 0.134329 0.172448 -0.062226 -0.026372 0.322438 0.148219 0.183964 -0.220222 -0.177459 -0.289735 0.045267 0.225321 -0.291439 0.308205 -0.030226 0.101307 0.124750 -0.030065 0.171688 
doesnt 0.307612 0.136698 0.314159 0.037257 -0.122838 -0.086444 0.156788 -0.047632 -0.575946 0.000991 -0.392270 0.123349 0.188426 -0.252062 -0.038337 0.055141 0.283352 -0.049437 -0.132548 -0.201610 
over 0.133142 -0.147734 -0.058611 -0.001680 -0.223264 0.209145 -0.136619 0.312084 -0.288879 0.112496 -0.296306 -0.235662 -0.142466 0.175159 0.099399 0.005177 0.340764 0.029789 -0.277390 0.184275 
bit -0.090357 0.157918 -0.286488 0.381757 0.100422 -0.468486 -0.092225 0.150862 -0.375948 -0.027309 -0.447759 0.304849 -0.052327 -0.553861 -0.319524 0.334275 0.465056 -0.124804 0.057067 0.203115 
internet -0.059565 0.468083 0.309884 0.027865 -0.084405 -0.104846 -0.819304 -0.504172 -0.121008 -0.129612 0.618523 0.350279 -0.161449 0.633772 0.540598 -0.423851 -0.041045 0.629011 -0.154772 0.759617 
michael -0.130154 0.069843 0.329168 -0.107513 -0.222231 -0.299899 0.100656 -0.168364 0.812270 -0.442321 0.051224 0.527342 -0.678674 -0.199616 1.015413 -0.143002 -0.197404 -0.263479 0.266701 0.509996 
software -0.288012 0.086102 -0.012331 0.516756 0.124585 -0.739162 -0.146108 0.009810 -0.000831 0.036277 0.235757 0.122420 -0.283828 0.151884 -0.049959 -0.162450 0.167479 0.227614 0.149579 0.060264 
etc -0.006641 0.295007 -0.098237 0.179838 -0.195770 -0.363864 -0.080190 0.021804 -0.235342 -0.038132 -0.046051 0.028883 -0.082906 -0.246692 0.034516 -0.011447 0.612513 0.139950 -0.181843 -0.069171 
take 0.203829 -0.037191 0.035483 0.061161 -0.078476 0.155709 0.071258 0.097594 -0.243992 0.020074 -0.241558 0.009621 0.047519 -0.295929 0.021710 -0.011374 0.450089 0.113779 -0.078936 0.173355 
said 0.230559 -0.070200 0.122907 -0.251849 0.058795 0.327647 0.032940 0.058027 -0.246632 0.085536 -0.661603 -0.086684 0.103890 0.130088 0.427599 0.095777 -0.038429 -0.171678 -0.348615 0.056843 
card -0.305733 -0.426902 -0.698244 0.718464 0.769657 -0.975208 -0.390197 -0.032457 -0.173127 -0.218203 -0.158736 -0.306280 -0.178291 -0.416331 -0.266400 -0.163404 0.131275 -0.623278 0.321141 0.323614 
going 0.066929 0.016846 0.263708 -0.051298 -0.148952 0.100669 -0.048647 0.027136 -0.299012 -0.089373 -0.426688 -0.112809 0.136714 -0.032158 0.108635 0.015756 0.177751 -0.186990 -0.398663 0.066682 
number 0.166883 0.189541 0.069969 0.327374 0.167077 0.003309 -0.310962 -0.080514 -0.147790 0.096448 0.091417 -0.358643 -0.297968 -0.614936 0.149742 0.193037 0.399947 0.334606 -0.153361 0.331635 
phone -0.069485 0.668884 0.097597 0.049098 0.229997 -0.031645 -0.631313 -0.441852 -0.205190 -0.418818 0.911808 0.035614 -0.347732 0.216784 0.461455 -0.680572 0.315248 1.183551 0.271514 0.633956 
our 0.079808 0.101380 0.063535 0.461461 -0.277010 -0.215915 0.288159 0.137249 -0.263818 0.000007 -0.286120 -0.295905 -0.225202 0.189543 0.365617 0.091407 0.133946 0.207802 -0.275641 -0.318870 
window 0.449135 -0.331721 0.531967 0.455147 -0.333398 -1.114146 0.665503 0.029194 -0.439099 0.348492 0.050399 0.460007 -0.804842 -0.007221 -0.506808 0.289254 0.557386 0.301132 0.203920 0.082675 
post 0.051677 -0.116909 0.204603 -0.430701 0.064056 -0.099335 -0.374334 0.088009 0.187293 -0.091993 -0.268367 -0.006600 -0.111584 0.147169 0.144560 -0.741689 0.294448 0.420470 -0.515798 -0.319368 
god 0.525538 0.176820 0.176393 -0.616451 0.097253 0.217003 0.463489 0.190266 -0.570050 -0.209594 -0.996502 0.042893 0.444225 0.033655 0.563229 0.104060 -0.201378 0.243837 -0.000296 -0.250103 
last -0.108588 -0.253644 0.028899 0.285704 0.077244 0.350712 -0.126135 0.501857 -0.281782 0.501166 -0.499375 -0.192518 -0.071607 0.313072 0.135777 0.021623 0.174764 -0.358567 -0.711455 0.586850 
years -0.341532 0.171442 -0.464357 0.299305 -0.098785 0.463413 0.111358 0.410652 -0.382593 0.520096 -0.427486 -0.583104 -0.148541 0.279362 0.469902 0.349930 0.004012 -0.206036 -0.964955 0.370333 
without -0.026428 -0.094605 0.178537 0.255789 -0.178269 -0.112069 0.166212 0.221408 -0.264356 0.053599 -0.313576 0.149562 0.074554 -0.025838 0.120839 0.106055 0.199621 0.026866 -0.104805 0.085587 
anything 0.129337 0.010889 0.372786 0.186067 0.104702 -0.139366 0.338199 -0.308182 -0.379041 -0.207258 -0.321929 -0.240140 0.105038 -0.525709 0.069893 -0.321667 -0.041426 -0.170280 -0.569897 -0.071487 
both -0.075869 0.127946 -0.073239 0.407959 0.051723 -0.153614 -0.019324 0.452408 -0.441027 -0.023548 -0.369183 -0.169989 -0.041109 -0.202421 -0.055588 0.119181 0.347013 0.223754 0.080791 -0.007373 
better -0.082394 -0.163370 0.124266 0.061132 -0.070939 0.121429 0.219752 0.025370 0.094127 -0.524661 0.042540 0.147742 0.250215 -0.097341 -0.021780 0.326064 0.438265 -0.133549 -0.494379 0.011542 
another 0.201450 -0.023358 0.260523 -0.086255 0.018651 -0.204933 0.172092 0.277179 -0.176331 0.019477 -0.279082 0.109613 -0.053065 -0.148686 0.073041 0.048348 0.318852 0.031753 -0.092009 -0.032999 
tell 0.282974 -0.361980 0.313109 -0.476733 0.218374 -0.304296 -0.028307 -0.300677 0.050613 -0.149461 -0.352117 0.041604 0.048652 -0.621369 0.191116 -0.551805 0.190615 0.096746 -0.342040 -0.449855 
space 0.391173 0.308234 0.080869 0.406243 -0.078365 -0.085351 -0.249002 0.107740 -0.170069 -0.139783 0.202858 0.156870 -0.142966 0.364121 0.178077 0.205135 0.110286 0.182253 -0.282095 -0.075598 
fax -0.287187 1.082455 -0.134636 0.518135 0.143465 0.039906 -1.284937 -0.588437 -0.257567 -0.310941 0.973332 0.386994 -0.315122 1.015778 0.482271 -0.593902 -0.195392 1.259850 -0.172299 0.838621 
mac -0.447632 -0.404532 -0.586077 0.511213 0.285771 -1.019086 -0.091376 0.058566 -0.115147 -0.319091 0.228293 -0.160272 -0.312538 -0.204960 -0.034786 -0.096434 0.232829 -0.330878 0.456986 0.059460 
long 0.147447 -0.136248 0.256208 -0.038999 -0.175664 0.288500 0.463240 0.083690 -0.318655 0.206045 -0.335279 -0.016968 -0.177971 0.342762 0.112864 -0.075319 0.082459 0.000926 -0.174642 0.272125 
info -0.316175 -0.172028 -0.097407 -0.273825 0.103803 -0.622738 -0.383104 -0.244185 0.181572 -0.360835 0.125537 0.306142 -0.383091 0.165410 0.136549 -0.733434 0.256238 0.125913 -0.457700 -0.212849 
before 0.183510 0.064150 0.075382 0.106331 -0.008866 0.137397 0.020226 0.031563 -0.213736 0.126455 -0.501386 -0.174299 0.069588 0.021773 0.049534 -0.035391 0.303281 0.042007 -0.379758 0.008588 
wrote -0.357067 -0.149158 0.275282 -0.447623 0.340913 -0.352791 0.186500 0.332096 0.120200 -0.160887 -0.054561 0.202166 -0.221218 -0.008670 0.558060 0.048571 -0.403345 -0.315716 0.022380 0.149314 
few -0.431331 0.156051 -0.320535 0.094948 -0.072777 0.020687 0.028634 0.340440 -0.498722 0.490031 -0.526655 -0.247697 0.032030 0.048325 0.086865 0.147482 0.124207 -0.190892 -0.646325 0.055033 
run 0.106219 -0.075401 0.375986 0.401007 -0.264866 -0.561767 0.050585 0.215551 -0.219919 0.200134 -0.234511 0.499358 -0.249513 -0.045385 -0.666446 -0.053438 0.344633 -0.074527 -0.121644 0.129111 
dos -0.165432 0.000259 0.571256 0.547927 -0.161684 -1.134493 0.080066 0.303860 0.107157 -0.019039 -0.118485 0.369759 -0.730092 -0.025416 -0.962823 0.086928 0.201437 -0.486466 -0.133449 0.178905 
steve -0.182599 -0.617705 0.569855 -0.109276 0.121651 0.071867 0.008757 -0.003087 0.039094 -0.086960 0.657618 0.605692 0.029439 -0.296710 0.363931 -0.270760 -0.080280 0.108078 -0.101704 0.563128 
year -0.101814 -0.051039 0.005775 0.374211 -0.117440 0.350678 -0.164641 0.328182 -0.339085 0.273361 -0.323719 -0.126101 -0.203119 0.317254 0.425126 0.385476 0.112570 -0.202164 -0.494253 0.491172 
never -0.079451 -0.135856 0.047311 0.343158 -0.083903 0.103408 0.365070 -0.082752 -0.494748 -0.105300 -0.635195 -0.221789 0.212462 0.057389 0.143473 -0.188093 0.189422 -0.290656 -0.386255 0.037886 
him 0.433392 -0.499532 0.353256 -0.502488 -0.086789 0.187190 -0.475632 0.023986 -0.239599 0.057473 -0.619688 -0.283311 0.164231 0.347908 0.183649 -0.253427 0.340782 0.023204 -0.595411 0.382483 
under -0.188665 -0.241242 0.479900 0.486263 -0.027265 -0.518062 0.200618 0.376754 -0.111505 0.061117 -0.014916 0.202642 -0.266904 -0.057842 -0.609658 0.018360 0.252207 -0.123412 -0.043282 0.033470 
hi -0.240506 -0.262605 0.273571 -0.212570 0.341856 -1.026842 0.055880 0.053695 0.081203 -0.178478 0.046658 0.026791 -0.731108 0.090895 0.056254 -0.387667 -0.367737 -0.483065 -0.156289 0.018748 
seems 0.108019 -0.052370 0.040847 -0.008539 -0.136536 0.079541 0.073961 0.140866 -0.415818 -0.150696 -0.373014 0.026874 0.077946 -0.092354 0.006006 0.218565 0.178560 -0.009220 -0.144844 -0.138938 
give 0.315151 -0.239753 0.159968 -0.283020 -0.029812 0.020727 -0.166653 -0.215988 -0.141701 -0.005223 -0.283577 0.125034 -0.032736 -0.266202 0.038645 -0.315888 0.428409 0.063956 -0.426997 -0.017144 
point 0.049024 -0.314307 0.226606 -0.070000 -0.034675 0.063519 0.160728 0.056277 -0.255245 -0.074809 -0.154387 0.201877 -0.155822 -0.176761 0.132150 0.034759 0.334103 0.160007 -0.245369 -0.104337 
try 0.352843 0.096931 0.275514 0.198370 -0.138461 -0.194776 -0.124521 0.008502 -0.147768 -0.053466 -0.062708 0.018689 -0.004220 -0.236932 0.048360 -0.137172 0.364380 0.203482 -0.207823 -0.039235 
things -0.052361 0.288164 -0.074231 -0.107506 -0.321451 0.036061 0.179124 0.215059 -0.466558 -0.172967 -0.387869 0.019711 0.108413 -0.339042 0.096828 0.261668 0.278985 0.003737 -0.435848 -0.169699 
mark -0.192173 0.027496 0.119581 -0.382445 -0.009057 -0.083199 -0.156464 0.193830 -0.011829 0.023678 0.106800 0.163714 -0.163446 0.193026 0.574961 -0.238751 0.032685 -0.252046 -0.088661 0.035282 
thing 0.216116 0.088004 0.296332 0.189110 0.046423 0.072076 0.319958 0.137175 -0.366348 -0.130479 -0.473524 0.006707 0.220888 -0.116311 0.110202 0.024399 0.071416 -0.150365 -0.321116 0.039163 
car -0.204262 -0.037378 -0.306469 0.300147 -0.152096 0.276032 0.115082 0.186555 -0.464089 -0.085849 0.002866 -0.118665 -0.216260 -0.224279 0.039948 -0.019949 0.206405 -0.317449 -0.486921 -0.051763 
between -0.058858 0.287276 -0.068797 0.406576 -0.071626 -0.162785 0.134980 0.170844 -0.680923 0.064572 0.057015 0.045212 -0.002145 0.039610 0.468107 -0.006418 0.363629 -0.194569 0.222342 -0.364377 
says -0.000263 -0.477053 0.351269 -0.306511 0.220004 -0.107995 0.088454 0.239025 -0.071146 -0.020516 -0.110368 -0.093390 -0.209424 -0.225387 0.388228 -0.001553 -0.156599 -0.423553 0.020205 0.127856 
around 0.186484 0.104313 0.151864 0.236341 -0.155530 0.127637 0.237128 0.240128 -0.231132 0.075887 -0.107912 -0.067012 -0.091903 0.090949 -0.077081 0.065603 0.423382 -0.169631 -0.440461 0.141893 
advance -0.086272 -0.047140 -0.086525 -0.543412 0.094171 -0.649554 -0.667947 -0.348477 0.283612 -0.481941 0.172242 0.289757 0.030625 0.634465 0.254682 -1.083551 0.503809 0.399114 -0.211226 -0.376951 
heard -0.315228 0.014772 0.041972 0.161379 0.123091 -0.027691 0.465763 -0.099437 -0.452615 -0.014819 -0.578343 -0.312734 0.210230 -0.043503 0.108235 -0.303329 -0.278875 -0.387096 -0.734365 0.207561 
look 0.171905 0.193158 0.225675 0.059475 0.004426 -0.032099 -0.061699 0.073763 -0.255366 0.209741 -0.185165 0.076321 -0.093762 -0.192668 0.162579 0.045257 0.492149 0.035757 -0.047423 0.074570 
while 0.053498 -0.063237 -0.038447 0.270320 -0.061952 0.260268 0.047114 0.357691 -0.411138 0.167792 -0.398320 -0.059830 -0.077694 0.104078 0.012268 0.070230 0.100880 0.050733 -0.381458 0.008775 
available -0.172113 0.154426 0.188029 0.410227 -0.017959 -0.810637 -0.010804 0.520299 0.073020 0.038478 0.177120 -0.351721 0.032339 -0.309617 -0.226997 -0.250380 0.249331 0.581606 -0.176695 0.034941 
probably 0.024408 -0.114414 0.094268 0.194788 -0.136108 0.052933 -0.020274 0.242845 -0.190407 -0.320624 -0.388604 -0.046082 0.139845 -0.196039 0.058352 0.033615 0.349178 0.163348 -0.325459 0.020593 
files 0.121664 0.420496 0.374375 0.154870 -0.393992 -1.114875 0.106495 0.570188 0.025645 0.080843 0.265342 -0.251856 -0.518312 -0.415526 -0.486749 -0.231093 0.397888 -0.249938 -0.212253 -0.058595 
best -0.035846 -0.124305 0.058594 0.047477 0.044720 -0.160473 -0.259644 0.185574 -0.069554 0.167746 -0.317093 0.038689 -0.033488 -0.206916 0.155527 -0.319479 0.166457 -0.074474 -0.249466 0.154984 
key -0.440766 -0.407108 0.535546 0.300120 -0.121928 -0.300869 0.360170 0.328966 -0.312473 0.165394 0.183678 -0.222170 0.433121 -0.678938 0.036298 0.020101 0.410859 1.462685 0.641106 0.205560 
thats 0.041095 -0.050757 0.249777 0.061452 -0.303182 0.064718 -0.069260 -0.037384 -0.288792 -0.168541 -0.366083 0.026910 0.149176 -0.185555 0.145036 0.205600 0.178480 -0.047936 -0.173059 0.209141 
actually 0.015446 0.036378 0.222687 0.133183 -0.094952 0.192973 0.038298 0.337892 -0.252485 -0.140587 -0.113647 0.007368 0.087023 -0.135467 0.112031 0.141977 0.144403 -0.079620 -0.190904 0.076050 
line 0.291830 -0.093824 0.374098 0.354528 0.148167 -0.403275 -0.346859 -0.088119 -0.071266 0.279117 0.032594 -0.216454 -0.409047 -0.266257 0.077942 0.331858 0.549802 0.465688 0.188719 0.209835 
little 0.079226 -0.093322 0.120174 0.143682 -0.245140 0.149772 -0.023694 0.036784 -0.313001 -0.103561 -0.258744 -0.081188 0.062009 -0.034342 0.138438 0.111023 0.132923 -0.089958 -0.460944 0.052558 
name 0.188587 0.001544 0.231595 -0.255306 -0.013107 -0.203289 -0.179765 0.131471 0.039102 -0.011798 -0.288887 -0.234662 0.005980 -0.032074 0.129439 -0.275643 0.069194 0.185954 -0.319277 0.267546 
day -0.103302 -0.012630 -0.332112 0.055872 0.103433 0.574806 -0.171395 0.438453 -0.215697 0.299945 -0.648963 -0.003754 -0.234521 0.173365 0.321339 0.214140 0.106412 0.256943 -0.151128 -0.027101 
list -0.410403 -0.043544 0.008548 -0.193391 0.127500 -0.145666 -0.222859 0.040437 0.241979 0.265163 -0.236287 0.028843 -0.387276 -0.095112 0.183255 -0.802591 0.489026 -0.113482 -0.615647 -0.003574 
data -0.027896 0.050518 0.092950 0.373529 -0.119030 -0.702048 -0.064845 0.057995 -0.449595 -0.007188 0.198410 0.330876 -0.385762 -0.128214 -0.109550 -0.145688 0.142435 0.373242 0.026460 0.119370 
old -0.110602 -0.034085 -0.068620 0.257096 -0.081159 0.045420 -0.110437 0.310615 -0.270662 -0.082721 0.048913 -0.259870 -0.402703 0.046985 0.063645 -0.080495 0.181583 -0.128884 -0.234254 0.265586 
didnt 0.446043 -0.123268 0.342018 -0.128854 0.025701 -0.021867 0.008755 0.035037 -0.375285 -0.090876 -0.570420 -0.022701 -0.017760 -0.037033 -0.087351 0.007183 0.355099 -0.158513 -0.189928 0.030408 
own 0.286688 0.240966 0.145785 0.270360 -0.539083 0.151104 0.048553 0.244200 -0.540851 0.137548 0.272809 -0.239514 0.477188 -0.057033 0.282253 -0.363985 0.367296 0.029809 0.336780 -0.407032 
possible 0.281613 -0.058969 0.138498 -0.088270 0.160050 -0.493155 0.167178 0.053169 -0.243001 -0.047916 0.050125 0.114741 -0.035271 -0.329420 -0.074875 -0.140134 0.436404 0.126400 -0.070011 -0.106666 
government 0.103172 -0.148682 0.298852 0.249500 -0.021638 0.678852 0.274498 0.365587 -0.595814 -0.086763 0.149284 0.122252 0.426518 0.079168 0.399522 0.129195 0.078065 0.581936 0.139904 -0.363659 
down 0.143462 -0.122916 0.153727 -0.072977 -0.279714 0.339935 -0.047424 0.395569 -0.435049 -0.096429 -0.415806 0.044876 0.117602 0.001878 -0.080960 -0.012507 0.395353 -0.093492 -0.204971 0.079095 
made -0.099666 0.062110 -0.058056 0.164874 -0.198222 0.204537 0.108188 0.260362 -0.485473 0.007396 -0.397280 -0.258269 0.138106 0.006994 0.069206 -0.064809 0.176118 0.097151 -0.275938 -0.001334 
opinions -0.329866 0.025103 0.336682 0.519460 -0.591902 0.358447 0.095486 -0.120938 -0.894262 0.258403 0.647345 -0.270019 0.462618 0.620376 0.652211 -1.223862 -0.020039 -0.440033 0.443996 -0.718137 
great -0.092944 -0.378289 -0.082547 0.369567 0.432184 0.255642 0.029274 0.241196 -0.235124 -0.016561 -0.194385 -0.140077 0.056894 0.027893 0.136928 -0.151058 -0.270635 0.173801 -0.375867 0.019085 
called -0.243579 0.067626 -0.010259 0.313674 0.074583 -0.269747 0.237761 0.228864 -0.108659 -0.005157 -0.254875 -0.296238 -0.192537 -0.056376 0.149311 0.006912 0.147127 -0.158426 -0.249889 0.169868 
interested -0.055194 0.002786 -0.032373 0.180177 -0.307296 -0.307251 -0.252602 -0.100206 0.039835 -0.073049 0.071119 -0.137062 -0.408721 0.137340 0.106762 -0.468970 0.007942 0.102186 -0.594754 -0.275771 
anybody 0.165077 0.139018 0.212098 -0.012095 0.877039 -0.367640 0.229081 -0.357657 -0.282247 0.151508 -0.032440 -0.389275 -0.484725 -0.018695 -0.069700 -0.447355 0.045955 -0.687354 -0.530952 -0.023944 
graphics -0.444907 0.113688 -0.153714 0.495780 -0.031426 -1.154268 -0.279007 0.139522 -0.070139 -0.114318 0.182428 -0.024992 -0.274485 0.255179 -0.346574 0.003765 0.096607 -0.012216 -0.113297 0.006806 
come 0.208935 0.033298 0.038335 0.024399 -0.063192 0.193801 0.078797 0.109739 -0.188812 0.205216 -0.642204 0.013538 0.116695 -0.171680 0.204625 -0.052513 0.448501 -0.046177 0.047639 0.006243 
state -0.007583 0.429766 -0.299701 0.223425 -0.160655 0.511628 -0.353804 0.158893 -0.246550 -0.241705 0.122090 -0.073486 0.232883 0.292059 0.666439 -0.190362 0.127722 0.354561 -0.065931 0.289210 
set 0.343279 -0.178476 0.068567 0.416906 -0.148494 -0.377865 -0.020128 0.439413 -0.283362 0.154007 -0.185731 0.169046 -0.301028 -0.139317 -0.342989 0.306234 0.330203 0.093364 0.079319 0.005872 
bill 0.010806 -0.034480 0.182585 -0.312337 0.007632 0.142653 0.045188 0.183883 0.002139 -0.276526 0.133946 0.128253 0.122877 0.252445 0.699281 -0.008681 0.041985 0.097193 0.071025 0.123569 
power -0.075806 -0.418017 -0.713404 0.430107 -0.153173 -0.050596 -0.254594 0.360755 -0.694593 -0.194492 -0.011771 0.158713 -0.135142 -0.220474 0.023290 0.266443 0.319024 0.228698 0.259978 0.114399 
hard 0.344537 0.055052 -0.127704 0.276034 -0.066858 -0.176375 -0.173712 0.531169 -0.315343 -0.825728 -0.357363 -0.044970 -0.348665 -0.213058 -0.242547 0.046857 -0.256851 -0.048451 0.803025 0.167533 
chip -0.666363 -0.550480 0.306030 0.241201 0.300934 -0.245818 0.045731 0.059152 -0.679905 -0.461145 -0.072428 0.347647 0.527708 -0.675522 -0.219694 -0.182533 -0.123174 0.526867 0.660053 0.097161 
lot -0.009982 -0.185349 -0.120565 0.278335 -0.291824 0.113139 -0.107818 -0.039302 -0.053093 -0.403651 -0.326566 0.008534 0.220820 0.103034 -0.023235 -0.147317 0.428405 0.165149 -0.571264 -0.038996 
group -0.127166 0.217358 0.093600 0.106727 -0.055255 -0.262524 0.110924 -0.035457 -0.066092 -0.304530 0.076273 -0.112556 0.028952 0.264236 0.170370 -0.357511 0.108446 0.218166 -0.738876 -0.100880 
version -0.334029 -0.004159 0.388191 0.534893 0.269288 -0.676131 0.158798 0.226689 0.125561 -0.018284 -0.065452 -0.376521 -0.171049 -0.199285 -0.224521 -0.283439 0.087055 -0.255662 -0.244248 -0.087345 
else -0.059140 -0.175036 0.297906 -0.234822 0.463196 -0.197635 0.186002 -0.255149 -0.377262 -0.098207 -0.291345 -0.286326 -0.049851 -0.260483 0.175944 -0.424598 0.205122 -0.167280 -0.599576 -0.178411 
code -0.139410 -0.551502 0.382640 -0.022999 -0.120367 -0.672124 0.263248 0.333559 -0.019170 -0.044097 0.454684 0.242238 -0.174502 -0.340102 -0.332970 -0.244297 -0.097392 0.812504 -0.413341 -0.112639 
seen -0.669691 0.004292 0.026963 0.292717 -0.003684 -0.182770 0.495522 0.102120 -0.589527 -0.048179 -0.553818 -0.490580 0.386611 -0.043319 0.007836 -0.423828 0.028441 -0.468714 -0.394009 0.067294 
problems -0.396124 -0.121493 -0.042729 0.404593 -0.033987 -0.389720 0.061959 0.161245 -0.458600 -0.120219 -0.216149 -0.100519 -0.205921 0.061911 -0.179313 0.027085 0.104052 -0.510189 -0.290667 -0.088404 
enough 0.407136 -0.081859 0.137273 0.218810 -0.219919 0.233945 0.077678 0.119175 -0.545108 -0.266281 -0.156743 0.216026 0.182226 -0.135972 -0.008202 0.095025 0.128028 0.207625 -0.350299 -0.032561 
case 0.202361 -0.113172 0.027257 0.050669 -0.134783 0.088755 0.028513 0.207527 -0.268949 -0.264400 -0.297442 0.066302 0.140789 -0.102501 0.036214 0.028354 0.148123 0.096653 -0.056458 0.108432 
send 0.088494 -0.228368 -0.074145 -0.175869 0.071745 -0.167861 -0.387713 -0.305381 0.416224 -0.140382 -0.091597 0.128158 -0.060845 -0.233994 0.203128 -0.927619 0.504454 0.781977 -0.603754 -0.222459 
able 0.298046 -0.228269 0.125329 0.265527 -0.135851 -0.320148 0.221420 -0.027535 -0.240189 -0.156398 -0.392675 -0.242612 -0.097953 -0.274278 0.000561 0.132264 0.438154 0.299291 -0.157891 -0.230323 
running -0.284371 -0.131721 0.215597 0.450343 -0.235528 -0.906511 -0.007302 0.192651 -0.492845 0.175214 -0.203280 0.342932 -0.404160 0.143462 -0.656149 -0.079820 0.128552 -0.304775 0.109572 -0.047756 
real 0.218655 0.193548 0.236849 0.128138 0.107916 0.086520 0.087679 0.009173 -0.278302 0.027679 -0.315388 0.168790 0.222276 -0.078864 0.055894 -0.143283 0.270442 -0.170808 -0.203551 0.129286 
found -0.030575 0.075364 0.049521 0.327244 0.107669 -0.324654 0.233148 0.179294 -0.096657 -0.091704 -0.288956 -0.148532 -0.138857 0.047072 0.088192 -0.164304 0.144401 -0.296688 -0.315368 -0.014098 
true 0.059215 0.051968 -0.022510 0.141994 0.080088 0.216368 0.277735 0.232744 -0.370697 -0.263207 -0.372147 0.051294 0.160748 -0.365992 0.417062 0.192304 0.083700 -0.043180 -0.112559 0.029271 
least 0.042341 -0.003097 0.142849 0.173519 0.003352 0.139457 0.119552 0.001625 -0.334577 0.086822 -0.286404 -0.069755 0.177576 -0.226655 0.315278 0.076083 0.325160 -0.023476 -0.146549 -0.021576 
video -0.195985 -0.401458 -0.588380 0.633443 0.621842 -1.102949 -0.251870 -0.193513 -0.283654 -0.267968 -0.383055 -0.200454 -0.268596 -0.442528 -0.060516 -0.040329 0.280838 -0.562505 0.492951 0.321847 
call 0.300476 -0.115936 0.086557 -0.034920 -0.017481 -0.238611 -0.260375 -0.183473 -0.017008 0.039445 0.052168 -0.117649 -0.155075 -0.356981 0.258214 -0.305683 0.372365 0.372415 -0.106017 0.175772 
having -0.207044 -0.268672 0.209907 0.439670 -0.286269 -0.087671 0.132980 0.219101 -0.265124 -0.095329 -0.608539 -0.218882 -0.220067 0.230281 0.021601 -0.080695 0.034245 -0.247152 -0.568130 -0.069401 
put 0.371460 -0.084162 0.062427 0.071906 -0.190735 0.150534 -0.117866 0.457766 -0.315148 -0.048131 -0.445598 -0.024199 -0.057224 -0.296849 0.024669 -0.139039 0.261823 0.030407 0.092618 0.021444 
every 0.103772 0.173806 0.136525 0.113873 -0.142177 0.218973 0.128062 0.409555 -0.278529 0.124134 -0.494656 0.113229 -0.234842 0.033499 -0.142656 0.179317 0.305219 0.124082 -0.121123 0.231216 
each -0.064599 0.156311 -0.085810 0.384387 -0.084649 0.008134 -0.000184 0.459939 -0.323465 0.126621 -0.151430 0.035707 -0.116563 -0.333062 -0.056557 0.164858 0.408804 0.196106 -0.111550 -0.048726 
mike -0.209001 -0.122979 0.091832 -0.320645 0.264508 -0.160984 -0.104948 -0.112884 0.133633 -0.034484 0.139814 0.425741 -0.227936 0.041321 0.516014 -0.194984 0.149556 -0.003104 0.046276 0.160087 
pc -0.195044 0.088425 0.014811 0.579293 0.130566 -0.968786 -0.148934 0.161009 -0.057191 0.064425 -0.022074 0.107616 -0.552193 -0.155574 -0.250844 -0.133682 0.361607 -0.103292 0.200234 0.047393 
through 0.208881 0.142813 0.061790 -0.021030 -0.163071 0.001414 -0.136382 0.210687 -0.164940 0.053768 -0.326017 -0.001362 -0.016928 0.021636 0.075062 0.066800 0.377416 0.356919 -0.169751 -0.167600 
world 0.176170 0.321900 0.099566 -0.007087 0.064021 0.382969 -0.048766 0.129161 -0.279917 -0.065702 -0.238878 0.123598 0.012740 0.022202 0.407372 0.032302 0.364083 0.042720 -0.270568 0.046513 
robert -0.351860 -0.171489 0.282403 -0.321208 0.140099 -0.453941 -0.091520 0.136188 0.190472 -0.167705 0.305636 0.228745 -0.179520 0.253706 0.429876 -0.276987 -0.036001 -0.188736 0.078901 -0.012005 
part 0.212772 0.061185 0.040965 0.015234 -0.026264 0.090061 0.098718 0.289630 -0.143296 -0.149253 -0.282415 -0.197845 -0.285045 0.069844 0.343148 -0.060897 0.125457 0.085472 -0.020090 -0.030252 
sale -0.810254 -0.364179 -0.580302 0.432662 0.179650 -0.497007 -0.830977 0.342683 0.396411 -0.076467 -0.076725 0.285518 -0.436201 -0.028884 0.213720 -0.272965 0.051238 -0.136337 0.396290 0.331229 
address 0.030549 0.150348 0.078952 -0.478438 0.254808 -0.215318 -0.610963 -0.383362 0.241805 0.072808 0.134182 -0.004120 -0.451058 0.304118 0.273872 -1.087442 0.462170 0.851487 -0.405322 0.087208 
let 0.304354 0.071814 0.349719 -0.258230 0.100313 -0.290982 -0.174049 -0.392938 0.057332 -0.180573 -0.274681 0.013143 -0.019909 -0.369986 -0.036093 -0.436657 0.369262 0.134120 -0.249759 -0.311534 
fact -0.001357 -0.190652 0.201049 -0.181163 -0.039972 0.265713 0.324934 0.180940 -0.249012 -0.018005 -0.307345 0.110095 0.159177 -0.023635 0.443734 0.168807 -0.028874 0.085577 -0.236556 -0.151623 
though 0.129701 0.016483 0.152014 0.180038 -0.164409 0.048700 0.259491 0.089192 -0.330407 -0.238063 -0.357728 0.048726 0.128123 -0.176076 0.061590 0.137950 0.316642 -0.029736 -0.267259 0.003421 
wrong 0.415918 -0.145768 0.427880 -0.288509 -0.281474 -0.043910 0.015202 -0.050976 -0.244266 -0.173988 -0.546836 -0.023027 0.187821 -0.293339 0.201365 -0.052699 -0.063806 -0.083619 -0.250364 0.024601 
youre 0.335943 0.036716 0.426742 -0.010621 -0.260825 0.041134 0.014151 0.049351 -0.173707 -0.233898 -0.266681 0.132104 0.168114 -0.236911 0.185450 0.070361 0.189774 -0.101142 -0.203019 0.030387 
high 0.036933 0.404738 -0.091744 0.620272 -0.338530 -0.129942 -0.079993 0.201513 -0.043611 -0.082093 -0.098252 0.235945 -0.305652 -0.105987 0.234399 -0.135458 0.005795 -0.203924 -0.106914 0.024060 
appreciated -0.107560 -0.437488 -0.030251 -0.496385 0.011309 -0.703079 -0.201722 -0.499745 0.234598 -0.481066 0.205220 0.194495 -0.122397 0.567251 -0.111123 -1.076138 0.770873 0.694610 -0.620965 -0.277720 
clipper -0.661318 -0.988682 1.184888 -0.156403 0.300112 -0.130466 0.192371 0.305188 -0.273020 -0.251455 0.322641 0.297980 0.567388 -0.387691 0.545126 0.141132 -0.492952 0.828510 0.798211 -0.022420 
systems -0.272754 0.653748 -0.222269 0.416984 0.092090 -0.192729 -0.415025 -0.067900 -0.258019 -0.179395 0.601760 0.296624 -0.114408 0.404196 0.186972 -0.501906 0.058324 0.501532 -0.080346 0.241364 
maybe 0.061918 -0.001833 0.199276 -0.010316 -0.171791 0.015577 0.119451 0.139842 -0.294319 -0.054229 -0.324660 0.003839 0.109221 -0.049858 0.086967 0.076522 0.576394 0.035608 -0.137411 -0.114444 
far 0.212396 -0.084573 0.151313 0.313914 -0.115115 0.080116 0.058535 0.207015 -0.213961 -0.319409 -0.268431 -0.113861 0.075538 -0.317162 -0.131899 -0.133203 0.301471 -0.192105 -0.281788 -0.005032 
following -0.130786 -0.100866 -0.172906 0.272463 0.110569 -0.478036 -0.190033 0.193375 0.166517 0.178170 -0.239521 0.168110 -0.340468 -0.056618 -0.026498 -0.225192 0.079745 0.187375 0.024156 0.068501 
support -0.185031 0.055381 0.074678 0.475968 0.202272 -0.448286 -0.196699 -0.010928 -0.285828 -0.084109 0.148682 0.248085 -0.058497 -0.019709 0.125462 -0.136593 0.162494 0.119946 0.116283 0.004502 
yes -0.071436 -0.073070 0.135177 -0.064903 -0.116218 -0.067636 -0.045564 0.286397 -0.274872 -0.025181 -0.275688 -0.186069 -0.001436 -0.339800 0.285841 0.095863 0.240688 -0.053422 -0.127007 -0.072394 
course 0.108120 0.149755 0.093040 0.288482 -0.325216 0.130055 0.142571 0.229234 -0.294246 -0.049078 -0.261790 0.045875 0.231602 -0.129112 0.225143 0.021859 0.166339 0.093158 -0.104738 -0.165963 
next -0.115409 0.035948 0.302994 -0.027102 0.155101 0.224760 0.048566 0.472859 -0.106340 -0.134665 -0.415651 -0.005102 0.212958 0.093160 0.041267 -0.023197 0.183311 -0.296389 -0.353182 0.379052 
paul -0.021903 -0.054575 0.311568 -0.532296 0.395868 -0.157411 -0.228576 0.017545 0.128058 -0.200524 0.065391 0.376325 -0.091627 0.217158 0.565498 -0.103029 -0.169793 0.119198 0.132658 0.159050 
isnt 0.194517 -0.114031 0.133270 0.166238 -0.172827 0.247396 0.046549 0.045374 -0.207076 -0.294314 -0.263393 0.152264 0.249961 0.068962 0.135109 0.140923 0.115980 -0.064070 -0.206553 0.099646 
trying 0.133817 0.049034 0.539225 0.021683 -0.461025 -0.616038 0.098361 0.043928 -0.258709 0.053024 -0.483434 -0.261447 -0.235965 0.070507 0.091609 -0.065211 0.000094 -0.129508 -0.155707 -0.123543 
different -0.112619 0.274950 -0.129668 0.424009 0.093316 -0.181518 0.150956 0.216598 -0.343050 -0.164994 -0.015411 0.121242 -0.095886 -0.330901 -0.022524 0.128341 0.572975 -0.001475 -0.197741 -0.088591 
yet 0.147846 -0.070733 0.094383 0.059532 -0.028071 0.116944 0.165829 0.189619 -0.444322 -0.084070 -0.388287 -0.368931 0.144968 0.061567 0.261843 -0.074656 0.126011 0.013444 -0.297563 -0.048689 
buy -0.031232 -0.084125 -0.050679 0.157753 -0.087369 -0.133287 -0.104835 -0.221180 -0.267044 -0.647736 -0.042234 -0.255803 0.092064 -0.311277 0.066945 0.012010 0.504375 0.068674 -0.056976 0.025853 
done 0.063308 0.025837 -0.030397 0.165264 0.135968 0.201579 0.366687 -0.002088 -0.596939 -0.126820 -0.296560 -0.051199 0.028410 0.043836 -0.106192 -0.149052 0.039022 -0.094197 -0.242437 -0.225322 
book -0.211750 -0.098043 0.099328 -0.131675 0.038138 -0.106236 0.053536 0.466238 0.044632 -0.242777 -0.034721 -0.290011 -0.181726 -0.169970 0.296473 -0.057748 0.038095 0.143113 -0.663252 -0.034823 
jim -0.054999 -0.040946 0.159500 -0.318881 0.105982 0.159471 -0.015468 0.136719 0.216786 -0.034361 0.089433 0.439325 -0.159264 0.076875 0.600774 -0.300733 -0.101626 -0.073545 0.061841 0.122344 
ever -0.072961 -0.072922 0.116280 0.137870 0.169137 0.304701 0.206015 0.133664 -0.241571 -0.174975 -0.478368 -0.339717 0.074650 -0.025682 0.158148 -0.024733 0.206489 -0.238930 -0.431076 0.056681 
memory -0.100599 -0.119896 -0.507347 0.298095 -0.099654 -0.579097 -0.240355 0.220810 -0.397665 -0.129387 -0.070659 -0.030529 -0.485366 -0.448538 -0.426026 0.102465 0.523968 -0.253080 0.059575 0.131758 
idea 0.045644 0.049685 0.175966 0.001967 -0.029684 0.054116 0.101712 0.111053 -0.445501 -0.133688 -0.096514 -0.069491 0.164624 -0.243193 -0.026164 -0.088437 0.142233 -0.043325 -0.300636 -0.008695 
box -0.249659 0.119816 0.315335 0.691232 0.015406 -0.343392 -0.490892 -0.203584 -0.268099 -0.156573 0.465968 0.241623 -0.454702 0.592434 -0.205994 -0.123879 0.249917 0.463535 0.186281 0.286743 
thought 0.036639 -0.335334 0.053603 0.027295 -0.148920 0.031034 0.151555 0.098852 -0.348906 -0.093558 -0.388214 0.009014 -0.060767 0.017167 0.201951 0.064098 0.094659 -0.125726 -0.068987 0.117429 
home 0.066162 0.168186 0.044884 0.234027 0.055572 -0.015901 -0.495703 0.056318 -0.103486 0.132247 0.127781 0.151413 -0.182182 0.440978 0.182036 -0.201050 0.284069 0.123727 -0.102009 0.510356 
ill 0.318720 0.100925 0.235703 -0.169424 -0.031209 0.005335 -0.346797 -0.034384 0.060677 -0.082497 -0.322914 0.085430 0.191545 -0.077331 0.024323 -0.627977 0.573797 0.269834 -0.486434 -0.031893 
again 0.499648 -0.113273 0.298594 -0.108602 0.114052 0.045000 0.080263 0.171780 -0.085327 0.136125 -0.463352 -0.074758 -0.007142 0.085426 0.246501 -0.143502 0.209163 -0.166760 -0.127788 0.016266 
public -0.092526 0.175074 0.531958 0.243828 -0.012131 -0.499117 0.060710 0.437549 -0.025427 0.360152 0.520628 -0.460801 0.417338 -0.019940 0.194017 -0.060227 0.153569 1.388564 0.359889 0.058882 
remember 0.301153 0.021118 0.094046 -0.002318 -0.221140 0.009755 0.260959 -0.069993 -0.170442 -0.217616 -0.300046 0.008410 0.077596 -0.078303 0.259043 0.103918 0.193428 -0.019105 -0.339916 0.015627 
nothing 0.120073 0.092047 0.082552 0.129146 -0.075973 -0.032411 0.283913 0.021476 -0.468323 -0.075002 -0.358073 0.037937 0.114671 -0.039106 0.098379 -0.114393 -0.020693 -0.030181 -0.150623 0.087842 
driver 0.005429 -0.215546 0.194520 0.586181 0.507098 -1.151583 0.199845 0.107921 0.049948 -0.230363 -0.284199 -0.514813 -0.751147 -0.348667 -0.482590 -0.211851 -0.060736 -0.517037 0.091723 0.203932 
apple -0.238763 -0.120310 -0.520187 0.519180 0.504956 -0.537099 -0.346299 0.057753 -0.345842 -0.772732 -0.217347 -0.032714 -0.505057 -0.192042 -0.380922 0.018288 0.183218 -0.147143 0.545084 0.182429 
doing 0.133755 -0.067840 0.229807 0.009394 -0.392316 -0.068823 0.310358 0.012583 -0.251282 -0.385989 -0.424260 -0.048462 0.135956 0.048932 0.274043 -0.246328 -0.278342 -0.095111 -0.485193 -0.203999 
research -0.048041 0.486738 -0.116678 0.391478 -0.258129 0.141479 -0.408306 -0.048997 0.267240 -0.505707 0.719281 0.454034 -0.120872 0.536983 0.852268 -0.464829 -0.538397 0.386853 -0.363402 0.425430 
dave -0.016112 -0.080147 -0.076663 -0.187046 0.069588 -0.042203 -0.224452 0.117708 0.219152 -0.155800 0.124842 0.262406 0.194779 0.371123 0.372081 -0.406897 -0.247819 -0.011152 -0.236446 0.268120 
mean 0.396615 0.250463 0.176273 -0.121212 0.013087 -0.028478 0.380774 -0.169537 -0.293124 0.059083 -0.166025 0.040798 0.310031 -0.585257 0.248378 -0.020065 0.227804 -0.048890 -0.286807 0.028869 
kind 0.009140 0.067969 0.097169 0.050212 0.082287 -0.038946 0.056082 -0.015593 -0.542087 -0.166139 0.001506 -0.061782 0.024003 -0.220699 0.073363 0.062672 0.347086 0.178528 -0.261091 -0.130004 
news -0.047492 -0.021742 0.338546 -0.032868 0.072587 -0.052356 -0.123127 0.142916 -0.220006 0.097878 0.133273 0.084898 -0.024607 0.416559 0.234115 -0.329753 -0.043002 0.255891 -0.426044 0.098534 
she 0.458886 -0.411689 -0.055501 0.231532 0.206435 0.646799 0.374379 0.288086 -0.433878 -0.118897 -0.662881 -0.183756 0.315645 0.149924 0.361287 -0.160376 0.050292 -0.091549 -0.431913 0.022798 
price -0.153492 0.065618 -0.257488 0.314594 0.003436 0.016528 -0.392984 0.202991 -0.100651 -0.084444 -0.154958 0.148019 -0.064730 -0.422294 -0.082032 -0.193260 0.311360 0.037976 -0.402199 0.206983 
color -0.442856 0.155493 -0.234148 0.663691 0.423325 -0.768043 -0.144352 0.171895 -0.511630 -0.226941 -0.248892 0.189024 -0.297358 -0.075622 -0.421664 0.325544 0.332911 -0.286449 0.203105 0.252995 
game -0.040545 -0.259306 0.102205 0.313638 0.139253 0.337679 -0.475405 0.227806 0.314350 0.132568 -0.700031 0.140801 -0.212625 0.266748 0.413966 0.271968 0.440126 -0.305571 -0.368921 0.352366 
quite -0.133389 0.112550 0.249499 0.248998 -0.117487 -0.093719 0.009621 0.153299 -0.478919 0.084481 -0.638205 0.102129 0.064264 -0.079349 0.040327 0.108345 0.127952 -0.045886 -0.406652 0.089501 
works -0.161084 -0.178201 -0.077914 0.250029 -0.066906 -0.487604 0.072388 0.309786 -0.295660 -0.186101 -0.394244 0.144268 -0.182865 -0.346666 -0.180697 0.049214 0.046990 -0.012886 0.028797 0.042356 
either 0.044552 -0.107490 0.289637 0.070093 -0.021266 -0.244768 -0.082668 0.056401 -0.216997 -0.039610 -0.258093 0.037216 0.115497 -0.351070 -0.036544 0.026956 0.508475 0.015257 -0.270775 -0.142738 
source -0.347180 -0.410848 0.460809 0.111033 0.073271 -0.606460 0.243824 0.082579 0.070716 -0.162521 0.228561 0.108986 -0.063536 -0.215665 0.000951 -0.081308 0.083412 0.554505 -0.334292 -0.211197 
message 0.230853 -0.314699 0.279022 -0.046255 0.029323 -0.394551 -0.266175 -0.117660 -0.249735 -0.051948 -0.020928 -0.243161 0.082049 -0.119716 0.082079 -0.460876 0.038906 0.405538 -0.080720 0.214111 
getting -0.051487 -0.155215 0.084549 0.036999 -0.379907 -0.180624 -0.040189 0.086971 -0.401407 -0.154158 -0.405244 -0.138806 -0.080055 0.085767 0.063828 0.048026 0.153511 -0.233983 -0.313542 0.001698 
ago -0.189827 -0.120986 -0.347734 -0.157803 -0.289171 0.065732 0.077938 0.436220 -0.682209 0.658650 -0.157445 -0.587382 -0.368780 0.304737 0.192681 0.141854 0.071653 -0.121947 -1.044548 0.714883 
big -0.020322 0.059443 0.149286 0.069138 -0.077555 0.214993 -0.064433 0.287050 -0.321338 -0.160229 -0.250382 -0.021130 0.217222 0.082902 0.118658 0.250845 0.027431 0.073038 -0.142806 -0.106601 
keep 0.488689 -0.047762 0.150779 0.011278 -0.238850 0.225239 -0.140691 0.155595 -0.269539 -0.077942 -0.440610 0.040102 0.113182 -0.004937 0.063180 0.208094 0.346651 0.098148 -0.182528 0.121781 
ms -0.412491 -0.075407 0.852728 0.458096 -0.012543 -0.773783 0.113834 0.312803 0.131879 -0.088785 0.407456 0.314798 -0.542456 0.126597 -0.597529 -0.254182 -0.075670 -0.271926 -0.054289 0.229304 
rather -0.004725 -0.049041 0.251338 0.446661 -0.121764 0.284920 0.252317 0.282771 -0.010433 -0.620134 -0.213910 0.047821 0.171668 -0.037074 -0.108543 0.478832 0.494719 0.086485 -0.659890 -0.142388 
monitor -0.241421 -0.379504 -0.655163 0.472597 0.286151 -0.597164 -0.431513 0.052009 -0.672924 -0.575032 -0.148808 -0.063780 -0.202706 0.131984 -0.588224 0.154799 0.378574 -0.105983 0.418947 0.209249 
bad 0.079216 -0.154183 0.016115 0.078809 -0.068020 0.226912 -0.030780 0.206231 -0.277054 -0.208822 -0.135922 0.100478 0.198583 -0.017687 -0.149614 -0.000506 0.132923 -0.120889 -0.254917 0.097462 
second 0.132134 -0.036455 0.162962 0.302407 -0.068386 0.042781 -0.153147 0.362094 -0.209330 0.004078 -0.476872 0.143462 0.004833 0.032332 -0.039620 0.021238 0.162096 0.024590 -0.146521 0.237274 
mb -0.266414 -0.416342 -0.867656 0.613113 0.192885 -0.949520 -0.620252 0.125988 -0.532318 -0.841339 -0.296907 -0.013578 -0.337979 -0.552414 -0.635880 0.199945 -0.357827 -0.408431 0.690800 0.491197 
against 0.187259 0.085269 0.211452 0.008875 -0.081363 0.447285 0.028481 0.373620 -0.333113 0.146764 -0.348310 -0.040932 0.064168 0.142602 0.496569 0.033376 0.062149 0.208337 0.031271 -0.005076 
once -0.161094 -0.749472 -0.071887 -0.274147 -0.325397 0.235712 0.126054 0.470174 -0.184217 0.000724 0.134579 0.267613 -0.267942 -0.052786 0.162938 -0.028255 0.005300 0.270611 -0.279498 -0.083166 
place 0.454352 0.076262 0.373697 0.220903 -0.162454 -0.022234 -0.003028 0.067978 -0.245583 0.130253 -0.265249 -0.032424 -0.319680 0.113388 0.059154 0.034032 0.377902 0.147320 -0.013972 0.018586 
order 0.067080 0.092356 0.069216 0.100102 0.051893 0.100940 -0.077978 0.249928 0.035750 -0.057118 -0.060978 -0.021565 -0.123048 -0.203830 0.151455 -0.345583 0.343239 0.422721 -0.128440 0.154976 
change 0.170252 0.048617 0.200809 -0.009681 -0.139482 -0.271533 0.171339 0.212737 -0.353569 0.011902 -0.396844 0.123326 -0.060147 -0.344680 -0.053999 -0.067087 0.491746 0.018164 0.051331 -0.026682 
disk 0.309788 -0.293515 -0.087375 0.507682 -0.270820 -0.703183 -0.244284 0.439804 -0.365858 -0.418554 -0.157135 -0.010398 -0.383763 -0.284677 -0.596063 -0.190290 0.008149 -0.017420 0.634780 0.327681 
machine -0.136810 -0.313011 -0.090963 0.368329 -0.247144 -0.417019 -0.209955 0.145021 -0.573648 -0.041854 -0.076995 0.218825 -0.125184 -0.235330 -0.482179 -0.013838 0.408171 -0.076933 0.217884 0.203139 
display -0.118486 0.058080 0.047963 0.396536 0.050940 -1.060708 0.012017 0.205723 -0.477078 0.103472 -0.170444 0.244383 -0.278073 0.015870 -0.663267 0.606989 0.570126 0.013569 -0.229453 -0.032532 
end -0.123273 -0.042736 -0.199289 0.210057 -0.327177 -0.028761 -0.088716 0.229968 -0.238060 0.331262 -0.206794 -0.157665 0.035464 -0.057815 0.259959 0.040777 0.400806 0.414336 -0.079623 0.250739 
stuff -0.060947 -0.051245 -0.035446 0.164103 -0.203441 -0.110784 -0.120455 0.216068 -0.071250 -0.315647 -0.184841 0.251677 -0.030675 -0.114974 -0.062789 0.282233 0.180354 -0.026115 -0.244257 -0.121337 
wanted -0.124344 -0.240368 0.100460 -0.349993 0.273041 -0.540741 -0.223027 -0.050571 0.088683 -0.088957 -0.132999 0.004748 -0.588420 0.239324 0.287245 -0.126095 0.113813 -0.272799 -0.177575 0.015978 
christian 0.033478 0.071705 0.005955 -0.865557 -0.048635 0.272378 0.370271 0.574386 -0.202986 -0.056747 -0.630862 -0.091595 -0.502144 -0.166188 0.639863 -0.003570 -0.241239 0.070036 -0.081887 0.330300 
start 0.441907 -0.145340 0.184066 0.062634 -0.217562 -0.096482 0.186225 0.168902 -0.293380 -0.014466 -0.363260 0.016369 -0.242948 -0.051670 -0.057616 -0.027448 0.172879 0.037818 -0.130390 0.069986 
speed -0.361486 0.086859 -0.581969 0.390749 -0.350824 -0.204626 -0.253101 0.290715 -0.596034 0.051011 -0.313559 0.656085 -0.166714 -0.520205 -0.096203 -0.311750 0.195584 -0.465747 0.187544 -0.181266 
reason 0.340652 0.031107 0.248206 -0.140971 -0.069562 0.244050 0.305300 0.291835 -0.278808 -0.162191 -0.403452 -0.066126 0.193688 -0.239523 0.223374 0.150380 0.285645 0.045869 -0.095344 -0.045850 
always 0.009073 -0.165424 0.107173 0.237018 -0.129755 0.111291 0.112403 0.182037 -0.181595 -0.067152 -0.632257 -0.172358 0.071561 0.048636 0.171739 -0.138918 0.125106 0.063802 -0.028454 -0.095699 
net 0.387267 0.072849 0.283720 -0.342726 0.385268 -0.116874 -0.046387 0.049799 -0.243772 -0.418981 -0.020267 -0.150970 -0.240320 0.511623 -0.241345 -0.403331 0.358141 0.304402 -0.104108 -0.271299 
questions -0.089494 0.120219 -0.058141 -0.132681 0.011522 -0.108417 0.132801 -0.025543 -0.066284 -0.270617 -0.004834 0.004545 -0.112749 -0.082307 0.351077 -0.453714 0.106277 -0.069604 -0.465489 -0.104785 
screen -0.193997 -0.309557 0.049138 0.512356 0.086130 -0.823985 0.010779 0.463799 -0.372631 -0.003901 -0.503950 0.565221 -0.349049 0.044551 -0.793065 0.070465 0.487882 -0.080557 -0.026852 -0.050796 
games -0.249450 -0.081419 -0.125718 0.663056 0.398630 0.255678 -0.635160 0.363516 0.435272 0.406262 -0.640362 0.517152 -0.394342 0.120240 0.308637 0.063850 0.565407 -0.432225 -0.165428 0.313250 
standard -0.034096 -0.098773 0.185252 0.663903 -0.204326 -0.066137 -0.097364 0.155242 -0.411197 -0.326776 0.340091 0.003225 0.142743 -0.060018 -0.009592 -0.433015 0.232490 0.040202 0.360222 -0.202232 
already 0.004312 -0.119214 -0.001485 0.246940 0.008755 -0.128755 0.076442 0.015684 -0.396024 -0.094759 -0.223336 -0.134425 -0.305418 -0.081153 0.143909 0.068549 0.205961 0.005326 -0.146925 -0.316007 
above 0.051976 -0.169835 -0.067561 -0.057332 -0.152196 0.087799 -0.148842 0.041044 -0.238557 -0.031842 -0.127114 0.038694 -0.104706 -0.188631 0.163235 -0.126066 0.423180 0.098762 -0.046474 0.023734 
sorry 0.181653 -0.062372 0.392664 -0.281790 -0.115097 -0.055888 0.105811 0.002201 -0.263183 -0.163852 -0.161030 0.005327 -0.025453 -0.179354 0.289435 -0.087075 -0.004606 -0.292559 -0.256452 0.186005 
pretty -0.046876 -0.138336 0.308066 0.111831 -0.236332 0.047214 0.108276 0.235515 -0.202266 -0.407234 -0.260710 0.050036 0.022219 -0.067262 -0.151752 0.035592 0.202528 -0.119352 -0.476832 0.028134 
left 0.437833 -0.292784 0.144078 0.287936 -0.191588 0.280503 -0.089947 0.255211 -0.431219 0.155150 -0.386265 -0.188111 -0.180856 0.244076 -0.059062 0.200980 0.426049 0.033024 -0.040023 0.181353 
tried -0.198056 0.092686 -0.007468 0.352876 -0.156100 -0.575960 0.408893 -0.011483 -0.477187 -0.041335 -0.399358 -0.271317 0.039026 -0.088014 -0.383682 -0.209606 0.202045 -0.217206 -0.055173 0.007847 
free 0.032193 0.122011 0.053597 -0.003084 -0.196685 -0.044529 0.010896 0.145336 0.049091 0.022969 0.063947 0.159558 -0.121090 -0.223686 0.288560 -0.040745 0.399740 0.385151 -0.121250 0.200330 
theres 0.047138 -0.056430 0.254784 0.088630 -0.255480 -0.044692 -0.069736 0.268157 -0.212376 -0.310587 -0.455102 -0.098840 0.058200 -0.335816 0.105871 -0.072572 0.023971 0.030309 -0.292159 0.077232 
non 0.110089 -0.044465 -0.040051 0.210264 0.057359 -0.175122 0.317085 0.398732 -0.396515 -0.243747 -0.034290 0.249845 -0.395523 -0.167094 0.070350 -0.011731 0.223904 0.235433 0.189845 -0.026544 
james 0.220980 -0.157033 0.098069 -0.336749 0.132597 -0.164361 0.166327 0.232271 0.120019 -0.203715 0.264936 0.373733 -0.114921 0.144224 0.688811 -0.127365 -0.319718 -0.074326 0.111224 0.042112 
law 0.084132 -0.049857 0.340381 -0.028762 0.321432 0.533541 0.154091 0.473815 -0.038634 -0.254145 0.063640 0.227927 0.072846 -0.059546 0.619105 0.133126 0.115183 0.281005 0.204754 -0.044861 
life 0.299056 -0.017757 0.131054 -0.250233 0.026604 0.416277 0.112323 0.215109 -0.367027 -0.078537 -0.284209 0.032037 0.235002 0.141209 0.364034 -0.006076 0.215584 0.270717 -0.106412 -0.220692 
mouse 0.326948 -0.357567 0.074354 0.138919 0.348155 -0.883483 0.219947 0.141738 -0.269931 -0.135006 -0.410487 0.241784 -0.870326 -0.386763 -0.557415 -0.303516 0.139626 -0.175297 0.462912 0.136433 
sun -0.307552 0.169053 0.059992 0.447921 -0.210724 -0.933717 -0.177101 0.078057 -0.345293 0.133981 -0.009366 0.134365 -0.151008 0.364651 -0.167675 -0.117610 0.264009 -0.104976 0.044162 -0.254893 
brian -0.272637 -0.143786 0.299761 -0.186519 0.339443 -0.482281 -0.011435 0.033605 0.212319 -0.075370 0.177090 0.502551 -0.368630 0.078108 0.372400 -0.095832 -0.223067 -0.241117 -0.042422 0.302659 
type -0.122467 0.014503 0.016197 0.380498 -0.197630 -0.509649 0.014554 0.308277 -0.092988 -0.056990 -0.335372 0.116674 -0.098875 -0.148457 -0.061361 0.010777 0.231577 0.076270 -0.177606 0.032223 
wondering -0.202476 -0.418631 0.090566 0.018709 0.192843 -0.390727 0.053227 0.017835 -0.095967 -0.033080 -0.259955 -0.347719 -0.372407 -0.160511 0.182139 -0.511645 -0.012242 -0.587835 -0.232536 0.005913 
seem 0.275848 0.016713 0.083455 0.083803 -0.392641 0.039482 0.152576 0.109339 -0.369916 -0.128822 -0.271319 0.137165 0.236213 -0.282738 0.057293 0.037271 0.200682 -0.111551 -0.302737 -0.194495 
win -0.037707 -0.356115 0.365434 0.263005 0.152495 -0.534973 -0.024247 0.157392 0.176771 0.224435 -0.193587 0.257994 -0.539809 0.101518 -0.249975 0.202283 0.318585 -0.441414 -0.105038 0.258309 
several -0.271226 0.056720 -0.110132 0.394678 -0.169795 -0.158663 0.118254 0.480941 -0.340435 0.277634 -0.200876 -0.167484 -0.236119 0.044160 -0.077425 -0.014244 0.333168 -0.059318 -0.337254 -0.011388 
technology -0.350759 1.109810 0.006100 0.554344 -0.041656 -0.137994 -0.223051 -0.044229 -0.047543 -0.178002 0.794263 0.150279 -0.389599 0.332640 0.514903 -0.258491 -0.136867 0.631958 -0.014570 0.813602 
ftp -0.021136 0.224204 0.402407 -0.011779 0.354631 -1.384569 -0.299793 0.077596 0.701701 -0.012497 0.562699 -0.676235 -0.262472 -0.309012 -0.311188 -0.550021 0.418942 0.488461 -0.676750 0.219705 
application -0.055873 -0.259456 0.268188 0.328004 -0.074978 -1.058454 0.147560 0.181306 -0.307670 0.172312 0.107034 0.044512 -0.371502 -0.014161 -0.471905 -0.060723 0.183933 0.193857 -0.033402 -0.154594 
image -0.456279 0.230176 0.176767 0.375045 -0.071250 -1.107365 -0.054074 0.411080 -0.174379 -0.180480 0.155810 0.213612 -0.216052 0.024418 -0.406648 0.287016 0.205267 0.247425 -0.320407 -0.009961 
science 0.082669 0.571289 -0.224422 0.272338 0.010276 0.073190 -0.637342 0.126571 -0.225428 -0.422379 0.715901 0.311686 0.018269 0.958674 0.318574 -0.399140 -0.592457 0.708180 -0.329448 0.732573 
access -0.060608 0.209551 0.099539 0.100622 -0.213764 -0.727082 -0.088320 0.245025 -0.096858 -0.046651 0.112206 0.025032 -0.081164 0.072404 -0.354091 -0.310479 0.100688 0.456003 0.133843 0.215833 
peter -0.268594 0.067356 0.030899 -0.372158 0.116497 -0.122835 -0.106679 0.147847 0.026415 -0.279491 0.139627 0.329171 -0.248807 -0.005405 0.486200 -0.154880 -0.166310 -0.060969 -0.033059 0.390036 
man 0.122241 0.027757 0.073907 -0.160628 -0.108593 0.059197 -0.155968 0.102832 -0.133977 0.261851 -0.317217 -0.097823 -0.035575 0.366580 0.403998 0.053282 0.326277 -0.066268 -0.205712 0.068096 
days 0.082648 -0.024366 -0.288640 0.122508 -0.091717 0.353576 -0.127046 0.296879 -0.446376 0.264244 -0.412388 -0.033347 0.179353 0.204759 0.328723 0.172966 0.208875 -0.185005 -0.684447 0.118336 
encryption -0.751366 -0.603812 0.617001 0.131680 -0.036381 -0.144135 0.093311 0.005967 -0.486901 0.127608 0.292310 0.019801 0.475099 -0.568104 0.562530 0.041307 -0.088562 0.762472 0.605422 -0.159050 
current -0.096098 0.213359 -0.155528 0.339666 -0.131290 -0.145454 -0.047920 0.318555 -0.170431 -0.211589 0.192212 -0.040723 -0.165097 -0.177388 0.076310 -0.010825 0.158522 0.007086 -0.256414 0.136949 
write 0.243801 0.046191 0.211918 0.014285 0.173201 -0.314530 0.067832 0.279758 -0.019323 -0.280302 -0.052412 -0.237873 -0.005366 -0.434266 -0.146160 -0.463796 0.279372 0.155209 0.039569 0.102202 
usa -0.159889 0.699553 0.194617 0.237754 -0.100286 0.305307 -0.243774 -0.626561 -0.037256 -0.375387 0.834652 0.094395 -0.628009 0.661014 1.210608 -0.392946 0.305418 0.677788 0.227432 1.069808 
small -0.083112 -0.011911 -0.101544 0.375181 -0.175819 -0.206999 0.159654 0.175393 -0.417037 0.053887 -0.167477 0.105402 0.015868 -0.026302 -0.024930 0.067814 0.474080 0.107710 -0.156511 -0.116449 
manager 0.584523 -0.077777 0.486189 0.319658 -0.114666 -1.275487 0.316725 -0.058890 -0.070152 0.109715 -0.050334 0.393283 -0.604669 -0.166845 -0.190874 0.311613 0.089381 0.104470 -0.156819 0.051307 
radio -0.007042 0.028023 -0.034588 0.484283 -0.051847 0.128063 0.032675 -0.140972 -0.163860 -0.162280 0.382281 -0.240351 -0.470294 0.356293 0.665540 -0.277078 0.103635 0.301175 0.261482 0.670177 
answer 0.201200 -0.021470 0.267147 -0.556776 0.031040 0.052086 0.125730 -0.009053 0.057949 -0.250066 -0.540814 -0.099634 -0.074077 -0.170615 0.079514 -0.438269 0.405327 -0.006321 -0.372570 0.024970 
person 0.059838 0.158725 0.075700 0.028578 0.081097 0.191638 0.167235 0.091344 -0.279090 -0.027332 -0.372674 0.014335 0.195098 0.075195 0.247828 0.175521 0.164697 0.186439 -0.069754 0.035091 
mr 0.157019 -0.187906 0.414306 -0.318642 -0.114880 0.068066 0.165532 0.000145 -0.072943 -0.239628 -0.129070 0.026837 0.232183 -0.002281 0.686830 0.011290 -0.406741 0.123689 -0.167609 0.227125 
makes 0.255322 -0.046192 -0.089386 0.088025 -0.226800 0.278450 0.062536 0.208256 -0.263167 -0.332943 -0.177998 0.126040 0.187825 -0.146354 0.236009 0.175028 0.165034 0.063250 -0.030328 -0.014709 
drivers -0.078013 -0.203029 -0.083615 0.616888 0.622142 -1.068584 -0.003916 0.010866 -0.131002 -0.096394 -0.013753 -0.408250 -0.458748 -0.311822 -0.319732 -0.149381 0.114994 -0.476862 -0.093051 0.067839 
copy 0.057386 -0.133072 0.433257 0.123745 -0.001290 -0.514909 -0.168534 0.066030 0.250055 -0.025982 0.001795 0.166661 0.012498 -0.206809 -0.324298 -0.378225 0.435541 0.229535 -0.204087 0.008571 
local 0.067132 0.010136 -0.259132 0.428667 0.004815 -0.134352 -0.150814 0.138849 -0.274262 -0.182572 0.069280 0.031052 -0.157279 -0.163780 0.052516 -0.020187 0.251353 0.019507 -0.079437 0.258209 
means 0.024444 -0.130188 0.179787 0.084213 -0.002193 0.015961 0.191366 0.170726 -0.316498 -0.086950 -0.170659 -0.000041 0.152675 -0.267550 0.198077 0.062585 0.312300 0.219759 -0.040343 0.080260 
board -0.376110 0.017105 -0.306431 0.507399 0.118669 -0.609690 -0.302389 0.032565 -0.363351 -0.103091 -0.113421 -0.024425 -0.204703 -0.141136 0.047474 -0.130776 0.386151 -0.072283 0.545329 0.176881 
hope 0.110785 -0.082628 0.273059 -0.237646 -0.098666 -0.042198 -0.022145 0.027638 -0.295194 -0.126208 -0.250024 0.058011 -0.147723 0.114311 -0.069081 -0.002740 0.360689 0.246831 -0.177378 0.043679 
times -0.106020 0.116784 -0.047865 0.339753 0.082143 0.028596 0.144684 0.288438 -0.262827 0.215836 -0.329780 -0.054951 -0.072742 0.108848 0.268987 0.191895 0.085628 -0.254675 -0.455237 -0.034912 
mine -0.242817 -0.336659 0.218965 0.433258 -0.337000 0.037497 -0.321685 0.212553 -0.724660 0.273987 0.251873 -0.190410 0.268175 0.295309 0.322988 -0.559771 -0.197540 -0.285330 0.174601 -0.569783 
control 0.272138 -0.192531 0.007616 0.233493 0.003750 -0.225459 -0.251102 0.066576 -0.352061 0.016817 0.132060 0.194226 -0.175838 -0.111739 -0.066245 0.209472 0.367062 -0.044748 0.008292 0.186019 
today 0.424654 -0.071248 -0.068598 0.037187 0.324192 0.259898 -0.030424 0.141893 -0.098518 -0.182011 0.244715 -0.312794 -0.193117 -0.079265 0.655942 -0.181440 0.333631 0.001268 0.082719 0.395064 
away 0.360609 -0.044349 0.182777 0.155897 -0.135664 0.350242 0.065427 0.291587 -0.135602 -0.153654 -0.387712 -0.107901 -0.108654 0.159482 0.108845 -0.019044 0.532817 -0.131440 -0.194854 -0.007611 
server -0.011133 0.021819 0.232333 0.341686 -0.072008 -1.013370 0.194357 0.237772 -0.127310 0.214739 -0.201594 0.301965 -0.381889 -0.098840 -0.563193 -0.063256 0.495754 0.137889 0.005916 0.053269 
word 0.202668 -0.116649 0.311626 0.062109 0.012633 -0.160004 0.106408 0.213881 -0.287069 0.079438 -0.264874 -0.070108 -0.163009 0.145035 -0.111056 0.154495 0.105715 0.026105 0.030690 -0.145089 
perhaps 0.241592 -0.154137 0.315818 -0.324774 0.049890 0.133525 0.017200 0.335802 -0.338606 -0.039868 -0.255990 -0.167512 0.032358 -0.275716 0.200750 0.146506 0.422413 -0.023099 -0.311434 -0.206983 
mhz -0.412768 0.006633 -0.743802 0.472645 -0.146883 -0.322601 -0.097129 0.393504 -1.074717 -0.478099 -0.267475 0.860617 -0.045574 -0.615839 -0.570408 -0.558902 0.249054 -0.620428 0.721479 0.020441 
money 0.122196 -0.001510 -0.029505 0.162602 -0.317318 0.358152 -0.103985 -0.008359 -0.317902 -0.572667 -0.140084 0.170794 0.264412 -0.048305 0.194707 0.113437 0.482354 -0.033283 -0.293197 -0.262257 
her 0.300923 -0.496868 -0.194603 -0.024347 -0.043345 0.816349 0.141581 0.071367 -0.422723 -0.001724 -0.727552 -0.059449 0.114611 0.104823 0.233860 -0.128542 0.310975 0.027852 -0.392610 0.024955 
format 0.039634 0.361179 0.027563 0.283663 -0.032985 -1.142978 -0.021869 0.357569 0.109288 -0.125850 0.131091 0.004831 -0.345057 -0.437417 -0.426849 -0.332972 0.426919 -0.162044 -0.283091 -0.194631 
scott -0.100949 -0.182219 0.097502 -0.289824 0.192536 -0.169252 -0.335834 0.191352 0.334674 0.016746 0.173896 0.251504 -0.213197 0.158231 0.524431 -0.427627 -0.107807 -0.305466 -0.081237 0.215212 
ask 0.338919 0.029391 0.124259 -0.240757 -0.122006 -0.041837 0.091038 -0.208557 -0.220437 0.002524 -0.306191 -0.107676 0.014207 -0.250044 0.225715 -0.155997 0.267132 0.161926 -0.384111 -0.029691 
center 0.170582 0.408894 0.149728 0.379654 -0.145819 0.555907 -0.504516 -0.112075 -0.068220 -0.215283 0.754050 0.416613 -0.048617 0.715745 0.730520 -0.255630 -0.530336 0.500651 -0.392098 0.508556 
less -0.128724 -0.001100 -0.167181 0.618903 -0.136270 0.418879 0.106933 0.173385 -0.124776 -0.549886 -0.143420 0.205732 0.252509 -0.316323 0.097057 0.338983 0.607036 -0.143054 -0.566797 -0.060663 
three 0.017710 -0.082885 -0.279444 0.399058 0.007308 0.236839 -0.088676 0.366704 -0.375355 0.280727 -0.294689 -0.081551 -0.226081 0.170335 0.390676 0.003093 -0.017586 -0.219136 -0.393625 0.029310 
whether 0.251056 -0.122341 0.232026 -0.039349 0.063215 -0.158080 0.066201 0.025628 -0.498797 -0.069782 -0.304316 -0.077643 0.007231 -0.101253 0.021775 -0.068519 0.009560 -0.014162 -0.300799 -0.181260 
sound 0.129569 -0.157214 -0.033184 0.089104 0.059437 -0.517286 0.130187 0.146480 -0.106978 -0.199937 -0.215525 -0.258499 -0.244529 -0.369851 -0.026851 -0.013507 0.210239 -0.075849 -0.151621 0.124150 
reply 0.198997 -0.084008 -0.070086 -0.184868 0.243320 -0.571122 -0.720041 -0.066010 0.747828 -0.325910 -0.006351 0.285405 -0.118536 0.025845 0.051264 -1.089491 0.309298 0.867463 -0.576261 -0.319551 
oh 0.173917 0.101578 0.299020 -0.287235 -0.133833 0.269498 -0.158547 0.006524 -0.126821 -0.195935 -0.110254 0.081228 0.233602 0.101367 0.404502 -0.136042 0.040758 -0.054820 -0.100828 0.160731 
white -0.406896 -0.248168 0.576888 0.417358 -0.021071 -0.055914 -0.333173 0.195178 -0.379516 0.169868 -0.031280 -0.067849 0.434445 0.541716 0.360493 0.063813 -0.102214 0.193315 0.465131 -0.286137 
tom -0.103305 -0.073089 0.227070 -0.012036 0.318984 -0.370965 -0.032196 0.099206 0.027280 -0.118696 0.501096 0.204322 -0.045233 0.135354 0.406803 -0.228203 -0.076898 -0.208752 -0.012910 0.021320 
ie 0.086851 -0.089116 -0.051511 0.094598 0.050303 -0.368876 0.071217 0.224810 -0.356988 -0.130898 -0.248558 0.088173 -0.226081 -0.341138 -0.143497 0.035236 0.508716 0.056426 0.064867 -0.070674 
given 0.153226 -0.241879 0.009723 0.173658 -0.020003 0.022437 0.259998 0.195226 -0.340059 -0.159527 -0.183411 0.051704 -0.064912 -0.108483 0.143168 0.055277 0.170166 0.340026 -0.183142 -0.115617 
thomas -0.141330 -0.059247 0.301285 -0.028964 0.382949 -0.384335 -0.026271 0.162965 0.300642 -0.192989 0.212732 0.227179 -0.353259 0.017018 0.270775 -0.237308 -0.293628 -0.062386 0.212670 0.271030 
baseball -0.252441 -0.273446 0.329012 -0.143889 -0.132852 0.464066 -0.407119 0.256181 0.560950 0.561205 -0.402620 0.418193 -0.388504 0.019594 1.021118 0.081288 0.531725 -0.525495 -0.056486 0.398212 
others 0.190775 0.202450 0.139347 0.148711 -0.083914 0.286830 0.068291 0.032506 -0.119014 -0.048942 -0.284822 -0.069043 0.081283 -0.199984 0.311237 0.180150 0.313999 0.051636 -0.522496 -0.133673 
thank 0.291226 -0.050435 -0.000264 -0.179516 -0.091075 -0.182182 -0.255394 -0.280483 0.426534 -0.380298 0.040499 0.438188 0.011273 0.209457 0.131042 -0.866100 0.435059 0.475342 -0.432140 -0.291766 
original 0.010124 -0.058039 -0.104553 0.161192 0.296142 -0.175153 -0.121133 0.286779 -0.044884 -0.063566 -0.335723 0.199571 -0.023519 -0.326919 0.213219 0.173423 0.122588 0.024745 0.004855 0.282630 
based -0.220415 -0.156592 -0.003887 0.367803 0.035959 -0.210209 -0.073594 0.356866 -0.238048 -0.082470 -0.035520 0.224188 -0.116631 -0.091920 0.088088 0.074116 0.032792 0.003232 -0.290795 0.020675 
company 0.022641 0.075209 -0.163115 0.158463 0.075502 0.233718 -0.283103 0.080084 -0.294467 -0.229976 0.425266 -0.242843 -0.365554 -0.000544 0.287573 -0.390796 0.283622 0.283168 -0.020774 0.266547 
nice 0.049146 -0.182007 0.194066 -0.077257 -0.036655 -0.077142 0.128053 0.169083 -0.199396 -0.231623 -0.312788 0.012430 0.129486 -0.253466 -0.189194 -0.066245 0.365375 -0.138889 -0.139718 0.117347 
th -0.169691 0.010020 0.154397 0.150470 0.253210 0.587007 -0.544166 0.310000 0.140099 0.252335 -0.112129 0.134105 -0.288540 0.477953 0.448439 0.235722 0.114709 0.199790 -0.342547 0.707242 
via 0.238672 0.194225 -0.069896 -0.013958 0.287865 -0.757098 -0.640941 -0.097610 0.409305 0.022426 0.243150 0.112369 -0.210159 -0.000395 -0.061265 -0.962283 0.609913 0.864780 -0.240393 -0.210311 
hello -0.334240 -0.128009 0.243168 0.042221 0.199799 -0.916558 -0.017392 0.105983 -0.069941 0.094427 -0.139992 0.079852 -0.768277 -0.005895 0.074520 -0.320971 -0.329749 -0.434096 -0.078574 0.016226 
posting 0.237812 -0.051729 0.415237 -0.143602 -0.157562 -0.159408 -0.200706 0.199309 -0.003183 -0.077043 -0.196511 -0.178813 -0.012501 0.182976 0.266816 -0.473099 -0.064416 0.013948 -0.259806 0.054071 
wont 0.192740 0.034989 0.286531 0.031908 -0.159630 -0.121540 0.315016 -0.042233 -0.345741 -0.084972 -0.046282 0.063085 0.105933 -0.292545 -0.032877 0.026276 0.364790 0.050619 -0.101653 -0.057180 
mode -0.052645 -0.183564 -0.070868 0.565107 0.179981 -0.936511 -0.003678 0.276682 -0.210209 -0.110923 -0.184955 0.263074 -0.171632 -0.095722 -0.735055 0.061219 0.411025 -0.178900 0.280226 0.096560 
error 0.279581 -0.266282 0.245989 0.432335 -0.269697 -0.617316 0.049231 0.105517 -0.296643 0.015694 -0.161427 -0.083807 -0.428382 -0.064859 -0.198360 0.008654 0.135728 0.146796 0.149509 0.051651 
comes 0.157065 -0.059941 -0.100084 0.251013 -0.094265 -0.353612 -0.094976 0.147256 -0.238508 -0.016477 -0.490772 0.125188 -0.335132 -0.087028 -0.158011 -0.018833 0.010477 -0.119335 0.018068 0.040840 
cannot 0.131790 -0.002640 0.288706 0.155190 -0.002496 -0.086153 0.237129 0.049064 -0.374202 -0.098475 -0.551158 -0.023630 -0.031342 -0.268754 0.208676 0.291478 0.306165 0.151410 -0.016462 -0.039526 
bob -0.237057 -0.176351 0.233170 -0.315279 0.063986 -0.025455 -0.373730 -0.002449 0.297023 -0.049843 0.274806 0.121824 0.112746 0.082727 0.513249 -0.303342 0.281281 -0.100073 0.022279 0.199314 
guess 0.026286 -0.199979 0.119899 -0.099151 -0.206172 0.088321 0.025285 0.200597 -0.325815 -0.189278 -0.147217 -0.080657 -0.020909 -0.258287 0.051480 -0.005040 0.348911 -0.012132 -0.134423 -0.200674 
recently -0.258929 -0.246950 -0.038995 0.406294 0.210160 -0.333723 0.024067 0.175249 -0.382397 0.138021 -0.222420 -0.412002 -0.280203 0.198322 0.348889 -0.161491 -0.211055 -0.357850 -0.230956 0.095725 
told -0.126532 -0.206725 -0.094078 0.232094 -0.061161 0.089255 -0.012719 -0.068050 -0.104676 0.125783 -0.746092 -0.125630 0.075412 -0.099116 0.246590 0.027149 -0.063773 -0.070984 -0.436419 -0.080178 
chris -0.077474 -0.118112 0.088643 -0.113677 0.278562 -0.465541 -0.130267 0.223123 0.257833 -0.057909 0.000652 0.230664 -0.142816 0.110735 0.527041 -0.169501 -0.196660 -0.135503 -0.073954 0.153985 
couple -0.100589 -0.010306 -0.154101 0.093837 -0.161649 0.059822 0.166201 0.444262 -0.387362 0.182943 -0.282765 -0.271043 -0.052760 0.100296 0.085667 0.106392 0.128458 -0.266878 -0.526646 0.228053 
fine -0.089965 -0.238129 -0.034516 0.614385 0.129715 -0.538453 -0.128766 0.203996 -0.294968 -0.055274 -0.235012 0.313979 -0.075574 -0.013394 -0.426826 0.016911 0.269189 -0.050926 -0.065506 0.085498 
jesus 0.343167 -0.006215 0.035400 -0.699399 0.012396 0.405860 0.276343 0.369932 -0.222205 -0.453047 -1.071327 -0.106935 -0.074873 0.059235 0.758376 0.250785 -0.045090 0.210196 -0.268489 -0.038990 
until 0.233367 -0.115402 0.146564 0.179853 -0.011610 0.196545 0.081323 0.288333 -0.230051 0.144973 -0.469398 -0.083804 0.147105 -0.046777 0.146976 0.168395 0.538535 0.181551 -0.118343 0.286791 
department -0.205877 0.717358 -0.195461 0.549067 0.002306 0.179837 -0.805438 -0.024063 -0.286098 -0.297572 0.782435 0.503495 -0.209816 0.968948 0.531983 -0.403449 -0.414599 0.837004 -0.322935 0.745791 
large 0.062806 0.087348 -0.019503 0.545731 0.018327 0.050294 -0.100318 0.314276 -0.257724 0.014500 -0.318000 0.142795 0.023733 0.065030 0.108434 0.241749 0.132576 0.162939 0.033391 -0.198900 
scsi -0.008057 -0.313552 -0.302023 0.555911 0.292943 -0.708418 -0.536224 0.103592 -0.414760 -0.567347 -0.148416 0.288365 -0.593643 -0.305267 -0.362089 -0.237106 0.069183 -0.560172 0.696339 0.109495 
example 0.013420 -0.108874 0.317404 0.058435 -0.061672 -0.109255 0.289029 0.330588 -0.285262 0.007695 -0.140482 -0.067279 0.029018 -0.144327 0.112217 0.067992 0.231706 0.336418 -0.369995 -0.147121 
keith -0.129597 -0.710956 -0.036090 -0.932536 0.326626 -0.760819 -0.238738 0.587450 0.153846 0.899725 -0.236363 0.006479 0.551320 0.058691 0.582985 0.295061 -0.173961 -0.020584 0.467347 0.520959 
top -0.208198 -0.269183 0.195185 0.288079 -0.093668 0.031896 -0.026042 0.293026 -0.286994 0.263439 -0.183410 0.125802 -0.436109 -0.011660 0.047629 0.203554 0.175929 -0.213298 -0.126178 0.259651 
richard -0.100305 -0.026351 0.128326 -0.325598 0.162049 -0.437600 0.165436 0.144325 0.208141 -0.145456 0.103117 0.288625 -0.216389 0.223825 0.319364 -0.182142 -0.153439 -0.022372 0.082266 0.231698 
working -0.144619 -0.144544 0.080858 0.314075 -0.200815 -0.381342 -0.166465 0.165301 -0.154686 -0.238249 -0.084345 0.118055 -0.206459 0.096690 -0.189002 -0.063851 0.109345 0.095185 -0.354770 -0.210470 
general 0.130671 0.022306 -0.193844 0.306420 -0.032182 0.019460 -0.158719 0.177324 -0.151324 -0.185533 0.145891 0.005771 0.109816 -0.118598 0.323971 -0.019623 0.053158 0.485667 -0.166514 0.178806 
love 0.052905 -0.028706 0.302674 -0.251704 -0.090208 0.353941 0.086243 0.045846 -0.142528 -0.137457 -0.173135 -0.131784 0.132424 -0.036222 0.279867 -0.183120 0.298633 -0.009426 -0.547974 0.012844 
reading -0.211575 -0.125673 0.022813 -0.010436 0.111506 -0.128517 0.282132 0.363315 -0.087111 -0.341960 -0.292906 -0.020239 -0.006361 0.125552 0.289546 -0.096137 -0.003558 -0.098183 -0.410968 0.004833 
house -0.234504 -0.219191 0.568157 0.264816 0.052169 0.034290 -0.454146 0.211646 -0.299763 0.173298 0.085773 -0.300719 0.830959 0.459890 0.712165 -0.207674 0.001862 0.422438 0.511363 -0.266461 
andrew -0.061205 -0.114388 0.175621 -0.261364 0.014602 -0.434327 0.034736 0.188725 0.089596 -0.033948 0.380805 0.367166 0.102327 0.021455 0.622222 -0.325305 -0.247164 -0.102868 0.059445 -0.027956 
programs -0.487101 0.693572 0.032831 0.683070 -0.351853 -0.638051 -0.050489 -0.086991 0.122873 -0.442936 0.456312 0.155024 -0.181959 -0.124354 0.059314 -0.222170 0.211857 0.520648 -0.215634 0.383858 
correct 0.052644 -0.206188 0.238557 0.007175 -0.095325 -0.318272 -0.127362 0.052360 -0.228507 -0.117764 -0.402540 0.045924 -0.127199 -0.296684 -0.107620 -0.073579 0.123448 0.021124 -0.287762 0.102646 
cd -0.032165 0.052663 -0.390624 0.516138 0.545594 -0.909348 -0.492176 0.169146 -0.155408 -0.409979 -0.112564 0.030381 -0.494188 -0.308854 -0.060984 -0.304249 -0.194255 -0.253866 0.621216 0.215392 
during 0.270547 -0.012422 -0.264561 0.296875 -0.097254 0.219741 0.059030 0.310876 -0.354757 0.288440 -0.343302 0.116652 -0.013993 0.220676 0.459215 0.275481 -0.007076 -0.016015 -0.471170 0.131513 
anyway 0.366729 0.025561 0.079755 0.113894 0.032324 -0.006324 -0.096273 0.099314 -0.161113 -0.241364 -0.252279 0.064239 0.081576 -0.189937 0.066398 -0.075766 0.213406 -0.027189 -0.394451 -0.021885 
ok 0.114556 -0.012826 0.294662 -0.167158 0.199869 0.020156 -0.042328 0.189564 -0.024274 -0.086114 -0.154263 0.132365 -0.105021 -0.099828 0.051030 -0.099598 0.262665 -0.045686 -0.314502 0.015272 
voice -0.314234 0.548633 0.202310 0.275875 0.014561 -0.104295 -0.713606 -0.289310 -0.156485 -0.224401 0.757429 0.380206 -0.141076 0.669820 0.336876 -0.786978 0.285577 0.873818 0.222865 0.519941 
cost -0.110667 0.300133 -0.231696 0.362335 -0.187551 -0.010048 0.009840 0.154595 -0.239640 -0.335835 0.161667 0.163298 0.258648 -0.224177 0.028230 -0.024605 0.448078 0.060489 -0.178833 -0.155356 
havent -0.167345 0.060939 0.191087 0.397687 0.156782 -0.072050 0.405680 0.063178 -0.122685 -0.037891 -0.623651 -0.303869 -0.041276 -0.049291 0.002053 -0.108408 0.148753 -0.091861 -0.588604 -0.230938 
care 0.034535 -0.518603 -0.144641 0.310301 0.315564 0.239403 0.184064 -0.044293 -0.504934 -0.160370 0.010702 -0.610729 0.246467 -0.167623 0.863771 -0.068542 -0.345711 0.296363 -0.372065 -0.337133 
whats -0.100131 -0.019804 0.132387 0.010090 0.124150 -0.170499 0.058002 0.092060 -0.270514 -0.140876 -0.156731 -0.110352 0.027254 0.029997 0.277193 -0.240313 -0.176908 -0.168664 -0.177056 0.008423 
needed -0.154195 -0.256594 -0.048859 -0.102568 0.103493 -0.723328 -0.035436 0.125449 -0.046687 -0.174741 -0.003957 0.064107 -0.365201 0.102437 0.089204 -0.175572 -0.076678 -0.131548 -0.054251 -0.104793 
black -0.078620 -0.084954 0.175371 0.138475 -0.002614 -0.054139 -0.275887 0.239498 -0.349796 0.198918 -0.307537 -0.247531 0.160954 0.305726 0.235531 0.114206 0.119036 -0.009300 0.089745 0.205271 
everyone 0.211640 0.002920 0.388415 -0.324873 0.217368 0.112838 0.130848 -0.180728 -0.230791 -0.077256 -0.520567 -0.077638 -0.168092 -0.050650 0.275179 -0.098405 0.124957 -0.064100 -0.154023 -0.161004 
ii -0.382062 -0.456599 -0.135617 0.408731 0.529417 -0.560605 -0.324309 0.049531 -0.166416 0.194427 0.089323 0.343530 -0.483268 0.104399 0.394969 0.104192 -0.069363 -0.283943 0.473883 0.347859 
wouldnt 0.235038 -0.179983 0.454727 -0.021827 0.103779 0.322347 -0.017815 0.281680 -0.442414 -0.310987 -0.473589 0.061114 0.252120 -0.245158 0.078670 0.443766 0.220723 0.199550 0.005631 -0.065213 
fast -0.027613 0.045770 0.021609 0.262841 -0.048492 -0.208504 -0.177399 0.361601 -0.368948 -0.244482 -0.456453 0.345462 0.236485 -0.238270 -0.284981 0.162099 0.070242 -0.226079 0.098995 0.083063 
note -0.047242 0.002445 0.068633 0.156376 -0.037166 -0.179684 -0.132671 -0.039171 -0.114813 -0.260200 -0.119409 -0.073335 0.038686 -0.099256 0.162593 -0.228728 0.059411 0.109404 -0.052261 0.160157 
pat 0.217152 -0.152932 0.146058 -0.071684 0.428450 -0.077130 0.173098 0.527603 0.001159 -0.014655 0.643408 0.388021 0.365487 0.235479 0.447490 0.262799 -0.062800 -0.256080 -0.408324 -0.043777 
understand 0.208558 0.116180 0.344739 -0.119699 -0.115108 -0.006021 0.161525 -0.012243 -0.370540 -0.236400 -0.140287 -0.029489 -0.030687 -0.251428 0.180139 0.272539 0.088206 -0.049561 -0.194532 0.037612 
lines -0.155685 0.052467 0.153088 0.328851 -0.016386 -0.382080 -0.126136 0.247642 -0.428716 -0.093783 0.024641 0.150668 -0.131306 0.004162 -0.124646 -0.013379 0.149970 0.058131 -0.213281 0.007202 
instead 0.176153 -0.123272 -0.020492 0.107253 -0.132323 -0.277490 -0.018963 0.056868 -0.225025 -0.069694 -0.001910 0.073826 -0.238126 -0.061560 -0.051188 -0.112575 0.513154 0.167068 0.151753 -0.003532 
clinton 0.100759 -0.388243 0.409514 -0.074063 -0.259422 0.357325 -0.001581 0.098225 -0.204083 -0.058703 -0.172742 -0.077129 0.428077 0.562265 0.954339 0.061671 -0.350970 0.213871 -0.049900 -0.099116 
similar -0.042624 -0.119618 0.084956 0.197628 -0.010180 -0.272817 0.080498 0.124702 -0.197255 -0.052523 -0.135963 -0.013598 -0.112343 0.050748 -0.011112 -0.066689 0.190864 -0.056164 -0.354477 -0.039987 
making -0.054911 -0.033412 0.173939 0.117782 -0.074761 0.036565 0.182839 0.186627 -0.439387 -0.047891 -0.321184 0.061544 0.002522 -0.033077 0.354382 0.266566 0.224020 0.014432 -0.163391 -0.154868 
printer -0.311336 -0.187510 -0.148829 0.318502 0.376603 -1.171830 -0.087218 -0.024222 -0.051336 -0.196181 -0.178069 -0.010654 -0.882977 0.006925 -0.507312 -0.268796 0.230793 -0.159779 -0.006553 0.037052 
full -0.114451 -0.098101 -0.130303 0.597603 0.013751 -0.232258 -0.100008 0.301906 -0.325884 0.029873 -0.084425 -0.016789 0.001860 0.025853 -0.234361 0.000874 0.289242 0.077698 -0.150991 0.084978 
area 0.000455 -0.032546 -0.065238 0.293529 -0.008098 0.231796 -0.219932 0.219066 -0.348512 0.018059 0.066679 -0.113846 -0.156489 0.110344 0.050980 -0.126796 0.279733 0.205579 -0.359433 0.040234 
show 0.318264 0.017847 -0.045448 0.144781 0.080991 0.104494 0.178460 -0.013868 -0.317511 0.092325 -0.346088 0.185199 -0.102742 -0.092124 0.160894 0.203937 0.363382 0.075698 -0.118280 0.032019 
jon -0.406168 -0.455112 0.199519 -1.113973 0.502061 -0.635783 -0.189680 0.621760 -0.062481 0.203684 0.041444 0.117848 0.660822 0.230499 0.548486 0.246343 -0.132404 0.279147 0.463176 0.297646 
appreciate -0.007416 -0.323566 0.113633 -0.248546 0.227156 -0.383299 -0.036703 -0.400621 0.024004 -0.099200 0.097184 0.040457 -0.237125 0.196902 -0.204364 -0.787420 0.531940 0.493029 -0.778232 -0.223550 
came 0.039145 -0.105894 0.082183 0.275471 0.083731 -0.018940 -0.204834 0.320519 -0.130814 0.058322 -0.577611 -0.245121 -0.115447 0.078918 -0.056934 0.034397 0.112357 -0.008900 -0.135258 0.433177 
team 0.186145 -0.300364 0.393412 0.042558 0.238567 0.706586 -0.177994 0.342357 0.317504 0.150480 -0.299446 0.062310 -0.035382 0.291074 0.545468 0.216564 0.431400 -0.174667 -0.385940 0.312530 
friend -0.185143 -0.299652 0.143788 0.077706 -0.080003 -0.197483 -0.514889 0.144363 -0.412894 0.245649 -0.133710 -0.056621 -0.233700 0.255751 0.161086 -0.233937 -0.106540 -0.552642 0.038297 -0.210881 
everything 0.183637 -0.089866 0.158323 0.100969 -0.037890 -0.108998 0.224193 0.072050 -0.334292 -0.164417 -0.489208 0.001179 -0.080409 -0.102248 0.053439 -0.138673 0.346541 -0.092122 -0.053446 -0.049738 
apr -0.834332 -0.125729 0.349965 -0.275893 0.644305 -0.528301 0.096604 0.378266 0.498483 -0.356122 -0.141765 0.441302 -0.542611 0.310891 0.755419 0.104325 -0.561301 -0.177147 0.284254 0.117006 
os -0.355969 -0.050948 0.255167 0.370649 0.052617 -0.636100 -0.034493 0.240070 0.011519 -0.027181 0.115358 0.365424 -0.176789 -0.111244 -0.460435 -0.102248 0.236735 -0.319155 -0.107362 0.057509 
matter 0.190967 -0.090838 0.186606 -0.109390 -0.089997 0.130202 0.113892 0.090518 -0.236371 -0.109377 -0.281354 0.063720 0.153181 -0.058032 0.266545 0.150133 0.173659 -0.123625 -0.264953 -0.004586 
simple -0.020432 0.206871 0.164570 0.120663 -0.161229 -0.398699 0.070308 0.041860 -0.353247 0.006509 -0.163261 0.218684 -0.203380 -0.106968 0.044130 -0.026678 0.222649 0.028670 -0.193526 0.086834 
inc -0.198914 0.378420 0.050719 0.329180 0.053392 -0.321947 -0.494563 -0.184809 -0.154387 -0.273077 0.856948 0.186734 -0.220587 0.588938 0.413988 -0.535873 0.027248 0.574593 0.057411 0.405524 
cars 0.013040 0.297992 -0.166963 0.541027 -0.221780 0.334056 0.041019 0.170230 -0.466404 -0.014197 -0.189964 0.013423 -0.031932 -0.100491 0.168827 0.054294 0.452133 -0.210853 -0.511948 -0.243408 
st -0.339369 0.374021 0.231481 0.274169 -0.031414 0.349890 -0.573480 0.223512 0.257414 0.149512 0.027275 0.031513 0.000113 0.633589 0.526260 -0.022864 0.234972 0.350126 0.108852 0.580833 
package -0.187312 0.047545 0.091628 0.442487 -0.070455 -0.643491 -0.109482 0.176280 0.173386 -0.006373 0.124007 0.069069 -0.362287 0.048414 -0.258808 -0.026694 0.153793 0.067057 -0.249341 -0.092068 
model -0.412393 -0.086046 0.201138 0.685953 0.076391 -0.358776 -0.088401 0.159532 -0.276838 -0.316363 0.064272 -0.215403 -0.242205 -0.117260 -0.159062 0.073539 0.327642 -0.147434 0.024361 0.030372 
hell 0.204966 0.113683 0.257159 -0.394210 -0.158038 0.268884 0.037129 0.215331 -0.195939 -0.011115 -0.529562 -0.134931 0.164597 -0.127666 0.586544 0.217729 -0.048923 -0.158967 -0.126113 0.318727 
national -0.091203 0.127823 -0.049867 0.245556 0.121608 0.177208 -0.359828 0.052537 -0.102566 0.179009 0.468664 0.124190 -0.024960 0.358012 0.703299 -0.148742 0.035412 0.276605 -0.256279 0.341838 
ibm -0.099561 0.032768 -0.134586 0.413545 0.107685 -0.674721 -0.329454 0.132189 0.026441 0.035724 0.050587 0.140149 -0.330775 -0.138622 -0.120349 -0.217350 0.209504 -0.067170 0.412313 0.332937 
low -0.008951 0.194024 -0.183460 0.452253 -0.090311 0.028114 -0.003724 0.287217 -0.429930 -0.215811 -0.171440 0.146954 -0.087425 -0.167587 -0.121252 0.103018 0.278174 -0.066636 -0.065140 0.022119 
evidence 0.261658 -0.155466 0.172542 0.053622 -0.031543 0.470281 0.076904 0.070272 -0.192347 -0.222557 -0.304290 -0.082619 0.081396 -0.144596 0.481543 0.302606 -0.027422 0.097108 -0.221808 0.076535 
jews 0.067383 0.533022 0.141198 -0.332957 0.291542 0.569368 0.414914 0.521922 -0.181554 -0.272891 -0.556192 -0.053215 0.457314 0.075447 0.739783 0.551209 0.028254 -0.483179 -0.188704 -0.068816 
ca -0.387443 0.644207 0.041244 0.095471 -0.039593 -0.054214 -0.499262 -0.028895 -0.012925 0.008638 0.935602 0.081641 -0.367542 0.627264 0.471534 -0.443215 0.088930 0.580200 0.038763 0.802303 
difference 0.038108 0.218082 -0.031107 0.086853 -0.117171 -0.007582 0.137035 0.156174 -0.887516 -0.454250 -0.014232 0.364439 0.210598 -0.090843 0.373142 -0.297062 -0.060869 -0.471867 0.237628 -0.484891 
text -0.013563 -0.089750 0.434259 0.416591 -0.107193 -0.784688 -0.143230 0.164748 -0.263950 0.156170 0.071050 0.020650 0.221265 -0.260426 0.067833 0.189988 0.381729 0.002036 0.330396 -0.342695 
private 0.037494 0.555035 0.124050 -0.425512 0.226275 0.329786 0.051887 0.457469 -0.723426 -0.837078 0.363489 0.078002 -0.040568 1.053499 -0.069456 0.092955 0.148182 1.123723 0.522329 -0.651733 
drives 0.080007 0.026862 -0.266410 0.482661 0.079525 -0.414484 -0.332284 0.344479 -0.533087 -0.422292 -0.289600 -0.211219 -0.405330 -0.107791 -0.193748 0.002256 -0.184645 -0.274536 0.738939 0.166665 
waco 0.073617 -0.400158 0.233687 -0.012393 0.405948 0.593544 0.211546 0.438483 -0.031919 0.012932 -0.145397 0.184509 -0.011223 0.334505 0.935518 -0.031838 -0.333104 -0.019879 -0.101084 -0.010052 
side 0.183878 -0.136996 0.117496 0.081574 -0.034361 0.094539 0.178284 0.361090 -0.331968 0.103112 -0.308158 0.080149 -0.075792 0.112187 0.133286 0.091456 0.265919 0.051195 0.054978 -0.000999 
check 0.176276 0.177732 0.125823 0.022391 -0.143232 -0.139566 -0.146647 0.109672 -0.168397 -0.078349 -0.301923 -0.081182 -0.167183 -0.235622 -0.098870 -0.212314 0.495733 0.187400 -0.087113 0.012211 
tim -0.204170 0.294483 0.104008 -0.103515 -0.049332 -0.049794 -0.039833 0.299684 -0.024765 0.087993 0.385024 0.820837 -0.167739 0.079918 0.754172 -0.463882 -0.182786 -0.202513 0.298750 0.270585 
gordon -0.059916 0.324559 -0.587542 -0.265503 0.320028 -0.745821 1.778842 0.173605 0.362547 0.120282 0.339226 0.909373 0.057224 0.224626 0.294502 -0.210960 -0.044972 0.189141 0.164653 0.964303 
hardware -0.171562 0.119352 -0.183639 0.544441 -0.047029 -0.526287 -0.146330 0.035240 -0.219087 -0.316456 0.028745 0.209017 -0.195384 -0.277487 -0.106850 -0.148451 0.265889 0.028297 0.036393 -0.165980 
add 0.043408 -0.129634 -0.075073 0.101581 -0.130130 -0.216102 -0.308063 0.078099 -0.219765 -0.115019 -0.076438 0.005245 -0.148468 -0.265464 -0.015557 -0.253358 0.368194 0.079861 -0.055507 -0.060017 
hear 0.333177 -0.183961 -0.077287 -0.096026 -0.211377 0.121029 0.123277 -0.148003 -0.232461 -0.267664 -0.237957 0.032808 0.061035 -0.234836 0.123896 -0.060476 0.184898 -0.056450 -0.586019 -0.071884 
hes 0.108602 -0.340098 0.313894 -0.177361 -0.333348 0.359933 -0.316847 0.473328 -0.256085 -0.000333 -0.687704 -0.214448 -0.007323 0.185212 0.096582 0.325101 0.084170 -0.079871 -0.638443 0.289904 
mind 0.279938 -0.024125 0.183894 -0.042578 -0.014748 0.361346 -0.061036 0.050164 -0.322591 -0.090866 -0.149595 -0.027008 -0.006724 0.076114 0.244493 0.061347 0.129794 0.090841 -0.267913 0.139681 
eric -0.153510 0.006558 0.053464 -0.306519 0.335793 -0.469688 -0.255142 0.011506 0.205701 0.213517 0.031191 0.303542 -0.440399 0.222704 0.313201 -0.394890 0.087093 -0.255436 -0.052275 0.310844 
american -0.222311 0.110929 -0.009140 0.309571 -0.066143 0.752089 0.077982 0.388770 -0.081012 0.131830 0.066464 -0.361338 0.083290 0.340063 0.733489 -0.020547 0.146422 -0.013426 0.203941 0.118005 
lets -0.016536 -0.030272 0.450513 -0.112367 -0.217370 0.388702 -0.136218 0.092182 0.107513 0.214874 -0.425565 0.138896 0.099916 -0.075595 0.409566 0.085325 0.457715 -0.017909 0.077116 0.327754 
gun 0.311579 -0.139742 -0.002577 -0.022160 -0.008885 0.428156 -0.106438 0.004785 -0.314506 -0.164407 0.314954 -0.279324 -0.036450 -0.212993 0.517428 0.322832 0.365054 -0.293709 0.126034 -0.007479 
jewish -0.102490 -0.148864 -0.034117 -0.507290 -0.298094 0.359055 -0.251988 0.657559 0.207312 0.669783 -0.518739 0.165513 0.178361 -0.019435 1.120150 0.214558 0.438460 -0.327593 -0.120396 0.239904 
jeff -0.361668 -0.020826 0.282400 -0.085474 -0.080515 -0.012003 -0.339506 0.087126 0.009726 -0.090692 0.202175 0.046822 -0.026801 0.393366 0.435367 -0.114225 -0.054414 -0.008783 0.030982 0.070858 
hand -0.043834 -0.129523 -0.181210 0.167304 -0.008372 0.155977 -0.063390 0.249182 -0.424194 -0.157794 -0.334687 -0.118438 -0.186784 0.090560 0.016735 -0.082964 0.487330 0.051757 0.155857 -0.131346 
smith -0.151052 0.015071 0.081799 -0.360221 0.325220 -0.060570 -0.005957 0.377547 0.165844 -0.005007 0.173182 0.519445 -0.244093 0.034921 0.744170 0.172482 -0.441989 -0.354186 -0.229982 0.402341 
months -0.191547 -0.056389 -0.404279 0.291465 -0.186454 0.169757 0.210278 0.332872 -0.491171 0.307334 -0.393282 -0.205689 0.018307 0.413908 0.048297 0.406446 0.108655 -0.303724 -0.608192 0.214578 
earth 0.146506 0.234518 0.095367 -0.029930 -0.002852 0.066577 0.034714 0.180922 -0.216292 0.015281 -0.030845 -0.089585 0.059425 0.202668 0.280407 0.455425 -0.037184 0.096377 -0.542219 0.040203 
light 0.279539 -0.052786 -0.014319 0.137798 -0.105670 0.034130 -0.185543 0.161226 -0.549123 -0.081349 -0.183684 -0.069591 -0.281220 -0.143258 0.111184 0.186416 0.428010 -0.021120 0.002499 0.193500 
unix -0.174737 -0.017548 0.180806 0.282647 -0.192017 -0.970217 -0.113748 0.186915 0.161546 0.132348 0.260952 0.188282 -0.290152 0.001803 -0.220315 -0.334489 0.302407 0.048372 0.093616 -0.080901 
april -0.161871 0.054709 0.339523 0.135931 0.113906 0.404775 -0.429906 0.116235 0.267968 0.080366 0.145169 0.005754 -0.147158 0.429776 0.745750 0.154691 0.249152 0.282665 -0.266041 0.279843 
faq 0.070854 0.028360 0.374939 -0.390152 0.131791 -0.517281 0.006850 0.065090 0.071181 -0.081690 -0.078066 -0.054967 -0.338823 -0.135241 0.051517 -0.383007 0.079726 0.035360 -0.414679 -0.113054 
guy 0.244023 -0.212622 0.096517 -0.072555 0.253215 0.200270 -0.319517 0.192791 -0.214036 0.017845 -0.464180 0.002074 0.206529 0.128808 0.076671 -0.113624 0.049557 -0.239884 -0.402684 0.222789 
ps 0.058822 -0.031634 0.179684 -0.020419 -0.008671 -0.525895 -0.123873 -0.013786 0.061767 -0.322961 -0.024011 0.128501 -0.109950 0.082976 -0.070057 -0.510450 0.278379 0.271855 -0.071587 -0.027595 
sort -0.017973 0.006860 0.021546 0.097711 0.002519 0.019261 0.230868 0.235258 -0.400437 -0.139185 -0.325877 -0.026434 0.079349 -0.135307 0.040638 -0.126780 0.269868 -0.010352 -0.367759 0.048171 
looks 0.044588 -0.132653 0.105937 0.110284 -0.048613 -0.128137 -0.085624 0.277728 -0.280826 -0.106615 -0.275015 0.032706 -0.125439 -0.215567 -0.423587 0.079951 0.137457 0.089901 -0.126299 0.208252 
frank -0.225508 -0.173596 0.336906 -0.653257 0.312648 -0.024199 -0.233392 0.329806 0.139198 0.074930 -0.167193 0.308616 -0.247041 -0.030796 0.645285 0.163192 -0.378293 -0.393787 0.007297 0.381256 
engineering -0.194664 0.482472 -0.206868 0.391044 0.090380 -0.090508 -0.605599 0.014985 -0.200042 -0.453064 0.538243 0.085529 -0.034049 0.769467 0.284388 -0.441341 -0.401642 0.690528 -0.050308 0.758295 
