715 20 
up -0.149666 0.165696 -0.015137 0.025605 0.298752 -0.062281 -0.140069 0.218220 0.101753 0.114940 0.172767 -0.030078 0.218643 0.029106 -0.014004 -0.166252 -0.006448 0.029472 -0.199939 0.056455 
people 0.517248 -0.101619 0.371825 -0.120839 0.174314 0.283600 -0.354232 -0.508174 0.247254 0.306936 -0.090267 -0.039270 0.137695 0.210319 -0.137425 -0.255168 -0.302602 -0.015768 -0.011616 -0.000722 
time -0.179319 -0.039860 0.121468 -0.289537 0.359625 -0.037969 0.029311 -0.170341 -0.010750 0.677237 0.141972 -0.067773 0.241866 0.041050 -0.238377 -0.092648 -0.318705 0.574568 0.009740 -0.153123 
well -0.282381 -0.332896 0.041693 -0.062645 0.313965 0.385257 0.000549 -0.073925 0.178729 -0.191344 -0.177207 0.072911 0.400971 -0.216276 0.099633 -0.152446 0.238952 0.269219 -0.172245 0.114085 
good -0.125587 0.002804 0.095467 -0.132305 0.084096 -0.005793 -0.251610 0.232731 -0.028325 0.017548 0.020839 -0.269783 0.067364 0.070560 0.364093 -0.049594 -0.280696 0.130401 -0.050436 0.019682 
new -0.023452 0.032852 -0.258662 0.107546 0.173064 -0.655115 -0.120910 0.409899 0.136155 -0.439535 0.438394 0.115929 0.398471 -0.061206 -0.098495 -0.518109 -0.034961 -0.019454 0.622307 0.481517 
these -0.008730 -0.135642 0.248120 -0.175451 -0.033846 -0.092117 -0.264752 -0.019216 0.020382 -0.110612 0.116937 -0.093017 0.033368 0.315617 0.205167 -0.161646 -0.146780 0.011671 -0.306243 0.013255 
because 0.221971 0.046666 0.171714 -0.064973 0.177429 0.067239 -0.028601 -0.426852 0.268699 0.149049 -0.007884 -0.070322 0.261706 -0.024339 -0.086215 -0.147669 -0.285543 0.222192 -0.104060 -0.091278 
even 0.042636 0.209251 0.164733 -0.110182 0.086870 0.035623 -0.190161 -0.006790 0.089308 0.020761 -0.158027 -0.154307 0.027239 -0.150809 0.162333 -0.116889 -0.136725 0.085953 -0.109671 -0.044085 
see -0.143680 0.257913 0.345551 0.030033 0.234502 -0.017988 -0.076200 -0.284727 0.116450 0.430649 0.064198 -0.068222 0.065545 0.236539 -0.023182 -0.014395 -0.047929 0.083254 0.020890 0.098745 
use -0.205808 -0.074371 0.060837 0.124820 0.176226 0.204375 -0.182555 -0.106948 0.209447 0.227018 -0.337996 -0.132023 0.229636 -0.133652 -0.082675 -0.143330 -0.215085 0.487914 -0.075783 0.218791 
much 0.041825 -0.312118 0.210436 -0.134806 0.506766 0.054151 -0.168603 0.095189 0.212063 0.226585 -0.281388 -0.061767 -0.222375 0.261631 0.120871 -0.419183 0.039866 0.233026 -0.308613 0.030876 
many -0.039183 -0.059023 0.251582 0.026425 0.162909 0.182767 0.018246 -0.306961 0.264463 0.218594 0.195659 -0.134436 0.297727 0.069377 0.060830 -0.273811 -0.188611 -0.140457 -0.058906 0.125304 
should -0.054776 -0.127195 0.144671 -0.277445 0.199439 -0.115860 0.057082 -0.084251 0.015380 0.176323 -0.122445 -0.144969 0.201888 -0.181905 0.124688 -0.080870 -0.294832 0.391829 -0.235886 -0.112554 
make 0.244193 -0.232856 -0.132216 0.010454 0.143849 0.209460 -0.077994 -0.063412 0.089737 0.034663 -0.141789 -0.004272 0.298954 -0.055528 0.098313 -0.272492 -0.292044 0.108337 -0.423750 -0.105793 
way -0.110884 0.016753 0.322506 -0.247827 0.628525 0.034063 0.073612 -0.067848 0.017593 0.391467 -0.099345 -0.012355 0.134730 -0.004165 0.009875 -0.215141 0.012054 0.187057 -0.192808 -0.070667 
first -0.217510 0.288259 -0.253649 -0.121575 0.574849 -0.418519 0.146597 0.605773 0.322501 -0.325005 0.011115 0.133353 0.251855 0.386308 -0.122958 -0.519540 0.195083 -0.368331 0.353690 0.529706 
god -0.025424 -0.277507 0.910082 -0.450931 -0.145732 0.505962 0.262746 -1.230755 -0.272542 0.604154 -0.557754 0.085248 -0.205545 0.206245 -0.002542 -0.561474 -0.752962 0.160022 0.165148 -0.301214 
into 0.118792 -0.117568 0.357207 0.039710 0.143519 -0.182595 -0.136887 -0.002766 -0.048645 0.112288 -0.126090 0.122967 0.158581 -0.337610 0.036410 0.011607 -0.091881 0.304200 -0.230296 -0.021621 
windows 0.166648 -0.337339 0.126666 0.387684 0.355614 -0.147700 0.123630 0.782004 -0.289610 -0.315289 -0.108066 -0.014600 0.609292 -0.222280 -0.496257 0.343359 -0.306500 0.635715 -0.379348 0.146746 
say 0.021707 -0.198952 0.532894 -0.413726 0.249156 -0.003701 -0.003866 -0.562629 0.087226 -0.046839 -0.002187 0.031463 0.054684 0.238412 0.344630 -0.307145 -0.341269 -0.024439 0.160254 -0.120536 
over 0.031770 -0.300923 0.389415 0.103883 0.243141 0.023259 -0.238774 -0.036114 0.088108 -0.101900 0.114736 0.079661 0.319758 -0.209286 0.022755 -0.431785 -0.114614 0.036369 -0.262260 0.170706 
right 0.004538 -0.419525 -0.054970 0.072526 0.294827 0.058804 -0.021510 -0.089130 0.372236 -0.033778 0.016127 -0.266864 0.363507 -0.008940 0.087090 -0.073368 0.301914 0.039652 -0.156622 -0.230409 
go 0.124991 0.228998 0.529025 -0.154553 0.476536 0.232912 0.063247 -0.169102 0.018302 0.098029 -0.014368 -0.179289 0.312548 0.000751 0.257823 0.029476 0.160685 -0.072316 -0.373544 0.335021 
year 0.076474 0.450114 0.082257 -0.397333 0.544702 0.036449 -0.370044 -0.059372 -0.314308 0.121899 0.708064 0.030197 0.223597 0.266468 -0.079731 -0.501822 0.213163 -0.261284 -0.054493 0.205967 
same -0.098911 -0.054869 -0.125239 -0.047599 0.152490 0.206869 -0.095540 0.060816 0.115868 0.107288 -0.034467 0.216781 -0.072076 -0.129177 0.022456 -0.146397 -0.308784 0.099268 -0.279958 -0.115317 
being -0.176990 0.011496 0.306565 -0.291576 -0.001723 0.221099 -0.016707 -0.257139 0.134473 0.270136 -0.018620 0.076018 0.160232 0.275361 0.126827 -0.431443 -0.144380 -0.093823 -0.090646 0.062190 
two 0.013521 0.004514 0.115778 -0.101821 0.256433 0.014615 -0.057268 0.079614 -0.080839 0.066798 0.259729 0.028135 0.381238 0.089009 0.236996 -0.257569 0.154878 0.223372 0.001215 0.186291 
believe -0.160712 -0.220355 0.317846 -0.525589 0.025276 0.193921 -0.052354 -0.743156 -0.061642 0.308376 -0.011372 0.295439 0.113118 0.336140 0.380661 -0.144512 -0.449694 0.176282 -0.165947 -0.210392 
gun -0.044966 -0.419617 -0.137948 0.122430 0.562972 0.318446 -0.341683 -0.558583 0.346412 -0.105105 -0.455400 -0.367302 -0.441783 0.033760 -0.081512 -0.833966 0.322485 -0.323566 -0.568416 0.004199 
here -0.079646 -0.291744 0.082375 -0.067777 -0.079616 0.029777 0.017228 -0.082725 -0.062116 -0.144572 -0.047068 -0.050881 0.190435 -0.087298 0.040627 -0.099561 -0.159294 0.496627 -0.220284 -0.060142 
really -0.018777 0.053257 0.032706 -0.181671 0.436141 0.170652 0.008151 -0.110196 0.108380 0.131460 0.039717 -0.114158 0.343451 0.051778 0.012840 -0.160176 -0.245974 0.097697 -0.155928 -0.155417 
after 0.109188 0.116032 0.075637 -0.284085 0.319530 -0.144194 0.118998 -0.182770 0.202946 0.458911 0.302970 0.144017 0.405527 0.390584 -0.022851 -0.352467 -0.079725 -0.037010 0.010709 -0.080020 
such 0.147721 0.040646 0.309059 0.153308 0.451963 0.037405 -0.003893 -0.427508 0.170950 0.108295 -0.339081 -0.276239 -0.002493 0.016044 -0.042552 -0.631386 -0.271051 0.173052 -0.264978 0.011598 
better 0.125293 -0.137798 0.154519 -0.100782 0.140169 -0.142081 -0.214665 -0.047568 0.267460 0.291607 0.010365 -0.046987 -0.014291 0.157222 0.288868 -0.176452 0.014267 -0.031217 0.040267 -0.117879 
want 0.005089 -0.105029 0.071821 0.253762 0.358822 -0.061868 -0.143749 0.176745 0.022590 0.119584 -0.133654 -0.354032 0.251930 -0.098782 -0.080763 -0.036732 -0.203926 0.456232 -0.464326 -0.125752 
problem 0.113627 -0.306457 0.114061 0.191732 0.449163 0.001313 -0.021699 0.165938 0.244688 0.244457 -0.472605 0.005513 0.325263 -0.347935 0.106649 -0.362087 -0.297472 0.536686 -0.032316 0.094074 
something -0.055272 -0.402237 0.332568 -0.059018 0.300227 0.035737 -0.106240 0.035920 0.160380 0.210425 -0.147163 -0.077913 0.074318 -0.351448 0.084190 -0.012617 -0.267953 0.095018 -0.085031 -0.035110 
last 0.090968 0.202805 0.225744 -0.485953 0.319955 -0.117637 -0.170957 0.065787 -0.224139 0.218760 0.644316 -0.163055 0.311688 0.200354 0.172193 -0.107717 0.486579 -0.075296 0.047366 0.330038 
said -0.009150 -0.093391 0.391903 -0.343550 -0.325254 0.193980 0.076263 -0.288052 -0.028297 -0.106347 0.258344 -0.140098 0.604708 0.053544 0.080468 -0.128246 -0.243970 -0.062946 -0.105616 0.107735 
going -0.102691 -0.132621 0.232828 -0.088008 0.517907 -0.053040 -0.238784 0.155700 0.131643 0.173110 0.213765 0.059724 0.341617 0.171488 0.157043 0.077568 -0.163540 0.145283 -0.003050 0.080496 
never 0.096875 -0.044154 0.109295 -0.115593 0.179076 -0.322445 -0.068413 0.242512 0.160329 0.154771 -0.047619 0.201407 0.258421 -0.312120 -0.046509 -0.180322 -0.207156 0.486383 -0.149436 -0.135710 
our 0.152979 0.043586 0.286764 -0.087760 0.168333 -0.125316 -0.083707 -0.116192 0.212180 0.114710 -0.095905 -0.153168 0.264142 0.222369 -0.143640 -0.077839 -0.114202 0.171864 0.158861 0.213348 
used -0.143689 -0.201056 -0.120090 0.005998 0.084905 -0.035155 -0.132712 0.239183 0.085691 -0.038716 -0.156388 -0.027583 0.248001 -0.147829 0.078236 -0.121368 -0.327544 0.233459 -0.181271 -0.082878 
work -0.125393 -0.071200 -0.221176 -0.049985 -0.021778 0.021940 -0.124549 0.185686 0.278135 -0.132851 -0.217238 -0.234092 0.310692 -0.138688 0.132714 0.011885 -0.278258 0.399098 -0.037971 0.142261 
car -0.238972 0.145186 -0.137418 -0.121885 0.212124 0.017848 -0.162357 0.172681 0.025851 0.009682 0.356582 0.285837 0.250220 -0.070275 0.131547 -0.234557 -0.252903 0.260161 -0.143887 -0.193937 
off -0.084039 -0.075246 0.179604 0.137223 0.323323 -0.066298 -0.067494 0.162231 0.014172 0.047847 -0.026711 -0.310755 0.251504 0.131081 0.118509 -0.016428 0.199540 0.139183 -0.376985 -0.071889 
things 0.094920 -0.134696 0.043241 -0.025281 0.234128 0.052747 -0.208445 -0.122965 0.253791 0.049810 -0.168358 -0.160224 0.131973 0.007056 0.075139 -0.325176 -0.167479 0.400087 -0.441116 -0.201605 
point -0.017474 -0.087393 0.041741 -0.087060 -0.259305 0.058672 -0.076087 0.014658 0.440910 0.186825 -0.091213 -0.068958 0.072803 0.035963 0.170016 -0.295383 -0.173367 0.041241 -0.114692 0.059523 
years 0.105829 0.472405 0.142228 -0.327548 0.222490 -0.105611 -0.266319 0.103970 0.080839 0.184142 0.622265 0.050617 0.109607 0.155460 0.314443 0.183568 0.103385 0.193908 -0.000556 0.053378 
take 0.024312 0.093935 -0.136748 -0.107723 0.437002 0.336666 -0.055983 -0.280570 0.231277 0.129168 0.040960 -0.190118 0.157677 0.159615 -0.115684 -0.216901 -0.069354 0.107514 0.016343 -0.269301 
back 0.029264 0.033719 -0.011152 -0.025262 0.433463 -0.396460 -0.169620 0.301649 0.023782 0.007150 0.398616 0.096053 0.200617 -0.147234 0.148289 -0.125943 0.143551 0.220839 -0.024841 0.006351 
space -0.528099 -0.273556 0.523283 0.082771 -0.580985 -0.204219 0.073864 0.302357 -0.053347 -0.140092 0.197925 0.264055 0.291329 -0.593152 0.040899 0.127514 0.093570 0.336862 -0.099168 0.445752 
might -0.080445 -0.047974 -0.069558 -0.282500 0.084931 0.143785 -0.070688 -0.150869 0.291441 -0.152100 -0.072163 -0.294657 0.123537 -0.001278 0.133085 -0.311284 -0.114255 -0.143772 -0.329991 -0.171654 
question 0.082599 -0.048873 0.083312 -0.168688 -0.050716 -0.095114 -0.211021 0.027416 0.152522 -0.058120 0.087317 -0.230586 0.293451 -0.107870 0.097293 0.030993 -0.108194 0.128682 -0.265438 -0.195322 
ive -0.133395 -0.312604 0.201006 0.320526 0.154309 0.097541 -0.171848 0.203995 -0.071731 -0.146607 -0.330397 0.091583 0.179507 -0.046326 0.142058 -0.106086 -0.191053 0.751022 -0.243686 0.064877 
while -0.054051 -0.156431 0.069325 -0.091550 0.580414 0.243946 -0.106986 0.012860 0.325386 0.351561 0.092635 0.177110 0.116235 -0.081676 0.016188 -0.213767 0.034769 -0.045333 -0.229056 -0.057826 
own 0.008884 -0.100270 0.004715 -0.171953 -0.164226 0.039186 -0.127769 -0.114696 0.283034 0.124898 -0.306224 -0.095854 0.165564 -0.143802 0.037705 -0.015246 -0.389731 0.241405 -0.212974 0.028274 
system 0.302294 -0.170782 0.163739 0.257400 0.145535 -0.162481 0.124635 0.071879 -0.033585 0.092471 -0.205098 0.102898 0.304017 -0.363458 -0.287442 -0.027749 -0.038461 0.685621 -0.061956 0.158274 
both -0.266092 0.188374 0.177561 0.205236 0.195553 0.028004 -0.104078 0.192436 -0.003515 -0.005912 -0.273183 -0.006715 -0.034023 -0.367621 -0.023732 -0.138123 -0.029556 0.486722 -0.170194 0.322651 
sure 0.056285 -0.084643 0.165577 -0.070993 0.228679 -0.059237 -0.163693 0.057814 0.131302 0.324215 -0.053253 -0.320979 0.134898 -0.413833 0.119874 0.041234 -0.219978 0.305845 -0.205021 -0.135935 
world 0.307235 -0.037858 0.151037 -0.129671 -0.209182 -0.332991 -0.331634 -0.046924 0.131447 0.017511 0.180024 -0.069411 0.141701 0.225563 -0.029563 -0.225206 -0.263990 -0.025279 0.222672 0.175076 
help 0.076917 -0.134589 0.012511 0.157529 0.465544 0.177264 0.014954 0.105859 0.087464 -0.062038 -0.286465 -0.116180 0.199321 -0.169282 -0.205883 -0.027924 0.078535 0.128315 -0.276836 -0.060593 
using -0.151383 -0.335392 0.082914 0.326727 0.426374 0.229266 -0.077796 0.252066 0.038479 0.184509 -0.344042 -0.043928 0.237813 0.070880 -0.091590 -0.098618 -0.188381 0.117968 -0.148343 0.277902 
day -0.064022 -0.000739 0.116979 -0.241992 0.438079 -0.087198 -0.033988 0.114862 0.188207 0.294419 0.247997 -0.153608 0.244494 0.092001 -0.125994 -0.015477 0.181910 0.073816 -0.181599 -0.021296 
john 0.369880 -0.240563 0.314418 -0.239222 0.459578 -0.285023 -0.018848 0.243413 0.009368 -0.205273 -0.043721 -0.226039 -0.002925 -0.126846 0.375101 -0.364044 0.168194 0.016156 -0.329992 -0.162838 
got -0.067365 -0.296346 0.068027 -0.147535 0.377029 -0.018142 -0.104457 0.184220 0.274667 -0.095031 -0.006968 -0.069014 0.159031 -0.298545 0.113877 -0.183450 -0.168929 0.277300 -0.292342 0.008159 
find 0.125007 -0.186510 0.344897 0.085340 0.257923 -0.154731 -0.248452 -0.023988 0.032656 0.121161 -0.080613 -0.156402 0.151046 -0.230340 0.098680 -0.048615 -0.332465 0.384990 -0.129878 0.106071 
thats -0.272969 0.040580 0.116538 0.303319 0.350232 0.211641 -0.109805 -0.108353 0.269054 0.252699 -0.267561 -0.165268 -0.143897 0.090310 0.014905 -0.090668 0.137238 0.094850 -0.239301 0.253678 
lot -0.184937 -0.138112 0.213878 -0.081950 0.179766 -0.117173 -0.041431 0.231829 0.156058 -0.049680 -0.182628 -0.007380 0.260595 0.177388 0.043297 0.146726 0.051678 0.136110 -0.372765 -0.028075 
mail -0.174460 0.145617 0.057816 0.065899 -0.146691 -0.644505 0.266291 0.432833 -0.193863 -0.401288 0.201963 -0.193899 0.307606 -0.358269 0.131188 0.057124 0.039218 0.833218 -0.806736 -0.279792 
thing 0.043747 -0.085807 0.163805 -0.282625 0.298750 -0.216781 -0.290466 -0.174464 0.134557 0.339546 -0.079165 -0.143548 0.001406 0.113182 0.078611 -0.251015 -0.451644 0.499287 0.078535 -0.230099 
team -0.031271 0.570724 0.511500 -0.255092 0.427349 -0.218315 -0.216738 0.166771 -0.164006 -0.181117 0.302633 -0.180000 -0.076362 0.655349 0.619515 0.083560 0.774877 -0.310310 0.044283 0.369842 
anything 0.032928 -0.085190 0.192568 -0.169575 0.240757 0.030876 -0.104169 -0.188654 0.102400 0.194016 -0.219243 -0.293751 0.183111 -0.065409 0.133209 -0.150145 -0.028243 0.148486 -0.052317 -0.079442 
name 0.120044 -0.128693 0.228875 -0.287189 0.048133 -0.479761 0.167299 0.155058 -0.120612 -0.419333 -0.212699 -0.209385 0.327603 -0.377669 0.231608 0.251966 -0.090399 0.602780 -0.359190 -0.229330 
best -0.218671 0.195918 0.233566 -0.068382 0.417079 -0.196765 -0.227214 0.340428 -0.113584 -0.179582 0.127119 -0.072384 0.167464 0.202076 0.337093 0.126971 0.397646 0.181335 -0.497186 0.153040 
long 0.025122 0.001256 0.184373 -0.341749 0.173688 0.012174 0.051482 -0.249816 0.275987 0.082906 0.097387 -0.025078 0.464264 0.157729 0.016798 -0.094307 0.071452 0.146774 -0.036824 -0.067420 
every -0.027422 0.052780 0.043512 -0.187726 0.385602 -0.384929 0.213064 -0.057007 -0.012801 0.168490 0.272112 0.123592 0.322091 -0.152020 -0.394998 -0.318741 -0.166739 0.352714 0.084318 -0.229792 
before 0.126440 -0.239107 0.241353 -0.347009 0.114071 -0.006317 0.068290 0.033989 -0.108071 0.086302 0.107803 -0.262676 0.383247 -0.129155 0.054440 0.175723 0.273596 0.383553 -0.057793 -0.122001 
few -0.009274 0.120696 0.127611 -0.159296 0.287548 -0.011674 -0.003282 -0.030301 -0.042063 0.257586 -0.032211 -0.041944 0.145563 0.099658 -0.070437 -0.269853 0.074337 0.154968 -0.092005 0.007165 
made 0.054909 -0.117060 -0.055493 -0.234596 0.241549 0.125041 -0.244001 -0.206358 0.146229 -0.046235 0.074366 -0.159592 0.127982 -0.075973 -0.064167 -0.441385 0.025573 0.028374 -0.131041 -0.039723 
another -0.141146 -0.041920 0.310051 -0.207853 0.283519 -0.058253 -0.077630 -0.036459 0.083464 0.097084 -0.232873 -0.069000 0.138922 -0.128580 0.137273 -0.274784 0.152305 0.230730 -0.240129 -0.111094 
without 0.030681 -0.058826 0.187188 -0.123990 0.313623 0.011644 -0.071838 0.004572 0.090972 -0.057207 -0.121478 -0.108480 0.060833 -0.001028 -0.051045 -0.189564 -0.081499 0.063507 -0.140282 -0.090949 
didnt -0.148360 0.129351 0.087555 -0.275883 0.388337 -0.076283 -0.040294 -0.204286 0.074430 0.269294 0.147509 -0.179914 0.073042 0.017059 0.103480 -0.127676 0.149389 0.304669 -0.179092 -0.235167 
real 0.007770 0.176736 0.239571 0.063296 0.297230 -0.024860 -0.357882 0.122850 -0.014056 0.390973 -0.236338 -0.116764 0.011542 0.311544 0.089803 -0.209330 -0.415555 0.425849 0.020509 0.092845 
david -0.127591 0.165535 0.190351 -0.176809 -0.042509 -0.190892 0.002144 0.221489 0.038717 -0.378777 0.025939 -0.390551 0.212706 -0.038050 0.131387 -0.275814 0.079845 0.066818 -0.506180 0.082459 
through -0.027571 0.039033 0.034848 -0.317714 0.103052 -0.141612 0.006958 0.091488 0.064324 -0.103383 0.198132 0.087473 0.128972 -0.201071 -0.016396 -0.427252 -0.044307 0.183401 -0.308234 -0.109345 
drive 0.097279 -0.557778 -0.260936 0.482016 0.057997 -0.764180 -0.018527 0.538758 0.147386 0.087794 0.142896 0.468718 0.242536 -0.709759 -0.229384 -0.805582 -0.264597 0.646820 -0.159265 0.023662 
little 0.012686 0.162690 0.228273 -0.104986 0.353090 -0.003421 -0.112776 -0.103335 -0.109061 0.181079 -0.079299 0.018633 -0.095542 0.094566 0.090609 -0.132331 -0.142866 0.241516 -0.032985 -0.003116 
etc -0.153090 0.082885 0.126921 0.269159 0.382812 -0.058597 -0.116416 0.041439 0.185783 -0.110785 -0.143972 0.026915 0.159998 -0.307826 -0.084709 -0.317436 -0.231685 0.399596 -0.675640 -0.001033 
again -0.105296 -0.017087 0.412411 0.151477 0.099596 0.139291 -0.084649 -0.156327 -0.181103 0.085952 0.077369 -0.257335 0.089255 0.086831 0.159339 -0.030910 0.276977 0.155858 -0.149688 0.185071 
old 0.078666 0.244545 0.129822 -0.290760 0.292669 -0.240324 -0.202219 0.421438 -0.314773 0.051396 0.322559 0.050905 0.240647 0.033920 0.032240 -0.242133 -0.057551 0.296164 -0.367700 0.006205 
down 0.073174 0.137459 0.195891 -0.148224 0.310484 -0.164919 -0.031441 -0.223253 0.120235 0.254295 0.278359 -0.130350 0.395897 0.014145 0.068291 0.112103 -0.058753 0.119562 -0.187898 -0.081028 
against 0.149363 0.090367 0.431661 -0.127625 0.333212 0.348041 -0.111480 -0.299483 0.061528 0.138870 0.097311 -0.343480 0.360024 0.294663 -0.210350 -0.369369 -0.057159 -0.194151 -0.005167 0.185021 
around -0.095099 0.214191 0.172099 -0.080040 0.585554 -0.077788 -0.041872 0.023299 -0.050585 0.134956 0.065571 -0.050925 0.073694 -0.047534 0.039038 -0.008606 0.021037 0.350953 0.034727 -0.011196 
bit -0.041944 -0.237229 0.279736 0.463271 0.181790 -0.391172 -0.149005 0.260838 0.220371 0.287345 -0.360832 0.197700 0.005356 -0.647724 -0.427810 -0.641786 -0.635175 0.594518 0.188646 0.400786 
seems -0.227012 -0.222119 0.209997 -0.040787 0.368471 0.132546 -0.065915 -0.038902 0.226859 0.152473 -0.203225 -0.161301 0.030115 0.186890 0.004218 -0.041175 -0.301760 0.348444 -0.185034 -0.073406 
probably 0.130854 -0.058680 0.194722 -0.216337 0.538225 -0.061005 -0.073876 0.105398 0.165779 0.409118 -0.221982 -0.199517 0.056333 -0.049574 0.158353 -0.049914 -0.045516 0.199432 -0.162333 -0.127498 
power -0.127510 0.091372 -0.422415 0.371803 0.886381 -1.046386 0.239967 0.767245 0.776974 -0.567137 0.322039 0.489342 0.376833 0.332114 0.057975 -0.776742 0.257283 -1.045270 0.922505 0.980270 
play 0.104181 0.063329 -0.001552 0.360339 0.797562 -0.601138 0.102807 0.623697 0.359148 -0.308788 0.116972 0.270281 0.323961 0.381982 0.301140 -0.322459 0.395204 -0.554372 0.550218 0.903726 
great 0.032577 0.113509 0.117964 -0.199305 0.304970 -0.085144 -0.148032 0.360073 0.127257 0.166579 0.063129 0.045757 0.095979 -0.027031 0.258082 -0.200725 0.190867 -0.002208 -0.042523 0.241582 
least -0.018096 -0.047841 0.194010 -0.048907 0.309980 0.340508 -0.261493 -0.235667 0.303084 0.204359 0.017668 -0.136722 0.280846 -0.006157 -0.106229 -0.315050 -0.125459 0.203878 -0.022517 0.130740 
mean -0.136564 -0.149540 0.286026 -0.439772 0.139794 0.156536 -0.290541 -0.525803 0.112502 0.176395 0.037837 -0.087394 0.164170 0.270747 0.001247 -0.120446 -0.137778 -0.106189 -0.330366 -0.345594 
file -0.149378 -0.505260 0.304266 0.202686 0.219931 0.160502 0.082202 0.380471 -0.486159 0.220410 -0.534936 -0.092493 0.403582 -0.910673 -0.363688 0.409568 0.037349 0.920097 -0.291552 0.101488 
between -0.084083 -0.097756 0.268157 -0.027821 -0.019881 0.069554 0.037808 -0.101695 0.054691 0.080077 -0.070162 0.170349 0.208349 -0.152324 0.204553 -0.457120 -0.126513 -0.056248 0.318443 0.181138 
tell 0.218562 -0.337477 0.356746 0.173849 0.458660 0.157973 -0.152069 0.171457 -0.207703 0.028940 -0.247092 -0.355574 0.092260 -0.085732 0.061324 -0.114485 -0.001036 0.358492 -0.381049 -0.151791 
game -0.174326 0.457169 0.393924 0.029131 0.407504 -0.304567 -0.323527 0.009730 -0.592620 -0.017427 0.474384 0.061061 0.038203 0.369797 0.077148 -0.223374 0.251475 -0.013180 0.144526 0.317096 
enough 0.116819 -0.042685 0.243475 -0.102730 0.350472 0.241282 -0.084834 -0.250826 -0.035235 0.308931 0.040153 0.011734 0.154450 0.012013 -0.013317 -0.159804 -0.149332 0.104310 -0.082447 -0.130407 
course -0.065249 -0.183786 0.240209 -0.039316 0.244498 0.181321 -0.102160 -0.159546 0.286283 0.230875 -0.131905 -0.162379 0.195964 0.046547 0.167213 -0.129530 0.003320 0.138090 -0.134829 0.003127 
information 0.083646 -0.081271 0.407349 -0.000968 0.057510 -0.340514 -0.067909 0.190408 -0.092635 -0.137570 0.098398 -0.252248 0.352645 -0.423678 -0.037605 0.180244 -0.006392 0.552845 -0.467577 0.058969 
hard 0.089083 -0.588146 0.056053 0.372757 0.094056 -0.382681 0.078126 0.462598 0.095498 0.171309 0.059449 0.091206 0.480322 -0.735066 -0.215852 -0.537077 -0.231393 0.765414 -0.359461 0.089483 
state 0.006359 -0.565574 -0.190552 -0.303130 0.536843 0.136820 -0.048695 -0.620549 0.451130 -0.188217 0.225590 -0.415341 0.289039 0.025607 -0.087124 -0.936478 0.004582 -0.293842 -0.445525 -0.443722 
post -0.024190 0.075843 -0.024114 -0.241962 0.069036 -0.251103 -0.141288 -0.166183 0.399294 -0.029214 0.035632 -0.270456 0.058262 -0.026824 -0.010959 0.032216 -0.200741 0.244222 -0.382700 -0.303483 
give -0.082224 -0.120699 0.179098 -0.129821 0.010570 -0.176491 -0.161128 -0.109634 0.039651 0.036820 0.149276 -0.094397 0.155083 0.257510 0.191145 0.018227 0.054161 0.024857 -0.055026 -0.095352 
put -0.023926 -0.204432 0.154825 -0.257122 0.227085 -0.181138 -0.011564 -0.031554 0.390881 0.073974 0.089670 -0.036308 0.393007 -0.197711 0.146113 -0.050514 0.085943 0.228930 -0.007742 -0.009315 
control -0.172554 -0.535630 0.121614 0.187219 0.519404 0.599721 -0.417492 -0.216988 0.436919 -0.257126 -0.374565 -0.593730 -0.241729 -0.080730 -0.212672 -0.953109 0.063902 -0.480700 -0.487318 0.302319 
university -0.345161 0.474338 0.223205 0.013027 -0.035713 -0.755325 0.528268 -0.035885 -0.236147 -0.681145 -0.233375 -0.060944 0.210200 -0.366153 0.024990 -0.334030 -0.110115 0.061361 -0.174283 0.015085 
look -0.182250 -0.171595 0.221105 -0.159920 0.264379 0.165812 -0.020961 -0.251179 0.014311 0.136254 -0.048509 -0.242128 0.145741 -0.117818 0.035893 -0.052170 0.012238 0.153568 -0.082845 0.110857 
read -0.230251 -0.023923 0.178264 -0.181653 0.501003 0.237323 -0.115141 0.107895 -0.140840 0.351203 0.018290 -0.063028 0.071801 -0.151784 0.259421 0.258618 0.026147 0.377855 -0.412529 -0.107736 
players -0.190257 0.380515 0.234622 -0.083531 0.271714 -0.347428 -0.120611 -0.155474 -0.078272 -0.131271 0.431234 0.057195 0.097221 0.526793 0.351085 -0.293025 0.342853 -0.066395 0.144178 0.211418 
nothing -0.112563 -0.258979 0.368344 -0.402942 -0.035830 -0.199967 -0.030203 -0.231011 -0.003549 -0.050481 0.047442 -0.327834 0.312066 -0.044926 0.216804 -0.066460 -0.238496 0.087600 -0.041397 -0.120075 
card -0.381391 -0.430906 -0.055502 0.653035 0.200371 -0.305788 -0.402426 0.705038 -0.332393 -0.016530 -0.237137 0.047111 0.294066 -0.492859 -0.278150 -0.594518 -0.587312 0.530135 0.358843 0.493552 
id -0.082769 -0.153382 0.150463 -0.094157 0.434949 -0.014351 -0.271603 0.077010 0.259220 0.333643 -0.152639 -0.132726 -0.099427 0.072793 0.446063 -0.150706 -0.107280 0.297725 -0.144939 0.084468 
though 0.117265 -0.072824 0.000276 0.003744 0.265636 -0.262023 -0.052258 0.023151 0.210150 0.327057 -0.159725 -0.001047 0.188422 0.176073 0.174374 -0.252618 -0.392835 0.179856 0.055767 0.063018 
youre 0.149408 -0.113407 0.289354 -0.156651 0.465141 0.149419 -0.237772 -0.016578 0.156171 0.140245 0.072732 -0.240845 0.286145 0.069572 0.246167 0.018217 0.039216 -0.178348 0.109942 0.025150 
fact -0.054926 -0.136337 -0.049059 -0.181140 0.021111 0.187848 0.063269 -0.196387 0.263700 0.082904 -0.042668 -0.044328 0.223457 -0.173055 -0.234364 -0.084098 -0.104571 -0.061550 -0.062822 0.088846 
case 0.124948 -0.141157 0.089485 0.044160 0.277473 -0.218924 0.082377 -0.112801 0.084434 0.236200 -0.160588 -0.177236 0.099046 0.013383 0.040999 -0.524391 -0.274721 0.137379 -0.058554 -0.121352 
rather -0.325981 -0.044795 0.300895 -0.156556 0.323766 0.022007 -0.171752 -0.118852 0.253718 0.235481 -0.278329 -0.023109 -0.060241 0.052533 0.200168 -0.383351 -0.396876 0.211672 -0.122980 -0.055245 
second -0.261763 0.276157 -0.560195 -0.105998 0.419876 -0.689847 0.256330 0.758305 0.623839 -0.515611 0.089088 0.138086 0.222309 0.776960 0.150923 -0.719839 0.046636 -0.849774 0.645184 0.396323 
actually -0.194916 -0.321227 0.114561 0.011492 0.404482 0.217201 -0.264428 -0.134661 0.263742 0.184273 0.007648 0.013753 0.013019 0.183334 0.055421 -0.228843 0.021905 0.135816 -0.184621 -0.005315 
sale -0.128369 -0.077689 0.034449 0.160031 -0.246089 -0.201221 -0.043775 1.158363 -0.019327 -0.415273 0.006549 0.027798 0.318906 -0.186533 0.235969 0.283468 -0.025332 0.465094 -0.766066 0.361485 
computer -0.365256 0.274392 0.038038 0.082073 -0.307039 -0.806299 0.425618 0.216267 -0.207202 -0.338667 -0.090746 0.141827 0.298043 -0.414671 -0.196168 -0.649985 -0.241893 0.430459 -0.455329 -0.151673 
number -0.285654 -0.225664 0.358363 0.226645 -0.021270 -0.553281 0.050538 0.117479 0.198418 -0.376127 -0.135631 -0.062782 0.318940 -0.190613 0.238191 -0.322055 -0.135844 0.454870 -0.126241 0.214477 
true -0.212211 0.154485 0.327642 0.181129 0.406382 0.089622 -0.059134 -0.070165 0.015667 0.176315 -0.258379 -0.142734 0.146323 0.034959 -0.027509 -0.085705 -0.288251 0.117335 -0.197405 0.273060 
come 0.085042 -0.043070 0.093337 -0.375999 0.274419 0.025021 -0.233655 0.006078 0.028596 0.194635 0.135196 0.044481 0.227262 -0.194636 0.114808 -0.193992 -0.004866 0.335458 -0.139918 -0.199340 
called 0.104594 -0.043181 0.416633 -0.212995 0.112033 0.076353 -0.249803 -0.204020 0.011911 -0.231564 0.015127 -0.178859 0.444342 -0.267543 0.157876 -0.101446 -0.010008 -0.035742 0.086403 0.223772 
yes -0.102030 0.170900 0.153058 0.147556 0.616951 0.002976 -0.244413 -0.086536 0.180737 0.197343 -0.316200 -0.143022 0.024341 -0.314233 -0.280258 -0.076763 -0.012360 0.404516 0.113980 0.262181 
far -0.045303 -0.202629 0.219230 -0.182140 0.065418 -0.110440 0.100927 -0.349959 0.241728 0.157367 -0.099640 -0.081894 0.287361 -0.065356 -0.023215 -0.338279 -0.119022 0.192268 -0.075631 -0.100302 
research -0.429416 -0.075552 0.428346 -0.461605 -0.408926 -0.497158 0.350594 -0.576234 0.165398 -0.395818 0.355798 -0.379064 0.346019 -0.911822 -0.260564 -0.288857 0.228878 -0.330962 -0.215986 -0.050511 
different -0.072324 -0.292523 0.239103 0.223848 0.299650 0.262501 0.084890 -0.170910 0.211520 0.031633 -0.229192 -0.073568 0.188912 -0.198567 -0.064372 -0.602604 -0.340567 0.321271 -0.189820 0.208096 
hell -0.087048 -0.110443 0.303550 -0.072995 0.692049 0.277229 -0.074630 -0.524564 0.210279 0.166763 -0.179764 -0.225165 -0.085942 0.437267 -0.116633 -0.615396 0.040277 -0.405078 -0.155552 0.279466 
end 0.131669 0.022999 0.164449 -0.088953 0.255902 -0.155860 -0.158699 0.101475 0.189512 0.137320 -0.030366 -0.173294 0.164493 0.035272 0.204106 -0.194762 0.096411 0.158475 0.017671 0.033468 
bad 0.467141 0.029937 0.263661 -0.099485 0.168244 0.383817 -0.361611 -0.320119 0.127946 0.091669 0.070339 -0.391224 0.155307 0.011805 0.087298 -0.156856 -0.193175 0.119601 -0.007113 -0.033419 
always 0.202776 0.080667 0.337384 -0.181019 0.237869 0.064699 -0.247769 -0.156009 -0.054404 0.124973 0.066773 -0.056819 0.225001 -0.042807 0.334794 0.060763 -0.201235 0.316582 -0.120295 -0.017185 
ill 0.108309 0.174996 0.201665 0.121480 0.227179 -0.154548 -0.267861 0.037638 0.118516 0.006603 0.031683 -0.032393 0.212267 -0.023370 0.246772 -0.056208 -0.055791 0.299486 -0.292141 0.012040 
jesus 0.255737 -0.219274 0.373713 -0.591403 -0.188802 0.567323 -0.002732 -0.956602 0.049174 0.458689 -0.116570 0.150482 0.158337 -0.071707 0.049482 -0.030600 -0.629833 0.188435 0.019720 -0.485721 
software -0.139443 -0.044496 0.225223 0.178645 -0.230705 -0.327259 -0.116253 0.519191 0.124400 -0.221034 -0.369176 0.055625 0.286787 -0.462825 -0.090161 0.091732 -0.511691 0.530006 -0.492716 0.111070 
dos -0.175624 -0.002866 0.121514 0.169440 0.073156 0.195495 0.002660 1.159345 -0.001295 0.232331 -0.370681 0.183811 -0.030599 -0.620316 -0.175735 0.774000 -0.451089 0.618982 -0.681120 0.309691 
group -0.039826 -0.147201 0.152780 0.062030 0.169105 -0.244579 0.062403 -0.121703 0.016021 -0.246013 -0.116128 -0.153348 0.419185 -0.211502 -0.068782 -0.276343 -0.187955 0.190556 -0.214657 0.059448 
run -0.143531 0.143442 0.035019 0.439381 0.341479 -0.079805 0.003493 0.572564 -0.082926 0.072896 -0.107073 0.084433 0.394458 -0.526162 -0.277554 0.140942 -0.201357 0.410476 -0.295226 0.319814 
less -0.158028 -0.219068 0.227361 -0.002612 0.309667 0.042550 -0.090923 -0.008458 0.291527 0.052875 0.002317 0.033800 0.146932 -0.152896 0.177496 -0.356992 -0.165545 0.259416 -0.014987 0.117831 
wrong 0.096462 -0.167203 0.345419 -0.079715 0.151155 0.231020 -0.003488 -0.326506 -0.001194 -0.001908 -0.105111 -0.149147 0.320564 0.040879 0.079463 -0.021048 0.047200 0.030549 -0.190109 -0.045340 
program -0.382949 -0.042759 0.375662 0.150470 -0.110135 0.060675 -0.123401 0.118520 -0.206267 -0.055297 -0.128019 0.129432 0.487033 -0.454275 -0.089437 0.023594 -0.192905 0.664330 -0.246001 0.113270 
high 0.077311 0.087561 0.054029 -0.073545 0.090341 -0.115456 -0.104147 0.113793 0.083890 -0.204223 0.087863 0.011317 0.481328 -0.553172 -0.140581 -0.178515 0.014518 0.085386 0.040892 0.141929 
games -0.385130 0.752278 0.445787 -0.329114 0.519140 -0.099120 -0.155109 0.533670 -1.070989 -0.257484 0.709268 -0.296998 0.538015 1.152251 0.404777 0.241804 0.590573 0.014070 0.029330 0.517181 
isnt 0.055711 -0.093873 0.063302 -0.078202 0.382635 0.341484 -0.290062 -0.213803 0.297181 0.407020 -0.040940 -0.120382 -0.045204 0.142420 0.099823 -0.296507 -0.115131 0.142306 0.050677 0.019295 
support 0.222613 -0.060628 0.059133 0.232467 0.015223 -0.080555 -0.114674 0.087141 0.070671 -0.034271 -0.238888 0.018742 0.177155 -0.239798 -0.133769 -0.286154 -0.543137 0.181548 -0.004960 0.120949 
part 0.211613 -0.166645 0.227271 0.012325 0.233606 0.031979 0.038787 -0.163107 0.038243 0.101637 0.250211 -0.178021 0.358893 -0.317371 -0.186286 -0.134545 -0.052024 -0.061820 -0.290054 -0.115863 
available 0.172252 -0.043326 0.200296 0.068521 0.030800 -0.069542 -0.003377 0.258606 -0.169515 -0.126511 -0.149521 -0.190955 0.326585 -0.206245 -0.159408 -0.090264 -0.207446 0.323709 -0.068964 0.146689 
let -0.222427 -0.110568 0.190204 -0.074815 0.303139 0.031802 -0.094183 0.212028 0.021957 0.058214 -0.091845 -0.194695 0.171941 -0.038149 0.126562 -0.151384 0.025990 0.204765 -0.195219 0.161484 
life 0.138865 -0.245194 0.506062 -0.207708 0.140447 0.139573 -0.041662 -0.231310 0.086113 0.159130 -0.049497 -0.252047 0.149720 -0.257355 0.083655 -0.075749 -0.045863 0.207208 -0.158837 -0.179541 
try 0.127207 -0.254390 0.195095 0.185791 0.373571 -0.022327 -0.145312 0.177922 -0.226299 0.141420 -0.140288 -0.051316 0.058575 0.056443 -0.180758 -0.162354 -0.108786 0.512741 -0.020482 0.019389 
getting 0.111270 0.004404 0.029594 0.076452 0.482138 -0.163769 -0.187434 0.060531 0.207098 0.035191 0.033190 -0.113315 -0.012949 0.076811 0.040323 -0.137227 0.165417 0.193977 -0.190892 0.003359 
government 0.390685 -0.164408 -0.083547 -0.094227 -0.265107 -0.009080 -0.221249 -0.387871 0.413085 -0.327336 0.377845 -0.394262 0.584189 -0.017663 -0.360151 -0.580418 -0.060290 -0.379603 -0.420836 -0.128044 
person 0.092605 0.212653 -0.096633 -0.358470 0.072117 0.177044 -0.378871 -0.370832 0.432743 0.094758 0.041706 -0.323269 0.274071 0.103410 -0.043741 -0.504954 -0.297269 0.074970 -0.167123 -0.258569 
man -0.030281 0.026099 0.395371 -0.372056 -0.305220 0.071075 -0.174324 -0.500941 -0.099383 0.086631 0.294839 0.155102 0.252284 -0.046883 -0.022940 -0.168405 -0.157280 0.157845 -0.044817 -0.236764 
keep 0.022346 -0.174026 0.129184 -0.229107 0.333390 0.166520 -0.082796 -0.174655 0.106494 0.076784 0.047895 -0.087489 0.140699 -0.090798 0.200383 -0.285281 -0.046159 0.066198 -0.250737 -0.097269 
win 0.240814 0.250596 0.372534 0.405071 0.536806 0.017484 0.004200 0.545180 -0.365318 -0.351012 -0.060280 -0.281591 0.317074 0.037561 -0.026502 0.259600 0.366281 0.263914 -0.103984 0.522449 
thought 0.251726 -0.065360 0.049059 -0.245508 0.061148 -0.078744 -0.092189 -0.029921 -0.043766 0.042804 0.162221 -0.364545 0.081175 0.257517 0.141951 -0.116578 0.198308 -0.212945 -0.100691 -0.181844 
seen 0.082437 -0.245320 0.142531 0.058819 0.143265 -0.009585 -0.061578 0.141414 0.002305 0.134180 -0.371769 -0.142189 -0.044134 -0.214142 0.120112 -0.112819 -0.234708 0.241397 -0.048408 0.008225 
each -0.112151 0.245416 0.191159 -0.197707 0.500843 -0.033655 -0.076893 0.049505 -0.046795 0.156110 0.225436 -0.122779 0.150583 0.111089 -0.011479 -0.077643 0.241106 0.186011 -0.415450 0.013896 
maybe -0.104363 -0.214367 0.178623 -0.064393 0.266348 0.103342 -0.138245 0.144309 0.127546 0.204897 -0.013447 -0.035306 0.286985 -0.258079 -0.023265 -0.111691 -0.089191 0.231386 -0.239788 0.012189 
trying 0.022109 -0.080655 -0.087924 -0.125326 0.210987 0.172851 -0.210974 -0.163516 0.233849 0.004027 -0.091025 0.070565 0.045248 -0.108471 0.137626 -0.151515 -0.073578 0.354612 -0.312271 -0.262515 
guns -0.120978 -0.175122 -0.168961 0.114083 0.578252 0.449855 -0.356913 -0.262343 0.463607 -0.099725 -0.316926 -0.153331 0.023520 0.146932 -0.040046 -0.712539 -0.062690 0.118879 -0.192284 -0.013295 
data -0.332504 -0.358957 -0.113766 0.146560 -0.106219 -0.613926 0.198947 0.437800 0.137512 -0.348505 0.022545 0.372581 0.346039 -0.937499 -0.290345 -0.409409 -0.203671 0.473645 0.165096 0.203161 
numbers -0.386044 -0.210549 0.016785 -0.025614 0.287722 -0.104985 0.002624 0.058450 0.026945 0.006864 0.018769 0.170806 0.007024 0.143898 0.209414 -0.126977 0.132053 0.300264 0.107994 0.180179 
non 0.142871 -0.175798 0.069900 -0.010094 -0.205951 -0.145981 -0.115773 -0.319851 0.407854 0.023357 -0.209029 0.056935 0.120444 -0.001095 -0.175953 -0.232116 -0.313906 0.453299 0.144331 -0.004976 
either 0.046223 -0.056258 0.296498 -0.181040 0.045847 0.039385 -0.161622 -0.240873 0.383089 0.134517 -0.178493 -0.214923 0.171763 -0.229146 0.106527 -0.236187 -0.283943 0.307682 -0.239997 -0.138784 
line -0.059092 -0.097555 0.070223 0.068902 0.285442 0.157701 -0.047842 0.107049 -0.003749 0.211632 -0.277251 0.039139 0.219862 -0.211195 0.155730 -0.348064 -0.204278 0.499963 -0.156294 -0.040969 
possible 0.121368 -0.513290 0.204073 -0.050341 0.172391 0.366808 -0.101644 -0.114377 0.088488 0.162019 -0.115796 0.120892 0.270737 -0.026865 0.066538 -0.355669 -0.272895 0.118776 -0.209924 -0.045173 
says 0.073548 -0.382446 0.165494 -0.130543 0.152115 0.136758 0.065862 0.090618 -0.156127 0.108046 0.296262 -0.196941 0.390768 -0.017736 -0.044190 0.157323 0.036976 0.243726 -0.434273 -0.317104 
having 0.173339 -0.124381 0.191915 -0.055904 0.169864 0.008497 -0.074379 -0.172683 0.232609 0.279062 -0.018952 -0.067929 0.312605 -0.310984 -0.034811 -0.240126 -0.062483 0.092072 -0.241945 -0.102003 
league -0.165411 0.332520 0.243713 -0.190066 0.589816 -0.325278 -0.260281 -0.390882 0.105782 -0.168038 0.585867 -0.094602 0.267475 0.316320 0.286582 -0.368628 0.486680 -0.320850 0.197379 0.339955 
big 0.087554 -0.222343 0.182336 -0.114856 0.257984 0.042791 -0.257539 0.022678 0.139901 0.114166 0.154839 -0.163753 0.330936 -0.097345 0.021785 -0.196208 -0.178362 0.307107 -0.093565 -0.015490 
wrote 0.397559 -0.221467 0.088491 0.075894 0.206394 0.003622 -0.187903 0.238411 -0.017141 -0.101547 -0.271396 -0.303018 -0.071933 0.200327 0.018991 -0.295849 -0.032582 0.047800 -0.017532 0.284994 
call 0.024126 0.039844 0.328257 -0.132492 0.083981 -0.225888 0.026471 0.174702 -0.040649 -0.141946 -0.110961 -0.270366 0.358576 -0.086384 0.205314 0.021096 -0.280815 0.475754 -0.345460 -0.033563 
else 0.206306 -0.084590 0.132947 0.089206 0.340812 0.001336 -0.332814 0.078695 0.220994 0.218560 -0.225557 -0.193144 0.193500 -0.001965 -0.086117 -0.109083 -0.306402 0.355109 -0.223504 -0.008889 
quite -0.104527 0.126619 0.058934 -0.133145 0.264040 -0.105378 -0.131014 0.084688 0.405770 0.183470 -0.307467 0.025566 0.098058 0.052418 0.139626 -0.181361 -0.240444 0.188004 -0.066654 -0.008153 
during 0.281391 0.065796 0.092858 -0.055652 -0.123068 -0.279451 -0.123845 -0.023302 0.249697 -0.012575 0.409674 -0.058564 0.458607 0.052216 0.029744 -0.208891 0.075954 -0.101006 -0.024405 0.092272 
found 0.407804 -0.248347 0.287046 -0.053139 0.355214 0.042833 0.048010 0.062563 -0.005107 0.281280 -0.196589 0.071913 0.099115 -0.162689 -0.055598 -0.103826 -0.156876 0.427333 0.023438 -0.021282 
next 0.011780 0.453600 0.172386 -0.267915 0.516598 -0.031269 -0.187184 0.118943 -0.125944 0.216631 0.291194 -0.098331 0.191254 0.128333 0.170080 0.231820 0.082782 -0.005003 -0.281766 0.059599 
mark -0.047239 0.107398 0.293090 -0.484242 0.101690 -0.090765 0.012718 0.002352 -0.124131 -0.107014 0.034181 -0.332268 0.105310 -0.152860 0.253864 -0.054788 0.094004 -0.033676 -0.149018 -0.114812 
list -0.648291 -0.093356 0.316727 0.257227 -0.063889 -0.009621 0.066612 0.667710 0.001871 -0.102286 -0.033941 -0.022403 0.260640 -0.032189 0.127353 0.286178 0.096812 0.703105 -0.594129 0.320396 
times -0.169213 -0.131180 0.131002 0.018609 0.291896 -0.202949 -0.106849 -0.171861 0.401058 0.021550 0.233084 -0.150771 0.330835 -0.160139 0.042695 -0.528910 -0.160922 -0.155807 0.041708 0.118896 
looking 0.002894 -0.284792 0.207486 0.042338 -0.081097 -0.260439 -0.154946 0.535861 -0.321240 -0.142795 0.024374 -0.019446 0.145556 -0.160601 0.166774 0.204540 -0.082083 0.451395 -0.176285 0.058130 
away 0.125790 0.036351 0.091748 -0.202083 0.029181 0.083246 -0.083598 -0.153095 0.206822 -0.058220 0.076479 -0.193902 0.111533 0.084273 0.087716 -0.224520 0.069621 0.026051 -0.303904 -0.189286 
free 0.041670 -0.350807 0.230021 -0.223377 -0.199746 0.012576 0.060516 -0.145219 -0.005532 -0.009095 0.077894 0.100853 0.220729 -0.250730 -0.016169 -0.084342 -0.403692 0.231465 -0.268772 -0.284403 
done 0.064068 -0.142250 0.098369 -0.095171 0.222853 -0.120771 -0.248312 0.000089 0.126182 -0.062315 0.230672 -0.019609 0.155857 0.131994 -0.027462 -0.163447 0.048868 0.105462 -0.328997 -0.082175 
based 0.122391 -0.191174 0.343949 -0.086787 0.121162 0.249595 -0.016335 -0.408173 0.010933 0.082106 -0.056585 0.031567 0.279734 0.047256 -0.189177 -0.256882 -0.275407 0.093203 -0.165511 -0.185849 
season -0.069926 0.301002 0.153180 -0.160510 0.398975 -0.247679 -0.101274 0.191122 -0.240265 0.069035 0.453550 -0.055774 0.150285 0.445903 0.305582 -0.001285 0.472554 -0.113547 0.114440 0.224854 
ever 0.130731 -0.064742 0.345519 -0.322952 0.008874 -0.084066 -0.140032 -0.367851 -0.084011 0.097515 0.186794 -0.114631 0.366000 0.108989 0.161225 -0.083954 -0.076253 0.130989 -0.035421 -0.185818 
problems 0.105389 -0.311528 -0.020659 0.297333 0.224581 -0.302334 -0.006627 0.500095 0.094810 0.042261 -0.361871 0.026571 0.101186 0.025836 -0.064449 -0.223866 0.011739 0.531134 -0.089023 0.305604 
steve 0.059841 -0.213751 0.143978 0.055349 0.450420 0.012965 -0.416121 0.023287 0.111640 0.111629 -0.080087 -0.460090 -0.153245 0.138183 0.067474 -0.444072 0.020207 -0.138293 -0.250645 0.187598 
until -0.101663 0.040549 0.150561 -0.218430 0.244901 -0.182966 -0.148508 -0.042734 0.127126 0.082682 0.111529 -0.145988 0.183273 -0.009185 0.246222 -0.156413 0.005699 0.061822 0.079695 0.021558 
able 0.048555 -0.180219 0.266626 -0.084039 0.147808 -0.091641 -0.245806 0.237565 0.163359 0.034015 -0.149686 -0.102686 0.161967 -0.067696 -0.008717 -0.113953 -0.225065 0.292794 -0.181098 0.067717 
following -0.108914 -0.101802 0.176203 0.153854 -0.135764 -0.051005 -0.071191 0.508536 0.042209 -0.206095 0.074075 -0.165961 0.227356 -0.022383 0.035558 0.044853 -0.172265 0.249480 -0.610242 0.225002 
remember -0.056336 0.239263 0.333657 -0.110943 0.225034 0.031479 -0.082483 -0.104620 0.110731 -0.095727 -0.004145 -0.141329 0.180549 0.064447 0.171116 0.048312 0.135394 0.009451 -0.194810 0.159691 
period -0.180751 0.246853 -0.372419 0.408504 0.657317 -0.983164 -0.093222 0.917418 1.088437 -0.837938 0.300648 0.574390 0.244388 0.967522 0.157601 -1.057374 0.090544 -1.374672 0.790412 1.093549 
reason -0.084058 0.074119 0.219267 -0.348777 0.229467 0.025281 -0.069923 -0.200650 0.148066 0.273366 0.120091 0.264575 0.345264 0.146662 0.064135 -0.142742 -0.249826 0.244933 0.049202 -0.075740 
under -0.020607 -0.021747 0.128998 -0.082993 0.122514 -0.086038 -0.023585 0.146921 0.211586 0.005387 -0.062532 -0.269807 0.343869 -0.234753 -0.111175 0.023320 -0.038911 0.186745 -0.191403 -0.045109 
idea -0.086563 -0.209222 0.162670 0.042179 0.308670 0.057573 -0.134208 -0.146360 0.244043 0.130338 -0.171780 0.068405 0.169931 0.071663 0.052065 -0.288874 -0.059570 0.178465 0.221533 0.122992 
perhaps 0.178157 -0.152066 0.014268 -0.070327 0.139755 0.144753 -0.296697 -0.037366 0.161975 0.118631 -0.104987 -0.178886 0.166784 0.026075 0.177537 -0.150053 -0.299087 0.360144 0.046542 -0.058363 
heard -0.106148 -0.143117 0.248618 -0.123901 0.250278 -0.034757 -0.071772 0.090360 0.135436 0.218400 -0.175602 0.042064 -0.020109 -0.011763 0.159146 -0.212584 -0.152515 0.259587 -0.027873 0.143270 
others 0.104694 -0.135627 0.030298 -0.258386 0.230415 0.026870 -0.188082 -0.268688 0.300704 0.151164 -0.000369 -0.120980 0.106700 -0.032001 -0.053332 -0.161510 -0.202747 0.099704 -0.161948 -0.248177 
local 0.172707 -0.137881 0.274624 0.211779 0.262697 -0.517700 -0.023921 0.148523 -0.033385 0.117579 -0.206350 -0.070851 0.013437 -0.780450 0.018901 -0.347328 -0.501123 0.173698 0.278775 0.184699 
hockey -0.246608 0.378764 0.428455 -0.052388 0.430228 -0.216961 -0.078801 -0.226437 -0.228590 -0.240723 0.375517 -0.229301 0.120146 0.362949 0.414818 -0.112997 0.730315 -0.292642 0.087951 0.359326 
yet -0.164483 0.065516 0.103799 -0.117151 0.063425 -0.178102 -0.067016 0.126610 0.077995 0.109337 -0.106780 -0.012090 0.289113 -0.145532 0.130497 -0.061765 -0.445546 0.544731 -0.180051 0.032096 
change -0.370710 -0.488237 0.057073 -0.137681 0.099285 -0.206654 -0.037618 0.285586 0.007370 0.084297 -0.048053 0.129863 0.163948 -0.513153 -0.093323 0.279710 -0.136908 0.741998 -0.042931 0.046775 
left 0.063901 -0.274066 0.171163 -0.253692 0.362982 -0.079255 -0.001023 0.004348 0.041318 -0.062809 0.408731 -0.078018 0.624519 -0.238770 0.106610 -0.113433 0.168906 0.055213 -0.073057 0.033763 
doing 0.163941 0.048809 0.039180 -0.115825 0.315557 -0.076034 -0.148429 -0.206516 0.170021 -0.049622 -0.168315 -0.140973 -0.019131 0.036341 0.057891 -0.274998 -0.236324 0.410251 -0.279518 -0.222658 
today 0.443883 0.154955 -0.222635 -0.319516 -0.274845 -0.294120 -0.155787 -0.251935 0.644427 -0.252141 0.243256 -0.319297 0.465224 0.144877 0.003641 -0.442397 -0.326339 -0.313635 -0.384983 -0.228354 
cars -0.002312 -0.145249 -0.005606 0.054673 0.187222 0.018156 -0.038237 0.083594 0.283907 -0.222137 -0.040967 -0.103943 0.150016 -0.058182 0.031941 -0.349894 -0.156530 0.097300 -0.191666 0.008957 
money -0.120792 0.065039 0.066136 -0.164743 0.223496 -0.091086 -0.138660 -0.062482 0.147162 -0.036169 0.207730 -0.035168 0.140586 -0.007543 0.101411 -0.212034 -0.006485 0.069769 -0.134408 -0.074552 
word 0.028635 -0.216915 0.313511 -0.219345 -0.080430 0.261536 0.049050 -0.174477 0.030290 0.139535 -0.241976 -0.041289 0.224201 -0.089890 -0.085848 0.059357 -0.409556 0.169478 -0.338696 -0.238922 
killed 0.105775 0.002832 0.137289 0.183674 0.067604 0.479854 -0.000767 -0.674851 0.208969 0.038163 0.337252 -0.579039 0.376661 0.362761 -0.307892 -0.671433 -0.271594 -0.574380 0.056318 0.004832 
place 0.211208 -0.158001 0.133017 0.146092 -0.070052 -0.079924 -0.171823 -0.000967 0.357971 0.017113 -0.054800 -0.257090 0.363305 -0.291462 -0.069830 -0.480015 -0.339248 0.356413 -0.205694 -0.092586 
public 0.260325 0.059111 0.047872 -0.044016 -0.050095 0.124490 -0.239591 -0.148580 0.402371 -0.021293 0.063008 -0.219767 0.152409 -0.086940 -0.260962 -0.450418 -0.019818 -0.007148 0.002690 -0.088961 
general 0.255609 -0.103985 0.258126 -0.129207 0.026212 -0.238206 -0.273133 -0.101302 0.275535 -0.066456 -0.012854 -0.044209 0.196267 0.012792 0.026784 -0.372337 -0.317159 0.138451 -0.009523 0.018210 
address -0.166267 -0.122893 0.298631 0.139699 -0.265092 -0.866669 0.211506 0.422614 -0.209091 -0.504754 0.045545 0.073108 0.272755 -0.343004 0.344928 0.030112 -0.092253 0.680572 -0.505358 0.089599 
email -0.085656 0.194050 0.306740 -0.027907 0.084872 -0.717257 -0.008600 0.395999 -0.117041 -0.497297 -0.120995 -0.166205 0.152147 -0.570662 0.137619 0.116849 -0.032285 0.711644 -0.648635 -0.040211 
gordon 1.628333 -0.378060 0.782138 -0.294339 0.816438 -0.219449 0.127079 0.170949 -0.594036 -0.249543 -0.225290 -0.864935 0.145801 -0.461262 0.027865 0.068706 0.339718 -0.090954 0.119473 -0.210192 
given -0.165576 -0.318423 0.369368 -0.248485 0.244047 0.031389 -0.103668 -0.370693 0.287311 0.117819 -0.108764 -0.118627 0.171535 -0.082692 0.212517 -0.523689 -0.044853 0.059678 -0.052273 -0.024339 
love 0.093349 -0.263330 0.489496 -0.173491 0.222764 -0.022822 -0.093073 -0.350326 0.079896 0.629235 -0.120237 0.143077 -0.077640 0.103238 0.389910 -0.111788 -0.627769 0.108012 0.365770 -0.031889 
banks 1.538937 -0.160871 1.010701 -0.130130 0.627146 -0.237600 -0.149968 -0.071525 -0.180605 -0.287340 -0.415534 -0.906490 -0.203740 -0.430317 -0.272667 0.045158 0.514907 -0.227221 0.076739 -0.221684 
side 0.213163 -0.378965 0.132968 -0.163976 0.542073 0.209036 0.150282 -0.165925 0.309419 0.160893 -0.126821 -0.062350 0.360751 -0.212346 0.007599 -0.249280 -0.035657 -0.155362 -0.123199 -0.132458 
internet -0.175425 0.283723 0.364110 -0.287724 0.257925 -0.760236 0.176959 0.202974 -0.277819 -0.519437 0.217603 -0.152937 0.513087 -0.471432 0.170976 -0.282355 0.000897 0.362209 -0.461644 0.035046 
home -0.083409 0.303305 0.061367 -0.034717 0.423308 -0.168782 -0.046622 -0.010080 0.167949 -0.056244 0.291045 -0.194173 0.256147 0.137498 0.035675 -0.232473 0.270319 -0.154367 -0.236732 0.228752 
american -0.238960 -0.118736 0.017120 0.115655 0.275232 0.227393 -0.333449 -0.223720 0.049441 -0.335938 0.353903 -0.211557 -0.047466 0.089661 -0.169586 -0.713450 0.101743 -0.585905 0.016518 0.230343 
info -0.079011 0.048267 0.137019 0.022617 0.342608 -0.451725 -0.046829 0.344592 -0.049805 -0.243758 -0.132185 -0.099542 0.172477 -0.250709 0.125339 -0.188070 0.017818 0.553084 -0.151115 0.080916 
send -0.172088 -0.133620 0.003477 0.172852 -0.014552 -0.353755 -0.052893 0.545047 -0.047685 -0.417414 0.057585 -0.188140 0.313817 -0.258977 0.298150 0.256548 0.058285 0.526461 -0.688831 -0.063478 
makes 0.161251 -0.055619 0.267055 -0.155389 0.235241 -0.088703 -0.101388 -0.139554 0.126263 0.185885 -0.194438 -0.090467 0.048948 0.094199 0.129800 -0.437637 -0.335438 0.180224 0.080789 0.005299 
israeli -0.100449 -0.130358 0.153845 -0.246190 0.120719 -0.064778 0.495503 -0.842312 0.192467 -0.205026 0.395717 -0.705870 0.615608 0.013989 -0.632655 -0.646478 0.124991 -0.679919 -0.230205 -0.491506 
above -0.295806 -0.055736 0.248349 -0.171073 0.338052 -0.257283 -0.095655 0.224001 0.027773 -0.199001 0.059365 -0.041469 0.320024 -0.008979 0.197487 -0.206527 -0.018734 0.201491 -0.343949 0.057132 
michael 0.247285 -0.039573 0.311114 -0.039324 0.137479 -0.388854 0.164122 0.162892 -0.291636 -0.269700 -0.136785 -0.211096 0.081555 -0.470261 0.027506 -0.157978 0.017500 0.235340 -0.359921 0.006109 
pretty -0.014740 -0.337934 0.080907 -0.057558 0.317676 0.144449 -0.065118 0.233342 0.004055 0.168728 -0.098252 -0.118821 0.195716 -0.119805 -0.019608 -0.220699 -0.140189 0.389155 -0.196423 -0.143696 
example 0.126810 0.048315 0.286425 -0.226947 0.163492 0.134983 0.012056 -0.298674 0.156827 0.170206 -0.156087 -0.179918 0.209140 -0.153796 -0.037054 -0.188901 -0.009083 0.147572 -0.025922 -0.103961 
agree 0.013937 0.000826 0.260594 -0.178348 0.371437 0.039816 -0.074592 -0.163620 0.060870 0.195964 -0.124019 -0.090110 0.097218 0.130141 0.135587 -0.365533 -0.076357 0.093069 -0.049579 -0.034541 
full 0.182681 -0.163689 0.050385 0.060545 -0.008982 -0.096007 0.038376 0.239202 0.043803 -0.064031 -0.057435 -0.025590 0.366685 -0.282481 -0.275254 -0.173294 -0.322322 0.330240 -0.369155 0.029287 
keith 0.272844 0.050142 0.306700 -0.174819 -0.147240 0.014810 -0.101408 -0.363494 0.048330 -0.060416 0.067664 0.069887 0.203998 -0.185461 0.036199 -0.410118 -0.060769 -0.067642 -0.216844 -0.131869 
science -0.235509 0.323765 0.083499 -0.012986 -0.355145 -0.630551 0.493566 -0.049558 -0.136816 -0.545832 0.173980 0.098063 0.193169 -0.655401 -0.031321 -0.518060 -0.218278 -0.163431 -0.205655 -0.015132 
wouldnt -0.027281 -0.001977 0.206577 -0.076044 0.226671 0.144869 -0.140184 -0.353876 0.149987 0.186959 -0.149000 -0.322776 0.115134 0.318120 0.075560 -0.411196 -0.240202 -0.022888 -0.103693 -0.096410 
pc 0.044103 -0.199242 0.074390 0.207620 0.179794 -0.179838 0.132561 0.733116 -0.151702 0.095839 -0.235518 0.157956 0.311935 -0.560025 -0.292150 0.004401 -0.390059 0.535614 -0.246928 0.103185 
turkish 1.124352 -0.051960 -0.415603 -0.489581 -0.834811 -0.220756 -0.263400 -0.465957 0.896929 -0.403920 0.605397 -0.446338 0.763206 -0.175797 -0.165831 -0.608030 -0.348421 -0.581867 -0.581847 -0.388713 
graphics -0.038228 0.075943 0.026041 0.461036 -0.061428 -0.493236 -0.084622 0.588759 -0.055355 -0.337745 -0.245555 -0.032769 0.400029 -0.421319 -0.329291 -0.568463 -0.735957 0.527153 -0.131103 0.357513 
police -0.216524 0.048131 -0.119287 0.044683 0.459736 0.184415 -0.225391 -0.169377 0.410391 -0.190760 -0.095472 -0.566295 0.269823 0.242295 -0.280861 -0.891715 -0.118918 0.007512 -0.286479 -0.087035 
water -0.743878 0.790853 -0.764022 0.003734 1.343207 -0.163007 0.102835 0.477012 0.386896 -0.911121 0.001597 -0.501119 0.715194 0.093994 -0.717716 -0.925148 0.054923 0.041637 -0.454907 -0.191677 
wont -0.022610 -0.073686 0.169564 -0.031230 0.801758 -0.117453 0.066305 0.239991 0.040107 0.162709 -0.175742 -0.266252 0.178268 0.105665 -0.061264 -0.021425 0.197001 0.324838 -0.353680 -0.154642 
teams -0.256291 0.437072 0.250853 -0.013621 0.512570 -0.233926 -0.209092 0.004372 -0.048436 -0.060780 0.318455 -0.102786 0.014670 0.729221 0.460460 0.062880 0.518973 -0.008734 0.111888 0.319440 
kind 0.067034 -0.265326 0.327459 0.034006 0.122429 0.036858 -0.048882 -0.288303 0.186246 0.123638 -0.258542 -0.187421 0.121969 -0.253372 0.059305 -0.126591 -0.303030 0.352677 -0.148819 -0.116588 
cannot 0.237361 -0.370806 0.261488 -0.162495 0.103345 0.098142 -0.143209 -0.378412 0.254654 0.237530 -0.233013 0.081917 0.200559 -0.181644 0.070921 -0.207101 -0.362563 0.084756 0.131305 -0.072893 
hand -0.030981 -0.064201 0.145917 -0.247071 0.330177 0.057295 -0.040014 -0.064618 0.147496 0.133198 -0.264384 -0.036510 0.163599 0.286167 0.102840 -0.372340 -0.157710 0.092082 -0.144019 -0.015287 
robert -0.091060 -0.160071 0.185324 0.030358 -0.247013 -0.042830 -0.119744 0.180322 -0.126877 -0.191962 0.009307 -0.042189 0.026962 -0.078176 0.100117 -0.006134 -0.202842 0.246277 -0.265516 -0.024521 
means -0.109742 -0.061193 0.102476 -0.233892 0.160162 0.252730 -0.011648 -0.266395 0.073096 0.129484 -0.054642 -0.301201 0.221297 0.261900 -0.100673 -0.209678 -0.310914 0.028582 -0.035106 -0.152553 
seem -0.059891 -0.316231 0.068657 -0.248329 0.196169 0.188656 -0.054131 -0.168257 0.177646 0.200390 -0.233744 0.037106 0.066768 -0.029130 -0.010613 -0.223246 -0.253473 0.315575 -0.212430 -0.201648 
israel 0.014382 -0.229316 0.218635 -0.350843 0.034002 -0.037863 0.358906 -0.799219 0.231746 -0.219177 0.245464 -0.487015 0.587860 -0.094352 -0.463160 -0.428714 -0.396553 -0.359679 -0.222755 -0.439501 
speed -0.022738 -0.279668 0.026784 0.074768 0.348010 -0.280162 -0.194166 0.207565 0.207612 0.009537 0.035255 0.124187 0.438683 -0.250002 -0.025057 -0.299086 -0.229997 0.163130 0.289064 0.125820 
baseball -0.162239 0.164110 0.159136 -0.209983 0.436240 0.018469 -0.356904 -0.135476 0.191653 0.050769 0.224402 -0.245824 0.221881 0.453010 0.322267 -0.175231 0.244673 -0.117676 -0.357793 0.010352 
questions -0.033242 -0.049735 0.295386 -0.002995 0.102622 -0.258892 -0.114717 0.088757 -0.138144 -0.044154 0.108827 -0.041959 0.185203 -0.149889 0.290598 -0.119280 -0.040109 0.227464 -0.193549 0.063785 
whether 0.021243 0.033245 0.274951 -0.100547 0.117917 0.172402 -0.167071 -0.181032 0.023379 -0.057120 -0.046994 -0.109044 -0.040754 0.093376 0.119368 -0.178410 0.039037 0.023476 -0.130160 0.104514 
set 0.078622 -0.233753 0.143553 -0.003601 -0.071195 0.086533 0.077565 0.017798 -0.201482 0.158095 -0.238445 0.114634 0.065894 -0.371838 -0.069274 0.008609 -0.277918 0.460522 -0.173448 -0.171859 
nhl -0.663077 0.153417 0.287302 0.062103 0.708560 -0.305729 -0.032290 0.018624 0.078723 -0.071714 0.527518 0.107913 0.267838 0.675019 0.401192 -0.136780 0.643947 -0.204733 0.480554 0.641488 
self -0.186373 -0.159536 0.113411 -0.129165 0.330614 0.329776 -0.192346 0.195938 0.456982 -0.015120 -0.449629 -0.266443 0.047709 0.241642 -0.166511 -0.546052 -0.093340 0.000146 -0.177320 0.029732 
certainly 0.026534 0.016037 0.143608 -0.123579 0.198403 0.051591 -0.217550 -0.317361 0.199142 -0.014172 -0.094789 -0.198085 0.257766 -0.012512 0.074630 -0.348181 -0.088095 0.054848 -0.041747 -0.017572 
disk -0.399029 -0.542001 0.226070 0.218239 0.094881 -0.350492 0.277671 0.697168 -0.238353 0.100541 -0.246820 0.380654 0.326650 -0.781559 0.018898 0.026660 -0.261130 0.966578 -0.572994 0.143566 
live -0.012890 -0.019385 0.146140 -0.052664 0.053440 0.048198 -0.365620 -0.254954 0.202702 0.136967 0.020203 -0.221475 0.123323 0.254771 0.117326 -0.366810 -0.138175 0.101842 0.051001 -0.018352 
driver 0.093935 -0.406212 0.034400 0.737868 0.277575 -0.455709 -0.194353 0.979757 0.141827 -0.180486 -0.325437 0.055981 0.361474 -0.098148 -0.300663 -0.084936 -0.373600 0.457329 0.220005 0.544147 
anyway -0.139436 -0.005316 0.329093 0.058354 0.615306 0.035860 0.009845 0.201763 0.062468 0.084854 -0.170776 -0.227763 0.108859 -0.252575 -0.083864 0.181887 -0.083613 0.149596 -0.220200 0.129163 
matter -0.025199 -0.137008 0.114092 -0.077552 0.409289 0.169151 -0.024474 -0.342736 0.241254 0.022112 -0.094351 -0.077492 0.144453 0.113053 -0.017319 -0.460837 -0.096463 0.048640 -0.142740 -0.111412 
version 0.004332 -0.192966 0.274826 0.271112 0.044450 -0.083971 -0.154880 0.642232 -0.021302 -0.091396 -0.457220 -0.029800 0.415713 -0.341939 -0.352935 0.178002 -0.637186 0.815718 -0.312635 0.134611 
christians -0.043853 -0.283731 0.339494 -0.338115 -0.220368 0.188204 0.031589 -0.638039 0.117653 0.412503 -0.211042 0.118634 -0.114392 0.107238 0.148083 -0.134011 -0.500683 0.039576 0.078055 -0.117330 
opinions -0.000197 0.287371 0.297455 -0.106134 -0.098647 -0.316005 -0.213435 -0.127815 -0.019237 -0.157961 0.082434 -0.192619 -0.023967 -0.010772 0.183173 -0.022436 -0.193858 0.330713 -0.199173 0.027983 
jim -0.000182 0.054379 0.158738 -0.105107 0.119416 0.006378 -0.266363 0.079679 -0.091672 -0.070762 0.147222 -0.258208 0.067054 0.229924 0.058118 -0.224334 -0.249512 0.183772 -0.156788 0.021053 
came -0.066874 0.062926 0.090074 -0.149444 0.259798 0.042757 -0.015943 0.199271 -0.124217 -0.020688 0.209348 -0.105314 0.300448 -0.234787 -0.096355 0.029116 -0.122971 0.345209 -0.282557 -0.036351 
everything -0.136170 -0.062784 0.081227 -0.201362 -0.069736 0.019891 -0.102623 -0.118553 0.115903 -0.034215 -0.140074 -0.009275 0.369488 -0.072186 0.149720 -0.275581 -0.368559 0.366273 -0.087415 -0.076847 
show 0.117386 -0.160254 0.341787 -0.294115 0.448923 -0.130603 -0.206355 -0.192185 0.207059 0.158952 0.138380 -0.049711 0.092515 0.071522 0.235138 -0.300137 -0.178195 0.054770 -0.104176 -0.022906 
gets -0.230764 0.375045 0.204227 -0.204187 0.697793 -0.294278 0.025824 0.058778 0.056718 0.097646 -0.000142 -0.197111 0.110584 -0.009326 0.143785 -0.358657 0.062995 0.060194 0.004966 0.138427 
systems -0.173368 0.162208 0.258136 0.082261 -0.101369 -0.528476 0.003557 0.172420 0.114493 -0.498180 -0.140315 -0.196908 0.246874 -0.572501 0.186254 -0.398600 -0.246293 0.324980 -0.147526 0.252274 
cost 0.076035 0.204262 0.148152 -0.074350 0.219294 -0.311132 -0.198911 0.153768 0.212434 -0.045708 -0.070446 0.053368 0.358990 -0.499219 -0.024802 -0.200622 -0.360738 0.611463 -0.176403 0.005709 
works 0.041356 -0.149010 0.263426 -0.209195 0.205328 0.028148 0.077909 0.218820 -0.252403 0.091890 -0.130510 0.209213 0.414477 -0.596609 -0.057619 -0.064589 -0.106703 0.510933 -0.223487 0.020197 
law 0.209487 -0.124944 0.122410 0.009096 0.392752 0.259162 -0.129668 -0.426153 0.353792 0.107562 -0.137419 -0.405316 0.150415 0.149145 -0.113917 -0.497785 0.129515 -0.153325 -0.097813 -0.174577 
interested -0.224931 0.097709 0.173615 0.003100 0.058190 -0.378457 -0.116097 0.389855 -0.205948 -0.168155 0.169037 -0.168279 0.166139 0.028243 0.195669 0.098676 -0.032479 0.448229 -0.624945 -0.106909 
ask 0.067082 -0.070309 0.067894 -0.227242 0.198349 0.039203 -0.073279 -0.141057 0.174241 0.264693 -0.199816 -0.160498 0.284953 0.074948 0.042604 0.081244 -0.229816 0.463113 -0.098042 -0.327890 
mike 0.032392 -0.015346 0.240618 -0.028751 0.287432 -0.121284 0.054273 0.126711 -0.110161 0.035519 -0.200401 -0.069133 0.122886 -0.287249 0.111625 0.136761 0.042854 0.248119 -0.121834 0.149154 
stuff 0.035102 -0.185050 0.278761 -0.029507 0.184372 -0.181646 -0.164172 0.151225 -0.035650 -0.154436 -0.183755 -0.239885 0.236447 -0.442593 -0.272019 -0.013802 -0.154865 0.490075 -0.311276 -0.056860 
price 0.159768 0.054208 -0.102104 0.039538 -0.046501 -0.280720 -0.125613 0.608398 0.158748 -0.194774 0.173771 0.022784 0.395083 -0.222092 0.205333 0.133736 -0.364191 0.489381 -0.464826 -0.031748 
national -0.146124 0.142068 0.286858 -0.263864 0.117851 -0.322592 0.076081 -0.139676 0.184775 -0.299548 0.391908 -0.124367 0.449156 -0.152179 0.162810 -0.265660 0.210663 -0.102879 -0.166707 0.186693 
armenian 0.765088 0.086340 -0.136735 -0.225914 -0.574161 -0.402264 -0.257734 -0.483399 0.689452 -0.279207 0.677690 -0.390341 0.762061 -0.247283 -0.124931 -0.552037 -0.249482 -0.472476 -0.263601 -0.141560 
level -0.111709 -0.001141 0.348549 -0.055621 0.145717 -0.104520 -0.178550 -0.030404 -0.236668 0.069651 0.131349 0.076072 0.170642 0.015017 0.104127 -0.264383 -0.162887 0.145832 0.009312 0.227990 
phone -0.290324 0.150159 0.112350 -0.071913 -0.029617 -0.641702 0.435922 0.477489 -0.503562 -0.654355 -0.137353 -0.140824 0.309837 -0.956329 0.156004 0.118322 0.015094 0.626462 -0.671702 -0.038306 
memory -0.092374 -0.554802 0.076582 0.388424 0.170630 -0.052023 0.157521 0.507122 -0.103964 0.088797 -0.264147 0.212370 0.336953 -0.554872 -0.254830 -0.136527 -0.292108 0.459488 0.051168 0.239670 
dead -0.056206 0.102941 0.284256 -0.237641 0.146843 0.211641 0.007774 -0.495788 0.206582 0.208800 0.167233 -0.134664 0.363915 0.114551 -0.106963 -0.472801 -0.429055 -0.164097 -0.186191 0.016072 
technology -0.241064 0.387615 0.545095 -0.196081 -0.182895 -0.606819 0.118193 -0.103068 0.085802 -0.317526 0.221461 -0.240005 0.524116 -0.677068 0.115977 -0.040423 0.106749 0.049536 -0.349088 0.160479 
death -0.214512 0.179114 0.292614 -0.141759 0.250393 0.164859 -0.084707 -0.475571 0.208328 0.211183 0.005492 -0.151357 -0.149222 0.274897 0.108669 -0.216132 -0.284295 -0.114966 -0.043082 0.021024 
war 0.118838 -0.015663 0.139108 -0.157721 -0.088550 -0.072826 0.046032 -0.528576 0.296175 -0.052928 0.399595 -0.290092 0.515253 0.166417 -0.223129 -0.365421 0.006292 -0.184734 -0.039238 -0.176662 
sort -0.086480 0.195702 0.231200 0.030542 0.694094 -0.098044 -0.307070 0.202026 0.064440 0.217235 -0.054439 -0.044155 0.117192 -0.178307 0.035749 0.027182 -0.200661 0.285046 -0.111940 0.096907 
type 0.046836 -0.118622 0.174346 0.061606 0.291752 -0.257314 0.000352 0.447264 -0.055720 -0.156170 0.047205 0.085665 0.283180 -0.308049 0.080081 -0.218548 -0.066863 0.332365 -0.324466 0.181568 
al -0.161786 0.220387 0.142265 -0.124451 -0.010650 -0.347463 0.138972 -0.149490 -0.136383 -0.193663 0.056418 0.059421 0.210147 -0.191119 -0.089464 -0.274647 -0.015907 -0.101722 -0.039064 0.103224 
april -0.105379 0.156610 0.186808 -0.237458 -0.133960 -0.573970 0.075825 -0.176775 0.196604 -0.316208 0.546006 0.161445 0.326915 0.092777 0.316796 -0.367149 0.218975 -0.359519 0.455808 0.311607 
instead -0.030670 -0.175124 0.273165 0.206305 0.165158 -0.211883 -0.030811 0.162348 0.109441 0.100537 -0.056232 -0.119940 0.290414 -0.242583 -0.005633 -0.099448 -0.230146 0.516044 -0.015479 0.175104 
book -0.090688 -0.212475 0.147649 -0.036984 0.117131 -0.148324 -0.130808 0.203374 0.098323 -0.111247 0.003927 -0.278140 0.432655 -0.180512 -0.104306 -0.091283 -0.171557 0.166169 -0.457765 -0.123470 
buy 0.053617 -0.244841 0.029715 0.070384 -0.053921 0.126251 -0.178897 0.196712 0.243238 -0.091676 -0.101068 -0.190884 0.057237 -0.258482 -0.104644 -0.120139 -0.157198 0.268594 -0.375364 -0.047771 
york -0.261817 0.417312 -0.727326 0.077729 0.276977 -0.439478 0.003948 0.422708 0.054234 -0.648522 0.169467 0.203512 0.431715 -0.133600 -0.347861 -0.746136 0.115981 -0.382641 0.614577 0.359622 
drivers 0.009227 -0.562865 0.083761 0.668301 0.440235 -0.171606 -0.305533 0.622747 -0.222472 0.195496 -0.342234 0.227043 0.375278 -0.470065 -0.365102 0.124646 -0.434583 0.743124 0.234989 0.320574 
small -0.204761 0.088158 0.204083 0.088499 0.294707 0.007578 -0.028018 0.181519 0.026793 0.010376 -0.194091 -0.168813 0.132000 -0.167363 0.025555 -0.126450 -0.234372 0.270950 -0.206894 0.130600 
note 0.059564 0.113460 -0.059707 -0.001183 -0.053078 -0.221630 0.049075 0.036550 0.077332 -0.199303 -0.084889 0.029817 0.291499 -0.210252 -0.206406 -0.322171 -0.438518 0.190282 -0.270609 -0.062438 
couple 0.016601 -0.080597 0.099636 -0.183303 0.432793 -0.117656 -0.050866 -0.072796 0.003492 -0.188629 0.156802 -0.053926 0.278539 0.066390 -0.003609 -0.328561 0.177402 0.085266 -0.086323 0.000426 
soon 1.183265 -0.674135 0.962957 -0.185977 0.982593 -0.619793 0.275970 0.588516 -0.450495 0.053104 -0.502961 -0.865162 -0.000364 -0.431101 -0.254295 -0.082423 0.782899 -0.012357 -0.296735 -0.299194 
order -0.063265 -0.255279 0.163367 -0.140613 0.215710 -0.087828 -0.058903 -0.073003 0.260939 -0.101242 -0.044038 -0.274781 0.284548 -0.286735 -0.003839 -0.337580 -0.154828 0.089215 -0.190552 0.026198 
weapons -0.241137 -0.252217 -0.100574 0.028539 0.235036 0.199177 -0.090428 -0.319761 0.438370 -0.190141 -0.108258 -0.192178 0.233497 -0.267982 0.052199 -0.445867 -0.080256 -0.160409 -0.305413 0.035721 
th -0.355762 0.298440 -0.349789 -0.715114 0.280662 -0.380417 0.231403 -0.049329 0.258506 -0.618170 0.402099 -0.260182 0.723716 -0.435178 -0.148329 -0.374745 0.468971 -0.576879 0.135551 0.124477 
guy 0.079099 0.078632 0.243193 -0.292803 0.433116 -0.060976 0.032034 0.019049 0.053082 -0.103699 0.042969 -0.365152 0.337029 -0.330854 0.259376 0.154949 0.314495 0.116163 0.051594 0.095810 
fax -0.304360 0.269845 0.352667 -0.009007 -0.318892 -1.035631 0.438028 0.291498 -0.359980 -0.634067 0.076065 0.022477 0.185964 -0.839725 0.068009 -0.108262 0.171317 0.488720 -0.520659 0.024089 
center -0.451212 0.242748 0.401569 -0.613083 -0.395133 -0.679191 0.451135 -0.426427 0.413191 -0.617058 0.175543 -0.450756 0.611576 -0.610465 0.007967 -0.351238 0.223957 -0.662115 -0.391894 0.085257 
dx 0.065802 -0.467653 0.411160 0.027811 0.143630 -0.210932 0.450247 0.062499 -0.217869 0.222676 -0.658330 -0.028280 0.024710 -1.069457 -0.057074 -0.031515 -0.676973 0.211976 0.385257 0.180397 
faith -0.063837 -0.045959 0.471888 -0.386982 -0.019591 0.256203 -0.042556 -0.755978 -0.152689 0.647015 -0.165375 0.366960 0.023737 0.002055 0.175550 -0.341354 -0.659307 0.218559 0.131808 -0.127210 
bill 0.179647 -0.035908 0.214302 -0.117129 0.432322 0.066515 -0.202224 0.066241 0.248340 -0.085106 0.135935 -0.175838 0.272233 -0.081713 0.042538 -0.171580 -0.020931 -0.249759 -0.270048 0.107517 
area -0.055263 0.047733 0.359226 -0.207877 0.069736 0.181870 -0.173948 -0.437361 0.189995 -0.015155 0.073694 -0.096979 0.174206 -0.177953 0.060112 -0.193583 0.027141 -0.083446 0.072930 0.165954 
paul 0.145998 0.055104 0.179188 -0.390364 -0.082852 -0.000446 -0.122641 -0.154944 -0.046057 -0.017733 0.087562 -0.140112 0.079939 0.079729 0.156930 -0.046507 -0.062079 0.086368 -0.118939 -0.165483 
once -0.176680 -0.237670 0.304499 -0.217173 0.063652 0.194451 0.074228 -0.255282 0.089168 0.133567 -0.077489 0.029061 0.290887 -0.226878 0.088662 -0.036013 -0.041856 0.200614 -0.099890 0.018219 
theres 0.018503 -0.241262 0.404153 -0.003525 0.258020 -0.012012 -0.166972 0.115899 -0.005834 0.216602 -0.022983 0.154856 0.120633 -0.081782 0.239054 0.128995 -0.136597 0.223771 -0.227984 -0.009186 
three -0.169000 0.106585 0.088766 -0.067274 0.394267 -0.121868 -0.063462 -0.014336 0.019248 0.219195 0.411894 -0.147558 0.354205 0.250714 -0.119503 -0.481313 0.017268 0.151020 0.054864 0.042876 
programs -0.284402 0.121378 0.383749 0.366220 -0.136627 -0.022007 0.222657 0.270724 -0.260350 -0.325727 -0.311592 0.019610 0.439472 -0.714606 -0.285153 0.091926 -0.089583 0.493656 -0.487363 0.273608 
files -0.048719 -0.432490 0.104910 0.314704 0.080001 0.013347 0.072314 0.397828 -0.236886 -0.033728 -0.322867 -0.042846 0.353696 -0.998593 -0.268862 0.082132 0.154615 0.768667 -0.151478 0.157311 
several -0.244338 0.176077 0.066964 -0.130878 0.228766 -0.222501 -0.079758 0.119834 0.067596 0.032885 0.232548 -0.085561 0.515144 -0.004549 0.027819 -0.161867 -0.016912 0.441959 -0.145777 -0.004567 
saying 0.062880 -0.240927 0.254017 -0.345677 -0.042938 0.233170 -0.039440 -0.533573 0.185712 0.297780 -0.055304 0.114450 0.168730 -0.031791 0.124085 -0.246195 -0.417603 0.368832 -0.015215 -0.195000 
lets -0.089060 0.216369 0.297191 -0.370671 0.220055 -0.018033 0.055668 -0.155394 -0.120888 0.094583 0.373367 -0.213093 0.291038 0.017144 0.136506 -0.200583 0.125381 -0.222715 -0.114490 -0.102777 
therefore 0.062228 -0.302835 0.443281 -0.318588 -0.048898 0.421909 0.077872 -0.735469 0.300312 0.142723 -0.337642 0.046045 0.322132 -0.281410 -0.068107 -0.444632 -0.550594 0.378402 -0.131883 -0.242165 
check -0.074820 -0.194555 0.130409 0.045636 0.219973 -0.144997 -0.027803 0.179632 -0.075317 0.074324 -0.044943 -0.073909 0.150943 -0.206272 0.112294 0.010619 -0.009854 0.440255 -0.075368 -0.022016 
station -0.560916 0.233230 0.352491 -0.385104 -0.459955 -0.395051 0.127007 -0.156411 0.060921 -0.344465 0.692889 0.164001 0.715414 -0.124658 0.231718 0.097447 0.523375 0.057191 -0.137991 0.225847 
answer -0.066646 -0.092211 0.127613 -0.143906 -0.022956 -0.006829 -0.089705 -0.230999 0.336233 0.023483 -0.110503 -0.116213 0.128093 -0.003670 0.045048 -0.377930 -0.263602 0.321531 -0.092509 -0.142373 
large -0.202717 0.081833 0.324345 -0.081741 0.188961 -0.013671 -0.060062 -0.059073 0.020112 -0.118383 -0.012018 0.103012 0.279230 -0.233654 0.030748 -0.157946 -0.065038 0.249111 -0.182082 0.161659 
earth -0.069735 0.026598 0.180045 -0.543165 0.100804 -0.214589 0.325196 -0.112134 0.089891 -0.083811 0.010921 0.360588 0.259983 -0.359938 0.094398 -0.063996 -0.116301 -0.361110 -0.154494 -0.022947 
anybody 0.052020 -0.076422 0.173250 0.282733 0.175091 0.015763 -0.256442 0.342780 -0.139099 -0.042265 -0.111355 0.038066 0.174978 -0.296330 -0.036853 0.120385 -0.126200 0.289264 -0.161344 0.183788 
ie -0.106246 -0.332362 0.173541 0.173841 0.376725 0.137258 -0.139548 -0.119612 0.102955 0.211703 -0.238009 0.121231 0.195913 -0.309158 -0.033990 -0.104711 -0.295384 0.632590 -0.193552 -0.104392 
especially 0.237167 0.083685 0.359113 -0.078785 0.442232 -0.162209 -0.239657 -0.151344 0.099867 0.200488 -0.086724 -0.156807 0.129246 -0.024398 0.062336 -0.340997 -0.189772 0.381315 -0.111219 0.060152 
ago -0.065738 0.139537 0.260919 -0.375009 0.487635 -0.205075 0.022923 0.236776 -0.080714 0.206494 0.458166 0.008080 0.665949 0.086901 0.101535 0.028191 0.256830 0.238792 -0.255373 0.082610 
top -0.096443 0.217209 0.125576 0.205513 0.301485 -0.022232 -0.011419 0.291223 -0.064870 -0.228657 0.130534 0.018632 0.229614 -0.079663 -0.008437 0.210643 0.042376 0.036915 -0.083754 0.401746 
simply 0.219580 0.045420 0.332034 -0.153553 -0.032572 0.061780 -0.068626 -0.500668 0.222039 0.059687 -0.073735 -0.108926 0.216514 -0.174035 0.024065 -0.310867 -0.290462 0.150342 -0.302471 -0.148367 
took 0.054719 -0.064298 0.256216 -0.100205 0.387172 -0.307249 -0.077259 0.286127 -0.214178 0.091268 0.163535 -0.037426 0.437852 -0.256735 -0.199872 -0.074335 0.003819 0.492889 -0.042832 0.036588 
history 0.312192 0.155430 0.273237 -0.213695 0.207717 -0.201866 0.026082 -0.408548 0.076960 -0.019967 0.116110 -0.102759 0.275905 -0.039129 -0.016888 -0.402586 -0.296637 -0.105905 -0.185170 -0.101676 
offer -0.056432 0.177237 -0.232435 -0.076436 0.091515 -0.212103 -0.191768 0.605160 0.140899 -0.245837 -0.091116 -0.014574 0.167956 -0.144837 0.051397 0.151659 -0.213486 0.543001 -0.596688 -0.029093 
important -0.092692 -0.216096 -0.124715 -0.125126 0.385508 -0.019376 -0.079194 0.041880 0.275386 0.056287 -0.013993 -0.109409 0.159514 -0.046445 -0.064820 -0.249818 -0.157032 0.199715 -0.019240 -0.101924 
days 0.025422 0.281846 -0.062854 -0.303847 0.173929 -0.037531 -0.130430 0.023005 -0.033084 -0.059844 0.333469 -0.119092 0.214946 -0.102052 -0.085248 -0.123953 0.005644 -0.030128 0.043956 -0.039305 
hope 0.437981 0.059047 0.300286 -0.367146 0.099313 -0.176935 -0.081463 -0.235213 0.116515 0.034848 0.011050 -0.069774 0.233386 -0.114048 0.109226 -0.192732 -0.110025 0.063388 -0.171037 -0.126941 
standard -0.228597 -0.025516 -0.017756 -0.006737 0.073349 -0.334630 0.178374 0.212450 -0.023750 -0.192610 -0.034837 -0.027831 0.297075 -0.425445 -0.060782 -0.083205 -0.101848 0.263735 -0.137993 -0.078960 
start -0.034345 -0.057704 0.162173 0.073278 0.332100 0.043104 -0.102343 0.057606 0.108178 0.014704 -0.072933 -0.206597 0.125536 -0.036187 0.011818 -0.161599 -0.058196 0.270871 -0.298674 -0.091512 
atheists 0.256118 -0.200087 0.542992 -0.184631 -0.539925 0.121407 -0.091548 -0.761684 0.075078 0.181044 -0.136934 0.131174 -0.060070 -0.102433 0.055700 -0.469951 -0.355871 -0.049988 0.026896 -0.193735 
talking 0.130135 -0.071885 0.249988 -0.242867 0.146857 0.014386 -0.147799 -0.236058 0.053164 0.006296 0.010399 -0.053840 0.286610 -0.073479 0.180674 -0.300309 -0.203562 0.074577 -0.205578 -0.094573 
player -0.094141 0.423869 0.555208 -0.169061 0.296691 -0.426274 0.003223 0.210950 -0.326876 -0.020309 0.388001 -0.117078 0.008189 0.139854 0.324407 -0.062303 0.533507 -0.205743 0.163951 0.474925 
claim -0.036060 0.073496 0.115198 -0.002523 0.179607 -0.068453 -0.089000 -0.213405 0.208741 -0.003405 -0.041233 -0.179724 0.161680 0.168653 0.054127 -0.336759 -0.114990 0.007277 -0.127397 0.099810 
feel -0.111209 -0.052752 -0.029788 -0.097075 0.254699 0.106789 -0.148381 -0.074825 0.225811 0.068622 0.026684 -0.084754 -0.011150 0.360155 0.100745 -0.173533 -0.233059 -0.026641 -0.128912 -0.191211 
gods 0.145284 -0.343473 0.525805 -0.575744 0.279676 0.237116 0.120880 -0.890831 0.015476 0.666133 -0.527306 0.245703 -0.249053 -0.157124 0.102079 -0.378508 -0.462215 0.039401 0.322476 -0.360927 
similar -0.200315 0.044097 -0.007790 -0.218906 0.281875 0.003778 -0.124368 -0.206479 0.185629 0.056251 0.155461 0.094720 0.114927 -0.062928 0.039008 -0.087997 -0.100880 0.167931 0.010688 -0.061095 
os -0.196211 0.036136 0.272730 0.515854 0.511937 -0.077245 0.053555 0.697319 -0.169751 0.179035 -0.370410 -0.321988 0.079900 -0.235444 -0.095254 0.234981 -0.344476 0.457413 -0.160444 0.435326 
news -0.122318 0.061460 -0.009305 -0.048115 0.272073 0.017640 -0.338838 -0.201553 0.300263 -0.115938 0.073761 -0.410354 -0.004032 0.377057 0.068302 -0.624924 0.057252 -0.149052 -0.197367 0.217456 
already -0.051066 -0.031980 0.161192 -0.112602 0.133826 0.143950 -0.161729 -0.176642 0.139718 0.101341 0.053131 0.067499 0.140802 0.026305 0.010037 -0.155096 -0.148246 0.252135 -0.248596 -0.056521 
crime -0.009160 0.082465 -0.153603 0.088840 0.312992 0.181871 -0.418024 -0.370757 0.539900 -0.242589 0.079603 -0.358602 0.201575 -0.080860 -0.303339 -0.735523 -0.118483 -0.295627 -0.372760 0.033572 
mine 0.033712 0.122363 0.095277 -0.166694 -0.013510 -0.319793 -0.228607 0.213749 0.042487 -0.114214 0.182698 -0.174633 0.124602 0.040370 0.249855 0.144650 -0.244236 0.476223 -0.206919 0.021689 
almost 0.056624 0.141193 0.095229 -0.116782 0.230457 -0.210453 -0.127756 -0.089493 0.229485 0.124239 0.101478 -0.021504 0.246127 -0.004140 0.145745 -0.615872 -0.272159 0.145515 0.058884 0.062084 
children 0.005513 0.199376 -0.004747 -0.215641 0.055795 0.132005 -0.128540 -0.840454 0.408378 0.099216 0.627947 -0.255084 0.398002 0.417768 -0.139485 -0.752068 -0.056509 -0.390298 0.095904 -0.036510 
nasa -0.458591 0.318861 0.485535 -0.378882 -0.463578 -0.572501 0.059968 -0.096309 0.320262 -0.325263 0.569266 -0.150522 0.597541 -0.681417 0.234744 0.095744 0.262861 -0.265011 -0.401173 0.186238 
road 0.059441 -0.097282 0.068916 -0.114834 0.359729 -0.157176 0.032664 0.047907 0.164223 -0.053769 0.188908 -0.161412 0.299006 -0.100652 -0.005273 -0.290143 0.086722 0.034289 -0.143475 -0.000128 
rate -0.188626 -0.015698 -0.245022 0.426475 0.217142 0.190206 -0.344767 -0.094050 0.672617 -0.074060 0.088251 -0.275156 0.303132 -0.030112 -0.070958 -0.796970 -0.483649 -0.148693 -0.041660 0.196466 
argument 0.155863 -0.133428 0.151877 -0.319839 0.161053 0.164468 0.015015 -0.427923 0.116621 0.162636 -0.044605 -0.079439 0.161954 -0.074666 -0.008112 -0.358526 -0.421671 0.050726 -0.094961 -0.344386 
de 0.726331 -0.836681 0.783502 -0.153459 -1.401584 -0.251806 -0.548516 -0.212691 0.188312 0.419495 0.183008 0.007284 -0.296484 -0.098136 0.699236 0.049138 -0.418117 0.327181 -0.176306 0.013761 
likely 0.014431 0.007568 0.110590 0.082495 0.314846 0.243610 -0.325545 -0.145695 0.250753 0.120425 -0.004125 -0.107788 0.050886 0.290515 -0.100375 -0.496720 -0.158251 -0.141202 -0.163842 0.082652 
christ 0.103474 -0.253374 0.546996 -0.525161 -0.163914 0.432348 -0.022472 -0.724704 -0.060391 0.527285 0.140038 0.099542 0.302688 -0.291873 -0.064238 -0.152285 -0.528209 0.031110 0.059382 -0.295930 
hit 0.245522 0.052848 0.237147 -0.274430 0.277069 0.075935 -0.266357 -0.120421 -0.002405 0.248513 0.153728 0.003509 0.068625 0.191920 0.239246 -0.046201 -0.129237 0.043831 0.060125 -0.002047 
wanted -0.110968 -0.347784 0.183921 -0.214480 0.042097 -0.190572 -0.125821 0.111005 0.008076 0.036108 0.068292 -0.092104 0.236488 -0.153553 0.181199 -0.063386 -0.031812 0.425514 -0.140014 -0.067306 
understand 0.161190 -0.196851 0.251120 -0.124088 0.026571 0.147440 -0.098528 -0.270783 0.150821 0.135231 -0.138066 -0.086986 0.091708 -0.099310 -0.060917 -0.190823 -0.231939 -0.040000 -0.085333 -0.113152 
truth -0.103420 -0.368017 0.473775 -0.259809 -0.068160 0.422296 -0.019608 -0.649330 -0.044198 0.162545 -0.228244 0.140062 0.050060 -0.240693 -0.017235 -0.297242 -0.578637 0.246645 -0.092990 -0.134995 
certain -0.087117 -0.064204 0.189145 -0.086763 0.259859 0.000393 -0.317826 -0.299394 0.446513 0.070081 0.212215 -0.032387 0.248852 -0.168119 0.003552 -0.563820 -0.297542 0.092612 -0.096128 0.008283 
firearms -0.034912 -0.080606 0.276619 0.009151 0.399480 0.338411 -0.198857 -0.115572 0.188261 -0.104572 -0.278812 -0.102591 -0.015879 0.010119 -0.098069 -0.299896 -0.013402 -0.085246 -0.063414 0.247183 
usually 0.146210 -0.138550 0.281553 0.040063 0.127781 0.179894 -0.182689 -0.199919 -0.015175 0.158273 -0.103012 -0.064375 0.134287 0.017764 -0.015662 -0.201397 -0.261631 0.205748 0.218221 0.035229 
making -0.072562 -0.189584 0.244067 -0.181313 0.062434 -0.047065 -0.028141 -0.328053 0.067765 0.136147 0.066761 0.096374 0.128067 -0.094187 0.065166 -0.385510 -0.184636 0.133979 -0.230332 -0.209082 
st -0.626956 0.620948 -0.478902 -0.141810 0.578963 -0.690939 -0.185182 0.508001 0.508027 -0.740266 0.545421 0.296806 0.589950 0.172789 0.133543 -0.634400 0.018130 -0.664398 0.593567 0.581077 
cause 0.077769 -0.141818 0.142814 -0.144013 0.321795 0.194016 -0.093694 -0.238929 0.181335 0.069133 -0.133227 -0.196856 0.132794 -0.164247 -0.044068 -0.374913 -0.084928 -0.103276 -0.154554 -0.166411 
running -0.093426 -0.191376 0.232023 0.417764 0.316114 -0.011147 0.024905 0.705453 -0.370509 0.105230 -0.431046 0.112329 0.167652 -0.460557 -0.208830 0.265958 -0.330967 0.643866 -0.139452 0.247331 
jon -0.012356 -0.012736 0.153745 -0.316297 -0.249087 0.059571 0.015588 -0.256850 0.077270 -0.043133 0.026322 -0.040085 0.087235 -0.164003 0.090089 -0.129713 -0.015245 0.126747 -0.215901 -0.232747 
defense -0.290144 -0.147284 0.230798 -0.076895 0.562511 -0.066747 -0.036243 -0.084908 0.144043 0.039965 -0.160344 -0.296430 0.239250 0.091910 -0.157361 -0.539281 0.107526 -0.060275 -0.089673 0.063569 
hi -0.080548 -0.338703 0.099307 0.245641 -0.117320 -0.014712 0.054520 0.555709 -0.102169 -0.221603 -0.336695 -0.072565 0.331278 -0.404631 -0.023725 0.297655 -0.155886 0.758916 -0.366696 0.110870 
current -0.053406 0.200324 0.306793 -0.127764 0.019916 -0.156333 0.031658 -0.040778 -0.060822 0.169971 -0.054645 -0.144624 0.069358 -0.126790 -0.003188 -0.068586 -0.199119 0.178829 -0.235265 -0.048389 
havent -0.078153 -0.022007 0.379045 -0.264294 0.212438 0.113064 -0.260176 -0.192354 -0.051276 0.128764 0.130024 -0.092942 0.136975 0.112855 0.227666 -0.084375 -0.029137 0.167317 -0.130536 -0.053101 
comes -0.070443 -0.175100 0.106921 0.160459 -0.001043 -0.379990 -0.009334 0.284580 0.275261 -0.153765 -0.243862 0.032896 0.277873 -0.238817 -0.060647 -0.298142 -0.212529 0.682410 -0.274429 0.182426 
head 0.265999 0.097269 0.403297 -0.208344 0.352830 -0.207002 -0.298695 -0.033005 0.098348 0.103800 0.142873 -0.198845 0.141478 0.008036 0.187455 -0.180985 -0.018859 0.185491 -0.097975 0.061361 
single 0.235793 0.217799 -0.353715 -0.163218 -0.045558 -0.065174 -0.127542 -0.094802 0.438356 -0.349216 0.183808 -0.440252 0.398244 -0.119488 -0.197876 -0.427090 -0.273708 -0.114075 -0.404012 -0.108822 
jews 0.140850 -0.074086 0.197617 -0.295006 0.003216 0.048733 -0.025078 -0.692093 0.284489 0.125108 0.198024 -0.153049 0.291115 0.097061 -0.369411 -0.560040 -0.564949 -0.283940 -0.071579 -0.212655 
machine -0.182079 -0.377218 0.171331 0.351521 0.316641 0.081422 -0.027399 0.280193 -0.175979 0.159449 -0.213988 -0.005385 0.278513 -0.249195 -0.295397 -0.147932 -0.250347 0.597678 -0.087811 0.074467 
bible 0.073504 -0.170039 0.344894 -0.255168 0.102158 0.229995 0.089993 -0.460263 -0.092420 0.281796 -0.100769 0.043731 0.053576 0.033011 -0.143562 -0.140745 -0.317505 0.139803 -0.103735 -0.236520 
pp 0.101964 0.258276 -0.870170 0.472899 0.408659 -1.021538 -0.106392 1.155117 0.856367 -0.896120 0.223865 0.571503 0.468237 0.469868 -0.358236 -1.061614 -0.414416 -1.170014 0.899301 0.862872 
average -0.083687 0.269111 -0.017894 0.042501 0.146161 0.025983 -0.248172 -0.358080 0.325316 0.079722 0.282977 -0.097519 0.014532 0.246918 -0.197722 -0.472238 -0.356720 -0.238324 -0.059846 0.064532 
force 0.131563 -0.297310 0.310924 -0.031232 0.035288 -0.000996 -0.086660 -0.228772 0.348249 -0.066982 -0.187506 -0.240540 0.253211 -0.220140 -0.215099 -0.398075 -0.165747 -0.108633 -0.151618 0.046040 
within -0.104059 -0.102233 0.254605 -0.160358 0.003763 -0.310992 -0.262102 -0.091681 0.270842 -0.252805 0.289606 -0.026345 0.385053 -0.255963 0.053858 -0.382970 -0.274988 0.230041 -0.315336 -0.041314 
bus 0.018723 -0.341837 0.223259 0.286747 0.185517 -0.488794 -0.044248 0.170642 0.041077 0.126031 -0.410064 -0.046387 0.004804 -1.046662 -0.019382 -0.404155 -0.712268 0.228918 0.430241 0.317272 
although -0.037507 0.045932 0.288053 -0.249279 0.310098 -0.080773 -0.099112 -0.247075 -0.082226 0.074072 0.088037 0.099432 0.148791 0.073613 0.177964 -0.220435 0.126931 0.076033 0.226365 0.027324 
men 0.094005 -0.311012 0.513513 -0.357882 -0.244730 -0.044258 -0.013650 -0.665216 0.161823 0.365336 0.256449 -0.072764 0.186678 0.175016 0.314849 -0.415410 -0.274070 -0.081298 0.242208 -0.270670 
evidence 0.189669 -0.343453 0.319297 -0.324046 -0.050092 0.042795 -0.080949 -0.667717 0.202079 0.423076 -0.069246 0.191276 0.006768 0.021447 0.035700 -0.423048 -0.615845 0.191389 -0.116838 -0.349238 
consider -0.019057 -0.201692 0.077595 -0.196166 0.214656 0.117676 -0.150079 -0.260964 0.286310 -0.000741 -0.111826 -0.211206 0.126720 -0.056906 -0.092059 -0.450543 -0.103102 0.114749 -0.330935 -0.130236 
told 0.027679 -0.190297 0.176686 -0.113076 0.127126 -0.042059 -0.054917 0.002857 -0.001188 0.045902 0.017063 -0.069259 0.293989 -0.108565 -0.036454 -0.157579 -0.326226 0.351256 -0.104606 0.041403 
mb -0.333529 -0.153376 0.423531 0.709683 0.368881 -0.520805 0.076154 0.544866 -0.043953 0.209817 -0.321798 -0.145568 0.277895 -0.838704 -0.270568 -0.388409 -0.287676 0.670217 -0.012000 0.598806 
often 0.007230 -0.062312 0.090736 0.028179 0.253620 0.173177 -0.156078 -0.058388 0.241010 0.020863 -0.147017 -0.145839 0.117595 0.057518 0.132679 -0.435284 -0.263794 -0.012961 -0.119072 -0.089170 
source -0.026697 -0.048754 0.162989 -0.239680 0.032116 -0.028935 -0.041462 -0.279508 0.127239 0.028248 0.073778 -0.156965 0.268448 -0.137016 0.029436 -0.302918 -0.128280 0.086830 -0.145562 -0.016589 
dod 0.022666 0.090637 0.044385 0.115526 0.346512 -0.020462 -0.137493 0.354855 -0.197091 0.001392 0.085550 -0.041312 0.210114 -0.183619 -0.083321 -0.039865 -0.156479 0.190824 -0.152003 0.210054 
color -0.375124 0.038715 0.559886 0.234093 -0.214927 -0.330708 -0.084235 0.050720 0.004249 -0.142362 -0.082022 -0.036269 0.492290 -0.639502 0.081886 -0.502032 -0.264096 0.142171 0.276186 0.662335 
ones 0.108412 0.150776 0.312983 -0.110025 0.259271 -0.262347 -0.154843 0.046541 0.090196 0.105560 0.012657 -0.123846 0.100813 -0.121793 0.276182 -0.320087 -0.176416 0.062121 -0.012841 0.138622 
shot 0.015861 0.556561 0.096553 -0.274495 0.271235 -0.054204 -0.168025 -0.406445 0.336071 0.135572 0.581411 -0.240622 0.115142 0.344476 0.131677 -0.391627 0.192958 -0.525064 0.302657 0.304982 
toronto -0.243206 0.194996 -0.069486 0.030810 0.467299 -0.339024 -0.103190 0.276928 0.228979 -0.456618 0.226788 0.008039 0.288212 0.413290 0.207783 -0.293386 0.426589 -0.241472 0.195075 0.609080 
experience 0.007494 -0.080491 0.140208 -0.151632 0.237394 -0.044624 -0.075697 -0.060801 0.021827 0.103338 0.045480 0.063338 0.122979 -0.090478 0.029472 -0.179953 -0.088878 0.202947 0.116211 -0.013289 
dc -0.264626 0.490716 0.410517 -0.067370 0.194869 -0.578977 0.148979 -0.023477 0.165873 -0.145747 -0.012606 -0.179939 0.242558 -0.153709 0.329005 -0.318516 0.105199 -0.186974 -0.189890 0.479608 
ca 0.027508 0.829836 0.061733 -0.160766 0.198540 -0.855652 -0.600993 0.261311 0.487624 -0.714243 0.418308 -0.210213 0.497736 -0.688296 0.257301 -0.251951 0.044605 -0.088743 0.025617 0.352973 
original -0.097525 0.049039 0.112418 0.076244 0.213425 -0.478076 0.081426 0.433488 0.150009 -0.038035 -0.152976 0.027772 0.330634 -0.337201 0.069703 -0.363251 -0.201203 0.460034 -0.268866 0.172871 
total -0.268499 -0.202393 -0.057835 0.341015 0.378203 -0.056968 -0.014745 0.107473 0.256761 -0.193018 0.140276 -0.067637 0.284776 0.022739 0.091300 -0.683590 -0.011621 -0.132374 0.184985 0.510772 
deal -0.077924 -0.042140 0.093927 -0.184851 0.265228 0.059883 0.072065 0.097617 0.013408 0.172374 -0.078199 0.054105 0.214609 -0.205245 0.190545 -0.006421 -0.181369 0.240335 -0.099267 -0.050912 
oh -0.294062 -0.022798 0.187484 -0.334369 0.245631 -0.097560 0.057822 -0.161566 0.116730 0.044400 0.020924 -0.095538 0.361749 -0.252862 0.079222 -0.058730 -0.033910 0.190643 -0.098480 -0.078613 
ram -0.493698 -0.170060 0.273294 0.495781 0.498511 -0.337921 0.067365 0.462700 -0.233947 0.279894 -0.380973 -0.034738 0.280843 -0.986453 -0.310749 -0.012857 -0.262959 0.695710 -0.069070 0.374306 
face -0.103114 0.146053 0.199896 -0.101860 0.751668 0.282111 -0.177161 -0.010035 -0.000677 0.186985 -0.029705 -0.229847 0.072911 0.247039 0.092897 -0.363382 -0.020640 0.253058 -0.139548 -0.017762 
country -0.022984 -0.095408 0.228286 -0.020763 0.026964 0.142437 -0.103768 -0.416405 0.220300 0.063021 0.247477 -0.215267 0.300684 0.043142 -0.092369 -0.360178 0.055808 -0.391625 0.144086 0.187813 
sorry 0.116815 -0.311121 0.237114 -0.053426 0.105271 0.020242 -0.025453 0.102812 -0.029403 0.039777 -0.268317 -0.103066 0.184921 -0.037825 -0.139316 -0.029546 -0.221005 0.358070 -0.217399 -0.047323 
unless -0.066849 0.093949 0.235946 -0.183695 -0.054708 -0.248179 -0.151142 -0.011086 0.206131 -0.112976 0.098298 0.057068 0.157044 0.042518 0.227669 -0.198762 -0.059905 0.147964 -0.052933 0.129984 
tom 0.162411 -0.084417 0.215603 -0.029633 -0.008077 -0.007804 -0.250730 0.240600 0.005449 -0.105059 -0.024173 0.003557 0.289862 -0.040622 0.177348 0.055777 -0.102440 0.304349 -0.182105 0.097512 
contact -0.196475 0.189420 0.370982 -0.290330 0.487093 -0.428876 -0.049512 0.201825 -0.018633 -0.393489 0.159555 -0.134957 0.236693 -0.466029 0.109484 -0.242846 0.084085 0.145164 -0.297125 0.102206 
thinking 0.013746 -0.036925 0.173159 -0.098501 0.253414 0.096987 -0.067456 0.142789 0.010544 0.196320 -0.004899 -0.128543 0.055939 0.049444 0.147163 0.052616 -0.110732 0.147329 -0.316543 -0.193156 
james 0.142340 0.011294 0.350295 -0.305056 0.175779 -0.043179 -0.054854 -0.030098 -0.045028 -0.106414 0.059389 -0.212902 0.249729 -0.257796 0.132283 0.073902 -0.073310 0.067096 -0.136759 -0.087721 
net -0.165381 -0.005380 0.077828 -0.086085 0.372393 0.049431 -0.033197 -0.119260 0.146494 -0.004100 0.142081 -0.139533 0.399873 -0.065713 0.154347 -0.277502 0.127471 0.188512 -0.222981 0.012758 
nice -0.132859 0.013278 0.277402 -0.042751 0.159204 -0.027046 -0.146762 0.070020 0.112968 0.085254 0.024741 -0.261930 0.214264 -0.034871 0.066373 -0.209203 -0.035461 0.252726 -0.193788 0.046983 
engine -0.020003 -0.016336 0.022888 0.046156 0.284965 -0.138871 -0.053764 0.174370 0.254289 0.099304 -0.019585 0.029060 0.263591 -0.050352 0.118306 -0.176935 -0.297099 0.199813 -0.022806 0.026140 
opinion 0.380813 0.214126 0.411708 -0.183301 -0.296731 0.139099 -0.377966 -0.048207 0.123575 -0.084904 0.069042 -0.252600 -0.097492 0.322972 0.170988 -0.052468 0.205192 0.007398 -0.191579 0.036832 
issue -0.006818 -0.004535 0.104061 -0.014578 0.338416 -0.028705 -0.231789 -0.216461 0.444349 0.087946 -0.072264 -0.250746 0.055660 0.024317 0.063056 -0.321325 -0.142049 0.119468 -0.238680 0.036482 
per -0.049289 -0.139403 0.189705 0.155927 0.219105 -0.249691 -0.089925 0.171589 0.220092 0.158724 -0.047150 -0.071985 0.120616 -0.098025 -0.100049 -0.501990 -0.136849 0.221922 0.062330 0.284177 
posting -0.012404 0.130790 0.203142 -0.210108 0.118869 -0.157533 0.041953 -0.026823 0.069145 -0.037068 -0.040077 -0.001507 0.117214 -0.293837 0.180124 -0.128017 -0.219832 0.189044 -0.208811 -0.059206 
friend -0.139261 -0.189487 0.080791 0.196291 0.199022 -0.111990 -0.072502 0.474725 -0.169914 -0.186517 0.242420 -0.037965 0.250432 -0.104025 -0.056366 -0.021224 -0.172210 0.373067 -0.436934 0.154533 
dave -0.158288 0.242209 0.060408 -0.063373 0.167585 -0.247194 -0.160533 0.318780 -0.054371 -0.292520 0.214731 -0.192876 0.135815 0.053899 0.180481 -0.196130 -0.022864 0.269366 -0.208843 0.226243 
week -0.013696 0.191037 0.219678 -0.176514 0.048873 -0.225530 -0.196871 0.169767 0.053693 -0.112406 0.395978 -0.082840 0.562955 0.059477 -0.025346 -0.031910 0.050837 0.203609 -0.062882 0.169601 
low -0.082069 -0.007623 0.266688 -0.200762 0.314898 0.045084 -0.175353 -0.125487 -0.035667 0.000245 0.150406 -0.034735 0.096159 -0.227461 0.006041 -0.383646 -0.136018 0.104977 0.028936 -0.004898 
fast -0.162571 -0.225963 0.197706 0.128470 0.165890 -0.302494 -0.151693 0.353496 -0.005172 0.125136 -0.198032 0.236871 0.231669 -0.337596 -0.018706 -0.413262 -0.399317 0.414673 0.290516 0.222343 
biggest 0.538676 0.660236 0.493295 -0.129452 0.523833 -0.132408 -0.314154 0.441219 -0.139151 -0.017076 0.401300 -0.544553 -0.207561 0.832090 0.756640 0.473459 0.675054 -0.347088 -0.351318 0.163504 
everyone -0.015560 -0.057561 0.258919 -0.082343 0.141249 0.077145 -0.196041 -0.122233 0.006810 0.156817 0.034061 -0.001823 0.283529 -0.100605 0.115395 -0.070378 -0.174706 0.397486 -0.203249 -0.073035 
office -0.100278 0.252131 0.373064 -0.121290 -0.036631 -0.156102 -0.006495 0.008653 0.030035 -0.200190 0.261176 -0.098143 0.288575 -0.269178 0.121909 0.333831 -0.131162 0.156493 -0.491564 0.064435 
anti 0.183063 -0.150371 0.144884 -0.014247 0.131093 0.172457 -0.275017 -0.360632 0.367889 -0.222267 0.120859 -0.526999 0.363139 -0.022015 -0.268376 -0.772214 -0.094924 -0.420931 -0.378673 -0.032574 
san -0.713824 0.959588 -0.549846 -0.014258 0.403367 -0.920757 -0.303343 0.529576 0.923074 -1.133616 0.601719 0.103903 0.820070 -0.153467 0.100583 -0.616326 -0.067307 -0.756136 0.439754 0.806757 
chicago -0.418089 0.579683 -0.439462 0.129267 0.924746 -0.786725 0.155008 0.714748 0.341477 -0.630147 0.386766 -0.049685 0.463215 0.606896 0.013649 -0.676343 0.045812 -0.578730 0.457352 0.636782 
armenians 0.672489 -0.064269 0.043432 -0.209544 -0.542090 -0.071779 -0.279475 -0.541610 0.501779 -0.057871 0.637046 -0.265433 0.641280 -0.014226 -0.001946 -0.429030 -0.346483 -0.417076 -0.069560 -0.140843 
red 0.052118 0.130193 0.566947 -0.045266 0.263735 -0.065112 -0.079704 -0.219498 0.093539 -0.070454 0.149184 -0.344945 0.310205 0.013831 0.262887 -0.055892 0.066072 -0.126563 -0.079229 0.283739 
million -0.040707 0.119736 0.240165 0.141447 0.138267 -0.186131 -0.140091 -0.026361 0.142644 -0.021534 0.318833 -0.138733 0.415461 0.012120 -0.001541 -0.262396 -0.025625 -0.060279 0.053767 0.203283 
arent -0.187443 -0.129038 0.350629 -0.046392 0.345187 0.118729 0.016208 -0.177683 0.013791 0.238115 -0.150488 -0.001529 0.098042 0.178457 0.020347 -0.301426 -0.133068 0.149287 -0.090156 0.031409 
white -0.101872 0.223233 0.601626 -0.091768 -0.012775 -0.307391 -0.164387 -0.362816 -0.103856 -0.442930 0.492338 -0.127369 0.557608 -0.288197 0.066207 -0.049625 0.358467 -0.184115 0.255100 0.462524 
early -0.303785 0.161770 0.029353 -0.357845 0.167224 -0.148020 -0.001165 -0.177604 0.254512 -0.039403 0.313946 -0.082197 0.320011 0.166965 0.215244 -0.114928 0.132033 -0.065273 -0.040281 -0.032756 
religious 0.013715 0.000033 0.110495 -0.278412 0.143260 -0.172473 -0.033089 -0.446485 0.263936 0.020328 0.025361 0.203834 0.297606 0.054424 -0.015932 -0.434686 -0.247351 0.096268 0.016871 -0.052973 
richard 0.052093 0.105534 0.319161 -0.268196 0.200462 -0.343356 -0.171428 -0.165187 0.090878 -0.122677 0.077657 -0.075092 0.148352 0.348826 0.413903 -0.178528 0.093980 0.055497 0.004513 0.063562 
asking -0.051583 0.008314 0.022078 -0.022410 0.259928 -0.416900 -0.031745 0.864509 -0.279069 -0.527348 0.153074 0.235050 0.389176 -0.408326 -0.091621 -0.116154 -0.236175 0.437167 -0.626595 -0.143788 
rights 0.168542 -0.018669 -0.132518 -0.297611 -0.146139 -0.059158 -0.180845 -0.378890 0.573730 -0.096939 0.088257 -0.092962 0.192772 -0.117866 -0.013386 -0.441180 -0.104485 -0.160570 -0.251609 -0.334742 
dealer -0.118642 0.086845 -0.052337 -0.181113 0.107104 -0.017456 -0.088881 -0.067052 0.230423 -0.181898 0.068891 -0.113135 0.212503 -0.075852 0.023538 -0.117665 -0.067123 0.145177 -0.204597 -0.108228 
city -0.330832 0.362108 -0.597931 0.013322 0.475465 -0.220083 -0.156682 0.194324 0.381160 -0.628211 0.396564 -0.107356 0.640843 -0.048112 -0.415753 -0.676353 -0.063476 -0.182248 0.130220 0.090498 
murder 0.209177 0.111754 0.183942 -0.031838 -0.001398 0.393941 -0.126518 -0.713183 0.295962 -0.041187 0.088172 -0.265733 0.438562 0.002245 -0.178429 -0.296310 -0.291495 0.076204 -0.264486 -0.125640 
copy 0.064418 -0.290274 0.252364 0.310238 -0.026440 -0.019831 -0.167989 0.599027 -0.022095 0.088993 -0.039321 -0.210906 0.454446 -0.501774 -0.248193 0.054720 -0.164265 0.602221 -0.402445 0.110733 
access -0.207506 -0.348768 0.094305 0.052988 0.048276 0.037680 0.061268 0.153274 0.016875 0.100836 -0.067341 0.025550 0.349229 -0.547574 -0.377407 -0.037263 -0.117699 0.580823 -0.330992 -0.099920 
deleted -0.214242 -0.273651 0.084083 0.204892 0.163657 -0.045874 0.126224 0.058411 -0.169555 0.000080 -0.011724 0.006323 0.353034 -0.387878 -0.290587 -0.185409 -0.237571 0.421388 -0.124768 0.099151 
upon -0.000315 -0.061732 0.190249 -0.291079 0.000360 -0.007711 -0.017362 -0.392261 0.052767 0.009944 0.275879 -0.200372 0.421669 -0.082866 -0.144437 -0.333756 -0.120769 -0.209165 -0.129494 -0.226807 
eric 0.060231 0.149217 0.160904 0.052963 0.337600 -0.174206 -0.025969 0.199787 -0.189400 -0.104686 0.120240 -0.077045 0.204812 0.036568 0.028494 0.162579 0.226547 0.132254 -0.146839 0.022197 
hes 0.096160 0.088136 0.136067 -0.239116 0.280798 0.032973 -0.212766 -0.092151 0.074108 -0.040741 0.225232 -0.138046 0.060249 -0.023394 0.177908 0.103198 0.105183 -0.135865 0.037941 0.058798 
black -0.012635 0.295268 0.335020 -0.126711 -0.221160 -0.172452 -0.274551 -0.063052 -0.035610 -0.402334 0.272430 -0.083852 0.413836 -0.146410 0.176086 -0.037301 0.341242 -0.104184 0.165556 0.473708 
scott 0.222629 -0.023391 0.201760 -0.009755 -0.213175 -0.129408 -0.123348 0.100681 -0.021874 -0.163300 0.140720 -0.008519 0.376004 -0.060349 0.166848 0.228796 -0.089201 0.271373 -0.202004 -0.086490 
situation -0.022209 0.013136 0.253430 -0.194377 0.155633 -0.095259 -0.195155 -0.364676 0.320573 0.177447 0.272782 -0.139888 0.294246 0.121024 0.146413 -0.138254 -0.219398 0.031705 -0.063284 -0.051161 
choice 0.066636 -0.197692 0.244066 -0.169575 0.269897 -0.082352 0.002711 -0.114711 0.037826 0.025754 -0.177346 -0.108389 0.270640 -0.127849 0.068788 -0.353715 -0.314545 0.264410 0.242189 0.084425 
major -0.414369 0.235328 -0.023760 -0.115634 -0.067456 -0.388584 0.183169 0.125360 0.197443 -0.245824 -0.038355 0.109420 0.274678 -0.120761 0.107495 -0.297649 -0.175794 0.152903 -0.176578 -0.037923 
test -0.200555 -0.137154 0.187489 -0.070461 0.222092 -0.267064 -0.044027 0.005871 0.101378 -0.004327 0.188244 0.069130 0.390002 -0.168972 0.143385 -0.208885 0.052884 0.141837 0.047644 0.102106 
went -0.029531 0.128837 0.259942 -0.211707 0.126079 -0.146383 -0.069733 0.022310 0.057822 -0.077234 0.280538 0.037787 0.367866 -0.015639 0.122572 -0.081633 0.135949 0.011320 -0.111372 0.119505 
sometimes -0.059431 -0.174058 0.240142 0.018202 0.376749 -0.082658 0.036841 0.081542 0.031040 0.150901 -0.269116 -0.071484 0.381471 -0.310771 -0.022673 -0.228223 -0.188448 0.319551 -0.141221 -0.020633 
video -0.175414 -0.369399 0.304751 0.454398 0.224171 -0.264617 -0.208263 0.480443 -0.157359 0.124794 -0.179918 0.135266 0.275236 -0.638941 -0.157631 -0.431462 -0.450295 0.592091 -0.017147 0.371795 
young -0.238279 0.371700 -0.030349 -0.303799 0.417197 -0.451582 -0.074722 0.250684 0.171912 -0.051697 0.401596 0.034016 0.176686 0.467721 0.179798 -0.199346 0.191659 -0.153752 0.108478 0.280780 
simple -0.046793 -0.154750 -0.079381 0.153645 0.220758 0.249238 -0.106221 -0.108859 0.329514 0.184320 -0.174215 -0.025704 0.150965 0.045789 -0.000522 -0.315823 -0.306661 0.168307 0.003748 0.075021 
kill 0.210401 -0.029509 0.108892 -0.231411 0.268884 0.124415 -0.083935 -0.496168 0.122440 0.158321 0.243089 -0.084059 0.290329 0.049139 -0.050946 -0.321568 -0.065572 -0.067543 0.049154 -0.267769 
division -0.258632 0.513109 -0.097464 -0.001517 0.560046 -0.308673 -0.142660 0.218529 -0.153129 -0.617154 0.295683 0.012171 0.461942 0.441645 0.005648 -0.322234 0.250283 -0.255993 0.196291 0.146848 
living 0.054572 -0.215374 0.318922 -0.242554 0.331342 -0.099405 -0.043046 -0.256538 0.107744 0.062197 -0.150357 -0.101361 0.052044 0.024775 0.212959 -0.132177 -0.018806 0.090273 0.033541 -0.169551 
shipping -0.232376 0.277861 -0.076386 -0.088367 0.063086 -0.497017 -0.120575 0.755220 0.039545 -0.462566 0.032013 0.153860 0.111991 -0.355877 0.034285 -0.109132 -0.156962 0.606532 -0.635999 -0.044608 
tried 0.181841 -0.132030 0.076891 0.114677 0.232277 -0.122545 -0.020549 0.135521 -0.142953 0.097666 -0.005971 -0.049606 0.342812 -0.219078 -0.160113 -0.159756 -0.095199 0.306766 -0.218781 -0.021566 
military -0.171129 -0.232740 0.165442 -0.061750 0.135904 0.034853 -0.006399 -0.387411 0.407007 0.003969 0.056614 -0.242232 0.397751 0.181076 -0.028912 -0.579922 -0.093477 -0.046656 -0.194083 -0.101845 
looks 0.043998 -0.080144 -0.018725 -0.040127 0.087838 -0.176938 -0.003709 0.470488 0.076293 0.145024 -0.158028 0.037037 0.029240 -0.059028 0.098707 -0.057688 -0.136136 0.219841 -0.046647 0.050108 
include -0.208232 -0.021082 0.117619 -0.035240 -0.051171 -0.274915 0.054820 0.124280 0.010186 -0.223091 0.066223 -0.009475 0.322653 -0.306403 0.020465 -0.020502 -0.058826 0.431689 -0.424600 -0.164655 
words -0.020473 -0.114916 0.135871 -0.201346 0.100958 0.207845 0.067992 -0.239188 0.206419 0.095048 -0.179441 -0.030158 0.068513 0.114740 0.095008 -0.149220 -0.183688 0.111905 -0.276320 -0.195111 
size -0.164947 -0.235022 0.360503 0.390351 0.199656 -0.004041 0.071454 0.511932 -0.249768 0.001880 -0.180400 -0.030591 0.455632 -0.724957 -0.135792 0.155915 -0.005306 0.464570 -0.351004 0.297123 
mind -0.116320 -0.040876 0.202884 -0.066693 0.194454 -0.034639 -0.151166 -0.165569 -0.035806 -0.073819 0.078987 0.015105 0.110202 -0.110219 -0.008116 -0.042831 -0.019367 0.273968 -0.159392 -0.011287 
disease 0.157243 -0.010593 0.444266 -0.322132 0.110290 -0.134017 -0.158855 -0.254851 0.110393 0.083072 0.188772 -0.052522 0.052099 -0.107631 0.202441 -0.133540 0.009170 0.112833 -0.078063 0.003598 
points -0.109814 -0.003250 0.269038 -0.110289 0.248617 -0.129924 -0.301694 -0.039158 0.094394 -0.011956 0.192349 -0.016733 -0.034746 0.132027 0.348474 -0.298332 0.288592 -0.080546 -0.130765 0.125383 
third -0.235476 0.121686 -0.690087 0.021894 0.517853 -0.759614 0.134281 0.971994 0.845076 -0.522688 0.115119 0.251679 0.222390 0.795492 0.202299 -0.744867 -0.137084 -0.751269 0.728241 0.685527 
van 0.936242 -0.781981 0.826813 -0.186775 -1.575148 -0.441027 -0.632621 -0.428783 0.472009 0.299723 0.529504 0.082667 -0.005309 -0.164153 0.540501 -0.130599 -0.485014 0.016998 -0.058511 -0.007772 
political 0.247209 -0.035494 0.176334 -0.027849 -0.338452 -0.140921 -0.353298 -0.449577 0.410709 -0.165188 0.011789 -0.096681 0.092779 -0.153225 -0.103134 -0.586325 -0.133323 -0.185746 -0.199847 -0.342579 
canada -0.172806 0.276834 0.284795 -0.200805 0.313728 -0.410888 0.157297 -0.047709 0.050565 -0.350140 -0.011802 -0.149495 0.296100 -0.260704 0.215767 -0.239594 0.187578 0.083211 -0.077569 0.241908 
myself 0.054006 -0.216700 0.312560 -0.100392 0.423963 -0.083626 -0.234303 -0.096361 0.132646 0.086359 -0.171909 -0.123222 0.121950 -0.116490 -0.014487 -0.074705 -0.175352 0.207357 -0.049440 0.018989 
north -0.363132 0.285259 0.110457 0.034618 0.160149 -0.353824 0.034847 -0.023021 0.241742 -0.604042 0.338142 -0.150187 0.454510 0.249771 -0.016058 -0.373154 0.128355 -0.137855 -0.082306 0.215893 
discussion 0.087882 0.002720 0.071477 -0.236424 -0.006783 -0.126661 -0.163481 0.001986 0.211473 0.016308 0.126576 -0.088677 0.435437 -0.029597 0.236883 0.006840 -0.212465 0.215508 -0.120860 -0.102983 
population 0.155189 -0.214788 0.042034 0.221326 -0.163409 0.024072 -0.235625 -0.524855 0.496509 -0.059876 0.025773 -0.228586 0.370117 -0.158071 -0.140684 -0.924391 -0.342949 -0.154641 -0.028425 0.136465 
christian 0.054954 -0.128062 0.267249 -0.312764 -0.050083 0.143524 -0.055136 -0.526657 0.057804 0.155732 -0.010975 -0.083772 0.126026 -0.041496 0.019778 -0.132847 -0.279941 0.249556 -0.115409 -0.256014 
jewish 0.268906 -0.141512 -0.004705 -0.297695 -0.111997 0.036770 0.039010 -0.538445 0.430567 0.023461 0.269913 -0.149865 0.523639 0.096526 -0.145035 -0.347991 -0.256563 -0.016418 -0.272439 -0.317156 
advance 0.108199 -0.111425 0.293832 0.059409 0.093471 -0.302760 -0.228031 0.398036 -0.236339 -0.066721 0.000147 0.049306 0.174755 -0.179254 0.198892 0.040910 0.009847 0.630738 -0.279129 -0.000876 
pat -0.042642 0.189662 0.196663 -0.223256 0.090257 -0.046384 -0.188058 -0.266796 -0.118424 0.066844 0.206473 -0.159253 0.170040 0.091672 0.155708 0.029470 0.232381 0.035985 0.343978 0.129580 
