89 20
</s> -0.025000 0.019429 0.014158 -0.014323 0.008505 -0.018875 0.023243 -0.023288 -0.008968 0.001111 0.014669 0.007151 0.020153 -0.007397 0.004290 0.017232 0.008723 -0.000444 0.010159 0.024108 
inc -0.018423 -0.013340 -0.002235 -0.020947 -0.007809 0.023668 -0.012252 0.001189 -0.023247 0.018081 -0.006288 -0.007524 0.008445 -0.020967 0.002130 0.018813 0.000874 -0.010606 -0.005035 -0.009939 
said 0.012731 -0.009895 -0.007494 -0.005598 0.001939 -0.015814 -0.021540 -0.023705 -0.012620 -0.010968 -0.024538 0.001917 -0.011191 0.003679 -0.000802 -0.008375 -0.008945 -0.012262 -0.016723 0.003998 
first -0.002084 -0.007381 -0.002368 0.022578 0.001144 -0.007394 -0.018831 0.012674 -0.019686 0.018418 -0.001022 0.008173 -0.005629 0.013818 0.019301 -0.017756 -0.001636 -0.003035 0.020138 0.002557 
revenue 0.001612 0.000417 0.015405 0.022481 0.016478 0.005650 0.001344 0.004524 -0.005728 0.004469 0.007034 -0.008659 -0.005551 0.017259 -0.020856 0.012187 -0.008995 0.007964 -0.014528 -0.017794 
its -0.014052 0.004556 0.021584 -0.005507 -0.024252 0.005381 -0.016996 0.016145 0.002591 -0.005541 0.007325 0.018459 0.016555 -0.000335 -0.006870 0.008095 -0.020318 -0.008721 0.002418 0.000327 
google -0.022655 0.017293 0.007605 -0.011546 -0.011299 -0.018732 0.000855 -0.008527 0.004839 0.015601 0.007254 -0.002840 -0.012880 0.015902 -0.019950 -0.004858 0.018495 -0.024914 -0.006383 -0.000011 
could 0.008619 -0.004652 -0.014111 0.009484 0.007019 0.002395 -0.019635 -0.013696 0.005608 0.001493 0.014937 0.021052 -0.019025 0.007302 -0.010047 0.004062 -0.002946 0.023563 -0.011975 0.011515 
million 0.008688 0.016724 0.009027 -0.010982 0.002063 0.022516 0.016988 0.001526 0.021927 0.022188 -0.006173 -0.010843 0.011265 -0.003042 0.017155 0.002689 -0.017879 -0.019877 0.014985 -0.020713 
their 0.021735 -0.011534 0.020446 0.013843 0.020892 -0.007154 -0.006572 -0.003469 0.013602 -0.003998 -0.007116 0.022588 0.007404 -0.007384 0.020650 -0.000294 0.007602 -0.009081 -0.013208 -0.014147 
delegates -0.005825 -0.004230 -0.012494 0.014193 -0.011669 0.016905 -0.003805 -0.004821 0.000657 0.003993 -0.005525 -0.019138 -0.014939 -0.007542 0.016396 0.005725 0.022099 0.022776 0.007946 -0.016354 
have 0.000971 0.001865 0.018043 -0.003877 0.023504 0.023713 -0.008639 0.024366 -0.000666 0.012457 -0.008285 -0.004200 0.017435 -0.010923 0.023515 0.021241 0.019118 -0.007537 -0.008220 -0.005739 
according 0.016594 -0.001501 -0.001322 -0.010923 -0.012741 -0.012037 0.010418 0.023371 0.007284 0.018943 0.009537 0.016805 -0.023826 0.021095 0.015738 0.005815 0.008075 -0.016553 0.001048 -0.006168 
new -0.023271 -0.010639 0.000298 -0.015302 0.017199 -0.012424 0.003839 0.017527 0.009850 -0.008096 -0.017755 0.023127 -0.019722 0.006308 0.014894 -0.012181 -0.014804 0.024274 -0.002356 -0.011782 
companys -0.022495 -0.016057 0.005086 -0.024476 0.009578 -0.003818 0.018579 0.018221 -0.004543 -0.015336 -0.010366 -0.008167 -0.015757 0.012318 0.016954 -0.023089 -0.016580 -0.019317 0.005253 -0.016814 
monday 0.001485 -0.017314 0.015878 -0.015409 -0.002212 0.015652 0.012912 -0.009420 -0.000658 0.012156 0.008343 0.001309 -0.006952 -0.017123 -0.002564 0.006036 -0.024196 -0.022906 0.008355 0.017825 
his 0.008557 0.003583 0.012792 0.024162 0.015855 0.019896 0.016830 -0.017580 -0.001011 0.010946 0.017718 0.001798 0.013983 0.013821 0.007105 -0.007826 -0.016729 0.023048 -0.023912 -0.012729 
trump -0.024615 0.015120 -0.001888 -0.012797 -0.023896 -0.012771 0.009990 0.024880 0.010523 0.018958 -0.009265 0.015905 0.010960 -0.012402 0.009696 -0.023792 -0.019546 0.014264 0.015960 0.019668 
who -0.005829 -0.023347 0.022568 0.015986 -0.016963 0.013031 -0.005547 0.006976 0.001710 -0.021357 -0.017793 0.021495 0.008318 0.005603 0.015788 -0.016430 -0.006940 -0.013980 -0.006134 0.014558 
chief -0.021658 0.001093 0.006797 -0.018481 0.010147 0.009191 0.021545 -0.001960 -0.011020 0.010880 0.005164 0.008529 0.003992 0.018023 -0.001363 0.005490 0.002604 -0.019755 0.001608 0.023712 
company -0.003894 0.000048 -0.002873 -0.005124 0.010334 -0.002512 0.005245 0.021729 0.005200 0.018821 -0.024677 -0.012867 -0.007497 -0.009220 -0.015297 -0.003735 0.023183 -0.012332 0.023446 -0.012429 
porritt 0.009432 0.022863 0.016286 0.004986 -0.003158 -0.011879 -0.006935 0.009540 -0.011061 -0.007008 0.020916 0.022043 -0.017141 0.005396 -0.004972 0.003544 -0.012730 -0.003096 0.012260 -0.010582 
instagram 0.004449 0.012415 0.009449 -0.016156 0.004121 0.008275 0.001975 0.015770 0.010168 -0.020507 -0.005902 0.004836 -0.010395 -0.018704 0.021533 0.011519 -0.023807 -0.012849 0.014664 0.002491 
electrek 0.021618 0.002915 0.010217 0.016178 0.012416 -0.019172 -0.002338 0.002218 0.001363 -0.016863 0.000693 -0.018560 -0.016486 -0.006170 -0.001630 -0.006028 -0.023339 -0.010792 0.012755 0.011135 
presidential 0.017308 0.019537 0.024357 -0.017113 0.024577 -0.014522 -0.004915 0.003640 0.021913 -0.004160 -0.007777 -0.012651 -0.013815 -0.018335 -0.006078 -0.006718 0.019309 0.002461 -0.002339 0.000765 
credit 0.001346 0.006242 0.022721 0.024397 0.009784 -0.019316 -0.012978 -0.017039 -0.013230 -0.020179 -0.011793 0.019336 0.008568 -0.011907 0.000880 -0.006186 0.019318 0.019115 -0.004663 -0.000676 
he -0.020402 0.017102 0.017563 -0.012142 -0.011024 0.002349 -0.020846 0.022263 -0.004325 0.008735 -0.010450 -0.015191 -0.004762 -0.018698 -0.013612 -0.020670 0.020661 0.017582 -0.012789 -0.007407 
been 0.007855 -0.017272 -0.010381 -0.013500 0.012634 -0.025066 -0.003976 0.015899 0.004920 0.003369 0.016679 -0.016656 0.019178 -0.014735 0.020083 0.004161 0.002075 0.008496 0.009918 0.018279 
making -0.004429 -0.014605 0.001896 -0.019976 -0.016518 -0.016413 -0.001405 -0.017569 0.014238 0.015836 -0.018706 0.017054 0.003693 0.012697 0.024216 -0.004209 -0.016565 0.002951 -0.014498 -0.004277 
while 0.010005 0.010730 0.000755 -0.014041 -0.024801 0.005017 -0.010466 -0.023039 0.021080 0.018994 0.006784 0.005208 -0.007895 -0.021407 -0.018128 -0.019546 -0.000744 0.012855 0.007987 -0.024018 
change 0.020577 -0.019589 -0.019524 0.005808 -0.000603 -0.004143 -0.020218 -0.008430 0.009198 0.014116 -0.022656 0.006727 -0.003122 -0.001485 -0.001599 -0.008908 0.014941 0.020261 -0.005477 0.021815 
main 0.012932 -0.020747 -0.004284 0.009715 -0.021122 -0.021040 -0.014132 -0.019840 0.016195 0.006966 -0.002110 0.017198 0.009859 0.023310 0.009520 0.009129 0.021581 0.017767 -0.011370 0.023040 
ad -0.012133 -0.011406 0.003914 0.014569 -0.016874 0.009203 0.015130 -0.020267 0.001373 0.019898 -0.006163 0.008650 0.016525 -0.013069 -0.011001 0.003026 0.004027 0.012870 -0.007914 0.003384 
apps -0.022654 -0.025056 0.018802 0.009782 0.020060 -0.006410 0.001333 0.000690 -0.013351 0.019035 -0.017200 -0.005210 0.014493 -0.014962 -0.004475 0.018553 0.002369 -0.013196 -0.010065 0.025003 
than 0.011764 -0.004231 -0.003005 0.012769 0.014164 0.016983 0.008622 -0.023858 -0.017762 -0.000617 0.012803 0.018537 0.017491 0.009078 0.012129 0.001522 -0.001536 0.024795 0.009454 -0.005098 
has -0.008570 -0.023702 0.011456 0.008617 0.012365 -0.018703 0.018141 0.003167 0.019923 -0.019211 0.008331 0.008370 -0.010980 -0.020856 -0.023301 0.023637 0.012677 -0.011866 0.022734 0.004319 
republican 0.006632 0.010491 0.018463 0.006671 -0.003179 0.023667 -0.012812 0.017844 -0.012429 -0.006126 -0.024423 -0.019220 -0.011767 0.017712 -0.009803 -0.021988 -0.008384 -0.006248 0.013909 0.015318 
she 0.012675 0.021589 0.010818 -0.022183 -0.024743 -0.023704 0.010565 0.000575 0.007678 -0.005671 0.014697 -0.024789 -0.016551 -0.017259 -0.015325 -0.001218 -0.016454 -0.009946 0.019926 -0.004401 
state 0.024552 -0.013004 0.015036 0.004911 0.004239 -0.020982 -0.011817 0.008726 -0.024759 0.009379 0.003046 0.008803 0.001677 -0.018991 0.015659 -0.019493 0.000648 0.012276 -0.023917 -0.022830 
financial -0.006718 -0.016469 0.010381 -0.013969 0.000705 -0.000474 -0.006153 0.011632 0.021847 -0.018684 -0.010662 0.006688 -0.021184 0.015725 -0.011049 0.024443 -0.006083 0.024793 0.023221 0.002656 
well -0.012333 -0.009832 0.012258 -0.009750 -0.021865 0.012633 -0.021265 0.009425 -0.011077 -0.020502 -0.004344 -0.001776 0.024866 0.022485 0.011169 0.002468 0.015862 0.013513 -0.022936 -0.017300 
after 0.024154 0.019344 -0.023991 0.010102 0.002318 0.021793 -0.001933 -0.023577 0.017933 -0.017820 -0.008997 0.003580 0.012400 -0.022800 -0.004510 0.010101 0.023451 -0.003634 -0.004370 0.003611 
banks 0.011129 0.006989 0.019360 -0.019593 -0.005801 -0.012756 -0.013627 -0.015716 -0.010906 -0.000795 0.000529 -0.022988 -0.018828 -0.021553 0.014414 -0.018650 -0.025083 0.007120 -0.017161 0.023858 
more 0.012668 -0.017483 0.001249 0.013129 -0.014209 -0.007017 0.014768 0.008550 0.022622 0.010429 0.010958 -0.007430 -0.016770 0.016486 0.011115 -0.001251 -0.009931 -0.001810 0.014802 0.009067 
analysts 0.007454 0.008898 -0.001768 0.001197 -0.005822 0.013397 -0.000426 -0.007914 0.000466 -0.012916 0.017095 0.017915 -0.003692 -0.017749 0.003920 -0.022084 -0.002406 -0.019833 -0.024578 -0.014559 
york -0.021366 -0.005709 -0.021740 0.002696 0.006343 -0.000002 -0.024839 -0.021685 -0.018853 -0.005452 -0.013405 -0.006458 0.013660 0.015058 0.006647 -0.002745 0.019523 -0.015906 0.005100 0.003193 
mayer 0.006582 -0.005614 0.010671 0.004399 0.007953 0.012463 -0.011694 -0.017964 -0.004176 0.023794 -0.001750 0.008071 -0.014322 -0.013626 0.014930 0.020899 0.017177 0.018168 0.021073 0.016534 
car 0.019235 -0.000013 -0.000553 -0.008517 0.010466 0.008595 0.008234 0.021056 0.010124 0.006438 -0.006332 0.003822 -0.003304 -0.005039 -0.024986 -0.003024 -0.012482 0.000168 -0.019504 -0.010356 
internet -0.011341 -0.017464 0.008402 0.010195 0.001973 0.009173 -0.003782 -0.013748 -0.003314 0.008971 -0.022489 -0.022095 -0.023266 0.004942 0.006392 0.017894 0.011770 0.021497 0.002383 -0.009766 
apples -0.003148 0.004422 0.009072 -0.017893 -0.010984 0.012802 -0.015612 -0.005972 -0.019593 0.020427 -0.021332 0.012218 0.021440 0.007731 -0.007679 0.024895 0.016994 0.019886 -0.021353 0.023958 
most 0.013320 0.017282 -0.015018 -0.016927 0.015783 -0.023161 0.023175 0.004290 0.013297 -0.006862 -0.014891 -0.011017 -0.019674 -0.022311 -0.001415 0.002484 -0.003834 -0.010426 0.002812 0.024262 
model -0.001130 0.004498 0.020821 -0.000725 -0.006401 -0.013456 -0.018301 -0.016646 -0.020004 0.017964 0.003317 -0.002867 -0.011673 0.024315 -0.000390 -0.018791 0.010421 0.006461 -0.005829 0.004177 
quarter -0.013111 0.022770 0.018294 0.018011 0.009305 -0.013917 0.014793 -0.023683 -0.002937 0.014714 0.016576 -0.016179 -0.000898 0.015615 0.001481 0.017316 -0.004706 0.023770 -0.000929 -0.008357 
campaign -0.011255 0.002807 0.019501 0.015663 -0.009492 0.003130 0.022302 0.009556 -0.007771 -0.003556 -0.003872 -0.020410 0.014639 -0.004321 -0.009073 -0.015487 0.001315 0.002202 -0.005453 0.001079 
projection -0.007116 -0.017773 0.002182 0.002733 -0.024657 0.007520 -0.016491 0.012950 -0.010052 -0.021203 0.016876 0.019974 -0.012158 -0.023280 0.017976 0.008192 0.001170 0.016500 -0.004715 -0.020756 
her -0.016739 0.024095 -0.017994 0.011953 -0.019831 0.005837 0.005317 0.010614 0.012924 0.000027 -0.010338 0.024677 -0.014339 -0.019571 -0.018085 0.007812 -0.020448 -0.022277 0.002903 0.015364 
conditions -0.000666 -0.005353 -0.002335 -0.009814 0.000771 -0.006775 -0.022211 -0.021321 -0.007939 -0.000561 -0.016174 0.005032 -0.010778 0.024213 -0.004734 0.023705 -0.005006 -0.015240 0.021621 0.009724 
driver 0.019883 -0.017909 0.024468 -0.018233 0.013794 -0.013760 -0.007625 0.004490 -0.008462 -0.002463 -0.007124 -0.023350 -0.005969 0.018356 -0.005654 -0.002119 0.014107 0.023765 0.009951 0.004738 
jacobus 0.020460 0.003245 -0.014223 0.001427 -0.013966 -0.013315 -0.010377 0.021275 -0.022220 -0.000017 0.021706 0.009547 -0.014594 0.008554 0.017322 -0.017033 -0.011761 0.013260 0.004482 -0.014792 
business -0.021972 -0.012394 -0.002699 -0.009463 -0.022236 0.007651 0.000483 0.021485 0.003659 0.012038 0.004471 -0.000639 0.021426 0.016718 -0.022193 -0.018041 -0.009607 0.018494 -0.024443 -0.014980 
other 0.020262 -0.001361 -0.009061 0.003730 -0.021768 -0.017080 0.015788 -0.003778 -0.000595 0.021890 -0.006851 0.003826 0.013229 -0.012515 -0.001866 -0.010715 -0.016010 -0.023208 -0.011201 -0.016168 
national 0.000226 -0.001798 0.000733 0.000904 -0.016986 0.012205 0.016717 0.000298 -0.014876 -0.009994 -0.001847 0.019786 0.005828 0.010847 0.013277 0.023648 0.012831 0.000922 -0.005631 -0.010961 
trumps 0.000815 0.023055 0.019075 -0.003458 0.011188 -0.017012 0.011322 0.016563 -0.019276 -0.017690 0.006392 -0.003275 0.003793 0.004485 -0.010375 0.004898 0.006034 -0.006228 0.012290 -0.015127 
but -0.009048 -0.018698 -0.003014 -0.012058 -0.010149 -0.022618 -0.008528 0.020962 0.023717 -0.019499 0.022223 0.009430 -0.007183 -0.013873 0.023096 0.017610 0.007267 0.023483 0.003285 0.014653 
vs 0.024332 -0.015012 -0.001623 -0.006489 -0.022470 0.008100 0.015104 0.005082 0.018230 -0.020984 -0.004711 -0.014842 0.020392 -0.013612 0.025000 -0.021856 -0.008634 -0.015343 0.002715 0.018591 
process -0.000193 -0.009115 0.015363 -0.005254 -0.001075 -0.018795 0.006594 0.011272 -0.000360 0.023707 -0.022428 -0.000890 -0.015215 -0.024832 0.024980 0.021337 -0.017290 -0.013601 -0.011568 0.014445 
billion -0.011693 0.006463 -0.006742 -0.002657 -0.002142 0.022458 -0.022733 0.000967 -0.006630 -0.004591 -0.002757 -0.011378 -0.019295 -0.002609 0.012081 0.022470 -0.015782 0.004847 -0.019142 -0.020463 
parties -0.020463 -0.018664 -0.014424 -0.001205 0.000999 -0.000791 -0.022929 -0.000459 0.015246 -0.013079 0.004796 0.022356 0.014557 -0.004512 -0.007511 -0.001667 -0.002240 0.019825 -0.016919 -0.017000 
up 0.022388 0.007563 0.024956 -0.005608 -0.002676 0.006052 -0.017334 -0.016929 -0.016890 0.023158 0.012416 -0.012785 0.009908 0.021650 0.014829 -0.010888 0.001659 0.002474 -0.007285 -0.012649 
based -0.021313 0.006082 -0.017320 -0.011035 -0.017484 0.020701 0.013353 0.023806 -0.017021 0.016674 0.018209 0.022663 -0.024087 -0.023877 -0.015050 -0.001987 -0.016879 -0.020761 0.015415 0.013072 
they 0.000035 0.015154 0.006524 -0.021087 -0.010703 -0.024103 -0.021913 0.003718 -0.022114 -0.015096 -0.018449 -0.001152 0.012398 0.000675 0.005037 -0.003459 0.021288 0.013849 -0.011713 0.000853 
candidate -0.005803 -0.012617 0.005811 -0.006513 0.016687 0.004675 0.000952 -0.011338 -0.017530 -0.018532 -0.019769 -0.018635 -0.019267 -0.006177 0.002138 0.018306 -0.004550 0.013561 -0.015424 -0.005418 
yahoo -0.011146 -0.001178 -0.024970 -0.012304 0.009782 0.011094 0.021457 0.001571 -0.001595 -0.015185 0.008265 0.023072 0.019748 0.017976 -0.012415 -0.015068 -0.023441 0.010420 -0.004278 0.018400 
value 0.020691 -0.005534 -0.024956 0.008589 0.003889 -0.000171 -0.013974 0.009928 -0.005970 -0.008044 0.016669 0.017858 0.007731 0.014694 -0.014919 -0.005762 -0.016636 -0.022403 0.007408 -0.008365 
executive 0.001487 -0.014837 0.013668 0.008812 0.009058 -0.022315 -0.014772 0.008352 0.019185 0.003784 0.004064 -0.014130 -0.007705 0.005473 0.003781 0.012960 0.003253 0.019178 0.001483 0.004835 
officer -0.001778 -0.023581 0.011367 0.000697 -0.008441 -0.002918 -0.020550 -0.020128 -0.003793 -0.002987 0.007930 -0.024650 -0.005879 -0.008410 0.000688 0.015711 0.024272 -0.021418 -0.021357 0.014010 
democratic 0.022049 0.020084 -0.009041 0.011430 -0.022126 0.000959 0.009985 0.002437 -0.004388 0.004284 0.024102 0.014124 -0.014248 0.006200 0.012385 0.008637 -0.017987 0.024733 -0.001503 0.024336 
our -0.022503 -0.003788 -0.004118 0.010965 0.024234 0.013583 0.010255 0.005388 0.007675 -0.003274 -0.024079 -0.022363 -0.008432 0.007751 0.005417 0.010941 -0.008399 -0.011450 -0.006211 0.022762 
tuesday 0.013076 -0.017899 0.009125 0.022238 0.002120 -0.021732 -0.000268 0.008398 -0.009584 -0.006590 0.021074 0.023003 -0.024111 0.007219 0.024482 0.009168 -0.009544 -0.000011 -0.020057 0.016140 
round 0.013510 0.022374 0.009028 -0.001965 -0.024917 -0.002860 -0.011911 -0.000244 -0.021993 -0.005884 -0.015266 0.007069 0.020718 -0.012044 0.014923 -0.009301 -0.007284 0.009366 -0.000337 0.013852 
people 0.016238 -0.004553 -0.014650 0.022008 0.017673 0.023793 0.010526 0.003408 0.015735 0.005215 0.023379 0.003873 0.014056 -0.023529 0.002771 -0.016745 -0.016976 0.012386 -0.018444 0.009231 
vehicle -0.018732 -0.018441 0.016821 -0.008922 -0.023532 -0.001613 -0.006082 0.004444 0.019883 -0.003526 0.001154 -0.018145 -0.005327 0.024352 -0.017666 0.009402 -0.008892 0.022232 -0.014188 0.017097 
facebook -0.024207 0.019282 0.010446 -0.001978 -0.006122 -0.008547 -0.014968 -0.002934 0.020975 -0.017561 -0.011060 -0.018548 0.011499 -0.014613 -0.019649 0.021047 -0.006021 0.009485 -0.003085 0.006400 
month 0.009423 -0.020391 0.016435 0.000857 -0.000517 -0.002704 -0.013370 -0.017439 0.020061 0.008510 0.010990 0.016231 0.016578 0.007116 0.001189 -0.016712 0.007069 0.020589 -0.007344 0.013420 
now 0.018412 -0.016890 -0.020273 0.008068 0.003809 0.012164 -0.003195 0.000114 0.013502 0.024770 0.004523 0.000093 0.018890 0.003016 -0.012685 -0.024809 0.005116 -0.016439 0.024690 -0.005167 
group 0.006575 -0.021505 -0.020888 -0.004767 0.012032 -0.014713 -0.001474 0.011606 -0.016370 0.009957 0.016818 0.007801 -0.018644 -0.006252 0.003623 -0.016001 -0.023081 0.015730 0.019576 0.004259 
tesla 0.012071 -0.006554 0.013371 0.005245 0.008912 -0.016545 0.017974 -0.023210 0.003502 -0.004959 0.016719 0.000247 -0.007917 -0.018872 -0.008264 -0.015945 -0.008259 -0.010911 -0.007501 -0.003898 
video 0.011179 -0.012545 0.006493 0.024176 0.001618 -0.006345 0.023801 -0.022571 -0.023233 0.017605 0.007889 0.001465 0.022039 -0.002508 0.009111 -0.015159 -0.021307 -0.000933 -0.003223 0.015093 
reported 0.024973 -0.018245 -0.014307 -0.017480 -0.023221 0.021986 -0.002774 0.001103 0.015163 0.015976 0.011522 -0.019080 -0.006890 -0.018114 -0.021532 0.008414 0.002201 0.020543 0.015081 -0.001112 
