89 20
</s> -0.025000 0.019429 0.014158 -0.014323 0.008505 -0.018875 0.023243 -0.023288 -0.008968 0.001111 0.014669 0.007151 0.020153 -0.007397 0.004290 0.017232 0.008723 -0.000444 0.010159 0.024108 
inc -0.018423 -0.013340 -0.002235 -0.020947 -0.007809 0.023668 -0.012252 0.001189 -0.023247 0.018081 -0.006288 -0.007524 0.008445 -0.020967 0.002130 0.018813 0.000874 -0.010606 -0.005035 -0.009939 
said 0.012748 -0.009903 -0.007469 -0.005634 0.001940 -0.015837 -0.021514 -0.023603 -0.012617 -0.010919 -0.024528 0.001913 -0.011192 0.003695 -0.000792 -0.008394 -0.008970 -0.012275 -0.016779 0.003987 
first -0.002077 -0.007415 -0.002392 0.022558 0.001120 -0.007437 -0.018822 0.012635 -0.019645 0.018453 -0.001028 0.008193 -0.005640 0.013821 0.019319 -0.017745 -0.001651 -0.003038 0.020118 0.002601 
revenue 0.001695 0.000548 0.015443 0.022473 0.016503 0.005676 0.001392 0.004694 -0.005751 0.004419 0.007060 -0.008753 -0.005535 0.017206 -0.020883 0.012208 -0.008927 0.007890 -0.014439 -0.017828 
its -0.014052 0.004556 0.021584 -0.005507 -0.024252 0.005381 -0.016996 0.016145 0.002591 -0.005541 0.007325 0.018459 0.016555 -0.000335 -0.006870 0.008095 -0.020318 -0.008721 0.002418 0.000327 
google -0.022681 0.017274 0.007595 -0.011519 -0.011268 -0.018703 0.000888 -0.008516 0.004870 0.015610 0.007298 -0.002874 -0.012839 0.015895 -0.019992 -0.004926 0.018486 -0.024899 -0.006376 -0.000011 
could 0.008636 -0.004664 -0.014056 0.009425 0.007037 0.002365 -0.019569 -0.013461 0.005624 0.001583 0.015013 0.021036 -0.018977 0.007365 -0.010067 0.003973 -0.003015 0.023551 -0.012101 0.011504 
million 0.008666 0.016693 0.009042 -0.011032 0.002053 0.022513 0.016967 0.001540 0.021918 0.022184 -0.006174 -0.010864 0.011296 -0.003013 0.017173 0.002691 -0.017864 -0.019856 0.014976 -0.020676 
their 0.021735 -0.011534 0.020446 0.013843 0.020892 -0.007154 -0.006572 -0.003469 0.013602 -0.003998 -0.007116 0.022588 0.007404 -0.007384 0.020650 -0.000294 0.007602 -0.009081 -0.013208 -0.014147 
delegates -0.005825 -0.004230 -0.012494 0.014193 -0.011669 0.016905 -0.003805 -0.004821 0.000657 0.003993 -0.005525 -0.019138 -0.014939 -0.007542 0.016396 0.005725 0.022099 0.022776 0.007946 -0.016354 
have 0.000971 0.001865 0.018043 -0.003877 0.023504 0.023713 -0.008639 0.024366 -0.000666 0.012457 -0.008285 -0.004200 0.017435 -0.010923 0.023515 0.021241 0.019118 -0.007537 -0.008220 -0.005739 
according 0.016595 -0.001381 -0.001305 -0.010985 -0.012746 -0.012017 0.010445 0.023473 0.007254 0.018885 0.009493 0.016719 -0.023803 0.021022 0.015747 0.005851 0.008139 -0.016636 0.001106 -0.006197 
new -0.023271 -0.010639 0.000298 -0.015302 0.017199 -0.012424 0.003839 0.017527 0.009850 -0.008096 -0.017755 0.023127 -0.019722 0.006308 0.014894 -0.012181 -0.014804 0.024274 -0.002356 -0.011782 
companys -0.022487 -0.016060 0.005112 -0.024493 0.009617 -0.003841 0.018630 0.018340 -0.004519 -0.015296 -0.010287 -0.008189 -0.015719 0.012355 0.016911 -0.023164 -0.016641 -0.019324 0.005212 -0.016786 
monday 0.001485 -0.017314 0.015878 -0.015409 -0.002212 0.015652 0.012912 -0.009420 -0.000658 0.012156 0.008343 0.001309 -0.006952 -0.017123 -0.002564 0.006036 -0.024196 -0.022906 0.008355 0.017825 
his 0.008557 0.003583 0.012792 0.024162 0.015855 0.019896 0.016830 -0.017580 -0.001011 0.010946 0.017718 0.001798 0.013983 0.013821 0.007105 -0.007826 -0.016729 0.023048 -0.023912 -0.012729 
trump -0.024615 0.015120 -0.001888 -0.012797 -0.023896 -0.012771 0.009990 0.024880 0.010523 0.018958 -0.009265 0.015905 0.010960 -0.012402 0.009696 -0.023792 -0.019546 0.014264 0.015960 0.019668 
who -0.005829 -0.023347 0.022568 0.015986 -0.016963 0.013031 -0.005547 0.006976 0.001710 -0.021357 -0.017793 0.021495 0.008318 0.005603 0.015788 -0.016430 -0.006940 -0.013980 -0.006134 0.014558 
chief -0.021658 0.001084 0.006796 -0.018467 0.010155 0.009164 0.021533 -0.001950 -0.011040 0.010882 0.005173 0.008498 0.003985 0.018028 -0.001393 0.005477 0.002631 -0.019709 0.001622 0.023755 
company -0.003916 0.000105 -0.002889 -0.005093 0.010384 -0.002418 0.005247 0.021779 0.005168 0.018740 -0.024709 -0.012935 -0.007462 -0.009290 -0.015276 -0.003699 0.023259 -0.012350 0.023526 -0.012465 
porritt 0.009381 0.022799 0.016282 0.004998 -0.003146 -0.011891 -0.006931 0.009522 -0.011041 -0.006977 0.020926 0.022067 -0.017156 0.005406 -0.004965 0.003503 -0.012751 -0.003074 0.012246 -0.010565 
instagram 0.004449 0.012415 0.009449 -0.016156 0.004121 0.008275 0.001975 0.015770 0.010168 -0.020507 -0.005902 0.004836 -0.010395 -0.018704 0.021533 0.011519 -0.023807 -0.012849 0.014664 0.002491 
electrek 0.021574 0.002869 0.010211 0.016198 0.012445 -0.019169 -0.002358 0.002214 0.001367 -0.016864 0.000671 -0.018580 -0.016485 -0.006222 -0.001603 -0.006023 -0.023346 -0.010770 0.012762 0.011166 
presidential 0.017308 0.019537 0.024357 -0.017113 0.024577 -0.014522 -0.004915 0.003640 0.021913 -0.004160 -0.007777 -0.012651 -0.013815 -0.018335 -0.006078 -0.006718 0.019309 0.002461 -0.002339 0.000765 
credit 0.001346 0.006242 0.022721 0.024397 0.009784 -0.019316 -0.012978 -0.017039 -0.013230 -0.020179 -0.011793 0.019336 0.008568 -0.011907 0.000880 -0.006186 0.019318 0.019115 -0.004663 -0.000676 
he -0.020402 0.017102 0.017563 -0.012142 -0.011024 0.002349 -0.020846 0.022263 -0.004325 0.008735 -0.010450 -0.015191 -0.004762 -0.018698 -0.013612 -0.020670 0.020661 0.017582 -0.012789 -0.007407 
been 0.007849 -0.017293 -0.010384 -0.013490 0.012648 -0.025086 -0.003996 0.015899 0.004899 0.003357 0.016680 -0.016670 0.019177 -0.014728 0.020065 0.004169 0.002096 0.008539 0.009913 0.018300 
making -0.004421 -0.014611 0.001938 -0.020037 -0.016509 -0.016434 -0.001350 -0.017379 0.014254 0.015910 -0.018651 0.017031 0.003738 0.012750 0.024199 -0.004291 -0.016618 0.002941 -0.014601 -0.004292 
while 0.010007 0.010723 0.000756 -0.014050 -0.024810 0.005013 -0.010471 -0.023035 0.021084 0.019001 0.006780 0.005203 -0.007889 -0.021398 -0.018128 -0.019549 -0.000740 0.012859 0.007992 -0.024008 
change 0.020578 -0.019562 -0.019518 0.005810 -0.000617 -0.004161 -0.020205 -0.008406 0.009205 0.014147 -0.022657 0.006684 -0.003136 -0.001481 -0.001624 -0.008942 0.014952 0.020269 -0.005430 0.021860 
main 0.012913 -0.020741 -0.004250 0.009639 -0.021133 -0.021046 -0.014124 -0.019701 0.016177 0.007016 -0.002098 0.017185 0.009905 0.023366 0.009535 0.009092 0.021553 0.017781 -0.011470 0.023040 
ad -0.012117 -0.011411 0.003960 0.014581 -0.016833 0.009188 0.015185 -0.020135 0.001401 0.019928 -0.006068 0.008627 0.016564 -0.013026 -0.011068 0.002926 0.003983 0.012864 -0.007953 0.003387 
apps -0.022671 -0.025053 0.018825 0.009719 0.020043 -0.006413 0.001335 0.000788 -0.013367 0.019078 -0.017205 -0.005217 0.014521 -0.014923 -0.004455 0.018538 0.002334 -0.013182 -0.010145 0.024993 
than 0.011760 -0.004236 -0.003006 0.012768 0.014167 0.016983 0.008618 -0.023861 -0.017762 -0.000622 0.012801 0.018538 0.017491 0.009077 0.012129 0.001525 -0.001537 0.024800 0.009449 -0.005102 
has -0.008529 -0.023732 0.011443 0.008595 0.012339 -0.018765 0.018154 0.003153 0.019967 -0.019172 0.008327 0.008382 -0.010996 -0.020855 -0.023277 0.023650 0.012672 -0.011888 0.022728 0.004371 
republican 0.006632 0.010491 0.018463 0.006671 -0.003179 0.023667 -0.012812 0.017844 -0.012429 -0.006126 -0.024423 -0.019220 -0.011767 0.017712 -0.009803 -0.021988 -0.008384 -0.006248 0.013909 0.015318 
she 0.012659 0.021609 0.010849 -0.022251 -0.024764 -0.023714 0.010558 0.000667 0.007656 -0.005646 0.014689 -0.024799 -0.016524 -0.017214 -0.015323 -0.001241 -0.016474 -0.009940 0.019869 -0.004415 
state 0.024552 -0.013004 0.015036 0.004911 0.004239 -0.020982 -0.011817 0.008726 -0.024759 0.009379 0.003046 0.008803 0.001677 -0.018991 0.015659 -0.019493 0.000648 0.012276 -0.023917 -0.022830 
financial -0.006708 -0.016475 0.010386 -0.013961 0.000707 -0.000492 -0.006156 0.011636 0.021845 -0.018670 -0.010659 0.006663 -0.021179 0.015741 -0.011055 0.024438 -0.006061 0.024819 0.023237 0.002686 
well -0.012398 -0.009740 0.012229 -0.009711 -0.021800 0.012737 -0.021251 0.009522 -0.011139 -0.020629 -0.004357 -0.001908 0.024899 0.022407 0.011136 0.002461 0.015981 0.013516 -0.022806 -0.017324 
after 0.024117 0.019226 -0.023943 0.010063 0.002231 0.021628 -0.001956 -0.023792 0.017968 -0.017727 -0.009030 0.003706 0.012338 -0.022742 -0.004515 0.010090 0.023362 -0.003598 -0.004492 0.003723 
banks 0.011140 0.006997 0.019364 -0.019586 -0.005807 -0.012768 -0.013626 -0.015710 -0.010903 -0.000775 0.000537 -0.023012 -0.018828 -0.021549 0.014401 -0.018669 -0.025068 0.007138 -0.017140 0.023886 
more 0.012668 -0.017483 0.001249 0.013129 -0.014209 -0.007017 0.014768 0.008550 0.022622 0.010429 0.010958 -0.007430 -0.016770 0.016486 0.011115 -0.001251 -0.009931 -0.001810 0.014802 0.009067 
analysts 0.007453 0.008877 -0.001760 0.001166 -0.005830 0.013389 -0.000441 -0.007906 0.000471 -0.012911 0.017088 0.017901 -0.003684 -0.017734 0.003927 -0.022088 -0.002399 -0.019812 -0.024574 -0.014523 
york -0.021366 -0.005709 -0.021740 0.002696 0.006343 -0.000002 -0.024839 -0.021685 -0.018853 -0.005452 -0.013405 -0.006458 0.013660 0.015058 0.006647 -0.002745 0.019523 -0.015906 0.005100 0.003193 
mayer 0.006582 -0.005614 0.010671 0.004399 0.007953 0.012463 -0.011694 -0.017964 -0.004176 0.023794 -0.001750 0.008071 -0.014322 -0.013626 0.014930 0.020899 0.017177 0.018168 0.021073 0.016534 
car 0.019235 -0.000013 -0.000553 -0.008517 0.010466 0.008595 0.008234 0.021056 0.010124 0.006438 -0.006332 0.003822 -0.003304 -0.005039 -0.024986 -0.003024 -0.012482 0.000168 -0.019504 -0.010356 
internet -0.011391 -0.017601 0.008375 0.010161 0.001895 0.009079 -0.003799 -0.013911 -0.003254 0.009070 -0.022516 -0.021979 -0.023311 0.005020 0.006439 0.017868 0.011704 0.021540 0.002292 -0.009697 
apples -0.003191 0.004416 0.009062 -0.017885 -0.010962 0.012831 -0.015614 -0.005956 -0.019600 0.020409 -0.021324 0.012194 0.021452 0.007714 -0.007675 0.024871 0.017002 0.019897 -0.021326 0.023951 
most 0.013302 0.017367 -0.015032 -0.016929 0.015803 -0.023083 0.023177 0.004335 0.013266 -0.006934 -0.014883 -0.011082 -0.019626 -0.022341 -0.001429 0.002485 -0.003781 -0.010443 0.002877 0.024220 
model -0.001105 0.004498 0.020842 -0.000710 -0.006387 -0.013477 -0.018287 -0.016600 -0.019999 0.017974 0.003350 -0.002855 -0.011686 0.024333 -0.000403 -0.018802 0.010404 0.006448 -0.005837 0.004181 
quarter -0.013111 0.022770 0.018294 0.018011 0.009305 -0.013917 0.014793 -0.023683 -0.002937 0.014714 0.016576 -0.016179 -0.000898 0.015615 0.001481 0.017316 -0.004706 0.023770 -0.000929 -0.008357 
campaign -0.011255 0.002807 0.019501 0.015663 -0.009492 0.003130 0.022302 0.009556 -0.007771 -0.003556 -0.003872 -0.020410 0.014639 -0.004321 -0.009073 -0.015487 0.001315 0.002202 -0.005453 0.001079 
projection -0.007120 -0.017778 0.002180 0.002732 -0.024654 0.007521 -0.016494 0.012949 -0.010050 -0.021206 0.016875 0.019971 -0.012159 -0.023284 0.017973 0.008191 0.001169 0.016509 -0.004719 -0.020759 
her -0.016745 0.024090 -0.017988 0.011936 -0.019827 0.005828 0.005322 0.010617 0.012927 0.000027 -0.010333 0.024670 -0.014341 -0.019569 -0.018084 0.007819 -0.020458 -0.022278 0.002915 0.015377 
conditions -0.000661 -0.005358 -0.002335 -0.009805 0.000771 -0.006787 -0.022217 -0.021320 -0.007939 -0.000556 -0.016168 0.005017 -0.010776 0.024218 -0.004742 0.023695 -0.004989 -0.015217 0.021626 0.009748 
driver 0.019883 -0.017909 0.024468 -0.018233 0.013794 -0.013760 -0.007625 0.004490 -0.008462 -0.002463 -0.007124 -0.023350 -0.005969 0.018356 -0.005654 -0.002119 0.014107 0.023765 0.009951 0.004738 
jacobus 0.020460 0.003245 -0.014223 0.001427 -0.013966 -0.013315 -0.010377 0.021275 -0.022220 -0.000017 0.021706 0.009547 -0.014594 0.008554 0.017322 -0.017033 -0.011761 0.013260 0.004482 -0.014792 
business -0.021972 -0.012394 -0.002699 -0.009463 -0.022236 0.007651 0.000483 0.021485 0.003659 0.012038 0.004471 -0.000639 0.021426 0.016718 -0.022193 -0.018041 -0.009607 0.018494 -0.024443 -0.014980 
other 0.020265 -0.001367 -0.009061 0.003736 -0.021765 -0.017088 0.015782 -0.003778 -0.000592 0.021894 -0.006849 0.003810 0.013231 -0.012512 -0.001874 -0.010722 -0.015997 -0.023183 -0.011199 -0.016151 
national 0.000226 -0.001798 0.000733 0.000904 -0.016986 0.012205 0.016717 0.000298 -0.014876 -0.009994 -0.001847 0.019786 0.005828 0.010847 0.013277 0.023648 0.012831 0.000922 -0.005631 -0.010961 
trumps 0.000815 0.023055 0.019075 -0.003458 0.011188 -0.017012 0.011322 0.016563 -0.019276 -0.017690 0.006392 -0.003275 0.003793 0.004485 -0.010375 0.004898 0.006034 -0.006228 0.012290 -0.015127 
but -0.009048 -0.018698 -0.003014 -0.012058 -0.010149 -0.022618 -0.008528 0.020962 0.023717 -0.019499 0.022223 0.009430 -0.007183 -0.013873 0.023096 0.017610 0.007267 0.023483 0.003285 0.014653 
vs 0.024332 -0.015012 -0.001623 -0.006489 -0.022470 0.008100 0.015104 0.005082 0.018230 -0.020984 -0.004711 -0.014842 0.020392 -0.013612 0.025000 -0.021856 -0.008634 -0.015343 0.002715 0.018591 
process -0.000268 -0.009083 0.015376 -0.005279 -0.001081 -0.018760 0.006629 0.011263 -0.000376 0.023688 -0.022428 -0.000899 -0.015192 -0.024851 0.024947 0.021328 -0.017276 -0.013583 -0.011585 0.014411 
billion -0.011693 0.006463 -0.006742 -0.002657 -0.002142 0.022458 -0.022733 0.000967 -0.006630 -0.004591 -0.002757 -0.011378 -0.019295 -0.002609 0.012081 0.022470 -0.015782 0.004847 -0.019142 -0.020463 
parties -0.020472 -0.018684 -0.014446 -0.001186 0.001021 -0.000755 -0.022945 -0.000491 0.015271 -0.013070 0.004806 0.022363 0.014545 -0.004508 -0.007542 -0.001700 -0.002254 0.019863 -0.016933 -0.016975 
up 0.022388 0.007563 0.024956 -0.005608 -0.002676 0.006052 -0.017334 -0.016929 -0.016890 0.023158 0.012416 -0.012785 0.009908 0.021650 0.014829 -0.010888 0.001659 0.002474 -0.007285 -0.012649 
based -0.021313 0.006082 -0.017320 -0.011035 -0.017484 0.020701 0.013353 0.023806 -0.017021 0.016674 0.018209 0.022663 -0.024087 -0.023877 -0.015050 -0.001987 -0.016879 -0.020761 0.015415 0.013072 
they 0.000035 0.015154 0.006524 -0.021087 -0.010703 -0.024103 -0.021913 0.003718 -0.022114 -0.015096 -0.018449 -0.001152 0.012398 0.000675 0.005037 -0.003459 0.021288 0.013849 -0.011713 0.000853 
candidate -0.005805 -0.012645 0.005785 -0.006486 0.016713 0.004715 0.000943 -0.011369 -0.017500 -0.018521 -0.019755 -0.018626 -0.019287 -0.006178 0.002104 0.018278 -0.004562 0.013606 -0.015438 -0.005396 
yahoo -0.011146 -0.001178 -0.024970 -0.012304 0.009782 0.011094 0.021457 0.001571 -0.001595 -0.015185 0.008265 0.023072 0.019748 0.017976 -0.012415 -0.015068 -0.023441 0.010420 -0.004278 0.018400 
value 0.020691 -0.005534 -0.024956 0.008589 0.003889 -0.000171 -0.013974 0.009928 -0.005970 -0.008044 0.016669 0.017858 0.007731 0.014694 -0.014919 -0.005762 -0.016636 -0.022403 0.007408 -0.008365 
executive 0.001487 -0.014837 0.013668 0.008812 0.009058 -0.022315 -0.014772 0.008352 0.019185 0.003784 0.004064 -0.014130 -0.007705 0.005473 0.003781 0.012960 0.003253 0.019178 0.001483 0.004835 
officer -0.001778 -0.023581 0.011367 0.000697 -0.008441 -0.002918 -0.020550 -0.020128 -0.003793 -0.002987 0.007930 -0.024650 -0.005879 -0.008410 0.000688 0.015711 0.024272 -0.021418 -0.021357 0.014010 
democratic 0.022049 0.020084 -0.009041 0.011430 -0.022126 0.000959 0.009985 0.002437 -0.004388 0.004284 0.024102 0.014124 -0.014248 0.006200 0.012385 0.008637 -0.017987 0.024733 -0.001503 0.024336 
our -0.022499 -0.003783 -0.004116 0.010966 0.024231 0.013582 0.010258 0.005391 0.007680 -0.003266 -0.024076 -0.022371 -0.008433 0.007749 0.005414 0.010932 -0.008398 -0.011449 -0.006204 0.022768 
tuesday 0.013076 -0.017899 0.009125 0.022238 0.002120 -0.021732 -0.000268 0.008398 -0.009584 -0.006590 0.021074 0.023003 -0.024111 0.007219 0.024482 0.009168 -0.009544 -0.000011 -0.020057 0.016140 
round 0.013510 0.022374 0.009028 -0.001965 -0.024917 -0.002860 -0.011911 -0.000244 -0.021993 -0.005884 -0.015266 0.007069 0.020718 -0.012044 0.014923 -0.009301 -0.007284 0.009366 -0.000337 0.013852 
people 0.016311 -0.004447 -0.014698 0.022017 0.017708 0.023882 0.010593 0.003589 0.015756 0.005192 0.023415 0.003756 0.014103 -0.023591 0.002783 -0.016753 -0.016890 0.012328 -0.018319 0.009200 
vehicle -0.018732 -0.018441 0.016821 -0.008922 -0.023532 -0.001613 -0.006082 0.004444 0.019883 -0.003526 0.001154 -0.018145 -0.005327 0.024352 -0.017666 0.009402 -0.008892 0.022232 -0.014188 0.017097 
facebook -0.024207 0.019282 0.010446 -0.001978 -0.006122 -0.008547 -0.014968 -0.002934 0.020975 -0.017561 -0.011060 -0.018548 0.011499 -0.014613 -0.019649 0.021047 -0.006021 0.009485 -0.003085 0.006400 
month 0.009423 -0.020391 0.016435 0.000857 -0.000517 -0.002704 -0.013370 -0.017439 0.020061 0.008510 0.010990 0.016231 0.016578 0.007116 0.001189 -0.016712 0.007069 0.020589 -0.007344 0.013420 
now 0.018412 -0.016890 -0.020273 0.008068 0.003809 0.012164 -0.003195 0.000114 0.013502 0.024770 0.004523 0.000093 0.018890 0.003016 -0.012685 -0.024809 0.005116 -0.016439 0.024690 -0.005167 
group 0.006556 -0.021512 -0.020873 -0.004785 0.012004 -0.014732 -0.001457 0.011597 -0.016360 0.009980 0.016807 0.007802 -0.018643 -0.006239 0.003618 -0.016017 -0.023069 0.015723 0.019570 0.004263 
tesla 0.012030 -0.006590 0.013378 0.005233 0.008911 -0.016554 0.017955 -0.023217 0.003491 -0.004969 0.016695 0.000223 -0.007911 -0.018882 -0.008239 -0.015942 -0.008258 -0.010891 -0.007491 -0.003882 
video 0.011179 -0.012545 0.006493 0.024175 0.001618 -0.006345 0.023800 -0.022570 -0.023229 0.017608 0.007890 0.001458 0.022038 -0.002511 0.009107 -0.015166 -0.021307 -0.000927 -0.003222 0.015096 
reported 0.024973 -0.018245 -0.014307 -0.017480 -0.023221 0.021986 -0.002774 0.001103 0.015163 0.015976 0.011522 -0.019080 -0.006890 -0.018114 -0.021532 0.008414 0.002201 0.020543 0.015081 -0.001112 
